<?xml version="1.0"?>
<opencv_storage>
<opencv_ml_ann_mlp>
  <format>3</format>
  <layer_sizes>
    159 79 26 6 1</layer_sizes>
  <activation_function>SIGMOID_SYM</activation_function>
  <f_param1>1.</f_param1>
  <f_param2>1.</f_param2>
  <min_val>-9.4999999999999996e-01</min_val>
  <max_val>9.4999999999999996e-01</max_val>
  <min_val1>-9.7999999999999998e-01</min_val1>
  <max_val1>9.7999999999999998e-01</max_val1>
  <training_params>
    <train_method>BACKPROP</train_method>
    <dw_scale>1.0000000000000001e-01</dw_scale>
    <moment_scale>1.0000000000000001e-01</moment_scale>
    <term_criteria>
      <epsilon>1.0000000000000000e-02</epsilon>
      <iterations>5000</iterations></term_criteria></training_params>
  <input_scale>
    7.2717466550270231e+01 -3.2020704613703415e+00
    7.8234197254204901e+01 -3.4558255450617903e+00
    8.6603739612399892e+01 -3.7293075391814505e+00
    7.2974033944486777e+01 -3.1720822200518013e+00
    7.8201546476862333e+01 -3.4139558880907179e+00
    8.6804578298469437e+01 -3.7000690890878527e+00
    8.5412825527460726e+01 -3.7083824450243585e+00
    9.1181778452523986e+01 -3.9290312663363949e+00
    9.8096512363126934e+01 -4.1584581515500769e+00
    8.7316451714627476e+01 -3.7308074862677971e+00
    9.2279952323451326e+01 -3.9187175692082183e+00
    9.9147257214738573e+01 -4.1504797907066475e+00
    1.0265237079722792e+02 -4.3750262276681644e+00
    1.0814666512917327e+02 -4.5472908362763711e+00
    1.1234978433787097e+02 -4.6973208629380041e+00
    1.0461129289002731e+02 -4.3936073367859185e+00
    1.0931142934507631e+02 -4.5295694323161859e+00
    1.1260061891753963e+02 -4.6474939674898712e+00
    1.1679534970213729e+02 -4.9264482082077778e+00
    1.2537856148226184e+02 -5.2292120985215531e+00
    1.2773967144204290e+02 -5.3355033106142562e+00
    1.2136768770520334e+02 -5.0546841798429476e+00
    1.2736744101427580e+02 -5.2369233342480195e+00
    1.2903685436039856e+02 -5.3196552278579983e+00
    1.3134867630712154e+02 -5.5029921635005810e+00
    1.4354957275992803e+02 -5.9853837351517969e+00
    1.4328498527279370e+02 -6.0069523290616536e+00
    1.3721424448392938e+02 -5.6868982660848593e+00
    1.4636827447001536e+02 -6.0255783178249347e+00
    1.4456543496399749e+02 -5.9906888358971662e+00
    1.4128816801839130e+02 -5.8735615189606261e+00
    1.5277102629289573e+02 -6.3538936305642064e+00
    1.5342165953089486e+02 -6.4279783654673679e+00
    1.4986199815131224e+02 -6.1731085843870046e+00
    1.5876576098326484e+02 -6.5270075498307110e+00
    1.5758725722680833e+02 -6.5341723454805338e+00
    1.4762189732831374e+02 -6.1014620194609481e+00
    1.6046864603406038e+02 -6.6581204884291294e+00
    1.6377235704496715e+02 -6.8499501851588116e+00
    1.5529122959702840e+02 -6.3676618216432530e+00
    1.6818962216303649e+02 -6.9099146443613826e+00
    1.6868741625961803e+02 -6.9909980635091067e+00
    1.5026534087500758e+02 -6.1877323920686536e+00
    1.6675312352346154e+02 -6.9097649925290092e+00
    1.7487613074383515e+02 -7.2989517419779650e+00
    1.5727495930962993e+02 -6.4486142735594871e+00
    1.7438383734250920e+02 -7.1881217744034815e+00
    1.7894705717819565e+02 -7.4272171132611087e+00
    1.4981546612439712e+02 -6.1565491775520060e+00
    1.6769451249891469e+02 -6.9384834834492679e+00
    1.7977057426666357e+02 -7.4797940805114704e+00
    1.5402321203183197e+02 -6.3158965305880193e+00
    1.7077806424873575e+02 -7.0562765287623810e+00
    1.8268421690927653e+02 -7.5863958609196773e+00
    1.5076843795143020e+02 -6.1720297445929759e+00
    1.6795997559386367e+02 -6.9202866381586992e+00
    1.8222671129418387e+02 -7.5465101588663908e+00
    1.5351924842296066e+02 -6.2910464351553070e+00
    1.6803167215912620e+02 -6.9384829505516379e+00
    1.8346406261479123e+02 -7.6076498624162134e+00
    1.5237521311030616e+02 -6.2246063644087153e+00
    1.6759826991027109e+02 -6.8915015264386286e+00
    1.8197552076800537e+02 -7.5159219145770759e+00
    1.5304807431615063e+02 -6.2673700821292915e+00
    1.6541405735394895e+02 -6.8266369795232773e+00
    1.8399461469085023e+02 -7.6191717289598060e+00
    1.5005630804174447e+02 -6.1182033973988936e+00
    1.6386728067175019e+02 -6.7270152439568909e+00
    1.8124336108768222e+02 -7.4708410019432367e+00
    1.4634514910743454e+02 -5.9925368230952634e+00
    1.5730728851092999e+02 -6.4980362629974726e+00
    1.8007100023815048e+02 -7.4580242454122274e+00
    1.5120551887969421e+02 -6.1564999061544246e+00
    1.6306257365923258e+02 -6.6867708008356255e+00
    1.7764015921958230e+02 -7.3181232440027415e+00
    1.4320075639747154e+02 -5.8681725493955872e+00
    1.5380734887175629e+02 -6.3560599963495710e+00
    1.7833268510495239e+02 -7.3885487618573933e+00
    1.5527161986303295e+02 -6.3259300076698155e+00
    1.6829370861784025e+02 -6.9052464987183733e+00
    1.7891034058461645e+02 -7.3769358964590976e+00
    1.4774201791131841e+02 -6.0511911196581103e+00
    1.5989269140592955e+02 -6.5981724304986376e+00
    1.7766587324988814e+02 -7.3591913641691509e+00
    1.5471784825982533e+02 -6.3082511554147249e+00
    1.7065155297649429e+02 -7.0084697406517265e+00
    1.8020216818998023e+02 -7.4415366684944919e+00
    1.5159111207268074e+02 -6.2155475345955393e+00
    1.6413579571718137e+02 -6.7790857043813713e+00
    1.7917227016896135e+02 -7.4372207738488303e+00
    1.5221768865019220e+02 -6.2257694299475235e+00
    1.7002599106499977e+02 -7.0052234863971696e+00
    1.7827992103441423e+02 -7.3894268483819934e+00
    1.5950386982046302e+02 -6.5423695453736785e+00
    1.7110386423025969e+02 -7.0626852219570999e+00
    1.8225550383391831e+02 -7.5723184255891853e+00
    1.5269602039214431e+02 -6.2498203173423530e+00
    1.6912788208753844e+02 -6.9676056366286732e+00
    1.7264726522831745e+02 -7.1687427797089409e+00
    1.6227268017326446e+02 -6.6543918733879455e+00
    1.7284882280122187e+02 -7.1150067111558215e+00
    1.7524371845646110e+02 -7.2739191131784446e+00
    1.4920476153361611e+02 -6.1334517766392391e+00
    1.6216487782879653e+02 -6.6886136880302400e+00
    1.6303350423103339e+02 -6.7842885700447342e+00
    1.5840533958423597e+02 -6.5109280829726739e+00
    1.6745316967110332e+02 -6.8886437015508735e+00
    1.6520546890848104e+02 -6.8602116445229742e+00
    1.4471784337759246e+02 -5.9792146523120877e+00
    1.5402067142087100e+02 -6.3622675449755643e+00
    1.5370115743485192e+02 -6.4001634469329662e+00
    1.4773485025708118e+02 -6.1075732865783365e+00
    1.5791381090960078e+02 -6.5174467301479986e+00
    1.5478304928030630e+02 -6.4385807060717202e+00
    1.3090628282717941e+02 -5.4442434212900110e+00
    1.3919386243842024e+02 -5.7593720952440348e+00
    1.3874907070751564e+02 -5.7703438794409010e+00
    1.3061818933850196e+02 -5.4453002541467850e+00
    1.4271948336006074e+02 -5.9128359841553779e+00
    1.4148050315063733e+02 -5.8895081392675745e+00
    1.1497742749383855e+02 -4.8056316922823692e+00
    1.2182706115762095e+02 -5.0311441396833327e+00
    1.2462927308770927e+02 -5.1528589232950965e+00
    1.1704940620224252e+02 -4.9308463726228737e+00
    1.2483549480191512e+02 -5.1936370915856092e+00
    1.2613396279278336e+02 -5.2490718229708682e+00
    9.9508017597395323e+01 -4.1967361816658553e+00
    1.0294704670460780e+02 -4.2788386457394569e+00
    1.0834028896750321e+02 -4.4749507355633842e+00
    1.0226630910080227e+02 -4.3646172642230656e+00
    1.0643973175792046e+02 -4.4834342530338809e+00
    1.0984026437932222e+02 -4.5951083823183785e+00
    8.2945768503296136e+01 -3.5491899464246748e+00
    8.7592560908666727e+01 -3.7134292442461767e+00
    9.4993243326398300e+01 -3.9576450417170310e+00
    8.4838152942925774e+01 -3.6870619730750795e+00
    9.0413827235366810e+01 -3.9060011565122839e+00
    9.6291284797786190e+01 -4.0892824578891549e+00
    6.9592508151869481e+01 -3.0121422868682375e+00
    7.4252277610088584e+01 -3.2171645627214298e+00
    8.1771709377461008e+01 -3.4501666675958109e+00
    7.0517884975273532e+01 -3.1217022081360413e+00
    7.6185824975172395e+01 -3.3867228872217701e+00
    8.3305599804622247e+01 -3.6034323999048485e+00
    2.4117646482529107e+01 -8.0439184624521687e+00
    4.0212921081639863e+01 -1.3330156940098259e+01
    2.0148460019490777e+01 -6.7493768583136893e+00
    2.2496810544790872e+01 -7.5061944094681676e+00
    3.7213137278774745e+01 -1.2336954735874071e+01
    1.8721352860489990e+01 -6.2683315211992907e+00
    2.3356633752540038e+01 -7.7821021924210321e+00
    3.7852272554374785e+01 -1.2563653449219490e+01
    1.9249376757859586e+01 -6.4466405108655991e+00
    2.2715427504937395e+01 -7.5659283460635205e+00
    3.7588370801883364e+01 -1.2469285339766175e+01
    1.8804855933200333e+01 -6.3032565982044995e+00
    2.2903821680195630e+01 -7.6485363301546867e+00
    3.7976059955270564e+01 -1.2594527713764442e+01
    1.9210466860204832e+01 -6.4242612520752216e+00</input_scale>
  <output_scale>
    1.0526315789473684e+00 0.</output_scale>
  <inv_output_scale>
    9.4999999999999996e-01 0.</inv_output_scale>
  <weights>
    <_>
      2.5218179882733692e-02 -4.3838442585502034e-02
      6.0952712645720893e-02 -3.7545885235718821e-02
      -2.9915389340828744e-02 5.6910691115435938e-02
      -1.9908450093263839e-02 -2.8718728045857689e-01
      8.7228738040792841e-02 -2.7609144996667051e-01
      5.3171658254844073e-02 -4.1281134985994297e-02
      -3.8793686669499935e-02 4.1445230617918154e-02
      6.2965965924193512e-02 2.7662817949766644e-01
      4.5903558701337978e-02 5.9918028254446087e-02
      2.5785633089809086e-02 1.2362310151079695e-02
      3.9009334331005514e-02 3.4740185720152840e-02
      -2.5394138844328215e-02 1.2295396359026484e-02
      1.7293955043276180e-01 2.6989429718569550e-02
      3.8437911032228531e-02 9.0156008256507672e-02
      9.4940830782077983e-03 3.7568501969182195e-03
      1.5436658115499107e-02 2.8121907923889640e-02
      -2.3881010173573490e-02 -1.1182009745081248e-02
      -2.8190385135765861e-01 1.0539817764924660e-01
      -6.3015403051391791e-02 -8.3457883395477439e-02
      -8.4126360448253334e-02 2.2042913076401206e-03
      -1.3603096442528001e-02 -1.3700101287006255e-02
      -3.7389462733061603e-02 -1.0667678885821492e-02
      4.1608175912871852e-02 2.4536260954507304e-02
      5.5884447324144160e-02 -9.0691164779757832e-02
      7.1383178568314262e-02 -1.1660342423259740e-02
      5.6949610270024827e-02 6.1457984093007557e-03
      8.6602834564032463e-03 -5.6456572583334551e-02
      3.8531720564557968e-03 1.8620184427606094e-03
      -1.1855093976759070e-02 -8.1942871396107841e-02
      4.2431634902316474e-02 -1.0202187624648072e-01
      1.1345713380595092e-02 4.0089244373086093e-02
      -1.0718660413885514e-02 4.3436964911040994e-02
      -1.7543469755728883e-03 -7.6694938343234917e-02
      -5.7677769118991543e-02 1.0903947849805382e-01
      1.0072876487149107e-02 2.1118197352780001e-02
      2.5836821166715263e-02 1.0315943986397901e-01
      -1.2688093383234719e-02 -7.8623585698331389e-04
      -7.6782692566891964e-02 -1.5537723350794270e-02
      -7.7924252974987526e-03 -2.4862665479530963e-02
      -3.4513909788513333e-02 2.5462509046592651e-02
      -2.6270500396784673e-02 8.2048011177468204e-03
      -4.6135714095233080e-02 -2.1529539259928184e-03
      6.3238783518988498e-02 -1.8827543300757546e-02
      -8.3762421968469614e-02 7.1857887262688561e-02
      -1.1718956020869878e-01 6.1080773044063397e-02
      -6.7622433114217173e-02 -3.1928571559372426e-02
      3.3719085896610781e-02 7.2586822134736356e-02
      2.1921581906631224e-01 2.1820145074165118e-02
      6.4766208635346351e-02 1.0084854181994996e-02
      3.0164549709426622e-03 3.7354549069693883e-02
      2.0431163367602659e-02 -1.2231433471138262e-02
      2.1954781824467260e-03 1.6668540797265227e-01
      2.2966358872229857e-02 5.4559034571792286e-02
      5.3915486952205417e-02 -8.5176907345567050e-03
      -4.6534121953155979e-03 4.0024867182467547e-02
      1.6142557491120031e-03 1.7023093560459082e-04
      -1.8508429521728747e-02 -2.1072000491622411e-01
      9.0432949838761101e-02 -6.7867629498624751e-02
      -6.8990213369877498e-02 -6.4331360992509606e-02
      -9.1265148814548003e-03 -2.9376601589172855e-02
      -1.7609828277014419e-02 -2.2211767432617470e-02
      -1.6730197699253872e-02 8.9672092168232131e-02
      9.0902720010251990e-03 4.2836254729139482e-02
      -8.8953211341564406e-02 4.8257761187244036e-02
      -5.7670797312214814e-03 5.5790815363892722e-02
      -4.2100930169676942e-04 5.0471153767965796e-03
      -6.0796825425608950e-02 1.0858992612076221e-02
      5.1811495556470652e-03 -3.0783008969142878e-02
      -7.7328235843329207e-02 2.6966735802242788e-02
      -1.0278655176605407e-01 2.3796347267703605e-02
      2.5233483144632293e-02 -7.9399038865059016e-03
      2.8458944210144124e-02 -1.8964048664682064e-02
      -7.3897646541196224e-02 -3.5117311283803909e-02
      5.8318711054151331e-02 1.4000001677424073e-02
      -6.3395856610626916e-03 -7.7412345407972642e-03
      9.0322993906347571e-02 -2.2980780325375330e-02
      2.8686374104493782e-02 -7.3210640791450898e-02
      -1.4842832051738412e-02 -1.1380808249445930e-02
      1.5263935920538461e-04 -3.4992779971564934e-02
      -3.8408878415095764e-02 -3.2534705229184162e-02
      -8.9323996254921822e-02 9.0691495595460626e-03
      -1.5315754698697363e-02 -2.5464834211383867e-02
      -1.5885919177516614e-02 1.5234026837180475e-01
      -3.2871194069447112e-03 2.8117218849143516e-01
      -6.4871808128819930e-03 4.6589354199847083e-02
      4.7885925994347774e-02 -5.6516659019848765e-02
      -5.5987775796177891e-02 7.7711368572454032e-02
      -3.1535125007687084e-02 -3.2576585315091562e-02
      -7.7584620651918804e-02 -3.6361663422888192e-02
      -6.7100394846057046e-03 1.8900230266261024e-02
      4.6281653182636773e-02 -2.7521379368555917e-02
      1.5377714739490470e-02 -4.4471176882801833e-02
      -1.3236806303755920e-02 -6.3597146790644404e-02
      -3.7786748038066066e-02 4.8185965137760431e-03
      -4.0886372513735052e-02 -4.2952904226569423e-02
      2.6671043717150136e-02 -2.7668304040970766e-02
      -7.0997633778232788e-02 -2.5699301574807924e-02
      3.2411791640885375e-02 1.8386676964590402e-02
      3.9461459804836264e-02 2.8192820113471011e-02
      5.6086890635275728e-02 4.3204883714493540e-02
      -3.2977632957022899e-03 -2.0992669420366181e-02
      -2.2823164615731074e-02 -2.8391279787198302e-02
      -4.6485276566196748e-02 3.4115285669296461e-02
      -9.6413396856467742e-03 -2.0570115297483701e-02
      -2.0570310329717807e-02 -4.3951665171695770e-02
      4.5326626138711091e-03 4.5868929420737233e-02
      7.3281645542984178e-02 3.9617079644954332e-02
      8.4990856413872003e-03 1.8996089810964629e-03
      1.1429661425540491e-02 8.4492654817261131e-03
      1.2009390651598770e-02 -4.1931003263270011e-02
      2.9230212834834270e-02 -8.6512267371688392e-02
      6.3866148186181429e-02 1.0242567985812761e-02
      -3.9128690350277349e-02 -7.4275142207827813e-02
      -3.6959890527959789e-02 -4.2769793049775240e-02
      -1.8864035874942908e-02 -3.9524686062423209e-03
      5.5256728720901288e-02 -5.9297182397686596e-02
      2.1249209114568249e-02 6.0238494283251343e-02
      5.9614486377237159e-02 3.3752510133199250e-02
      2.9909007202831663e-02 4.2817382023354937e-02
      -2.9398677901558708e-02 3.5747209863521140e-01
      -9.6221358360618431e-02 8.2545171274040052e-03
      1.2308884496009971e-01 -2.7929007705313692e-02
      -1.8687633109074425e-01 6.8155250681200638e-02
      -7.1614606583306661e-01 7.4983552372176424e-02
      -2.0266992903452533e-01 -1.4270013725374756e-01
      1.0293536853668758e-01 1.3006993751750462e-01
      1.7777392571812856e-01 8.8635685774117345e-02
      1.6449855554576437e-01 1.8338003339689016e-01
      5.4820729222666877e-02 1.4905889664537292e-01
      2.1905915923084350e-02 -7.9634868467161127e-02
      8.3603419509992102e-02 2.1789840045033407e-01
      1.5550512293355029e-01 1.1632937536408189e-01
      1.5846013666081923e-01 5.8712923606843735e-02
      -2.7327513881599450e-03 1.7372525553626611e-01
      8.8657825373894356e-02 -6.3687393344693560e-02
      3.7362226727485889e-02 -1.5362127903923817e-01
      1.3146109985993798e-01 -1.1514640615251200e-01
      -9.2278702175486907e-02 -1.1575083478873842e-01
      -8.0224911443931152e-02 -1.4210793713594863e-01
      -1.1852019625013160e-01 -5.3817838219409504e-02
      1.2187435698287801e-02 1.4332725275512789e-01
      5.2479123412235373e-02 1.2974924159645176e-01
      -9.7745723559111250e-02 7.5232874842000336e-02
      -1.7682832869168257e-02 7.3578461845950127e-02
      4.3322182326733530e-02 3.1771789357760098e-03
      -1.4033004724386217e-01 -1.5710982407790772e-01
      -8.6451439316220079e-03 -3.5665238521955668e-02
      -9.4966970268352782e-02 2.5646779695229376e-02
      -1.4804655256232838e-01 2.7229976371032742e-02
      1.4477370810252158e-01 -1.1014068779118978e-01
      2.1187664498919601e-01 -1.5123544056085236e-01
      -9.0222611957123125e-02 -3.5855245892992028e-02
      1.7299569034360335e-01 8.5618313347150060e-02
      4.8086618573950531e-02 5.4252400475751618e-02
      3.1489629507261141e-01 -1.6847612713287854e-01
      1.6493052057551283e-01 -7.8507093606438857e-02
      -1.4870414425608594e-01 -1.5541692797388723e-01
      -6.2508881551294596e-02 -1.5426472759801632e-01
      2.1472896222457193e-02 -2.0270896542776553e-02
      1.0701413724791495e-01 -5.9118201926441849e-02
      1.2022607742764193e-02 2.1283147045845933e-02
      1.5357542175976093e-03 6.1483521832164510e-02
      1.3931992622509423e-02 -4.3391441928068181e-01
      9.0751225016690827e-03 -1.1124458901032551e-01
      -2.9926787221858240e-02 6.7946452190215346e-03
      4.7647645453640503e-03 1.2510352295957955e-01
      1.7511284950258721e-02 6.5752471501469983e-02
      7.7003105390343357e-02 7.0081127211643309e-03
      4.8279509428196865e-02 1.0975854766923634e-02
      -3.2218588583859932e-02 2.0453131892626084e-02
      7.4413975515238456e-02 1.4721203263018054e-02
      5.2417602971852169e-02 8.4509229218389294e-03
      1.5238352567482304e-02 -6.0565673190702751e-03
      1.1574515597620237e-01 4.8965167312070030e-03
      -1.7940722608327034e-02 1.0837516669675721e-02
      -9.4669630682329364e-02 -2.5234334948526943e-03
      -4.0243403197679474e-02 -4.3295065563308107e-03
      -2.1655513096254093e-02 -1.1555667587198684e-02
      -1.4421328257087244e-02 -3.6255146277622788e-02
      -1.7160352590972122e-02 -8.3681946865720169e-03
      3.9527472389850909e-02 1.7744640896727816e-02
      2.8165447137483316e-02 2.4494297630448668e-03
      2.8061105147954468e-02 -1.4454597836478168e-02
      2.4161393554717834e-02 1.6081084295191711e-03
      -1.0691474254357375e-02 -3.7670085081032541e-02
      -4.7118226830172173e-02 1.8040261021202878e-02
      -1.1813708670949989e-02 -2.9428100849086435e-02
      -2.1336460995664288e-03 -5.2638946220978693e-02
      -7.3860106555173506e-03 2.5135540771882840e-02
      -2.2198278943908301e-02 5.9746954521385100e-02
      -5.4625347483180570e-02 -1.2138399601291183e-02
      -2.5290798324495638e-02 5.7959889858730934e-02
      1.8993142449522101e-02 4.0732258692157252e-03
      2.3992357107033839e-02 2.0686455606625023e-01
      -1.0094656882773663e-01 6.6901681239389041e-02
      -6.5294464705206333e-03 -4.9084913754255506e-02
      -2.7278318237722577e-02 -3.2517705448904762e-02
      -8.0711070689308509e-02 -3.1877412921842173e-02
      -1.1890853656868252e-02 -2.8923476934537239e-02
      -1.4940073712975788e-02 1.1231472855577781e-03
      -6.3005879675629539e-02 -4.3893703547749317e-03
      2.3824211536746737e-01 -2.3603705571637133e-02
      -5.8923575217613294e-02 -4.6339289502175460e-03
      -4.7249116688916119e-02 7.1473842051883773e-03
      -5.1911685131769199e-02 -9.3476485682685281e-02
      -3.7261921642546367e-02 -2.9833201308097277e-02
      -1.0499177644983065e-02 -7.4738755348462554e-03
      -9.9110930051707399e-03 1.4754115283085626e-02
      6.6784430081556437e-03 2.6445871783000816e-03
      -5.9555025265474520e-03 -2.6903467669155069e-03
      -4.4352464733095433e-02 2.8769860926057430e-02
      -7.8479634038259166e-02 -3.0130323159944548e-02
      1.0361018434466322e-02 6.2327595731503066e-02
      -2.3586526253812513e-02 5.5561745926990926e-03
      1.4768720612479769e-02 3.0821210817139892e-02
      -6.8432875965967102e-02 1.0469254566325730e-02
      3.6095841915015928e-02 5.0637059322542644e-02
      5.7428362187168852e-03 3.7957634132800289e-02
      -5.4495823622480949e-03 3.5172751572797134e-03
      -1.7803077860993988e-02 -4.8171033206264639e-02
      -3.8068829602539451e-03 9.0060215303515976e-04
      9.4761137156993983e-02 -2.5718813003166663e-03
      -2.7542303097425672e-02 -1.2294344843531398e-02
      -2.1534305883336328e-02 6.6929323538778120e-03
      2.9129682317437219e-02 1.7238066439069794e-02
      1.0359075045199062e-02 7.9245539234473420e-03
      4.3681875871475991e-02 -2.3544480280759356e-02
      6.4900333444960724e-03 -6.3288574087239412e-03
      -4.0368157284403086e-02 2.9527752165526004e-03
      -6.7625713146649046e-03 -2.0084490352613588e-03
      4.3065406250256726e-02 5.9616094576374250e-03
      -8.2039731683305459e-02 -2.8451675236243926e-02
      -1.3205286282006569e-02 5.8686248456109650e-04
      1.0338711551129044e-01 -6.3661738316412378e-02
      1.8339244120857270e-02 4.1934580822168346e-02
      -4.0952313817375838e-03 3.9000139561875806e-02
      1.0354690652809315e-02 -3.7714306522841946e-02
      2.5984966734372561e-02 -2.7530552963013009e-02
      4.2807096137717784e-02 -1.8975081238819358e-02
      -9.1951365212763828e-03 4.3292521991885789e-02
      -2.3226522383491620e-02 -1.3440012617557762e-01
      6.8729509567325889e-02 -1.1969245883866517e-01
      3.4724348207179401e-02 -1.1568281827702051e-02
      -1.0264663531669545e-02 1.5437645875729327e-02
      7.0494932252404593e-02 2.1684706626607506e-01
      4.9688825471484122e-02 3.0231419023619522e-02
      -1.9502546375031942e-02 1.9532813777610337e-03
      1.8683525579393595e-02 4.5163053849065930e-02
      -9.1160126947118110e-04 -6.2208624395178316e-03
      1.2641194271149900e-01 1.1649308331310242e-02
      1.4421953434133375e-02 4.3325519653159131e-02
      -1.2072531594694043e-02 -4.9697661997796230e-03
      5.7530172646489269e-03 5.2501363059911663e-03
      -6.0833929748604822e-03 -6.2374497431227265e-03
      -2.5917752513737219e-01 7.2486382714558081e-02
      -2.6139928674899289e-02 -6.5305700426315338e-02
      -6.1870749047350820e-02 5.9286314082331298e-03
      1.4743699699093093e-02 3.5631728506864977e-03
      -3.2528676889791573e-02 -8.3138389897293493e-03
      1.4518231458630484e-02 -3.2550516083819305e-03
      2.8306713895990085e-02 -7.4319613803615431e-02
      5.2445680923451386e-02 -1.5627873450846964e-02
      5.3684556009413339e-02 -9.4345052721218903e-04
      4.1933273246383641e-03 -3.2553707184850532e-02
      1.8992660546083569e-02 1.2432180129016134e-02
      -1.1137095295567100e-02 -5.2785606698506626e-02
      5.1257712806471303e-02 -6.2662032824431252e-02
      3.4259653957138564e-02 2.2460790667545652e-02
      7.0226464503831602e-04 9.1536715646935059e-03
      1.9843016565364115e-02 -6.7716908081713573e-02
      -4.7474717115424815e-02 1.1808886527187893e-02
      1.1183452484498613e-02 1.2155016316722139e-02
      -1.2216889406022783e-02 2.4601394687223419e-02
      1.6094123764837882e-02 -1.8874097323163783e-02
      -6.1283362205928553e-02 -1.8495965741514735e-02
      2.3101038811826180e-02 2.3762621640795184e-04
      1.7522695225691613e-02 -1.1400023459656102e-02
      -1.7960306554001763e-02 -6.1489784896352699e-02
      -8.8452289969982324e-03 -2.8447794879327720e-02
      -9.9083939406428480e-03 -1.2223121002129427e-02
      1.4980959403028407e-01 3.9030410846560074e-02
      5.0135134955213705e-02 1.8668365471943688e-02
      4.3692705483159358e-02 2.0516728525540699e-02
      -4.4454869732436571e-02 2.6171085054353914e-03
      1.4856993827603235e-01 -1.6005661658313530e-02
      -1.2399382030514416e-02 -4.5132573185339871e-02
      -4.2238890234600694e-02 -4.4036311691247896e-03
      4.8602380123687131e-02 3.8347855460572074e-02
      -4.2434992312733830e-02 3.1044603834281047e-02
      -3.1145783797560660e-02 6.4325278158825806e-04
      -3.9059465662318812e-02 -3.2248651007653471e-02
      -3.8218551565679174e-03 -2.2258586865792448e-02
      -3.2296046505643272e-02 4.4515932936007328e-02
      -2.9190677646074872e-02 -1.4885439952420215e-01
      -2.5281790551437084e-03 1.3605703250703972e-02
      -2.2354563197319641e-02 -6.0911426508170850e-03
      2.5160856600573892e-02 4.5799813767959732e-02
      2.7119406056062105e-02 -2.4920015479605682e-03
      -4.3253307593889713e-02 -1.3752346824936909e-02
      -3.1980971984842753e-02 -3.5614240694313716e-02
      -2.6969990820457303e-03 -2.7164163548604372e-03
      -6.1147118292227999e-03 9.4677416498482956e-04
      -4.0802001110381701e-02 1.5188523857611397e-02
      1.0718633505189576e-02 6.7821989880419348e-02
      2.9969254114674548e-02 -1.6268805304287953e-02
      -5.3781320287389798e-03 2.6570012024571592e-02
      1.5633430622185841e-02 2.8698392140921465e-02
      -2.5776440621788965e-02 3.9120763559100102e-02
      -6.1661097540425001e-02 4.0950758952233518e-02
      -3.0672368427298313e-02 -4.2221938928842843e-02
      -5.3105181951710712e-02 -2.3987778685374519e-02
      -3.0011535316597698e-02 -1.7377193058839367e-02
      -7.6040934148654024e-02 2.6659742834114358e-02
      -5.2399982735030708e-02 -2.0348193781733435e-02
      3.8196200685438220e-02 5.3941865418204338e-02
      3.2567830651218939e-02 3.3763303715612182e-02
      -4.6470226323426060e-02 -1.8440259505031795e-02
      -1.1710349619388287e-01 1.9434470000578429e-03
      2.6606437174450577e-03 -5.4234295591460868e-02
      -1.4207474751017163e-02 2.9342982535391537e-01
      -1.0687579294317951e-02 3.5202783361687867e-01
      -1.5201599205347477e-02 9.4625924138780335e-02
      5.5493079038953064e-02 -7.7042220919872950e-02
      -6.5902729286863526e-02 5.8578810723418279e-02
      -3.2305464761656875e-02 -6.0817388575029788e-02
      -8.7712791302055088e-02 -5.0964577841493629e-02
      -3.3416291613449563e-02 2.6668131114216766e-02
      4.5684115681256958e-02 -5.5263290085381167e-02
      -4.2764192237658753e-02 -6.2357244472491274e-02
      -4.5709131889003198e-02 -1.1608049191363057e-01
      -4.7613413586350364e-02 6.1694427674397886e-03
      -6.4374796299861953e-02 -6.2568587812995041e-02
      6.0991762003204872e-02 -2.8835994123156912e-02
      -4.3336247614404702e-02 -5.3767592672305790e-02
      3.6016931190058325e-02 8.3340248782459228e-03
      3.3970095573290823e-02 4.3262985266846535e-02
      7.8250692686640103e-02 4.8824243281437057e-02
      -5.3302218784578920e-05 -5.4419716539756670e-02
      -7.7428091415879030e-02 -3.6388065769179558e-02
      -8.1594926713889029e-02 3.9932292693471962e-02
      -1.7739075129679087e-02 -3.3268560129068710e-02
      -1.9255183854853357e-02 -5.5830968031165690e-02
      -4.6034561425325668e-04 6.5265871687275281e-02
      9.7990039596333206e-02 4.2607661593909142e-02
      -4.1962997661171104e-03 2.7010700765618689e-02
      2.2314660381308200e-02 5.9727854448489999e-02
      2.5145520972697982e-02 -5.9607888546568587e-02
      7.0486573791098989e-02 -9.6111604656212685e-02
      9.0550534867008176e-02 1.9423369350722215e-02
      -3.6873079856582371e-02 -1.3221392785181321e-01
      -4.0026955043826730e-02 -5.0804462102574395e-02
      -3.2384846036531523e-02 -9.4171777366685805e-02
      5.8558938830289675e-02 -7.5947316184004271e-02
      3.8919333822875241e-02 8.2021717883370940e-02
      6.5256187261611392e-02 4.3483508183586567e-02
      5.0077446322182716e-02 2.3472863403293600e-02
      -3.3813088377616540e-02 2.8527567418210087e-01
      -5.1950398101177041e-02 1.0369230675316473e-02
      5.4667123006687704e-02 2.0460348954878141e-03
      -1.2261108089365089e-01 2.3398640401295266e-02
      -4.8913893867033476e-01 4.5776119268570212e-02
      -1.1676278884956162e-01 -8.8458980947571514e-02
      5.7218558757565915e-02 6.5143393349180567e-02
      1.0915395530275394e-01 4.7489458292656772e-02
      7.0972778190335456e-02 1.0847833665470930e-01
      5.5709918738648161e-02 8.5962068835460634e-02
      3.8027256770920355e-03 -4.5561780231005322e-02
      5.1737567640659884e-02 9.5520283168475426e-02
      6.7956953248306584e-02 4.8493477960720233e-02
      9.6754477219203411e-02 3.0924949388277889e-02
      6.2532534374879680e-03 1.0344076710832181e-01
      3.9711822057788761e-02 -4.1729450104792357e-02
      3.2477000501125224e-02 -9.1875623859808270e-02
      7.2853365930747732e-02 -4.1654248810468919e-02
      -4.2922698502525655e-02 -7.0390357377041551e-02
      -6.1391170787411506e-02 -1.0733835071842557e-01
      -6.4744164647707117e-02 -1.6997043633523980e-02
      -3.1035543339728122e-03 3.2761818435784157e-02
      1.8464992621212289e-02 5.7750607351471861e-02
      -5.8870927843663330e-02 3.7096485729720692e-02
      -1.0364261700352822e-02 2.7646781045978633e-02
      1.5873099737186921e-02 -5.5785385923047687e-03
      -5.5509322696222461e-02 -8.6234248446765346e-02
      1.6453740467246326e-03 -1.9949173775195329e-02
      -3.4995272042650044e-02 -1.1409365254799552e-02
      -4.4005926753372983e-02 7.8684017086585682e-03
      7.2477979348901059e-02 -4.2039369343720934e-02
      7.6572615204960101e-02 -6.3299986121000490e-02
      -3.4120542860920401e-02 -1.3089170402173746e-02
      9.7179557937343397e-02 5.0070476251907865e-02
      2.4425939766182982e-02 4.5534144667590426e-02
      2.1408575968979343e-01 -1.0040556193914435e-01
      7.9433692336693007e-02 -4.9250434677096978e-02
      -9.7747633279477344e-02 -8.5555461748603331e-02
      -3.8167711034331260e-02 -8.2255397323121288e-02
      -2.8307025438831773e-03 -2.1133116929636788e-02
      2.6672680461455572e-02 2.1406809192627504e-03
      2.0046835422885458e-02 -5.1312182421458331e-02
      2.2876240271094070e-02 1.8104171738408964e-01
      -4.9550005039191998e-02 -2.8110968203110848e-01
      -3.0947437984285595e-02 -7.9189511643948714e-03
      3.4542019782220365e-02 -4.6040252783651668e-02
      -6.2661976706081632e-02 5.0918607785816708e-02
      -3.4956364986128904e-02 -3.3314024394008504e-02
      -2.4770703927769679e-02 4.2569000188684859e-03
      -1.6045681728327321e-02 -2.3863356524710024e-03
      1.0324771096202784e-02 -3.7641998196605152e-02
      -4.5121863155298786e-02 -5.3713984542937535e-02
      1.8536204016892000e-03 -7.3179030233623432e-02
      -2.8136038639142918e-02 1.1440372519478294e-02
      3.2817669767591291e-03 -3.6689922492442198e-02
      1.5657755755540740e-02 9.8033823444218671e-03
      -2.2120884105419219e-02 -3.7817093147138901e-02
      3.7264587591194477e-02 2.6803512140523535e-02
      2.9403049231085682e-02 3.6822650620763231e-02
      3.5268541057552831e-02 1.7457959989261904e-02
      1.5824966137881365e-02 -1.0180147165941485e-02
      -6.5100014908410359e-02 4.5647267011978262e-03
      -5.4170355301125961e-02 8.1256752485004941e-02
      -2.6441133568141883e-02 -3.1051304304813322e-02
      -1.6213473814816349e-02 -2.8210130251453632e-02
      1.8676549687188255e-02 2.9719810887153739e-02
      5.0831412762958932e-02 1.1973198211381469e-02
      1.1985730593414373e-02 4.5467948120552118e-02
      -3.0045597148028239e-02 6.7414789231076244e-02
      -1.2911403653791148e-02 -4.5933024807650699e-02
      2.4667426762324890e-02 -8.1376246292391957e-02
      3.4925642724388715e-02 3.8469255804241397e-02
      -1.3609162297359568e-03 -3.5661623299923770e-02
      -4.1321843577621163e-02 -1.1843128112717496e-02
      2.9375303000453147e-04 7.2082645219464697e-02
      -1.1050893636678412e-02 -2.1723149420782354e-02
      3.2213090375568729e-02 3.9993785704317206e-03
      4.0144406694802889e-02 1.5418459834810279e-02
      -6.0997314656848862e-03 -3.5061024631963339e-02
      -2.2201940091563866e-04 -3.7608560182087407e-02
      -2.2537496104408642e-02 2.4559584943941358e-02
      -6.8357111874203402e-02 1.5219083512457916e-02
      2.4255516284900508e-01 -1.6121630939664219e-02
      -7.0500400183105202e-02 -1.9710726786311122e-02
      -4.4376977165110860e-02 2.0061771153296295e-02
      -3.9901574012375714e-02 -9.7462021986622155e-02
      -2.7083518658528847e-02 -2.7410986740969898e-02
      -9.5927876858781132e-03 -2.5298169597626739e-02
      -4.7289218686723915e-03 -5.0385918903660780e-03
      -1.1696124676863940e-02 6.5979827371982058e-03
      -6.0212176007668839e-03 -5.9585438215387851e-02
      -3.8885271720097460e-02 2.4962521184840051e-02
      -8.8878486009387858e-02 -2.8324044151641518e-02
      1.0664837644463767e-02 3.4249124812061313e-02
      -3.4754245891688511e-02 2.1026864104659111e-02
      2.3149919562722547e-02 4.8570914192312103e-02
      -4.3426601420250274e-02 3.8710566689986306e-02
      2.7149741719026087e-02 3.8296085493919933e-02
      1.0264516900705798e-02 2.9416882640059511e-02
      -6.9632976672782676e-03 -8.1842477583959315e-03
      -2.6109243301686350e-02 -7.0363758667367257e-02
      2.3128386370193502e-03 -2.7870186658808704e-02
      9.0433442595696745e-02 -9.2419814826374576e-03
      -8.3825784769370835e-03 -1.3462843791700971e-02
      -2.1490641072247050e-02 4.3150693064686729e-03
      1.9389289097638325e-02 1.6023662325671612e-02
      2.3200738496228990e-02 3.7984390696393549e-03
      3.8132530676393786e-02 -1.1569973792127366e-02
      4.5736704306121242e-02 1.5411187502365369e-03
      -4.3445205931886298e-02 1.7931339736452910e-02
      -4.1617016326962568e-02 7.3558601034817532e-03
      3.3641546347955319e-02 1.1823135337607350e-02
      -6.8606988005219263e-02 -3.0660906721458242e-02
      -2.4549343102048590e-02 3.0758584074024112e-03
      6.2609727502926552e-02 -3.7502088962171755e-02
      -2.7677202697069759e-03 1.7522060099303408e-02
      1.5737567365304319e-02 3.3947604996987658e-02
      -1.2071942524631585e-02 -2.8729170189372231e-02
      1.1244680817808503e-02 -3.5849213556668390e-02
      1.5944915804764797e-02 -3.0088574369519984e-02
      -2.7080822952433258e-02 3.8712434182122279e-02
      -3.1847361633684131e-02 -1.6066043816453524e-01
      5.2184292418538537e-02 -2.2845266681352821e-02
      5.1021623046588520e-02 -3.6992450595939329e-02
      -3.5763985127222495e-02 3.6189531586034066e-02
      4.0879096719956265e-02 1.5565526630994034e-01
      7.2215402702041590e-02 3.2680206108530209e-02
      -1.5265687653367296e-02 1.4111111943811760e-02
      3.4280997452599417e-02 5.3238503410690849e-02
      1.7384262589203536e-03 5.3453996349266128e-03
      9.9973816166284590e-02 2.7448815104897217e-02
      3.4923991430810458e-02 7.8752501178618248e-02
      -6.2478966323404651e-04 2.3396501991953048e-03
      2.9482974268717497e-03 3.6192058407852751e-03
      -9.3854776860036095e-03 -7.8831459976735994e-03
      -1.6148632322908665e-01 8.6425229844227333e-02
      -4.6461900841198930e-02 -7.8714972514266332e-02
      -4.5882453069413534e-02 -1.5904666740123700e-02
      -6.1166656923544735e-03 -1.6049101153283025e-02
      -4.0947402445696245e-02 -2.6962671213519286e-02
      1.0304516479846390e-02 1.1247575952762053e-02
      4.4001947083443183e-02 -6.0862362943210652e-02
      6.5526429257159277e-02 -1.7302398056841875e-02
      4.5284013296624806e-02 8.8746923229951241e-04
      -5.7210044810135060e-03 -2.7489104414189034e-02
      1.0669763010530877e-02 5.3771091329021396e-05
      -2.2169888357324859e-02 -5.7175414317369257e-02
      3.6567761801045102e-02 -5.3580654223112999e-02
      3.3068654080939432e-02 1.8118894862606729e-02
      -1.4554680957351560e-03 2.0788042765851330e-02
      1.0207167580900326e-02 -4.5271193623581077e-02
      -4.7662562732442217e-02 1.5124251322094776e-02
      1.4546936307180880e-02 -7.4431773034976112e-04
      6.2590545199918872e-03 -8.6402995336334026e-02
      -1.3180028167504926e-02 -9.2766126103571559e-04
      -5.3119096798357211e-02 -1.1346697178429822e-02
      -5.4154868770080597e-03 -4.3906801727323650e-03
      1.9347743110718807e-03 -2.1448647009796699e-03
      -4.6643677406472545e-02 -7.7366598839980941e-02
      -2.7379849182407198e-02 -2.9977955988892906e-02
      -1.4713293545376130e-02 -3.8326024177772297e-02
      4.8654336977594331e-02 2.9223185447365394e-03
      1.3306350152423044e-01 4.5483135012786254e-03
      1.8900163967212526e-02 6.0858838086208450e-03
      -2.6781362909472233e-02 -1.2389017124087003e-02
      1.3217144868400518e-01 2.9163013155006461e-02
      -3.0655014438017252e-02 -5.3012777916882990e-02
      -1.2255412672641235e-02 4.5994911581330282e-02
      3.3156120521572081e-02 1.8193790977008850e-02
      -1.5281239605528980e-03 -4.0771265958077928e-04
      -1.7183013966311163e-02 5.8386186064065225e-03
      8.8177076213361287e-04 -2.0481935385967143e-02
      -7.4511866079963081e-03 -4.7154103527881158e-02
      -1.8485141642857427e-02 2.8491537846321653e-03
      -1.4821650604655485e-03 -8.1811861217426035e-02
      2.4574055061583656e-02 5.2456694144270323e-03
      -3.2315428935698970e-02 7.1855916078763669e-04
      -6.1600416861054916e-03 4.2021692029990268e-03
      -7.4919971615743189e-05 -3.3726742834214056e-02
      -4.7318105951734024e-02 -4.0893577014802944e-02
      1.5998735360169911e-04 -2.1022928428426874e-02
      1.5505877503816240e-02 3.4584534603045350e-02
      -1.3502815956638360e-02 9.0762372051222881e-03
      -1.3242325175860891e-02 -1.1984468218562314e-03
      2.6869859723619167e-02 5.3342738017831702e-02
      2.3622615324759552e-02 -1.1647654386088608e-02
      4.2950401411016824e-03 3.4511440105106338e-02
      3.6313958831783323e-02 3.3265997125190287e-02
      -2.0037444280519637e-02 1.9154252742425774e-02
      -5.1013485638755178e-02 2.2820839862937158e-02
      4.7690793397536157e-03 -5.8359730545261085e-02
      -1.8257983761809468e-02 1.1857962659588307e-02
      -2.8826663886607890e-02 -1.3414304884038034e-02
      -1.7866519739655462e-01 2.6744363265555054e-02
      -1.6751002924473433e-02 -1.0291523974331173e-02
      3.4366878121625838e-02 2.1382541402832338e-03
      1.4435033445807368e-02 2.5610333079825465e-02
      -2.0941742575341332e-03 -3.4021106470957352e-02
      -2.7755654224730843e-02 -5.3061168476640427e-02
      -4.9659626325605658e-04 1.6667197773891671e-02
      -4.1756398775989065e-02 7.1761666155494314e-02
      1.9706863158516864e-02 2.6310808064505287e-01
      2.7976376001505317e-02 -3.1869312124367438e-04
      -3.2197940790579443e-02 2.6857242291027502e-03
      -9.6697011292183664e-04 8.7391850756744771e-02
      4.9370865179253084e-02 7.6776730869671603e-03
      -3.7291409084711106e-03 -1.4494595834079608e-02
      7.2546432168942854e-02 2.6763595141472071e-02
      6.6717501142141084e-03 4.7461223453551332e-02
      2.9672898391907582e-02 3.8102681599193500e-02
      1.9391767056575509e-02 1.4318223283521289e-02
      7.9461563068194147e-03 -4.4137822253077948e-03
      5.5263516813821949e-04 9.1826616106998413e-03
      5.5615311531661696e-03 5.6831767622433299e-03
      -4.3511882215145653e-02 7.1549585803692292e-02
      -2.1281223815576244e-02 -7.7058539984990945e-02
      -8.5384284457091456e-03 -2.2515391419874697e-02
      -3.3861364680805105e-02 -3.7726232550712717e-02
      -4.0721882096077328e-02 -4.8576088126757004e-02
      1.0067493560030984e-02 -6.3170469498715163e-03
      1.2937240894429077e-02 -1.7081388729068486e-02
      7.3528496397801998e-02 -2.3783574474212747e-02
      2.5190040072691738e-02 -1.9170081818550455e-02
      -1.9207520905236083e-03 -2.3567896810218945e-03
      4.0225369578725479e-03 2.5728480824946165e-02
      -2.8627789393031677e-02 -3.5275642927951510e-02
      4.1633898093405571e-02 -6.0408081915554745e-03
      3.6933812940944374e-02 3.2283081092548231e-02
      -2.8945672159058921e-02 8.0627583299034567e-03
      -5.2182949864195321e-03 -2.5788817957634436e-02
      -4.8134490560677319e-02 1.8352798372509405e-02
      2.6020822690175169e-02 -1.8150505926228900e-02
      -5.6833553259067401e-03 -5.4449418696410221e-02
      -2.6888768450365461e-02 2.2972028305921183e-02
      -2.8642413184573286e-02 -3.5573178124575010e-03
      -1.9274925870784127e-02 -4.7410055261112366e-03
      -2.6614484515807533e-02 -4.2152017979786099e-02
      -1.2057813446983374e-02 1.2994345853529216e-01
      -4.1676639325240591e-03 1.6508600042463989e-02
      -5.6758160772321979e-02 3.1534475001409226e-02
      4.4913223906888705e-02 -6.4351839867549873e-02
      -8.8347258392727196e-02 -3.2138981604589237e-02
      -3.5990930673124345e-03 1.6821141355812481e-02
      -1.3766337277303356e-02 -3.1488726452007704e-02
      -2.8055993862166218e-03 -2.9730388681205887e-02
      -3.3442859850191561e-02 -1.2067588278118041e-02
      1.9666500511609081e-02 -1.1305735678925595e-02
      -2.2147403707857747e-03 -5.2096075579410560e-03
      -1.6626414847399594e-02 -2.0173871624317639e-02
      -3.9649486813853503e-02 -2.4709213326145285e-02
      -1.8556391581426142e-02 -2.6177009101996451e-02
      1.3881335390163398e-02 7.8169551790339426e-03
      -3.1351569378924533e-02 1.7314338144637627e-02
      1.9005115814132039e-02 3.0334465157552556e-02
      -3.6579520145665213e-02 3.7180379926809101e-02
      5.4036902560432212e-02 2.5702742762245580e-02
      1.2755892559116628e-02 1.1231880245062558e-02
      2.6064767899614118e-03 2.8523638917086862e-02
      -2.0722195779128157e-02 -7.7181521737543057e-02
      -2.0640192850377164e-03 -9.6946299407377444e-03
      3.5144145632651891e-02 -5.1516257796436198e-02
      -2.6507993106340506e-02 -4.1186019320468809e-02
      -2.6570978419936775e-02 2.0069968506954260e-02
      4.6161011886794584e-02 4.7499675797092779e-03
      7.9677781794265257e-03 3.7310982780239206e-02
      5.6124267496615379e-02 -3.8216446768838119e-02
      5.4544091919454446e-02 -2.3899660326171582e-02
      -1.8620851330608718e-02 2.0504229576351639e-04
      -4.6810463374074650e-02 1.3887519603246256e-02
      4.9886446968515172e-02 -1.6926247797828389e-02
      -5.7379487595603788e-02 -2.2570800518864943e-02
      -1.9993855459443398e-02 8.0262535592707657e-03
      -5.4615588392079393e-03 4.4404153207415423e-03
      -8.7821422804386514e-04 4.6289024679942309e-02
      -3.6827969679284790e-02 1.0815159063977606e-03
      -9.9418941924380214e-04 -1.1320987050734598e-02
      -6.1877338341953317e-02 -1.1166261546793479e-02
      -8.2989320069879052e-02 4.4283851746050908e-02
      3.8260109381105189e-03 -1.3170072480437567e-01
      4.1323726593343053e-02 3.0387045923940870e-01
      -1.1089790906952110e-01 3.6909784392630575e-02
      -8.2658308062547675e-02 7.7947747194353850e-02
      1.2418972362986007e-01 -1.1978384787683194e-01
      -1.5384304346996394e-01 5.1415140768359402e-03
      -7.9041494530852366e-02 -1.3468226997161895e-01
      -9.0860963003156131e-02 -3.4560708453026487e-02
      -1.0792729519103901e-01 -6.1921940362775338e-03
      3.5072890741009888e-02 -8.9199868696687112e-02
      -1.6402167461307521e-01 -1.2767284458432607e-01
      -7.0989451814661125e-02 -1.5407456876296935e-01
      -5.2237235317718442e-02 2.4214150152415237e-02
      -8.1449379151090601e-02 -1.0044956224049552e-01
      6.4810143152154789e-02 1.0418389203783827e-02
      4.7548365111487599e-02 -1.4302293373684324e-01
      1.0113760816133117e-01 9.5730930721928606e-02
      1.2995225194401758e-01 7.2881364007953350e-02
      1.0114633941798476e-01 8.0698413333008867e-02
      4.9814410767623475e-02 -3.4739318941756227e-02
      -1.6771560756612866e-01 -2.6615933466443246e-02
      -9.7032617562521364e-02 1.3206721102529240e-01
      -9.7560526730258348e-02 -2.2215987702165148e-02
      -8.3259442599915537e-02 -5.3204291696735254e-02
      1.1189500079327052e-02 1.2220208605319460e-01
      1.2991818802984395e-01 2.9738041097231677e-02
      4.5014909770796828e-02 1.2684039152510648e-01
      -4.5298625340042087e-02 1.6261054401717406e-01
      -3.3521670771982821e-02 -1.2810027879500643e-01
      6.9216405347967982e-02 -1.8020172436917140e-01
      9.3526388591914381e-02 1.0493954684452238e-01
      -1.8322714469396601e-03 -1.2028826262267163e-01
      -7.9982865800274097e-02 -5.4458289567689451e-02
      -8.5363510575520926e-03 -1.0230169383565928e-01
      8.1178894912261712e-02 -8.1553325519844344e-02
      1.0868924172720666e-01 5.8758141190700434e-02
      8.9751146894050976e-02 4.9618683858222407e-02
      5.0128884657116887e-02 -4.4423212785758559e-02
      -1.1589120777674617e-02 -7.5143632923279399e-02
      -3.8288104344187833e-03 2.1687448192291160e-02
      -7.6327723451549076e-02 3.0840198929227427e-02
      2.5816491549256998e-01 -3.3939096694980860e-02
      2.9192928305439618e-02 -2.1957424923071414e-02
      -2.8015167549766701e-03 4.7590726187272954e-02
      -4.8512711980385717e-02 -1.1882498070541447e-01
      4.8792264013685993e-03 -2.5547394566181707e-02
      -4.0951294922145838e-02 -1.4352998553584016e-02
      -9.6983826633524981e-03 -1.5500846934648021e-02
      -2.7703519724609810e-03 1.2381391308773307e-04
      -3.8330410386511582e-02 -7.1986374789657359e-02
      -6.2160167300619372e-02 -1.7251038176503503e-02
      -9.9838417528360757e-02 -3.8381261342013730e-02
      2.2082885410956786e-02 2.1248270988806581e-02
      -4.2904578150528241e-02 3.0483455454071794e-02
      2.0388715419632671e-02 4.2615783552421245e-02
      -7.7862798711235415e-02 5.6517401291307022e-02
      5.2016420822292152e-02 6.6484708234527623e-02
      1.7565271079268273e-02 6.2095137277790605e-02
      -3.0595254522067265e-03 1.7883264478863601e-02
      -3.5248509389386534e-02 -7.5188079854285925e-02
      -1.8313891290666787e-03 -2.9754943509173244e-02
      9.4385245160442180e-02 -3.2776122309305655e-02
      -1.8713246442679951e-02 -4.8400589880399185e-02
      -1.9426337156228223e-02 7.2153663763808919e-04
      4.1788282777553198e-02 2.2893129911296974e-02
      3.3838288981986965e-02 1.4789866922788242e-02
      5.5550965829286029e-02 -2.2316194041991269e-02
      7.7198929169779523e-02 -1.4746109564783392e-02
      -6.5671404319066262e-02 6.5214076722799443e-03
      -5.2998108290320867e-02 9.6281681006929656e-03
      5.5383163445538751e-02 -1.2952564630374977e-03
      -5.5241209322559492e-02 -3.6323942615559844e-02
      -4.6286889490818300e-02 -3.7678218241306798e-04
      -9.7574905952217510e-03 -1.1190063209397675e-02
      -2.3697546913256672e-03 5.1945349085416120e-02
      2.0315740229329388e-02 5.5480180030545764e-02
      -4.3794487838191990e-03 -2.7614758589570732e-03
      3.0476797064273153e-02 -2.2696290597137080e-02
      1.5165014745931701e-01 -3.3761116669067642e-02
      -1.3417936697987602e-02 9.3562535055235665e-02
      -5.1440186556016614e-02 -1.0771107255366359e-01
      8.1655828269186534e-02 -9.6596298965944100e-02
      5.9015740495364850e-02 -8.6743397132773195e-02
      -1.2725598033953539e-01 9.3314831826380645e-02
      1.4313175411249476e-01 1.6799864097149050e-01
      8.6295960459695384e-02 8.9011312388003042e-02
      8.4034522002300008e-02 4.0877097343845654e-02
      8.5992976876085633e-02 2.8022129544280860e-02
      -5.0200273127930135e-02 5.5678306932731000e-02
      1.3076191487798300e-01 9.9273876968083083e-02
      4.1306800551439996e-02 1.4436289456567211e-01
      4.2986855290503112e-02 -2.6786398778383125e-02
      5.3263910842167868e-02 7.1792373562823225e-02
      -4.7176402057672193e-02 -4.6892869287716524e-03
      -1.8830450372864527e-01 1.1317741227215608e-01
      -6.8817994649445505e-02 -1.1386602989014274e-01
      -1.0322798150113133e-01 -6.5379900010947178e-02
      -9.9528964883015797e-02 -7.1395093027866258e-02
      -5.8127174645378074e-02 -2.1175749663157394e-02
      7.9373023649875932e-02 3.1022374123649540e-02
      1.0234610716324244e-01 -1.2388751106744911e-01
      7.8860109418330798e-02 -1.6857104557327835e-03
      7.8383821029144582e-02 3.1400848801872265e-02
      -9.8072609296815747e-03 -7.5661319834247301e-02
      -8.9761020676802125e-02 9.6172026873147132e-04
      -3.8937122890891768e-02 -9.8440941461397535e-02
      6.8462559157145511e-02 -9.8735098937000748e-02
      4.2363896418532540e-02 9.1707806767676106e-02
      -6.9973547395860480e-02 1.2797165645575939e-01
      -8.7311537403670897e-02 -9.9881912359117725e-02
      -4.1039075936298845e-02 1.2034894970215486e-01
      6.4903511307420586e-02 2.5256084706903121e-02
      2.5084067371185226e-02 -6.0138571645254352e-02
      -6.3497142942291057e-02 8.8821242920465088e-02
      -1.0250152039521546e-01 -1.0007925435163016e-01
      -9.6022816561010166e-02 -4.1044366206556167e-02
      -4.0738404534243162e-02 4.0941241292657042e-03
      -1.9318295772702287e-02 4.1527846139105045e-03
      -3.2820902214150641e-02 -2.5914467376884704e-02
      -1.4040011167987140e-02 -4.0313135866886382e-02
      3.3120197087329904e-02 9.8494782708812342e-03
      5.9472233080644643e-02 1.0581888913955536e-02
      1.2587510794103784e-02 -4.9272126596246829e-02
      -1.9907890099886759e-03 1.6314211611889777e-02
      9.6224626353168974e-02 3.6196013404822307e-02
      -9.2482075050300191e-03 2.3200955649782026e-02
      -4.1164809745496725e-04 6.6566569999966102e-02
      4.1668065672574597e-02 -6.9547388516854073e-03
      4.0761830167811590e-02 -1.3943913439776918e-02
      2.5007305078624292e-02 -2.5586875964080678e-02
      8.7336785545044388e-03 5.5562040879944220e-03
      -7.0419982537120529e-03 -2.1658640219842245e-02
      6.0457623424492552e-03 -7.1278279439422011e-03
      -2.1906797162248533e-02 -1.0719721946344687e-01
      4.2447543025360003e-02 -3.2974081422855062e-03
      -5.6204835428704587e-02 7.3237403912294484e-04
      -2.4090723638053209e-02 -3.7656802492839758e-02
      -3.2382033838859937e-02 -3.8336207118883837e-02
      -4.7059943462006940e-02 -3.4191674397865711e-02
      -3.4039730648137826e-03 3.3414987468582062e-02
      -1.5344007641241735e-02 3.0633027497926995e-02
      -4.1515657205433354e-03 1.3152274351085421e-02
      -2.3592699661364870e-03 -1.4772667310947963e-02
      1.3410581713674589e-02 -5.1016284978001010e-03
      5.9872113495608292e-03 -3.8717843635472746e-02
      1.5263380208005723e-03 5.2147001065292770e-02
      4.9293207323599729e-02 3.3045763793338678e-02
      6.4017688352537632e-03 -1.9708578140589544e-02
      5.7531431190016823e-02 -2.3286007776934538e-02
      -2.0840251389304579e-02 -3.5506371406427553e-02
      1.9944498712951873e-02 2.5610058478546038e-02
      -1.3148687474530607e-02 6.1668750228508033e-03
      -1.9009350421191523e-01 1.6842296494629740e-02
      3.7882793997440073e-02 -1.3496039477589187e-02
      -1.4939784177891619e-02 -4.9593958767949781e-02
      -6.7564700138922741e-03 5.6180486762017713e-03
      2.3550954912726785e-02 -1.8147862262717612e-02
      4.2016303484553534e-02 -6.2693860860382408e-02
      -8.0306419540013378e-03 2.3355293593341136e-02
      -5.8063097841324955e-02 -3.7716488370518594e-02
      2.8908136794023587e-02 1.4144408290801644e-01
      3.6681626728794200e-02 -2.2067318176000567e-02
      -7.4479749701244963e-02 3.4417296244708032e-02
      6.7146212685792905e-02 9.3790150474687625e-02
      7.6382899892446995e-02 2.4931268467120696e-02
      7.6222483862434728e-02 1.3951568828120920e-02
      9.3438069545838109e-02 3.4254553937838349e-02
      -1.7531052397095320e-02 6.2113607859531489e-02
      5.0961808857035364e-02 8.9242923343577099e-02
      3.6023763685853489e-03 3.5352295741826349e-02
      3.2265034578263581e-02 -3.0679849037147981e-02
      2.3747681666912535e-02 5.0134558100285886e-02
      -3.1017677547725900e-02 -3.6758918250542703e-03
      -8.9675202364229892e-02 9.3459400832815939e-02
      -2.3313550004486993e-02 -7.6275312450291025e-02
      -2.8345235432753031e-02 -6.6755699787004297e-02
      -7.0854534300748256e-02 -7.8154018187400628e-02
      -6.7433920537124478e-02 -3.3680040728165876e-02
      1.8580371532631219e-02 2.7896336725343817e-02
      6.6374873537479673e-02 -5.3098554853713745e-02
      6.0328720741721957e-02 -2.0905707895804655e-02
      3.1955131055762587e-02 9.6584062223323552e-03
      -1.9561285239309358e-02 -8.2095647311824678e-03
      -7.6859255370239923e-02 1.0571243107901541e-02
      -3.9494034127234075e-02 -3.7552528965118175e-02
      4.6079621890545104e-02 -2.4076811461019212e-02
      5.9609654831708540e-02 5.2257155136339960e-02
      -6.6313337756682189e-02 1.2092161408187974e-01
      -7.4006137043076778e-02 -3.2144407900215853e-02
      -3.7367797208773292e-02 8.9948620273615595e-02
      5.2497076984604513e-02 -1.6879500532106465e-02
      1.7364205620968298e-02 -7.4825206734796826e-02
      -4.1553651420061219e-02 8.8744984959569298e-02
      -4.5476911458576637e-02 -4.8525060736595647e-02
      -8.7043546256300855e-02 -1.8475945928576428e-02
      -3.9722842546880688e-02 -1.8766283493836480e-02
      -2.1390806852461242e-02 2.1244000803901128e-01
      -4.7789010876898103e-02 1.6182601690134673e-02
      1.8210910054685874e-02 1.6912828091159692e-02
      -6.2620209571314575e-02 -2.4211984609574105e-03
      -1.1082771392532662e-01 2.8569267768333915e-03
      -8.9039004181306419e-02 -6.2393635900951934e-02
      6.0271498993123257e-02 1.4541715307812942e-02
      1.6463901357543494e-02 1.1340268787556949e-02
      5.7716775579227275e-02 6.7095930246038313e-02
      3.4248118525326485e-02 6.8162267613494920e-02
      -6.0896185534196241e-03 -4.1351778204352339e-02
      3.9768744880456480e-02 1.1056414245198581e-01
      6.7774558675399416e-02 2.7020283707921249e-02
      6.4542730130456583e-02 2.2359234158588745e-02
      9.6112655656543748e-03 7.2639742621455825e-02
      4.1380920240866974e-02 -2.5516512902258533e-02
      3.9596195357986586e-02 -1.9570433867049208e-02
      1.9148929328671929e-02 -3.2447419620965000e-02
      1.4836533064497471e-02 -4.5822662112559642e-02
      -4.5998487679092988e-02 -9.8426627052737692e-02
      -5.4477028632691694e-02 -6.0448521227516924e-03
      5.5397999215687681e-03 6.9056182336246236e-03
      1.6500555306117392e-02 9.9558970679592795e-02
      -1.3809333193631715e-02 5.2070222299140882e-03
      -9.6907810807215101e-03 1.9815895154559591e-02
      2.5739398966260728e-02 8.3035514384873863e-03
      -4.1697188491875342e-02 -7.5297749579662523e-02
      5.9911430911491256e-03 -1.1791969946962511e-02
      -1.4199343764903028e-02 -8.5458790827564191e-03
      -5.4961642212331005e-02 -1.3182526211496673e-02
      7.3292411333535215e-02 -6.4408288205708444e-02
      1.0182267274793969e-01 -8.7442157632818929e-02
      -1.4451303492504756e-02 -1.1233261440806283e-02
      -2.3353714347190749e-02 5.2330144457544733e-02
      1.4748141978116105e-02 5.0918195978260201e-02
      5.8197251458786341e-02 -7.5701904872991152e-02
      9.0311275232568336e-02 -5.2535935749115402e-03
      -9.1828771887313060e-02 -1.0444004035737997e-01
      -4.4760861277132760e-02 -7.1036621002481065e-02
      -4.0912392781529250e-02 -4.5652769466644301e-03
      2.9014285382320013e-02 6.3193828722871758e-03
      2.6030819968005301e-02 -6.2930733421369983e-02
      2.3951829228115631e-02 1.2190862735468633e-01
      -4.4159229955493109e-02 -5.4174354334311656e-02
      -1.6020215516502727e-02 9.4515236346334446e-03
      2.5501995280754024e-02 -1.8284112215827437e-02
      -5.7566026274240102e-02 3.6190688721328523e-02
      -3.0715860901739247e-02 -2.7646900289295766e-02
      -3.6315864513427037e-03 4.5366325531177116e-04
      -4.2226478791948970e-02 -1.7762944978839290e-02
      7.0736053356071776e-03 -1.5984221894633180e-02
      -1.2941969493546750e-02 -3.0247557928335139e-02
      -1.6450155458884775e-02 -5.4755999769263555e-02
      -2.0612401222736033e-02 2.5078170167526326e-02
      -1.7636126388834786e-02 -1.3923275612914303e-02
      1.3097226337344527e-02 1.4136697273869264e-02
      1.4877279655916151e-02 -5.3329280950156620e-02
      3.4087955213828673e-02 3.6755799587884948e-02
      2.8488424821450340e-02 -1.6513539416102530e-03
      1.3210559655826945e-02 -9.9024701242042303e-03
      2.6918200126837620e-02 -1.8567252240653306e-02
      -7.3829236060466333e-02 1.3759110697769351e-02
      8.8902205618594816e-03 4.3035117190509224e-02
      -4.0135520531396941e-02 -1.2023373810889214e-02
      -3.9222467606018184e-02 -2.5887304095219287e-02
      3.8275699790058996e-03 3.5463107134149408e-02
      3.9740814586917791e-02 1.9045337971167250e-02
      1.2166843810926586e-02 2.6815985972308803e-02
      -3.8203786098028783e-02 3.2300385668723466e-02
      -1.0249094591738991e-02 -3.0298755063686400e-02
      4.7941441033202458e-03 -1.5971926201162591e-02
      -1.7690528329730275e-02 4.1220150960275558e-02
      9.0086420145400331e-03 -9.2131246507714787e-02
      -1.1411995820213073e-03 -1.4466972576611635e-02
      1.1487120595771538e-02 -1.9007098288268187e-02
      2.0149790051014076e-02 -2.5165556580386697e-03
      2.6874831596568349e-02 -4.9160311367258810e-03
      -9.3513304198485005e-04 -5.6338117589058104e-03
      -9.9837552879696167e-05 -2.3608054383650299e-02
      2.8550797360712039e-03 2.1074236414720875e-02
      -4.7939204341924689e-02 3.5126354883760064e-02
      1.2048424740950515e-02 1.7966381353377349e-03
      6.8928169701503603e-02 3.8536611681620016e-02
      -1.2086900353123786e-01 2.1847958872942785e-02
      -6.1029411567874947e-02 -3.1304438184746319e-02
      5.0021793556904739e-02 -4.5759166155533784e-03
      6.9612736115345478e-02 -1.5885018261371873e-03
      5.7548878574272787e-02 6.8274940638951814e-02
      3.4954908749179746e-02 4.0958113822113937e-02
      -2.1408637925087976e-02 -1.9408495686553687e-02
      2.6058677538901221e-02 7.8699870674760003e-02
      4.0795859249858811e-02 5.8603637482417127e-02
      1.7877973450002263e-03 4.1736788614967785e-03
      -9.0119775788131667e-03 8.0425444872222113e-02
      2.1193500715756770e-02 -2.3277839016124156e-02
      1.9256839566002333e-02 -4.5896236549497343e-02
      2.0629609402735565e-03 -3.5380377815037098e-02
      -1.3525547265592036e-03 -1.5475824099268129e-02
      -2.8819288234746252e-02 -3.3724671874500289e-02
      -6.1206329109460514e-02 -1.5374944274538021e-02
      -2.7040126827205680e-02 2.4331785946071220e-02
      2.4312247053877391e-02 6.2568449466999174e-02
      8.0728532757269256e-06 -1.0711248629075723e-03
      -4.9170361261699162e-03 1.2832836338036693e-02
      -9.0942660512260531e-03 -1.6185467744249598e-02
      -4.8665198846235602e-02 -6.2970821655686862e-02
      1.4751401318041354e-02 -1.1916588558813114e-02
      -2.2827872335675344e-02 -7.9908327150766470e-03
      -6.9085790817558557e-02 1.1082358168051306e-02
      1.6936215251706219e-02 -5.4668313535291765e-02
      9.1353432876597640e-02 -5.7920090319190758e-02
      -3.8213633024924400e-02 9.1487192957223056e-03
      -3.5332670580995799e-03 1.5871293799341515e-02
      -9.3147227038991899e-03 2.3334807477909707e-02
      9.6724729778088589e-02 -8.7973960084973615e-02
      7.7245201691246268e-02 -2.4838467425458720e-02
      -6.9632018628808898e-02 -4.2305610692910903e-02
      -4.3249075273610230e-02 -5.6603522929699286e-02
      1.8705598837910002e-02 -1.2159817663593491e-02
      5.7183001825634669e-02 -3.9437479243338451e-02
      -1.7472066492076815e-02 7.3920758817019538e-02
      -2.4076556145175551e-02 -1.8597822937275969e-03
      4.2686606435037064e-02 1.3001608576586604e-02
      4.2135274414214795e-02 -5.5701747609827310e-02
      -5.8863422603071119e-02 4.7179563478461327e-02
      8.5933845267816403e-02 7.1650146905503934e-02
      4.4735682255215112e-02 5.3325948327192521e-02
      3.2654995733734420e-02 1.4779848745131358e-02
      4.8285264419814851e-02 2.5791625433777544e-02
      -2.8686060047101961e-02 2.8492886632662077e-02
      7.4128693762077078e-02 5.5033953418648210e-02
      2.9946710682676913e-02 4.0505637527384883e-02
      1.7591766242449292e-02 -1.3402269727141354e-02
      3.3168135838031798e-02 4.2058582809314154e-02
      -2.6248712294026495e-02 -1.1014880796100059e-02
      -1.1570082022418539e-01 8.2915883829884213e-02
      -5.6003197822420948e-02 -6.0613044574761306e-02
      -7.1863535129375239e-02 -4.5940598251809080e-02
      -6.6130336492515943e-02 -4.4487814626675663e-02
      -3.2746224476545321e-02 -2.9126417937735738e-02
      3.9584855919984466e-02 2.0331100325570617e-02
      7.2237698714422843e-02 -7.4046742018282083e-02
      3.4549386195794583e-02 1.5625875865406974e-03
      4.4906646171951489e-02 -2.8333922228251521e-03
      -1.8998342182574464e-02 -3.4335780417395600e-02
      -6.4916769912900990e-02 -2.9881720891359433e-03
      -3.3719702545566624e-02 -4.7983513248786247e-02
      4.7744276134767803e-02 -3.5004923393338293e-02
      4.1761270765891860e-02 5.3384510132583711e-02
      -5.7702636080080520e-02 6.8818924632456605e-02
      -6.0378936587806367e-02 -5.8564278302515815e-02
      -3.5590575301780086e-02 7.9753764262293844e-02
      4.4231307307178738e-02 6.8651234969304151e-03
      3.1046861391109463e-02 -1.5825659644511844e-01
      -3.6183560557715058e-02 4.3724307406333034e-02
      -5.4636289638579569e-02 -5.4708285893571365e-02
      -5.9381559506377933e-02 -4.1042731808808637e-02
      -2.7496765363204799e-02 -2.7411571271800442e-02
      -1.8259661930219310e-03 -7.0346128123969662e-02
      4.6941029497297206e-03 -1.8188469562865531e-02
      -4.1379124519855162e-02 -2.2564807687730937e-02
      5.6220730768802331e-02 -2.0263924739530093e-02
      9.5257061758129355e-02 -1.5028698700151178e-02
      5.8955703214053232e-02 3.1302223883857533e-02
      -3.9923151711734314e-02 -1.6584269028815827e-02
      6.2677728385751412e-03 6.7999382815613031e-04
      -6.6013051786818336e-02 -5.2217289671632985e-02
      -2.2305618546015572e-02 -3.6046269666007602e-02
      3.4634751887315303e-02 3.4207994245277006e-02
      -2.1204280976338630e-02 -3.5640802009462617e-02
      -3.5640294052482167e-02 -3.8939646803397898e-02
      -6.4315131355948074e-02 -1.6978362340260695e-02
      1.9975281278817193e-03 -6.3604599484413910e-02
      -2.4352484870846076e-02 2.1972358979304375e-02
      -8.4939458865705125e-03 -5.0340529149191390e-02
      -5.5996804284100324e-03 3.5749000834564372e-02
      1.6975324958546324e-03 1.0607741514313422e-02
      2.0745079276118027e-02 7.3413723790648356e-03
      3.2436433366842453e-02 -4.2389850571630389e-03
      -4.6128694340158073e-02 -3.8820338680927213e-02
      -2.1628477611747694e-02 -1.9803341999785461e-02
      7.0365877007465740e-03 -1.0155695784452828e-02
      7.7095202644864101e-04 -4.6172103331901778e-03
      -3.5303312761098736e-02 -9.5808741299657670e-03
      3.4601260467594777e-02 3.0012200908877559e-02
      3.2964580421258216e-02 -1.2143730585177944e-02
      3.9894537430849843e-02 1.0984828834362973e-02
      9.1367351674101052e-02 3.5161775170852221e-02
      -2.6867490108622577e-02 2.7549493108826970e-02
      -2.0531844001164479e-02 2.4311797248821099e-02
      -3.5965323161398427e-04 -3.6268194247655011e-02
      -4.2360504521037443e-02 -1.6475042683747811e-02
      -3.9881592649721617e-02 -1.9493912801455515e-02
      -2.6421996570083411e-01 5.3919080765216190e-02
      -2.6209569206809277e-02 1.2732109384746542e-02
      2.7786573279336355e-02 1.3353592623531909e-02
      2.4735282065598170e-02 4.1876646289992644e-02
      -1.0068370080678292e-02 -2.6397714635739720e-02
      -2.3678408205753808e-02 -1.6412339898675077e-02
      -1.4320585117704164e-02 3.7692090222636816e-02
      -3.1934085444923203e-02 -4.5972234882441232e-03
      2.5439261290566156e-02 9.0199463274507410e-02
      1.8282786439610583e-02 2.4665141733064701e-02
      -8.7328950696788313e-03 -1.0130004402047602e-02
      5.0678994571464346e-02 3.2231846082571139e-02
      4.7563499436794374e-02 7.1382432159540158e-03
      2.8673806680628031e-03 -1.5278984700818017e-02
      1.4962422298422489e-02 2.1698288359498608e-02
      2.2108884600872500e-02 2.6265533239551331e-02
      2.7122490268467723e-02 1.4097295320956460e-02
      -1.4423034397678142e-02 -1.3193920979668379e-02
      1.7427845140759065e-03 -1.2230102095730080e-02
      -1.3201259620315665e-02 -5.9065059652266931e-03
      1.5044654875332198e-02 -1.4773962538909944e-02
      -5.2630651735380091e-02 7.0569900998927446e-02
      -2.0692989359100165e-02 -4.7547971268818379e-02
      -3.1711448802654238e-02 -1.2384321429982583e-02
      -2.6901109415980728e-02 -3.1695179773411415e-02
      -1.9721668718498161e-02 -4.9992332727700366e-02
      4.1692776715447903e-02 -5.6213804197972018e-03
      2.5635386355920966e-02 -3.7877052960284735e-02
      3.7314087631646994e-02 -6.4743591491605839e-03
      3.5946941525690605e-02 -2.1599905178845514e-02
      -1.3987826966093762e-02 5.6707925341137836e-03
      -3.7800254848028673e-02 2.3227883003833411e-02
      -4.0348658700394148e-02 -1.8151205497673076e-02
      1.5250485494603745e-02 3.0780306158451056e-03
      4.8939492006196142e-02 4.0352156850443459e-03
      -6.9039650407112145e-03 3.5346949781835162e-02
      -2.3437588750230266e-02 -1.1553237582774080e-02
      -3.6701255075116915e-02 7.8332293755827925e-02
      1.0312156693056154e-02 -3.1086346497358953e-02
      -1.7252290264607433e-02 -1.3132389146806928e-01
      -1.1448456988713758e-02 2.0827317966947131e-02
      -3.0698387766523592e-02 -8.0469883220987207e-03
      -1.6211607900648607e-02 1.2326125304531602e-02
      -4.6237530064021475e-03 -2.2690855684133038e-02
      3.5719506679764723e-03 2.1727377641303031e-01
      -3.3826835793712796e-02 2.8331343776746547e-02
      1.8040706181305950e-02 -1.1697286401566524e-04
      -1.2408247403068717e-01 2.6852079796075689e-02
      -3.9876791395623459e-02 4.4621577199733212e-02
      -6.7134329469311957e-02 -5.6836158014506380e-02
      7.2781900371884811e-02 5.2843028012330845e-03
      -3.2754841800735908e-02 3.0477269306820747e-02
      6.8331622611630449e-02 6.5542340660295698e-02
      5.2402622095592336e-02 6.1601517545355228e-02
      -1.7532783936307025e-02 -3.0957507003142325e-02
      3.2726189469033780e-02 1.2579312870398118e-01
      5.8292894299122183e-02 4.4719522583681080e-02
      6.5923929550539315e-02 3.3455468131033034e-02
      3.9316123240240326e-03 6.7935436198821822e-02
      5.3398725984095521e-02 -2.7996431668627066e-02
      2.5902471107296522e-02 7.0278590423857338e-03
      2.2307538531543141e-02 -5.3129174056569216e-02
      -1.0020169557851405e-02 -3.7911804202771633e-02
      -4.9384548408968200e-02 -5.7443587952369202e-02
      -5.5529840631064677e-02 3.5990328797694454e-05
      1.3507820444408921e-02 1.5971303820676663e-03
      4.1509354701711174e-02 1.0812762729373386e-01
      -3.3351516974187271e-03 1.9941080641236956e-02
      -2.7313145767217536e-03 2.0695122271729614e-02
      3.5237596132007082e-02 -1.6773849081257418e-02
      -4.9467282441669660e-02 -1.0899727366736382e-01
      -1.6988282139203336e-03 -1.8723844648934170e-02
      -3.1856031226629035e-02 -1.4777218396988893e-02
      -8.1730849853578785e-02 1.8800826562666642e-04
      5.9360866509592179e-02 -5.8478386599547773e-02
      1.3227509994570558e-01 -9.0737222487668634e-02
      -4.1818912188708382e-02 -2.9734305364358536e-03
      -1.1414640771757323e-01 3.6044858363911532e-02
      2.1454956281982782e-02 3.1191724439840560e-02
      4.0918083174170637e-02 -4.7091543092325792e-02
      8.6230307114197921e-02 -2.6826726038175992e-02
      -1.2340182101416473e-01 -7.1048436861298483e-02
      -4.3294557208292984e-02 -3.7491211795017784e-02
      -6.8060334202069903e-02 1.1482339516110413e-03
      2.2384099876725669e-02 5.5847242535806051e-02
      2.1109557962981577e-02 -1.0804626538378298e-01
      4.2522324072432428e-02 5.7723891198741023e-02
      -5.8463058103267455e-02 7.1909990612213287e-02
      -5.1220998541673821e-02 9.4139290228949804e-02
      7.9034896896327769e-02 -5.5074972856535127e-02
      -1.0794913870491869e-01 -1.2307945890903024e-01
      -6.0513466602141804e-02 -7.8278940513363260e-02
      -6.5343556367332939e-02 -1.7008450835500403e-02
      -9.1834954467870947e-02 -1.9569835143398318e-02
      2.0995344489067914e-02 -6.3760488155130537e-02
      -5.1752678439440786e-02 -9.5510771174576015e-02
      -5.5168924068773634e-02 -1.2955531084288904e-01
      -2.2335819078444424e-02 1.3639219276204109e-02
      -8.8836537171464919e-02 -6.7722869032502991e-02
      3.3716528421409854e-02 1.7618493240393177e-02
      1.0539330937924464e-01 -8.9709032944722572e-02
      6.1411505077095287e-02 8.1617720259127682e-02
      8.3704899511607436e-02 5.4017307277692689e-02
      5.7051279076648462e-02 5.6874886561777735e-02
      3.6398282754020482e-02 -1.9669788102665470e-02
      -1.2393012938941037e-01 -1.0466726453129842e-02
      -3.6005256632120196e-02 8.4096548941706331e-02
      -6.0951696705701684e-02 2.1769664661302145e-03
      -6.4199516199360110e-02 -2.3617599046071729e-02
      9.1728753105057102e-03 8.3049870742370482e-02
      4.2940113650624216e-02 2.8489309073438093e-02
      3.4980961458149731e-02 9.5034767853787255e-02
      -5.7223661983806073e-02 7.4580558052171814e-02
      -2.2737712019754774e-02 -9.2735457037597460e-02
      4.9586705397808656e-02 -4.3458632443163593e-02
      5.1116513134778996e-02 6.2049418397381137e-02
      9.0242551824704417e-03 -2.8527478934626915e-01
      -6.3649359314174217e-02 -1.9609350425694221e-02
      -8.6624018594120260e-03 -5.3070126638442933e-02
      8.8078553015104755e-02 -6.6101815267495243e-02
      5.3151091168515505e-02 -2.8712005379381593e-03
      7.6723517532245836e-02 1.1241635292505287e-02
      9.1188190210057612e-02 -6.0256450235532097e-02
      2.6086917383399355e-02 -4.1435800391556157e-02
      2.0752075019185075e-02 1.5588421983288020e-02
      -6.6654961299979665e-02 1.3338774050378827e-02
      8.5537357351407273e-02 -1.9635051134113287e-02
      -1.3608337099406775e-03 -2.5925654091690523e-02
      4.5167141253755094e-02 4.8279774859765541e-02
      -6.2152685805403611e-02 -8.2237889420560817e-02
      -8.7223506163638651e-02 -4.2116161557563953e-02
      -5.8772598201697529e-02 -2.0409244592506183e-02
      1.0156995801227598e-02 -3.2842380902681004e-02
      -2.0702060063325253e-02 -4.6185412953531849e-03
      -2.6941993404353357e-02 -2.4474531612007668e-02
      -8.4020857083597897e-02 -2.7251791445060489e-03
      -1.4249949151424979e-01 -2.0903258064827693e-02
      1.7965582497595167e-02 -2.4381940986454572e-02
      -4.6502736492122373e-02 1.6822898963962551e-02
      1.2756575665595007e-02 7.2920960716867975e-02
      -9.2089858481913395e-02 4.1252900130983275e-02
      6.1209399945404946e-02 6.0678544063952004e-02
      3.0748232541747966e-02 6.5280377044904095e-02
      6.9894125337860748e-03 1.3445382836925833e-02
      -9.6218207096901102e-03 -7.6080020799857762e-02
      5.5083790395557978e-03 2.6769823372265831e-03
      7.1480019244944931e-02 -4.0995719856917336e-02
      -7.2027052678550934e-03 -2.9713709688631219e-02
      -3.3911073806957640e-02 -9.9984266467576435e-03
      3.8922709595534156e-02 1.5585014766502415e-03
      2.1604814345840141e-02 1.9583042656427567e-02
      6.9598374773719968e-02 -2.8876887554806139e-02
      1.6316553866802936e-02 -1.9482226973120437e-02
      -7.9975212880126267e-02 5.2947877296466057e-03
      8.4898388736205591e-03 1.6143727832268764e-02
      2.5501012311334413e-02 2.6839523472050857e-03
      -1.9734022325984521e-01 -4.4070316346181582e-02
      -4.1834531872117588e-02 1.7934073145908998e-02
      2.9029433017223272e-02 2.4427283345163125e-02
      -1.3104817031887201e-02 2.7940300391533706e-02
      -2.4019533277707681e-03 6.0295757173887146e-02
      -9.5148337210502185e-04 3.1729795410111977e-02
      -3.9112319088269655e-02 2.4208642323986167e-02
      -7.5869124486616854e-02 -7.5044906529395869e-03
      2.2077801835046758e-03 5.9177805285000808e-02
      -1.7292470047361758e-02 1.2539452722215930e-01
      2.9696720320480482e-02 2.5729432964916354e-01
      2.7658508324265817e-02 -2.7579770049939306e-02
      -1.5957674759215434e-03 -4.6992863789294015e-02
      2.2889037881706091e-02 -2.1421080321922677e-03
      7.3622609221241963e-03 1.8100798558766298e-02
      -3.5994637603776164e-02 -5.4105827343234290e-03
      -6.9041430924593234e-04 7.8081211538129072e-03
      -1.6107515676358802e-02 3.1872488714942575e-02
      3.5783127525840688e-02 -5.0830369565949218e-02
      1.3383461957614281e-02 -6.9274980509170650e-02
      -6.6449269735036395e-03 -9.0020112308852318e-03
      4.0236443445165219e-03 -7.0322080850248004e-03
      -4.6091443232271620e-03 3.8947237707219083e-03
      2.2659826353528062e-02 1.1715823464019526e-02
      -2.9047645257097705e-02 -1.3719576786611414e-02
      -3.6361110048389773e-02 1.4005229317212223e-02
      2.0051687154232185e-02 -2.5165236158252804e-02
      -5.9120764287262503e-03 -3.9265626221329709e-02
      4.2102372481328108e-02 2.5242553709375866e-03
      2.9563329886029145e-02 -1.3820580089317481e-02
      1.3810270045786492e-02 2.3173302362777759e-02
      1.5170082790971777e-02 -3.0033331142208429e-02
      -2.8417614569274770e-02 -4.6944014271509849e-02
      -1.4438982282345577e-02 1.2503480679133131e-02
      -2.5477524700715862e-02 -2.4023182049843880e-02
      2.3226611506534840e-02 -4.8504087209587246e-03
      1.2358457892775785e-02 -5.3055807215847697e-02
      -1.3434203402632169e-02 -3.9058840339455500e-03
      -1.5306977488111882e-02 -4.0157995953291947e-02
      -2.6450892477060607e-03 2.4719778072231309e-02
      -2.1087209071105743e-03 -3.3491649409038295e-02
      2.9354980938947439e-03 -1.5438389715210862e-01
      -8.6059432203778683e-03 1.0433300437617711e-02
      -3.5953509185688091e-02 1.0058321532321994e-03
      1.6652640612318748e-02 -1.2591846985885009e-02
      -7.5275279697631300e-03 -4.1149329201683064e-02
      1.3926863714926848e-02 -1.0328686087017494e-01
      1.4026127125120292e-02 -4.2574320602964781e-03
      1.2731588755613978e-02 -1.9349642568687202e-02
      8.4093120371991320e-02 -3.9239885215404694e-03
      2.2684127825947692e-01 2.0913665978538362e-03
      5.2293564193559419e-02 7.0202170597396210e-02
      -6.3071846682389493e-02 -5.8226424274730364e-03
      -5.4336884448984539e-02 -2.1920332286722976e-02
      -4.2315414513100516e-02 -7.5542627597546139e-02
      -2.4360935186762890e-02 -8.4962871661697748e-02
      1.4231024880680910e-02 4.3286877006271221e-02
      -5.1057646517656978e-02 -1.9106331928939793e-03
      -1.0669574460172199e-01 -1.4476446622553638e-02
      -1.0650128703977843e-01 -4.7859963056171406e-02
      1.3747653869617992e-03 -5.7592974024595615e-02
      -6.4626764741454762e-02 3.7196624334869421e-02
      -8.2021139335189015e-03 4.3383677874294514e-02
      -3.2196693414868298e-02 2.2752596212647989e-02
      -6.1620693149773142e-03 6.8362079516910987e-03
      5.0258641917027190e-02 8.2795161083703411e-02
      4.0215793150216381e-02 7.1086799507794349e-03
      -3.5328800244964036e-02 -2.0318162495714721e-03
      -2.6244019609742285e-02 -4.9137028137694189e-02
      2.1245992545739872e-02 -3.6782665211207606e-02
      8.3023846857605346e-03 -6.8601102115739164e-03
      -5.4312866344041477e-02 -1.6119661498341011e-02
      1.4665360827505355e-02 6.0532457925346436e-02
      2.6112867709462799e-02 -1.3437293673120370e-02
      1.5305645734651110e-02 1.6571583950444377e-02
      4.3205542024805969e-02 1.4226053951576218e-02
      -9.4330249935742877e-02 4.1055743992851057e-02
      -5.8070002696995145e-02 6.7561885997075216e-02
      1.5026291486701548e-02 2.1383401194467314e-03
      -3.2138040084265546e-02 -4.6334688794845542e-02
      -5.6211288790825195e-02 -1.5426534768540272e-02
      -1.8081246498644105e-01 2.8996198870948880e-02
      -4.8991000683619147e-02 6.7151399115329942e-03
      4.5599072185824235e-02 6.3621703970644566e-02
      4.4876661726989835e-02 3.7942368728341350e-02
      -1.5123603126736237e-02 -8.6742717459541378e-03
      -1.2981322889842177e-02 -2.0911559176744428e-02
      -1.1918720395258946e-03 8.5880289175564201e-02
      -4.2369345574039756e-02 3.2404263513291731e-02
      6.2994578802460427e-02 8.3706727295234512e-02
      3.5993245258016428e-02 -1.0792610586946336e-03
      1.5484133049251642e-02 -3.2523517871507583e-02
      7.8833072694741671e-02 4.2579089473380165e-03
      4.0030677117404788e-02 3.4832387385976306e-02
      4.2635894133862470e-03 -9.6842365481831800e-03
      -9.0650177087223862e-03 1.3592337038721602e-02
      1.6716936925089292e-03 -1.0955778630446531e-02
      6.9059920516233025e-02 -4.9085537531339670e-03
      3.8791460230665487e-02 -1.0525627334660485e-03
      -3.2805947044883113e-02 -1.6531083843715686e-02
      1.2867539179072761e-02 -2.4401160842790169e-02
      6.9492772170809680e-03 -1.0776905958781325e-02
      1.0064198569786419e-02 4.5413021847224129e-02
      -4.6399243625252544e-02 -7.8623890967031013e-02
      -5.7949772245317048e-02 4.8689948341900206e-03
      1.7236280530671874e-02 1.1128535229841486e-03
      -4.2512365243187446e-02 -2.8708462140090270e-02
      8.1115793345199277e-02 1.1143129228585226e-03
      8.8652174883071186e-03 -8.1962102428893582e-02
      2.7833951862590092e-02 1.4446331703577042e-02
      5.4732650649666086e-02 -1.9883487536960169e-02
      -2.2919874153537901e-02 -5.3914106961464800e-02
      -1.4392439037979283e-02 3.4098216521544718e-02
      -3.3187588260360654e-02 -8.0284297878167349e-02
      1.7359838752356353e-02 -3.1114340584142454e-02
      4.5749730099621806e-02 -1.0155240066624660e-02
      -6.0381187970901299e-04 2.9427621205335496e-02
      -1.2505953247112485e-02 -4.7106143719642612e-02
      -1.1799692155269315e-02 9.6478029717056157e-02
      3.1068757757736395e-04 -4.2930992652442150e-02
      -1.3241331173450050e-02 -1.1048937719107942e-02
      -1.0413021504126737e-02 6.0390889745526380e-03
      -5.2383746440538462e-02 4.4005141996290350e-03
      5.7378667981257021e-03 1.1698573793120769e-02
      -1.5865092123054730e-02 -3.7675209087804966e-02
      9.3698039092553597e-03 5.9656204092150528e-02
      -3.6451149943821322e-02 3.0004089270058803e-02
      -3.9060690644486078e-02 -2.0771487560515948e-02
      9.0626834957721572e-02 7.1573929555079961e-04
      2.5773617335551052e-01 1.6423705163613897e-02
      -3.5527103964495335e-02 4.7564236613290680e-03
      1.1107626024428219e-03 -8.2148186596845377e-02
      -1.1546133809415675e-01 1.4702848404510865e-02
      2.5653838177544297e-02 9.0526391201367334e-03
      3.4641813368165297e-02 3.2884246815103019e-02
      -1.7194425734126953e-02 -2.5538507886020235e-02
      2.1913839604205780e-02 6.4066445330359101e-02
      -9.8542961841307387e-03 4.0970239693361318e-02
      -7.3716926766568450e-02 2.8404318884594451e-02
      -1.2881992317872994e-02 4.5587562492545398e-02
      7.0130053343724248e-03 -2.8382947582344203e-02
      8.4580861629058330e-03 7.1309719560835524e-02
      -2.3071523665294389e-02 -2.9230411294775657e-02
      6.7849770345454327e-03 1.5620191300103309e-02
      -1.6815793812937137e-02 -3.8247986243804401e-03
      -2.2743522266563742e-02 -2.9179816197049038e-02
      -1.2286507966279185e-03 -1.0810032106894737e-02
      2.7922585583298919e-02 3.1149588857826500e-02
      9.6106407127394988e-02 2.0426984088156307e-02
      1.8736060067428246e-02 5.4279363058358527e-03
      1.3980844796321019e-02 -2.4120256532036040e-02
      8.7860053035907447e-04 -3.0088213767612386e-02
      7.8338447893152256e-03 -1.7273559296029618e-02
      -5.0644529624505868e-03 4.0258766645933693e-03
      -4.1129815778221716e-02 3.3703385106752960e-03
      3.4926324302980791e-03 -1.0314897423805971e-02
      5.3575638115646564e-02 -3.5547779420607051e-02
      -3.0267039077719322e-03 9.1600722057435455e-03
      -2.2068033004564749e-01 2.0508465731110304e-02
      1.7042548552570945e-02 2.7545330720067211e-02
      -3.7678893930357019e-02 -4.4965196879350744e-02
      3.5850964223197446e-02 2.0799896839820663e-02
      -3.5106873615278408e-02 -1.0236947061952958e-02
      -2.6882401129428659e-02 -5.1679893281313255e-02
      -1.0628967559116098e-01 4.0473039009752042e-02
      -8.2099284502756359e-02 3.8060643441077714e-02
      1.6079801282077127e-02 -1.5261039770516627e-01
      4.1549234323326197e-02 6.8355444155847225e-02
      -9.9301556704488619e-02 3.1130009919788565e-01
      -6.9912888215898444e-02 1.1166463994530984e-01
      1.2109853299088705e-01 -1.0275225521841944e-01
      -1.8344204213898266e-01 -2.7406494237578966e-01
      -8.0351152763603675e-02 -9.8743802762613686e-02
      -1.3858374589031028e-01 -1.2650392761055874e-02
      -1.1480068806287805e-01 -4.3615783856125474e-02
      2.9200795499734429e-02 -7.0820112578475022e-02
      -6.2695574111017838e-02 -1.1488302369566952e-01
      -6.8311291766134041e-02 -2.1334312956947030e-01
      -2.4934446721270601e-02 5.2101536007513024e-03
      -1.1095321378711454e-01 -6.0527778781414250e-02
      4.2843806137142018e-02 3.5353131500396790e-03
      1.9735118680628289e-01 -1.2826133186250874e-01
      8.3707912511163607e-02 9.5676531022521383e-02
      1.1068780215748401e-01 7.5716709824143774e-02
      9.2481133888909425e-02 9.0071829162266401e-02
      3.4121047294729846e-02 -1.8306608407318681e-02
      -1.5369216721602874e-01 -2.2687205665070050e-02
      -7.7293698894484536e-02 1.6403037195391956e-01
      -7.1827996522760229e-02 1.4540770761978438e-02
      -8.0178481511099603e-02 -3.5730286905670886e-02
      -8.2781844236218850e-03 1.0744670443683070e-01
      1.2107753200490111e-01 3.2867759468630436e-02
      4.3523708691295092e-02 1.1143726027631198e-01
      -5.5143884841263535e-02 9.0430001877689084e-02
      -2.3549717919753944e-02 -9.9317815043015498e-02
      8.3966049204662926e-02 -1.2911759790233354e-01
      1.1104064213756971e-01 8.3381995870151562e-02
      9.2936567636863216e-03 -3.6714140626225350e-01
      -8.4214891324805849e-02 -2.8104123908913273e-02
      -2.0447838087302248e-02 -1.4921699564724686e-01
      8.6360240605385385e-02 -1.1669867919102969e-01
      1.0359189832024600e-01 4.8258246711367248e-02
      1.0901708993436685e-01 3.0378764864747415e-02
      8.6820839611601003e-02 -7.1588005570877633e-02
      3.0726308475080923e-02 -9.6591466413475005e-02
      2.0158932964483414e-02 3.3778282195968040e-02
      -1.0736771296332895e-01 8.1692621872927872e-03
      2.6348160983430232e-02 -4.7017796643878250e-02
      1.0300188031665150e-01 -2.8626905047133062e-02
      7.2426206483882649e-02 8.2589845066588646e-02
      -5.6700009911910584e-02 -1.2921419081695018e-01
      -2.0058365420958127e-01 -5.6306889527728519e-02
      -5.2336617383791563e-02 -7.8905091127514551e-02
      -4.0794950577976311e-03 -6.4122124150638907e-02
      -2.0352141959237777e-02 1.2561379360199399e-02
      -5.1746485459117295e-02 -9.5918997673407943e-03
      -7.1774359514954089e-02 -2.4735991397554637e-02
      -1.6691087303773913e-01 -3.7955009175698079e-02
      7.4144235501411382e-03 -4.0379291214603139e-02
      -4.5591450097066645e-02 3.0596535528923146e-02
      3.1206957667198098e-03 1.3086363168432719e-01
      -1.1337900608757069e-01 5.4363148868043533e-02
      7.4524484967803631e-02 9.5375337528993034e-02
      6.0362826967013235e-02 8.0080350079005783e-02
      5.3737054331951618e-02 1.8151429955292710e-02
      -9.4066862104672279e-03 -8.1881475390681635e-02
      9.1364079288333414e-04 -4.4606678011736255e-02
      1.2367479904220889e-01 -4.6938560891968996e-02
      1.9944599993990886e-02 -5.1230538683550736e-02
      -1.7192944376516639e-02 -2.2514984379653699e-02
      7.4679875949793195e-02 5.7583302898418606e-02
      1.6849319979019981e-02 9.1248877977898428e-03
      7.5643357909027362e-02 -4.0100324692153883e-02
      2.2594032430907747e-02 -1.6123744738057267e-02
      -6.8246493143065662e-02 5.2491211227316467e-02
      -4.3063328590115697e-02 5.3520193112156299e-02
      4.2741188987681623e-02 1.5653947142891228e-02
      -2.4067937160135677e-01 -5.8777217549702110e-02
      -1.7072463209515346e-02 6.4841662434476878e-03
      -8.2599494716925279e-02 2.6895388333123087e-02
      -7.2280905840634763e-02 7.4669145412646312e-02
      2.3451423339735485e-02 7.7353089079152060e-02
      1.8173717031785632e-02 3.2497137664635911e-02
      -5.2730129197396218e-02 2.9589008945599151e-02
      -2.4284969087365668e-01 1.5188453609851795e-02
      2.1770724199622674e-02 2.5565943588219571e-02
      -4.0493628583969429e-03 3.2470683676948242e-01
      -8.3747644029012538e-03 4.5444983103341724e-01
      7.4873964723444824e-03 4.7018651227844904e-02
      5.6025697025422580e-02 -1.1751534730602367e-01
      -2.2270176367671507e-02 -4.4458298512192414e-02
      -1.7594677458384531e-02 -3.3413090545956647e-02
      -9.8025978477275386e-02 -1.8139638975703830e-02
      -4.0749866771687779e-02 -7.9559737581656048e-03
      3.5027250333940704e-02 -1.0345337832621136e-03
      -3.7601402069829884e-02 -9.6266878064527037e-02
      -3.8618987961723916e-02 -1.0890444067901538e-01
      -3.5079772801728797e-02 7.8729577346430407e-03
      -2.1536937339212508e-02 -6.0440410391497702e-02
      2.4640983662403023e-02 -1.2115492253416552e-02
      1.0867349818936817e-01 -7.3575351576378512e-02
      1.6546180885420522e-02 5.1110644490717991e-03
      2.4854583898571335e-02 4.9588887086057659e-02
      8.6541522692646741e-02 1.4845511399362349e-02
      6.4479575328706684e-03 -4.2941421593523273e-02
      1.2002840450906526e-02 -2.8269414452171376e-02
      -4.3035151274449741e-02 1.0819608662469846e-02
      -2.1957965985672262e-02 1.7104368958345800e-02
      -1.2313658431019840e-02 -3.8519051125624815e-02
      -2.0541729918518707e-02 1.9735206708055879e-02
      7.3179020502528599e-02 4.2654804165118909e-02
      -6.8069583119507431e-03 2.4176336245277104e-02
      -9.0113839277777916e-03 4.8297822668731470e-02
      7.3204821081000173e-03 -1.0179606838184772e-01
      2.5998309357074770e-02 -1.3228294082338951e-01
      4.7254692998220854e-02 2.3907579549492703e-02
      1.0070993083950706e-02 -7.9058702342263476e-02
      -5.2721140770016529e-02 -2.9353707522326036e-02
      -1.7230743645526500e-02 -2.2850485874904733e-01
      1.4644702422273847e-02 -2.5206757650141645e-02
      1.9724813964167202e-02 8.8123830360713681e-02
      6.9173045210443124e-02 3.6279205282026994e-02
      2.0245793463302218e-02 -5.2276983605339979e-02
      3.4658303662354624e-02 -2.2332636665539821e-01
      4.5757165162824444e-02 1.9488011555839485e-02
      -1.1309371682229091e-02 2.5297416887197120e-04
      1.7384940161878490e-01 -7.9634820934135035e-04
      3.9148963751581073e-01 -3.3339317499704008e-02
      7.6613018395296439e-02 1.0243491719950443e-01
      -1.1366083046872111e-01 -3.8544875416083738e-03
      -1.0188908782343281e-01 -3.1569773791539461e-02
      -4.6153819703919283e-02 -1.4498022303621794e-01
      -5.0630943894820105e-02 -1.0550753733045758e-01
      4.6239295063139080e-03 6.6284676429927372e-02
      -9.1801486606953989e-02 -3.8233928761097012e-02
      -1.2979718430427420e-01 -4.6483655856544383e-02
      -1.0934258572962363e-01 -7.0171401856638838e-02
      -5.3575596185437479e-03 -5.4487379502002865e-02
      -9.4977404277470284e-02 6.8791603230692680e-02
      -4.4427599841333681e-02 9.7919546212882333e-02
      -9.1349385374534950e-02 5.5203209814094635e-02
      3.0933183502911646e-02 3.8887477426073479e-02
      7.9756169190286802e-02 1.3014483403279248e-01
      1.0312502605020687e-01 4.0496898822652776e-02
      -3.9200852688023625e-02 -3.1926550125444805e-02
      -4.2904113892432462e-02 -1.1647909331562362e-01
      1.9110180846564902e-02 -4.4915323960139614e-02
      4.5625896999907335e-03 -2.6365491129394982e-02
      -6.1321785333883938e-02 -1.4653554910198738e-02
      4.8270858285726768e-02 1.4639671278439645e-01
      4.1856391466491304e-02 2.9220516843293069e-03
      1.9935936529741950e-02 -2.5840496665761853e-02
      5.1322550865812458e-02 -2.9125865991055369e-03
      -1.2402053643820092e-01 1.0842085121611465e-01
      -1.6000450327784516e-01 1.1747026196680835e-01
      3.5880937313258511e-02 1.9874767003709246e-02
      -9.4592155741122813e-02 -7.0340809010932495e-02
      -3.9329706612488420e-02 -4.1760507396557185e-02
      -1.7284558659561106e-01 4.9768826912394669e-02
      -1.1744416649756370e-01 1.4078876090895061e-02
      1.2009361057629588e-01 1.3224538406115158e-01
      6.8962277591137836e-02 5.8488283095000239e-02
      -9.8619965313239098e-03 2.2125262847070389e-02
      -9.9689615601026113e-02 -7.4614741555485082e-03
      1.6669334420144590e-02 1.0244548601036566e-01
      -3.0989593231289723e-02 8.1878014434449864e-02
      7.6079619756246497e-02 1.1815419461029722e-01
      3.8230893598309439e-02 -1.1495349140787953e-02
      1.3118354696517748e-02 -4.1918749667221353e-02
      1.3364194847353525e-01 2.4788717982570662e-02
      4.0884553936570783e-02 6.6196482663966133e-02
      -4.6029451437844655e-02 -3.6243035175681573e-02
      -2.2366901765267646e-02 2.1494945279126276e-02
      2.5362951400076088e-02 -4.0733460648762383e-02
      1.0575155289458921e-01 -1.1479795297086526e-02
      3.7379475567891007e-02 1.2632746520063610e-02
      -2.5006273201636821e-02 -1.1406435066208490e-02
      2.3368075167199902e-02 -3.3730385522320140e-02
      2.7538253528710494e-02 -1.6591579246670742e-02
      -1.1421090691240983e-02 3.3137731642339845e-02
      -5.9612217228459614e-02 -7.2167476023133989e-02
      -5.5588141825339860e-02 1.5183467980544854e-02
      1.0810845057409224e-02 3.4023741869200777e-02
      -2.4236729995419974e-02 -3.8526683842340634e-02
      1.0821898295286847e-01 -2.3971979582698290e-02
      -4.1160585741595514e-02 -1.0883686677140607e-01
      1.7842111314765281e-02 2.6142605878741298e-02
      4.5031940033276048e-02 -3.1727623593854878e-02
      -2.3343207454289264e-02 -7.1766385442890754e-02
      7.9678987647916436e-02 3.4556541413665785e-02
      -1.7359187570854862e-02 -8.3212088383707292e-02
      1.7700674147815072e-02 -7.9533081704091818e-02
      2.8595067500312692e-02 2.7805217212821176e-03
      3.2984358618100826e-02 -2.7573161729655873e-02
      5.1861903988432607e-02 -4.0130125722306467e-02
      -1.6471433033960776e-02 5.8582218364598843e-02
      -1.3071741835453699e-02 -2.3467055967786123e-02
      -9.1180238594390037e-03 -2.4321382814155870e-02
      -2.9846926353428910e-02 -3.7174926894991071e-02
      -5.7850059690929566e-02 6.2138584040722186e-02
      3.7338473953358917e-02 1.7659079203163279e-02
      -1.7164971139555125e-02 -5.2636524761290625e-02
      4.7615309956968374e-02 -8.5765496229063778e-02
      1.3517311754643364e-02 3.4713441211200666e-02
      -5.8470587451947956e-02 5.5300581405311423e-03
      1.6258463722326413e-01 -1.7415014203132895e-02
      2.5410103459620226e-01 9.0094979856039301e-03
      2.9816556600200356e-02 4.3815624804652085e-02
      -3.9267547138755778e-02 -1.4078768332402250e-01
      -7.0049769730436431e-02 -1.1497167871896750e-02
      -4.7452767337072460e-02 -6.0776775184244902e-02
      -3.1380129753889817e-03 -2.1999889349137557e-02
      -3.3720761387639027e-02 1.2014772358475265e-03
      -1.9605645385258521e-02 -5.6447613697248019e-03
      -7.3314099385487205e-02 -1.2539220908575954e-02
      -1.3220879487191042e-01 -5.1618089877155209e-03
      -1.4770342036497073e-02 -2.9323859713822047e-02
      -2.4675842005782028e-02 9.2705016974278139e-03
      2.2280876338470701e-02 6.0295883733544220e-02
      -3.5435464323287397e-02 2.4092856980086206e-02
      3.1195217383842583e-02 7.1714848350920402e-02
      9.5773864086618043e-03 6.3597494997810713e-02
      7.6194452664181530e-03 1.1988597984338944e-02
      -1.6675090148288819e-02 -4.9183227842662137e-02
      2.2512454708643135e-03 -2.9778678623792076e-02
      1.1985001034379646e-01 -1.8099949151456487e-02
      2.0690160809930164e-02 -1.1741631244964851e-02
      -2.2759601229371757e-03 -2.1069921089591975e-02
      4.4427419712990815e-02 4.8146805596448281e-02
      9.8725078193826117e-04 -9.1916380582923556e-03
      3.2557354561021733e-02 -1.9046971972332738e-02
      4.2334929453051166e-02 -3.1309571013876784e-03
      -6.3352272175483892e-02 2.4271636236629274e-02
      -5.9462045950122742e-02 2.6634646159932555e-02
      8.4624328291069816e-03 2.9480746215460228e-02
      -2.3103662134548905e-01 -1.9943383921323710e-02
      -4.1095854835854302e-03 6.0751191681509349e-04
      -1.3236244934433086e-01 1.9284226438071064e-02
      -2.5603686908039890e-02 4.0962882129287781e-02
      1.7868462225666890e-02 6.4755726030877023e-02
      3.1061298373470498e-03 3.7632226228245816e-02
      -9.9585935733686182e-02 4.4294173227160068e-02
      -9.7017928900249392e-02 2.9988078456829367e-02
      2.8347330843070586e-02 -9.6302552619839901e-02
      3.8124818696668332e-02 3.8447224857903188e-02
      -4.7427425853851866e-02 1.4404944966737271e-01
      -4.1996875413735119e-02 9.1413613152080145e-02
      8.1358386614845443e-02 -4.4637827956419136e-02
      -1.5130278702196456e-01 -1.6846659162349945e-01
      -5.9274940182570117e-02 -7.1757062559269252e-02
      -9.8561810704182448e-02 -2.2787511023950033e-02
      -7.7158040060674588e-02 -2.6171751630775789e-02
      3.5093204611911503e-02 -3.2105435213415717e-02
      7.7716358035079171e-04 -8.3990209441126507e-02
      -6.8687226109308108e-02 -1.2942707921058283e-01
      -1.5579729638224404e-02 1.1173204987814385e-02
      -5.9882142295459025e-02 -3.1152980164462569e-02
      3.8949934305149314e-02 1.6925470230436248e-02
      1.2805153666669464e-01 -8.2821177240326768e-02
      4.2219871239617519e-02 7.3836849544431274e-02
      8.6077008769907745e-02 4.3731287154402228e-02
      5.9129500401017818e-02 5.3779455633229688e-02
      3.7792622701901209e-02 -5.5313555627019293e-03
      -8.5056916073304512e-02 -1.3126975356672741e-02
      -4.2347900987871258e-02 1.1191430631971283e-01
      -4.9843122246672145e-02 2.1697252409367800e-02
      -6.1420016171777378e-02 -6.6662042583529625e-03
      -2.0243644632351086e-02 6.6653864176112049e-02
      8.4597142773355727e-02 3.1813156811084666e-03
      2.7825929187845027e-02 8.6424605042231553e-02
      -5.8149376389303259e-02 4.0744723734420743e-02
      -2.5483978527979470e-02 -5.2023812246952322e-02
      6.4924209133347385e-02 -8.8053005177200175e-02
      8.0979685421416508e-02 5.5779442341700770e-02
      3.4677919550599873e-02 -2.9240852921996491e-01
      -4.4855140194438654e-02 -1.9560616872382721e-02
      -2.7210000775286680e-02 -1.7823435528761394e-01
      5.5979117115264820e-02 -8.1714099017209441e-02
      7.4056807778275072e-02 4.5270178750501697e-02
      5.6736708079301722e-02 3.1376672603697676e-02
      6.6764426777223815e-02 -2.9597040827869563e-02
      2.1669955176885324e-02 -8.1529009591193483e-02
      -2.8496374037581797e-02 3.9210726363973415e-02
      4.0338552068561722e-03 9.6328316302925600e-04
      -1.0589937418983247e-03 3.0068368255080628e-02
      -1.8891181015302200e-01 3.5018211392060718e-02
      -1.6484831680160215e-02 -1.3701870577612832e-02
      1.8354296173748025e-02 -7.6596317958123050e-02
      -2.1682408824502543e-02 -1.9307442773592001e-02
      4.3709083302959209e-02 -1.8647448545509752e-02
      2.5482580635456577e-02 2.7604638392631217e-02
      -8.1275719365834047e-03 -2.0623959736921625e-02
      2.5233566979880610e-02 1.1890595697431475e-01
      4.2910927224267925e-02 3.5584876400269992e-02
      -3.1696093671256122e-02 1.1093828974364053e-02
      2.5194562423111284e-03 4.5250517622704690e-02
      2.7800193364885380e-02 -2.2572221319580952e-02
      1.1126159106791661e-02 1.4131666041572356e-02
      -1.8681035801605749e-02 -2.5709608757576823e-02
      4.0381481756694058e-02 3.6808742426408720e-03
      -2.4878149912304158e-02 -2.7637633389957450e-02
      -2.1242369228861586e-02 -3.4109135451017877e-03
      -9.4964103451277877e-03 4.2368801574563117e-02
      2.3741093218318590e-02 3.5838402260668173e-02
      5.5604254066994478e-02 -2.8988876226079412e-02
      3.0199033315166112e-02 1.8523404727016503e-02
      2.0145694318920770e-02 -3.4132838386825404e-02
      -3.2928834589168059e-02 2.4955676078315437e-02
      8.9591190356521199e-03 -1.9248980725281268e-02
      -3.1227410284030981e-04 -2.0674804675601333e-02
      -7.2710102893715892e-02 2.0563549368709882e-03
      2.6098361044496511e-02 -7.0257536213619715e-03
      2.2524951932943679e-02 -9.3973072497143244e-03
      -2.3453501406475704e-03 5.9486800450801458e-03
      -1.1017105949818258e-01 1.9905061412661624e-03
      2.0069888719613013e-02 2.0266484973721036e-02
      -8.4798408028615865e-02 -4.6799827516679542e-02
      3.3183620347832364e-02 2.0242410544334833e-02
      -8.6485669633476810e-03 -3.5086310105888106e-02
      -2.7788028103236353e-02 -2.1559516522539617e-02
      -2.2649459775423382e-02 3.3258827238344210e-02
      -1.7944030928915627e-01 1.5134272431531908e-02
      2.6450948916512649e-02 4.9752838016927224e-02
      -1.2385887388573807e-04 1.2915802020809722e-01
      -1.9356634738997142e-03 3.5033527469243919e-01
      3.0951241266302346e-02 -2.6431492824955594e-02
      7.0158892597094755e-04 -4.7185634416587061e-02
      2.5483606120549979e-02 2.1445583047907838e-02
      -1.7260823954733537e-02 1.2191721503292792e-02
      -6.0384965427544769e-02 -1.7258451413972944e-02
      1.7858709276888585e-02 -1.2925576864023880e-02
      1.4336481654596190e-02 1.2833195926858844e-02
      -1.3808874308769262e-02 1.2578716869365110e-02
      1.8637922781037992e-02 -3.0483187786615906e-02
      -8.1782127820587327e-03 5.7291718586340258e-03
      3.4965796329641516e-02 -1.4829631177460339e-02
      2.4068612607737344e-03 -1.1379950980751027e-02
      5.1881211655954149e-02 -5.7053991277852233e-02
      -5.8856167893595324e-03 2.5804940059818149e-02
      2.2387761433252763e-02 1.2198465627532860e-04
      5.3824685352151808e-03 -2.9419911831534525e-02
      1.7077454133963142e-02 -2.1206843879061899e-02
      5.3090373803758382e-02 4.3444717341099325e-03
      1.0498572291130681e-02 -1.0215037868096757e-02
      -1.8872842049998725e-02 4.3840860913559017e-03
      4.4799684182187790e-03 -3.0662504648173966e-02
      -1.7033559555257934e-02 -1.4938883671902657e-02
      3.7108900745849882e-02 1.9554708940804209e-02
      -1.4494901214849389e-02 2.6667059901733263e-03
      -3.1792635945653955e-03 1.7426263687257471e-02
      -3.7621373240403059e-03 -2.3507493453204468e-02
      -1.0140554946294329e-02 -3.2503019574320668e-02
      -3.2278354043104668e-02 7.7121341305198344e-03
      7.6499427969558033e-03 3.0922172241932267e-02
      5.0516445517164591e-03 -1.0025463477814649e-02
      -1.3998586973768098e-02 -1.9252431557250424e-01
      -2.3917006761262800e-02 2.7633143823223624e-02
      -7.2279345930696499e-03 6.1863783261066639e-02
      8.4547206149443478e-03 -6.2559300299331929e-03
      -1.8216438046579676e-02 -6.5276240530539884e-03
      2.2473410114528063e-02 -8.2705940764616362e-02
      -1.1007124971354651e-02 2.4254536961815960e-02
      1.0603656992324412e-01 -4.9320839774804085e-04
      -1.6304532095696944e-01 6.3554430811616575e-02
      1.6810437694258867e-01 5.7351842456215170e-02
      -6.9653821940194982e-02 -2.1192091624811636e-02
      -6.0615837630672471e-03 1.0529951428298216e-01
      5.0273732111807558e-02 1.7180638325977278e-02
      6.8888561541270668e-02 -2.1641437075825574e-02
      -1.5662691665356752e-02 3.0901290349960552e-02
      -3.4377230154840643e-03 6.1633239252066141e-04
      -5.2834151955057189e-03 8.0986181544017419e-02
      4.4044359299556850e-02 5.0478072590357484e-02
      4.6182960928432375e-02 -1.0018646549264267e-02
      -7.7939997092243184e-03 6.6707168823299301e-02
      1.9427983564386644e-02 -1.3502696901399262e-02
