<?xml version="1.0"?>
<opencv_storage>
<opencv_ml_ann_mlp>
  <format>3</format>
  <layer_sizes>
    159 79 26 6 1</layer_sizes>
  <activation_function>SIGMOID_SYM</activation_function>
  <f_param1>1.</f_param1>
  <f_param2>1.</f_param2>
  <min_val>-9.4999999999999996e-01</min_val>
  <max_val>9.4999999999999996e-01</max_val>
  <min_val1>-9.7999999999999998e-01</min_val1>
  <max_val1>9.7999999999999998e-01</max_val1>
  <training_params>
    <train_method>BACKPROP</train_method>
    <dw_scale>1.0000000000000001e-01</dw_scale>
    <moment_scale>1.0000000000000001e-01</moment_scale>
    <term_criteria>
      <epsilon>1.0000000000000000e-02</epsilon>
      <iterations>5000</iterations></term_criteria></training_params>
  <input_scale>
    4.7002888220458516e+01 -2.0409879338934642e+00
    5.9871011678088713e+01 -2.6697103415557928e+00
    6.9614590944427064e+01 -3.0831225315013056e+00
    5.1106386875703912e+01 -2.2065236084262247e+00
    6.5114410733622066e+01 -2.8813631327759053e+00
    7.2517816283011115e+01 -3.1777031160291935e+00
    5.7583832307683082e+01 -2.4715469971869051e+00
    7.0419680058156359e+01 -3.0535212057929968e+00
    7.8605957408477707e+01 -3.4040525344924260e+00
    6.1790178836708932e+01 -2.6433458071497262e+00
    7.3811975046994561e+01 -3.1932211803326309e+00
    8.1094015383705425e+01 -3.4882703728181155e+00
    6.6922826141124801e+01 -2.8672098253610367e+00
    7.9105876655227931e+01 -3.3610007798938821e+00
    8.7602186548906829e+01 -3.7218982135849012e+00
    7.3087597907262335e+01 -3.1028394291125458e+00
    8.2411956115983699e+01 -3.4778489779740869e+00
    9.1064270578636965e+01 -3.8363652262934886e+00
    8.0047272838055292e+01 -3.3954026041838548e+00
    9.5932246051054861e+01 -4.0115042490622308e+00
    1.0102434730779935e+02 -4.2372696163758041e+00
    8.2591109297401175e+01 -3.4885487098186503e+00
    9.4675094732547180e+01 -3.9557142203273474e+00
    1.0117486348755537e+02 -4.2280763302459636e+00
    8.9404632753170489e+01 -3.7638623995088270e+00
    1.0652481551919942e+02 -4.4331545840874016e+00
    1.1182628842754562e+02 -4.6716146547324122e+00
    8.9172168092283059e+01 -3.7468462738823196e+00
    1.0563464719103189e+02 -4.3994946926541321e+00
    1.1086847319280096e+02 -4.6208565952570693e+00
    9.9666866543685060e+01 -4.1750000430132266e+00
    1.1667420033318035e+02 -4.8457536087455688e+00
    1.2295464911143527e+02 -5.1220724587234781e+00
    9.5825790345773228e+01 -4.0043583001132106e+00
    1.1493371610511319e+02 -4.7682156159865148e+00
    1.2185376064671163e+02 -5.0575359580324566e+00
    1.0520665877215832e+02 -4.3862592277300401e+00
    1.2178580733840046e+02 -5.0510848776291519e+00
    1.3156460967478884e+02 -5.4655882577654564e+00
    1.0462754587477959e+02 -4.3412801172575666e+00
    1.2261795886963512e+02 -5.0679033943497167e+00
    1.3150052120009173e+02 -5.4376732910584211e+00
    1.0760023514284468e+02 -4.4674130407299408e+00
    1.2658692114587684e+02 -5.2459043999012636e+00
    1.3797829856902285e+02 -5.7223292521717601e+00
    1.0985873151285482e+02 -4.5274980444915993e+00
    1.2914249241170629e+02 -5.3167179437394534e+00
    1.3915361758098726e+02 -5.7363850331752255e+00
    1.1295072351591199e+02 -4.6638468908867194e+00
    1.2804538012608543e+02 -5.2958256775134833e+00
    1.4186023138994383e+02 -5.8654573327944730e+00
    1.1463985102372357e+02 -4.7028934885111564e+00
    1.3344605154073648e+02 -5.4769619560940592e+00
    1.4562870633759786e+02 -5.9881061391578623e+00
    1.1482566421796916e+02 -4.7413968772277739e+00
    1.2873573458266623e+02 -5.3204295131770012e+00
    1.4564929157885797e+02 -6.0072176050201129e+00
    1.1910486639202121e+02 -4.8774214323088207e+00
    1.3644448580657092e+02 -5.5870351852974123e+00
    1.4926792530854095e+02 -6.1259234539127654e+00
    1.1771421915219669e+02 -4.8605814729350225e+00
    1.3387513733863460e+02 -5.5254176624172322e+00
    1.4916848983676735e+02 -6.1388368050246571e+00
    1.2193251276515211e+02 -4.9915745815923680e+00
    1.3939878045672290e+02 -5.7023677103855821e+00
    1.4965072149881112e+02 -6.1302104807783584e+00
    1.1679741971365807e+02 -4.8049930197258703e+00
    1.3196322816396125e+02 -5.4266830093960410e+00
    1.4786666019589376e+02 -6.0652667716133832e+00
    1.2348382287448247e+02 -5.0317568417369154e+00
    1.4037374703783135e+02 -5.7207995275289818e+00
    1.5105324839176902e+02 -6.1704151442018738e+00
    1.1237908683339649e+02 -4.6148273379234253e+00
    1.3200150914965212e+02 -5.4154742240858544e+00
    1.5084741006396780e+02 -6.1759871757667693e+00
    1.2264110421476035e+02 -4.9950961299510173e+00
    1.3646975873935153e+02 -5.5625683619011363e+00
    1.4847957895951299e+02 -6.0676163330974191e+00
    1.1561246065285360e+02 -4.7423827003880907e+00
    1.3130154007589178e+02 -5.3903535067839359e+00
    1.5158920295993042e+02 -6.2129300392985289e+00
    1.2280437109576818e+02 -5.0187127975102159e+00
    1.3266905157119342e+02 -5.4281808693998288e+00
    1.4944216227725525e+02 -6.1211838126395444e+00
    1.1616110191044287e+02 -4.7357222778321670e+00
    1.3035509516808850e+02 -5.3325205040013861e+00
    1.4730085534795461e+02 -6.0336691114938725e+00
    1.2332913626121828e+02 -5.0368661606974161e+00
    1.3691514220188668e+02 -5.5997376644512471e+00
    1.4949112353114543e+02 -6.1276368005515272e+00
    1.1251849407854201e+02 -4.5764883164731653e+00
    1.2819991624312328e+02 -5.2344145301972507e+00
    1.4321895134288715e+02 -5.8672615413625202e+00
    1.2068963743442929e+02 -4.9416405873706957e+00
    1.3560955527464282e+02 -5.5586606699636896e+00
    1.4514959319310580e+02 -5.9652870606742567e+00
    1.0789108603181442e+02 -4.4047869883672437e+00
    1.2445134863588686e+02 -5.0867575539634675e+00
    1.3667520531460059e+02 -5.6148151764054282e+00
    1.1587298613332938e+02 -4.7721057602093593e+00
    1.3097937391343618e+02 -5.3814428179477378e+00
    1.3909743134444832e+02 -5.7307773719037138e+00
    1.0181123510462658e+02 -4.1726248728793180e+00
    1.2081842001516551e+02 -4.9369951760750261e+00
    1.3070688409009648e+02 -5.3651638543389462e+00
    1.1074522431276520e+02 -4.5801782014440997e+00
    1.2558286249389757e+02 -5.1628150728275504e+00
    1.3116951833022628e+02 -5.4082932296657917e+00
    9.9417096283494644e+01 -4.0810047206567202e+00
    1.1464083343667021e+02 -4.6862626290081772e+00
    1.2162183334393869e+02 -4.9986207088546948e+00
    1.0173327249330974e+02 -4.2209733701567504e+00
    1.1796336749097600e+02 -4.8632116950583084e+00
    1.2303163093801454e+02 -5.0884564462095865e+00
    9.1654349112461205e+01 -3.7849021266550200e+00
    1.0613672543317202e+02 -4.3490979609381268e+00
    1.1226824197670402e+02 -4.6242205687204070e+00
    9.1285537700160262e+01 -3.8039808595807845e+00
    1.0961887927249808e+02 -4.5358236915085692e+00
    1.1535786223632674e+02 -4.7893073042342449e+00
    8.4734002224361674e+01 -3.5329135751178788e+00
    9.7980164678502987e+01 -4.0401341284963825e+00
    1.0248139772450810e+02 -4.2354355306363596e+00
    8.2678908264839237e+01 -3.4715606549320488e+00
    9.9136119860503626e+01 -4.1232100248547594e+00
    1.0339575399205887e+02 -4.3078189734389163e+00
    7.1290281181497676e+01 -2.9973184225838927e+00
    8.3569134691898142e+01 -3.4894390482957345e+00
    8.9705904709083399e+01 -3.7377302953552864e+00
    7.3251123022524951e+01 -3.1031706627650064e+00
    8.6604589420914365e+01 -3.6502936295957427e+00
    9.0737511103502996e+01 -3.8235144868199562e+00
    5.9138215313819103e+01 -2.4959566610205277e+00
    7.5071736143064868e+01 -3.1974066894165305e+00
    8.0422353950517220e+01 -3.4073374325459769e+00
    6.0792085627621184e+01 -2.5921600753667144e+00
    7.5808553065818899e+01 -3.2660427347485017e+00
    8.0558657688962782e+01 -3.4554546635619996e+00
    4.9991080328545408e+01 -2.1275039943922724e+00
    6.5223236644032241e+01 -2.8442604189769516e+00
    7.1741671099855168e+01 -3.0940240432453443e+00
    4.7707566426071331e+01 -2.0564306102100427e+00
    6.5296477284143279e+01 -2.8749473517570436e+00
    7.1647301986579222e+01 -3.1240308669492518e+00
    1.7028646959096019e+01 -5.6940926149420283e+00
    3.5199707559890861e+01 -1.1490272958528656e+01
    1.4605228130468365e+01 -4.9538878690995665e+00
    1.5343880562416160e+01 -5.1306830063945199e+00
    3.0396200341480103e+01 -9.9046856442944602e+00
    1.2976130563998375e+01 -4.4088673198456725e+00
    1.5512858856735148e+01 -5.1765862496452328e+00
    3.0691140489995366e+01 -1.0016566880745604e+01
    1.3081912072523115e+01 -4.4470234372225157e+00
    1.5031901988332111e+01 -5.0198049072448541e+00
    3.0272843487265522e+01 -9.8707297242935486e+00
    1.2774479447285920e+01 -4.3432933856149676e+00
    1.4859136690229448e+01 -4.9602185595046517e+00
    3.0804186775034676e+01 -1.0034816942277512e+01
    1.2708857783553375e+01 -4.3263807740283742e+00</input_scale>
  <output_scale>
    1.0526315789473684e+00 0.</output_scale>
  <inv_output_scale>
    9.4999999999999996e-01 0.</inv_output_scale>
  <weights>
    <_>
      1.8059994309511923e-01 -1.2878619218517026e-01
      1.0806562884527121e-01 5.7388037869414321e-01
      8.2674310820497754e-02 2.0818885865231121e-01
      -1.3476385231744239e-02 3.9432108285247108e-01
      4.5627377424411905e-02 8.2415921364227249e-02
      -1.0263292054022918e-02 4.7935614734307330e-01
      -2.1668860544251492e-01 -3.1582202149464347e-02
      1.3709668411989434e-01 1.1847295932117265e-01
      -2.0213536001806184e-02 5.5757566922033763e-01
      -2.0521049931486160e-01 -5.0876305496802719e-03
      -4.4525954203685481e-01 -2.4817527104808668e-02
      -4.5701784574875344e-02 -1.1582617254953742e-02
      2.3602381166941347e-01 -6.8976661400119718e-04
      -1.7591800696743651e-01 -4.7649018558481993e-01
      -5.6090802449191464e-02 -9.8801635286597980e-02
      2.3448514117287075e-01 1.1130261490079578e-01
      -1.4300944439878449e-01 -1.3311396107784701e-02
      5.7700828286303711e-03 3.3873727702986106e-01
      -8.1953641176142955e-02 -2.3858428346407172e-03
      -5.7080298902345943e-02 -2.8465275680233864e-02
      -4.3471651481540127e-02 7.4919744676869598e-02
      -8.3573732508353857e-02 -6.1940006642270520e-02
      7.5069668263455669e-01 -3.8196187890549566e-01
      -3.8851030089708249e-02 -1.4993708874730174e-01
      3.3811961120016512e-02 7.5941493196499885e-02
      5.3249081640126903e-03 4.3042854828118883e-03
      7.5570447161042234e-02 -6.0387663740713846e-02
      -2.0350909906387901e-01 -2.1188290476367502e-01
      -1.0564487395117993e-01 -1.7945052693405542e-01
      2.4985792257918842e-02 2.0287260420542308e-01
      -1.8261165282524466e-01 7.8828335527850665e-02
      -5.6396833331728964e-02 -1.1915195535717055e-01
      -1.0148300436308162e-01 -1.9571170726152293e-02
      1.7627565707228531e-02 1.7122672187176466e-01
      4.4098707192874967e-02 4.6403610892783803e-02
      3.9614117638208032e-02 2.0228851944926432e-01
      -1.9351364920868294e-01 -1.2381399928221380e-01
      -1.7406631742717785e-01 1.0160010440007519e-02
      -1.9128348884675805e-01 -1.4171652788665190e-01
      2.1771266685762920e-02 -3.4067503567069119e-03
      6.4312585538645023e-02 6.1700579596806437e-01
      1.2724006093729037e-01 -2.2560311341943182e-01
      7.4214062277212098e-02 3.1513748906373235e-02
      -5.3183968048744534e-01 -1.5476896493915937e-01
      -2.4035635405165098e-01 -1.1284352943961717e-01
      3.4937298046037130e-01 -1.2101950755180839e-01
      1.7138409686481108e-02 1.4005099441602467e-01
      -3.0949089588298856e-01 -1.1799380321197984e-01
      4.8422015457239337e-01 2.9826614334757789e-01
      2.5498766474247059e-01 1.8386537730371456e-02
      3.4523425126053453e-01 8.9913500519804290e-02
      6.0043754702702484e-02 1.4081449573930632e-01
      -4.9839782966315345e-03 4.6463615900984273e-01
      3.5768957639066090e-01 -7.8650600424624198e-02
      2.0941678367408201e-01 3.5152015254390540e-01
      8.9393291792312035e-02 9.3986888780210054e-03
      -1.1588094180920197e-01 1.2561431883624380e-01
      3.6146508628143426e-01 9.2214489788533541e-02
      1.8835702893537076e-01 -5.6210452616589149e-02
      -5.0576242552081291e-02 -3.3610291287917743e-01
      -4.4629316079186770e-02 5.4158745613881662e-02
      -1.5366684317069079e-01 4.3389252915219728e-01
      -1.1204385871247982e-01 5.5031085997872459e-02
      1.6596277156380534e-01 -8.4442213948522749e-02
      7.8481781164241857e-02 -9.7384137039644089e-02
      -1.3547236370029872e-01 1.4410372522311043e-02
      -6.6503351635168781e-02 -3.5436965912491858e-01
      -1.4859435353964726e-01 -1.3156715770469801e-01
      -1.4234889188632244e-01 -8.4666684489150532e-02
      -5.6073964597330750e-01 2.7268866815562783e-02
      -1.1438721606591415e-01 -2.8562325258950044e-01
      6.6900002419605686e-01 -2.8161356808417991e-02
      5.0430923602984234e-02 -1.2863416167772115e-01
      1.0608975260024242e-01 -8.6777741214546372e-02
      2.2143668279509457e-01 5.7836164753823893e-01
      1.3452781308332859e-01 -6.6065203249002183e-02
      -5.7382613680315844e-02 2.1315770420720856e-01
      8.8325371139243616e-02 -1.3750126474026247e-01
      -1.1111446471629025e-01 -3.5422951423139160e-01
      -6.0524629462815262e-02 3.8657844773831176e-02
      4.0869565218954718e-01 -4.5491191399218457e-02
      -4.3152282245582152e-02 -1.1825281045080249e-01
      -1.1432001354049913e-01 -1.7286883802286473e-01
      -3.0949966934760313e-02 3.7471663485228922e-02
      -5.9434580906348955e-02 3.2828185161513024e-01
      1.9179589497568797e-01 4.5188831159531900e-02
      -2.5649973049597010e-02 -8.6150597688157190e-03
      -3.5551366681211673e-03 2.2079147016616368e-01
      1.9809166452443093e-02 6.2334747797581858e-02
      2.0488411234721945e-01 -8.2992801805130342e-02
      1.0125446856703722e-01 -3.1357065109058238e-02
      -7.2443896011930908e-02 -4.4858972844167573e-02
      4.5555066439570902e-01 9.8317725579690665e-02
      3.7870055062594284e-02 4.3305556413039230e-02
      3.0440853321572130e-02 -1.2642869680864890e-01
      1.5536104999173292e-01 -6.0475540112616959e-02
      5.7846023311949402e-03 -1.0973648054010793e-02
      4.8630060689582186e-02 1.2609162879287025e-01
      1.2566833235994604e-01 -1.2880054464981727e-01
      -1.6560994283518757e-01 -1.6909487246786661e-02
      -5.4185048429143345e-02 -3.1237335497434870e-01
      -1.6378542182048497e-01 2.4481146940838056e-02
      -1.2076900334277868e-01 4.9989356130114993e-06
      -2.4685755667639218e-02 -4.7627481655771027e-02
      -5.9729261893107455e-02 -1.3239140373470401e-01
      2.4736761640528605e-02 1.2686920180602734e-01
      -8.5252164505776662e-02 5.6887379738609106e-02
      -9.4435006231299537e-02 -4.9233241807517033e-03
      1.4882134891789594e-02 -2.8516256181791699e-01
      9.0803724263049349e-02 -4.5818342004571189e-01
      -1.9411867997893789e-01 5.2058302058993844e-01
      2.7460130762423962e-01 1.2394628135108253e-01
      -1.5587836915292205e-01 -1.5937699603040162e-01
      2.0634676633886882e-02 2.4896219067911091e-01
      5.0022462960285097e-01 -1.5557649456230477e-01
      1.4337502904765448e-01 -1.2695589298741882e-02
      5.5727439161521036e-02 2.3297379061687044e-02
      2.1185555710502797e-02 1.0512814937489619e-01
      -1.4010159735377545e-01 8.6593496811822213e-02
      -4.1741608594674247e-02 3.3373191729252460e-01
      2.8019030838087239e-01 -1.4698167259254333e-01
      1.3777024750997188e-01 1.2680054938215440e-01
      -4.3446996840710439e-01 -1.6890568919903073e-01
      -9.3492065644873323e-01 -2.4516069318373468e-02
      -2.9684113098267684e-01 3.5734888223190348e-02
      -1.8000494709658305e-01 -2.0226012285594400e-01
      -3.2012346491067289e-01 6.7818378761115485e-03
      -9.3484717683476118e-02 5.0850299137422006e-01
      2.8813635682016109e-01 3.0659894618771572e-02
      5.4200205238363652e-01 -3.9823413396141448e-02
      -1.7169673280343564e-02 1.3900217939286730e-01
      -1.6291990370162410e-01 -5.0290266514732129e-01
      6.2731214575308825e-01 2.5557808407659977e-01
      3.2056965944865262e-01 1.8854654365823312e-01
      -1.6576708517722460e-01 -1.3177386458423915e-01
      -2.5428483964591488e-02 -3.4062008808697433e-02
      2.2956841387922597e-01 2.0003526823861006e-01
      2.9467839526682976e-01 1.5112790707929749e-01
      -8.5538610376627286e-02 -5.5701335995184476e-01
      6.4488142868548417e-03 1.1540942162003646e-01
      -2.8423005673385505e-02 2.2293824828495551e-01
      -1.2728980109283283e-01 1.7698838715776602e-01
      2.6595651466550801e-01 1.3772482863802935e-02
      -2.2530145128079709e-01 -3.2120420106649179e-02
      -2.5454137873183579e-02 -4.8613300569527833e-02
      1.7896780313492516e-01 1.7467933940594418e-01
      -4.7576393895652214e-02 7.1478183076662205e-02
      1.4665812837826991e-01 5.3744295527608310e-03
      -6.8164436872790968e-01 -9.0840677914175619e-02
      1.6136440635913923e-01 -3.7547520563461190e-01
      -7.0160129686267347e-01 7.4396887771094447e-02
      1.9836830753410745e-01 -2.5481511549568509e-01
      -2.2628003141063929e-01 -1.8659468327093584e-01
      -1.8838478561636590e-02 -1.6859174248344533e-01
      -1.2855053059876023e-01 -2.3748404335847773e-01
      1.2380616333595298e-02 3.0791514448430185e-01
      -4.0461905739331068e-02 -1.4114180453483799e-01
      1.6305663940582010e-01 -3.7305173180554110e-02
      -9.0482929131677714e-02 8.5948189003863154e-02
      3.0991432148205666e-01 -1.8102297524785785e-01
      -3.4351218006752726e-01 1.0732468202308906e-01
      1.5304981324874523e-01 -2.7533762051799804e-01
      -2.6520799067447021e-01 -8.4898834900401510e-01
      -8.7750255881253431e-02 -4.1918204115461233e-01
      -1.1612487536692698e-02 -1.2590867710211848e-01
      5.0329753622594932e-02 -4.9100088127655467e-01
      -1.0426909198252175e-01 6.4036315091280119e-02
      6.0020583324506160e-01 3.4850317320956770e-01
      2.0547158146406119e-01 6.2567755928476598e-01
      6.2726350891771657e-02 8.7966593394338405e-02
      1.2547580740146438e-02 9.1808147472308199e-02
      -1.3771255324416362e-01 4.0541784928197844e-01
      2.5231340352239617e-02 4.2789654532311661e-01
      2.2927364201183265e-01 -1.7124721691571587e-01
      -1.2974691812607664e-01 -9.1929699785585170e-02
      8.7994069503450095e-02 2.3512540005063937e-01
      2.8088380597807366e-01 4.3061771839405283e-01
      1.4634330751882779e-01 -6.5589948551176586e-02
      -4.4959701758410087e-01 -1.1601282718850472e-01
      1.3398816864393034e-01 2.6976808086668164e-01
      3.4436701871760717e-01 2.2902984799536083e-01
      1.7678338751186526e-01 4.0564653942595447e-01
      -7.7916974968414432e-02 -1.0126595203010418e-01
      -8.7714141246264268e-02 -1.1170665342688660e-01
      -8.6354944942789266e-02 2.2089521083778371e-01
      -2.0668510969280937e-01 -5.0285378431803147e-02
      -8.7277960957316283e-02 -8.0171334967936631e-04
      -1.1080896119368348e-01 -5.7783298566490682e-01
      7.4119296814710550e-02 1.8620932852310706e-01
      -2.9887415402226469e-01 -5.8873262377237036e-02
      2.2216389814275372e-02 3.0371098964897936e-01
      -3.8768665389732238e-01 3.5050061103600441e-02
      -1.4481722182566265e-01 2.3407393908656429e-01
      2.0088625561566784e-01 -4.9433877868515635e-02
      -2.6336254490505689e-01 2.9590341846325079e-02
      4.3472150989456737e-01 -2.7663210268947535e-02
      -6.0205636668577686e-02 6.4836593059518000e-02
      6.6652282968237744e-03 -2.0681660562948354e-01
      1.3473752359506036e-01 1.8158366703612522e-01
      -3.9104617684097626e-01 -1.5928710730677650e-01
      -7.9363844083042798e-02 3.6838316759620265e-02
      2.3913735404655762e-01 -8.7327713162954290e-02
      -5.1305580839035347e-01 -1.3148111755197273e-01
      -2.7734742328649969e-01 7.3156891787576381e-02
      8.7027315532245131e-03 1.5394290059810378e-01
      -1.9533095726613492e-01 -1.3787708093039350e-01
      -1.0484973683315119e-01 2.3117182433881014e-01
      9.1610416528355373e-02 2.3511031313407374e-01
      2.2652323532355106e-01 1.2900797712900230e-01
      7.4901311842997434e-02 -1.6637521248074810e-01
      1.8773104179081868e-01 -2.9562845121997118e-02
      -1.3846296644155641e-02 -3.0223753692129537e-02
      1.6854638849563749e-01 -2.9740920515021980e-02
      -1.4502599928804522e-01 -5.5934147603938569e-03
      -1.1153035716436652e-01 5.5254649022035571e-02
      3.0166746155784494e-02 7.8528278409274316e-02
      1.8902066529464126e-01 1.2848497423556593e-01
      -1.2963751897342354e-01 -2.0872937039803072e-01
      -1.4957181335274891e-01 1.7348898680189597e-02
      2.4479572545827480e-01 3.0814587256534642e-01
      3.9989975391458055e-01 4.0158802278194614e-02
      1.7092160263641146e-01 -1.0892943033829752e-01
      -8.1938423321234993e-02 -1.4094398266610300e-01
      -6.3765783844440302e-02 -9.0163193250397511e-02
      1.8729809941539063e-01 5.6399275881703140e-02
      6.6937104354339833e-02 -1.8730223718286942e-01
      2.5509477019573186e-02 -1.4539935466119921e-01
      5.3114047538656553e-03 1.8722726314609692e-01
      -1.8732256642497950e-02 -2.6239440116303453e-01
      4.9899996654186951e-01 5.4921098857245096e-02
      2.0999340887696144e-01 -2.2339147615933841e-01
      -8.3726913057159472e-02 1.7673643700602967e-02
      3.4284733083865676e-01 3.0866481858624900e-01
      -8.0046812935651218e-02 -1.5826581151060495e-01
      1.4438389845926988e-01 1.8324490524139031e-01
      -8.7300192388305345e-02 1.5773936643443578e-01
      8.6131917360028037e-02 1.5606235469270871e-01
      1.7937416238844073e-01 -1.0519409451019231e-01
      -5.1638790375819393e-02 4.6442852704374521e-01
      5.9725336684546861e-03 2.3340223576312377e-01
      4.1950908904218681e-02 7.0428003592889393e-02
      2.2670761430713754e-02 -2.3386492181887467e-01
      -4.0853552759759749e-02 4.2951846130102322e-01
      -2.6509661457683542e-01 -2.7645005870899068e-02
      5.6336970447278346e-02 1.6587445592770253e-01
      -2.3271493763755806e-02 5.5982461396232308e-01
      -8.3881418245227726e-02 7.6156485964030948e-02
      -4.8534332409523268e-01 9.5157771342054082e-02
      -1.7716365038901373e-02 -6.6507489976426262e-03
      1.0425881850149755e-01 -2.0623236459056782e-02
      -4.1924618622573212e-01 -4.8110182562651371e-01
      -1.8398719764650209e-02 6.5210506019966683e-02
      2.9343522161313679e-01 3.1342171706477982e-02
      -1.4754144444772438e-01 -6.5064126841605664e-03
      -3.5737194701487486e-02 2.5792318995852564e-01
      6.2088438783096431e-02 5.4089173313065023e-03
      -6.0668971336986493e-03 -7.7674814712013249e-02
      1.0630453692818726e-02 6.7789595086564652e-02
      -5.2038376486768387e-02 -8.1805990421213095e-05
      6.5451463107660135e-01 -3.3940270024962799e-01
      1.0988343364060651e-02 -2.0949137989770005e-02
      1.8631545197765650e-02 3.2846524331874349e-02
      -7.9268533844471297e-03 -2.1488360903148276e-03
      2.2935271148152372e-02 3.5693900485619821e-03
      -1.2081836584972225e-01 -2.2500608369634792e-01
      -8.2048103379190246e-02 -5.7047181276090063e-02
      2.0637188734153863e-02 1.6300677325446267e-01
      -1.5362364700760150e-01 1.6593638976573791e-01
      2.1679870771765426e-02 -1.5414152067399711e-01
      -2.2899916695984800e-02 5.0412367132853415e-02
      -2.3308532799555248e-02 3.6530674728575664e-02
      -4.3898442168892098e-02 -1.5958461801190041e-01
      -1.7184092579021773e-01 2.8088808378016833e-01
      -2.0615584121764099e-01 -1.5901426110008229e-01
      -3.5119519269569584e-02 5.4982067698783277e-02
      -3.3622792466529071e-02 -4.1367757089163272e-02
      1.3987196800721008e-01 1.7612633719781109e-02
      3.4799315711893423e-02 2.5406568520596934e-01
      1.0449702542498561e-01 -2.1255404209598061e-01
      2.5183782949122161e-02 8.0144886533246945e-02
      -2.6062466902460524e-01 -8.3558549279856648e-02
      -1.7052369858498578e-01 -1.1642995573666534e-01
      4.9359018070393407e-01 -4.1392503957893068e-02
      -1.5734079779524353e-02 -4.1238044937652138e-02
      -2.0748534882662506e-01 -1.0186625628492023e-01
      3.7592566578189757e-01 6.9607308221168396e-02
      1.6156339614412149e-01 -3.0212734783741985e-01
      2.2464625181262929e-01 9.9429815534045327e-02
      2.4499287708563466e-02 -1.2175310443796844e-01
      -7.2900194685742131e-02 8.5070621820211009e-02
      9.1944282495454790e-02 3.3861801476151657e-02
      2.4332889469856769e-01 1.2424768015671912e-01
      -2.2701397083495521e-02 5.1854009423471299e-02
      -1.0813352851359866e-01 5.7609165589866992e-02
      -4.0077111329151871e-02 1.9155779032599246e-01
      1.4468624161159804e-01 3.4921617286587277e-02
      -1.0223372310516958e-01 -1.2453111147982390e-01
      -2.8073568998056284e-03 2.7585133983486183e-02
      -1.6619304758672374e-01 3.0665881178215715e-01
      -1.6550508311562281e-01 5.5289799562046618e-02
      1.4151450779499988e-01 -8.4289658718709942e-02
      -1.2269946303998190e-02 -1.1165263938729600e-01
      -1.6326080175658739e-01 -3.6462743880358355e-02
      3.1627644605768189e-02 4.2042626457649383e-02
      -4.6509657340253696e-02 -9.7841259703742647e-02
      4.9533985281338039e-02 -6.2334467865160767e-02
      -2.2329986581217623e-01 -1.0129771967279112e-02
      -2.1674093017801349e-02 -2.2394419848728975e-02
      5.7963234589531787e-01 1.0627812771959273e-01
      1.1758635784836570e-01 -1.5214359188089630e-01
      -1.4755580182934949e-01 -1.4920101892861537e-01
      -4.4320636606561478e-02 3.5777629311154108e-01
      5.2779640996282851e-02 -4.0003207871260035e-02
      -1.5483813854371456e-01 2.5501605340057226e-01
      1.5716871092624862e-01 5.8948347233863253e-02
      2.1227476192355450e-02 -6.6452684778110643e-02
      -3.3958882658636426e-02 2.0805300154960425e-02
      1.8656724841292463e-01 -1.4592627518501602e-01
      -1.4961137050704841e-02 -9.3458504799601300e-02
      -7.2068138393389797e-02 4.3378183165873434e-02
      -5.8502664166167104e-02 4.5194782223771268e-02
      -4.4127638138973191e-02 4.2960849580562332e-01
      1.5641815445527366e-01 6.4849441162716584e-02
      -3.5659700049571669e-02 1.9172343758782469e-02
      3.3232730555458586e-03 2.0617534383269279e-01
      -9.3614228533692792e-02 3.4704088326990110e-02
      -1.2029222726563593e-01 -1.4403795730280938e-01
      6.9179837581920603e-02 -6.1300852033970732e-02
      -1.4551435261388149e-01 -1.3225343774239015e-02
      2.8394186867703519e-01 2.6358935541216269e-03
      1.1851692138834621e-02 9.0853007636637964e-02
      -6.0426166203785693e-02 -1.7125032184077080e-01
      1.4185997977089171e-01 -4.4864715101686402e-02
      -2.3504890940406357e-02 -2.2087591814661348e-01
      8.9773739721656295e-02 8.5341128088982365e-02
      1.3382669154581292e-01 -1.2884848528311252e-01
      -9.1555937069559057e-02 -7.4562163915587723e-03
      -3.1682002480053664e-02 -2.2428591781224735e-01
      -9.4702512528110974e-02 1.1925744006143711e-02
      -9.0577747460435273e-02 -5.8629978958170464e-03
      -1.9173707535618593e-02 -2.5366092624696322e-02
      -3.6110140397320953e-02 -1.6782692289576082e-01
      -8.1620498462797505e-03 1.4212570390508569e-01
      2.1520354261574209e-01 5.1752723372999028e-02
      -1.5288689301418842e-01 2.5834835033647204e-02
      3.4340225564620352e-02 -1.5355033799804402e-01
      5.5040351502216193e-02 -9.8280142466581275e-02
      2.3002882871287480e-03 7.1800604305468974e-01
      2.8322823275099440e-01 1.7264062687861678e-01
      -1.7693116064719025e-01 -2.0288298179398928e-01
      -1.7872644689362203e-02 8.9130680654068609e-02
      4.3224551191054428e-01 -1.4314334750701457e-01
      -2.9375910865822710e-02 -6.3862826379325263e-02
      9.7203276047296977e-02 6.9610403372186047e-02
      -1.0803648214421511e-02 1.3101639973904161e-01
      -1.2216466324161422e-02 9.0851654887927222e-02
      -4.8855665685739083e-02 -2.2325924441365375e-01
      2.3584403615876290e-01 -5.2395870191305170e-02
      4.9423674074283060e-02 5.7788300165427277e-02
      2.5865972301212914e-01 -4.7258865564398803e-02
      -4.9541457761572810e-01 -1.4545989717382241e-02
      -1.6252110829474439e-01 6.7766476672896730e-02
      -9.4318056085952090e-02 -2.0319690623506920e-01
      -8.5778729477336876e-02 7.8137345255475887e-02
      -2.9638568191913023e-01 2.5037987727113092e-01
      1.9659058195972881e-01 6.3059555758673669e-02
      2.9845713846161498e-01 -2.9916460270329296e-02
      -3.0927343915299863e-02 8.8886685066771942e-02
      -1.5651328352119065e-01 -5.2275204821344023e-01
      3.8387147606780653e-01 2.5822956179610962e-01
      1.6832124828038958e-01 1.4804937638410742e-01
      -1.5729124343256581e-01 -5.4694120176925147e-02
      -2.4522309209996512e-02 -9.6691297371678808e-02
      2.0932190258510994e-01 1.0488848452057385e-01
      8.0136306800015392e-02 1.2697817972085257e-01
      -9.9951941362324326e-02 -1.5903060315200773e-01
      7.0360700720126998e-02 3.4070458889853501e-02
      -1.3044871148189172e-01 1.9958752037264413e-01
      -5.5357046445067309e-02 4.8001293282225042e-02
      8.8926668835182687e-02 3.0919515176642886e-02
      -1.2893933039632388e-01 -3.9996391289843974e-02
      -2.1353755612040944e-02 -4.5673733813988308e-02
      1.2504375704177403e-01 4.2177631426303197e-01
      4.0061269671367618e-02 6.6907952169918197e-02
      1.7598081321727593e-01 8.5269899236424859e-03
      -2.1384267873491117e-01 -6.1601611353653080e-02
      -1.2403702653008893e-01 -1.7979696380172783e-01
      -7.0396780878949472e-01 1.4303762468047801e-01
      8.7501233197188860e-02 -6.8023413656117179e-02
      -2.3215834130891025e-01 -1.2843146815410975e-01
      -6.1761698387411711e-02 -1.5140809172263317e-01
      -1.9175748766812473e-01 -1.0500153372503132e-01
      -4.4248305667596174e-02 8.3241220862778978e-02
      -5.3064021107537725e-02 2.7534519536851062e-03
      1.6331653764717238e-01 6.6827841023655698e-03
      1.1293609952714007e-03 5.5082069931368036e-03
      -2.0870383725615446e-01 -5.0593730032345165e-02
      -2.1213053098032100e-01 6.2145633708863980e-02
      1.8668490825275479e-02 4.8954841703470992e-01
      -1.3315261562969358e-01 -2.3287274997042695e-01
      2.3924451271260965e-03 -1.2574645378539628e-01
      9.0344083537378703e-02 -3.8364196274139617e-02
      2.2628387538788146e-02 -2.0146979904964182e-01
      8.5799413782185006e-03 1.6517972370562600e-02
      2.2483635634352481e-01 2.4707426704312996e-01
      8.5295028690074284e-02 3.4447708544018163e-01
      1.0754376215102749e-02 2.6055576431218249e-02
      -5.2328782641177643e-02 1.1501021340253979e-01
      -3.0643829018404145e-01 2.1324335005641404e-02
      1.3721304581824557e-02 2.4668845154876270e-01
      1.0357906670576997e-01 -1.8112558180744101e-01
      -6.6699025790764352e-02 -1.5513311197363877e-02
      1.1718586437970704e-02 9.2768769408789198e-02
      1.6935389790922278e-01 1.8928726935292464e-01
      1.3947904043979478e-01 -5.9754809087721246e-02
      8.3239306623029471e-03 -1.6249161542487726e-02
      2.0444660623392591e-02 6.4713052238900531e-02
      3.0473990179092697e-01 1.7805146343942091e-01
      8.0263542998989374e-04 1.8401703712830547e-01
      -3.9944128970224790e-03 -6.9534982974604795e-02
      -7.6399337226494600e-03 -7.2970304575529693e-02
      5.7175656613789878e-02 1.7542032470093621e-01
      7.2181920341144207e-02 -4.6819975950602208e-02
      -1.0655229876637361e-01 7.4510631313918399e-02
      -2.2632921500481559e-02 -1.2388777972697683e-01
      2.3954909646711358e-02 -5.2747210867196831e-02
      -2.1198493366539499e-02 -2.7561308539332469e-01
      1.4394556414572568e-01 1.7428958445569956e-01
      -1.9045481428338012e-01 -1.0691697610024385e-02
      -4.5631368429558776e-02 1.6891566709275208e-01
      1.2596991374981278e-01 -1.7282187968705703e-01
      -1.3419697342738102e-01 6.1464406475124345e-04
      1.7825079544616071e-01 -1.0667558022120759e-01
      9.6218787199661981e-02 1.4381695552588672e-01
      1.0724851760272029e-01 -1.2900417324023541e-01
      7.4668690305388502e-02 -5.5343254878346640e-02
      -2.5582417835502713e-01 -8.3606841578486094e-02
      -3.2446596310311084e-02 -1.1312459073607136e-02
      5.7279685153335425e-01 -1.7099671643607112e-02
      -1.8090713482777662e-01 -5.9620744340637126e-02
      -2.2254340312054466e-01 7.1161068698918403e-02
      9.6323934473606085e-02 1.7033419215717607e-01
      -1.2699404309836961e-02 -4.8284426347004993e-02
      -9.7227854821214182e-02 1.2372779311145171e-01
      4.6246642821487827e-02 2.4546697388041883e-01
      6.4342633090862841e-02 5.9691138648531171e-02
      4.9290855271976262e-02 -1.7679461530315385e-01
      1.9445632561162698e-01 -1.5274610575408101e-01
      -1.9691225158267897e-01 -2.7028768979059769e-02
      5.7326063338610393e-02 -7.8791761319814621e-02
      -1.5803670479974055e-01 -1.1829302732518253e-02
      -3.7967612522101318e-02 2.4842496489545948e-02
      -3.2615396181162368e-02 1.2955072764980632e-02
      4.7811857340876375e-02 9.8860732473170315e-02
      -1.1932479933469371e-01 -3.1277407894614397e-02
      -8.6319656814037929e-02 -6.0167489941296434e-02
      8.6723204536435658e-02 3.0874941047481858e-01
      3.7727104690627900e-01 -5.9971273352193211e-02
      4.2096195787254043e-02 -3.4049805565499053e-02
      -8.6230102414228977e-03 -6.3572600760956624e-02
      -3.4097078613837546e-02 8.7053083522685946e-03
      1.4063698181866427e-01 1.2952401919678219e-01
      1.3087703877412243e-02 -1.9105782008999420e-01
      2.3175037361249262e-02 -5.1298615324916995e-02
      8.8803236752998158e-02 1.3192932700093599e-01
      -1.8392772278346853e-01 -9.1310834312772121e-02
      3.5956564019630205e-01 1.1194720601258562e-01
      1.1176418897936413e-01 -1.0897826971203227e-01
      -3.7333731129742804e-03 8.7806121470356588e-02
      2.7552996480433917e-01 3.2546707182830809e-01
      -9.3062874790060993e-02 -1.0045298601780005e-01
      1.3045322054041755e-01 3.0900290965972622e-02
      -1.2027978370733147e-01 1.8590891997017467e-01
      9.5034040182384830e-02 1.7153438620703326e-01
      9.9478452773486117e-02 -7.9461476707082340e-02
      -3.5921382818332431e-01 6.8743810252126350e-02
      6.5648257080725247e-02 1.6178707866122355e-01
      1.5461160673650984e-02 -1.0287700644868546e-01
      8.7663789410688447e-02 -3.3802623125726206e-01
      -7.2028716367834988e-03 2.2341268491825542e-01
      -2.6539387307337392e-01 7.1711190124403093e-02
      2.3402005399142911e-01 2.2069797762356594e-01
      3.1574304444731846e-02 4.2331004452690768e-01
      -2.1914788008144637e-01 -8.7418728693058750e-03
      -4.2864241499440370e-01 8.5573101272619065e-02
      1.2419591971330255e-02 -1.7191071980955496e-02
      2.0579592931063945e-01 9.3735329036413712e-02
      -1.5070359352068904e-01 -3.6388767659584331e-01
      -1.4956862936115070e-01 4.7884909910779552e-02
      4.2837874068092696e-01 6.0911317761838314e-02
      -1.3314007707431316e-01 8.5613469084218907e-03
      -4.0682818743416900e-02 3.3143398466880447e-01
      -1.5938396672796801e-02 -8.4568688868516678e-02
      -5.3559016385472974e-02 -7.2111518348167841e-02
      1.6798035078576801e-01 9.8561876912541049e-02
      -7.8627510641851875e-02 2.6049045401600529e-01
      5.0277586469943403e-01 -7.4715004119527181e-02
      -8.0429970291760033e-03 -5.3536942794794214e-02
      1.8429735069749178e-02 1.0099565521049865e-01
      -1.1941548644576600e-02 8.8433303897121590e-02
      1.6404838108628157e-02 -6.6479023548285512e-02
      1.4567584427789107e-01 -1.7380793584431875e-01
      -1.0577104340525111e-01 -2.2999923699880251e-01
      1.0534015090749346e-03 3.5205522325084343e-01
      -1.0867829766413506e-01 3.3484402622434423e-01
      -8.1584792298481562e-02 -1.4592970502486663e-01
      -9.5902371847995771e-02 -1.4858560429658335e-02
      5.0597648796476227e-02 1.9335107279755681e-01
      -6.5150634258868162e-02 2.1480002776755734e-02
      -2.2412260542146073e-01 2.0084503510109256e-01
      -3.4693825471224493e-01 -1.0811264326771691e-01
      -4.0357847488667479e-03 5.1350619740465855e-02
      -2.1022597959926984e-01 -6.6007813659829287e-02
      -5.9212418789596599e-02 -1.8977163282224888e-02
      1.4700617241761174e-02 -1.3596029061779294e-01
      -7.2894862758618076e-02 -1.8058799625664063e-01
      -4.1628848478344450e-02 1.6675229208423070e-02
      -2.0001734840835596e-02 -1.4410069345498981e-02
      1.6476110324305164e-03 -8.9700657213423490e-02
      1.7269369700611858e-01 5.7280762182039889e-02
      2.8009536031549279e-02 9.3653716956451111e-02
      -1.0753206307116848e-01 -3.9517101674263547e-02
      2.2622075483702384e-01 -2.4173728295057920e-01
      8.6545492839588442e-02 -3.8316514106200994e-01
      1.5227903945127913e-01 9.1486979190380735e-02
      2.2662825656226713e-02 -8.0352173836018684e-02
      -7.1032787909970849e-02 9.8119711460535025e-02
      -1.2793440253684871e-01 2.5016180279035577e-03
      2.0791158531110712e-01 -1.6851330785550730e-02
      -6.3211741197274629e-02 5.0203560914824565e-02
      -6.5249921211497308e-02 3.2085874415324935e-02
      -1.7809693535846971e-01 1.6524865041212383e-01
      8.3959979912471241e-02 5.8706304539193718e-02
      -8.3237025851415430e-02 1.3308776142032713e-01
      3.3140054674951611e-02 -3.4814562497585071e-02
      -1.9320417154732473e-02 1.9567312775635143e-01
      6.5473946424648892e-03 -1.5954488352376138e-02
      5.4628906211648759e-02 -5.9747112541215432e-02
      -3.3085010668929000e-02 -9.3119481461857667e-02
      -1.0941837775833305e-01 -8.4789212503065987e-03
      2.2118638879246377e-02 3.8985078611225993e-01
      3.2962175168553154e-02 -8.2423929802275218e-03
      -2.8627870278888766e-02 -5.7519759950017617e-02
      1.3504425188366020e-01 2.3211587749555795e-02
      -4.4860711201905802e-02 -1.0244044001844861e-01
      3.3676402107476078e-01 1.2529354279443039e-01
      1.1181454048613224e-01 -1.2641456750196922e-01
      -6.2021768744232632e-02 -8.9941459204055899e-02
      1.3783017030906541e-01 1.2217460469272391e-01
      -8.3266917069368937e-02 -1.5532067111722402e-02
      -1.5794972247238706e-01 2.4447743863153065e-01
      1.3957297805661065e-01 9.4300682428236412e-03
      7.4239569583056358e-02 -5.9019885821587181e-02
      -7.3292461124966832e-02 3.1108701350241859e-02
      3.2231956048872759e-02 -2.5267119746620892e-01
      -5.2450683076738801e-02 -9.6124387256841165e-02
      -6.5664590430174863e-02 1.6699816619886476e-01
      -7.8692363486210476e-02 6.6528288453067408e-02
      -2.1559421058631054e-02 -1.0561849637458005e-02
      1.4574866848610882e-01 4.1145833847204258e-02
      1.9185370329195173e-01 -2.0144018675641692e-02
      7.9303332553920802e-03 2.4196847645842529e-01
      -1.7816997928706932e-01 2.6282052644189327e-02
      -1.7155705967018545e-01 -6.2427555877364954e-02
      8.1470003475961228e-02 -2.4554043558673879e-02
      -6.8615112940607320e-02 -1.2403419545606193e-02
      2.4589368491758792e-01 -1.2178485487296797e-01
      -2.5247935161551265e-02 1.2140073532568368e-01
      -1.4304140746651947e-01 -1.6424496686423926e-01
      1.3465557493505581e-01 -2.7338966010275412e-02
      3.0670156231267782e-03 -2.4000135068343767e-01
      1.1855137246192263e-01 8.2861663075295369e-02
      1.6417081899601388e-01 -6.0522631915290628e-02
      4.5950033030499937e-02 -1.5793525358659563e-02
      -1.9642870208193535e-02 -7.9445424874198298e-02
      -8.1805045306707104e-03 1.1053480151151630e-01
      -6.5207490090373549e-02 -7.8439322791049699e-04
      -1.0446985760250511e-02 -3.4541386284442539e-02
      -4.1802916485765812e-02 -1.5639474202547893e-01
      3.0000928882872729e-02 1.0144177669397876e-01
      4.0907062691401730e-01 6.4959624995125850e-02
      -6.5007950710738449e-02 -9.5437795369895093e-02
      1.2861185203388196e-02 -1.0985828592351120e-01
      8.9887304159195755e-02 -1.2616912930183247e-01
      -1.5784238643340978e-01 5.7485712516011889e-01
      2.3566688982124187e-01 1.6647549835044662e-01
      -1.8767526992911338e-01 -1.7875336214554002e-02
      -3.1520046164991947e-02 2.8115808971446693e-01
      2.9649584558724573e-01 -1.4545176066921556e-01
      -7.0322258589921902e-02 -8.3724656348697635e-02
      1.0929525936860682e-01 4.2621743258780397e-02
      -4.9984495793178506e-02 1.4487671921559370e-01
      -3.7239247330815912e-02 -5.8613302773260646e-03
      2.2629931144912248e-02 -3.8781027513760474e-01
      -4.9912858586316472e-02 1.0563865907598476e-01
      -7.8959114424811006e-03 5.7108290313050682e-02
      2.6321117094157681e-01 2.6760371947487604e-02
      -2.8187740958761054e-01 -8.0755262112054194e-02
      -4.3943876323101469e-02 1.4007545098871696e-01
      -8.8043927455563317e-02 -2.3070731875690323e-02
      -3.6011976887806050e-03 2.1306121759912554e-02
      -1.8163867419146737e-01 1.5040143405922812e-01
      7.7800803020587728e-02 1.2010903562842824e-01
      2.6093216037342642e-02 4.3550187946603446e-02
      -2.1066313401562006e-02 1.6432970121176960e-01
      -1.1895313708791928e-01 -3.1808547804484810e-01
      5.6061885819609392e-01 1.2073922738023803e-01
      -3.7037421291072861e-02 2.3194236403150800e-01
      -1.1672383523586437e-01 8.1516085317737533e-02
      -7.7009596267379937e-02 -7.4365395417923738e-02
      2.8050130359392833e-01 -4.2812205895384141e-02
      -3.6796867406676682e-02 9.5163303073867625e-02
      -5.5579873934664362e-02 -1.7889977240144053e-01
      6.0335728431105136e-02 -1.3711076976978291e-02
      -1.0343978201664468e-01 2.2877607509143041e-01
      1.8052291906197587e-01 7.5096412753030781e-03
      -1.2742151811876812e-02 -2.9956733684168492e-02
      -5.7459400754693433e-02 -8.1179183263833180e-02
      -5.2468767685907624e-03 -1.0476599757902430e-01
      4.5802059303602795e-02 4.8012262907017444e-01
      4.2929836825414597e-02 6.2643088108205007e-03
      4.4005537669690738e-02 -2.2821322495416792e-02
      -1.3187161947820306e-01 2.2658259810590432e-02
      -4.3144750588294803e-03 -1.6028482034483285e-01
      -1.2457587892753494e-01 1.2808353970038547e-01
      2.7262832750929798e-02 7.0720988609508113e-03
      -1.5763229108754551e-01 -8.9772288388523983e-02
      8.0636748285112719e-02 -6.4698448250400456e-02
      -2.9648753635387592e-01 -1.4643128385795010e-01
      -2.1423593285795080e-02 -5.8687886917397791e-02
      -4.1042923941578963e-02 -1.2892626777045149e-01
      1.2988508814541311e-01 -2.0091705898285206e-01
      4.5525614130397227e-02 -5.6558570371864687e-02
      -5.4158842252202666e-01 -2.7946005325457653e-02
      -1.5504329935795641e-01 -4.9600700840943479e-02
      -4.7297657838966417e-02 5.7958419209772927e-01
      -2.9937728936198717e-03 3.0079780263324185e-01
      3.9385322735444248e-02 1.3451233125413203e-01
      2.8560064297107218e-01 -1.0689176092617370e-01
      6.2877939005804545e-02 3.0644878423574714e-02
      6.0914651992403555e-02 -1.1178632369461582e-02
      1.3920044082225460e-02 1.0664358719969860e-01
      -9.3825547514242325e-02 -7.4603430657892114e-02
      -4.5578482974445505e-03 -5.9167536244145086e-02
      -8.3613660914721624e-02 6.4260911542142404e-02
      -3.8269606626196334e-01 -2.3061534242726795e-02
      1.7031744353884385e-02 4.7565637254429763e-02
      9.3973621518224915e-03 -1.3585848495548206e-01
      1.1354240195798122e-01 1.9404894595447971e-02
      -8.5431677340242068e-02 -1.4012558345391399e-01
      1.0460177983177077e-01 1.1043021130606395e-01
      1.4097701210701358e-01 -5.3047021726178818e-02
      3.3386414568783246e-02 6.9833938729449208e-02
      -5.0929984115729611e-02 -7.6981879359539471e-02
      -2.8800222522120494e-01 7.1143322564039477e-02
      -7.0430788649027729e-02 1.5220693593744960e-02
      3.1361679913997791e-02 -9.4322661956639270e-02
      2.9992595449905429e-02 -1.6142993013619163e-02
      5.9386560015642575e-02 5.8182948325271606e-02
      2.0870062676219134e-01 1.9053173915102577e-02
      -8.5798619120937433e-02 3.5778669856132504e-02
      6.2564544936053845e-02 7.0470148930608503e-02
      -2.9407119603970890e-02 -6.5091881455748735e-02
      8.3608134924227306e-02 -2.2184734738819575e-01
      1.8716429916579949e-01 1.0444245882378117e-01
      -1.0166115534857563e-01 -5.1608590328104817e-02
      5.9846140657151686e-03 2.0789529472820339e-01
      -8.2177212073492711e-02 -3.8434735181974961e-01
      3.7429658254635330e-03 -2.0091188764392470e-03
      2.8158858820526413e-02 -1.1297246718638970e-01
      3.0843325973736797e-02 1.5935618028814541e-01
      7.8207912773622976e-02 -7.1402694409049214e-02
      9.8687649179344671e-04 -2.1948519664709829e-01
      -1.3221705673929801e-01 -9.8234617361772456e-02
      -3.3007703863169612e-02 -2.6296784397244966e-02
      3.3127533167471124e-01 2.2165923304220049e-02
      1.4388312252371754e-01 2.4478630955030535e-02
      -8.8174874650119708e-02 1.5290187558589527e-01
      2.0489896385347230e-02 2.5336299780652249e-01
      4.0453231102159953e-02 -3.7742878051665297e-03
      -4.7793667626807548e-02 1.4560953958868877e-01
      3.2524092209267400e-02 2.2019054146742756e-01
      -3.5130839936073348e-02 1.7530402807964200e-02
      -5.6827720932817946e-03 -1.0032137069904080e-01
      1.6431695668940494e-01 -2.2462520866644159e-01
      -1.4867255043827224e-01 -5.6378384610285978e-02
      2.7299525771564770e-03 -6.0414099905912809e-02
      -9.9560907025520756e-02 7.4615483401233418e-02
      8.4552286433423746e-03 8.0971540263399160e-04
      -1.1863031625863953e-01 -6.2269305382138818e-03
      2.5703407109156227e-02 8.7400145508495772e-02
      -1.0455915507208875e-01 -1.7920373030591208e-01
      -3.4821006196440032e-02 -5.2036176063862939e-02
      3.1431851787225212e-02 -5.1077028270159572e-02
      2.6198886343547895e-01 -9.0235071196539618e-02
      8.4847489712739834e-03 3.5849935450380892e-03
      -7.5349165121684117e-02 -7.5601597004694883e-03
      1.7412137486552633e-02 4.8029294992618314e-02
      7.4775564297717895e-02 9.8415007305330801e-02
      -3.3643102653109470e-02 -1.7619454097743276e-01
      -7.0530168597170803e-02 1.9000857228158943e-03
      -7.1900687398731020e-03 6.1998850544056704e-02
      -1.7340329087731285e-01 -4.2785683342862833e-02
      2.9259671258488823e-01 1.2608376321579814e-01
      7.8380214475367707e-02 -7.6926415513430907e-02
      1.8825397513815231e-02 1.0156157178878569e-01
      2.7757939754639843e-01 2.0877349385575955e-01
      -1.9248985303022201e-01 2.7540955861626113e-03
      1.3727527823772953e-01 4.5529988687021813e-03
      -1.4072189323867737e-01 3.9164505220965116e-02
      9.0865689916686546e-02 1.3545628773906238e-01
      8.8639160057446181e-02 -6.1638202993329450e-02
      -5.8630537202133381e-01 1.5639120751992336e-01
      1.8198083583301525e-01 7.0080661093925453e-02
      3.1661527345410348e-02 -8.5494436962936168e-02
      1.0423641369689261e-01 -1.5252502866014525e-01
      -1.8662704475028057e-02 7.6012040104564291e-02
      -1.6817082006869891e-01 -1.0440479120195677e-02
      7.6807303435541471e-02 1.5574816916476070e-01
      6.5570422738486248e-02 2.8835047972067407e-01
      -4.8987649859332510e-01 -7.1314980980361722e-02
      -2.5713304070712967e-01 3.7492457458341177e-02
      -1.5879281227934913e-02 -5.3806204066332575e-02
      6.9577662744182034e-02 1.8234358831957283e-02
      -5.5075401235423982e-01 -4.2884740937945970e-01
      -6.6805580466583331e-02 2.1501187011220987e-02
      5.4549625714664074e-01 -4.0097564087478187e-02
      -1.1247202072688210e-01 3.1204611719159166e-02
      -7.7969061479586169e-02 2.7421283381163009e-01
      1.7862356571458203e-02 -2.0619402783641633e-02
      3.4223188696741937e-02 -7.7460473296720525e-02
      8.2419885744158969e-02 1.0442791018422248e-01
      -6.5494892443390407e-02 9.4655360456115778e-02
      1.6439896793670034e-01 -3.0443252808437307e-02
      -5.8357894507896435e-03 -3.1966898780800855e-02
      2.0914185769764726e-02 -4.6897759694740498e-02
      -6.0355332562053781e-03 1.1279859482874695e-01
      6.8405942809254116e-03 4.2135607060995062e-02
      1.6967176650368154e-01 -9.4836363166715371e-02
      -2.1499042128977429e-02 -5.2773470994395659e-02
      2.1524067493968981e-02 8.3778979278708865e-01
      -1.1716890186767404e-01 -4.5779999207998922e-03
      -1.5167092248508540e-01 -4.8215437653584570e-01
      2.9638129848084168e-02 2.9885288938945705e-02
      -7.3439109687413236e-03 -9.3905692508574168e-02
      -7.6819155892495869e-02 -1.5085779362323554e-01
      -5.2576575343143883e-01 1.5636451881609098e-01
      -1.3795202495661149e-01 -3.2199137611521739e-02
      -1.3263119160372086e-02 1.1620954234248360e-02
      -1.2347235734819287e-01 6.1068046328561679e-02
      9.6516297013824054e-02 -3.3158807716158686e-02
      4.2428184720401378e-02 -1.2418701040618556e-01
      3.1640628289085510e-02 -1.1938454556045869e-01
      -1.0211916412956380e-01 3.4235962028770793e-02
      4.9336860743276791e-02 9.3098499388058961e-03
      1.8254964135050896e-02 -8.5183323556525553e-02
      3.1670517427069306e-02 1.2285094903752670e-01
      3.2572149177107507e-03 -1.0421575240182720e-02
      -1.0250255509477639e-01 -3.5041520993131070e-02
      1.4322715292210245e-01 -3.7242699788378336e-01
      5.5500538352152649e-02 -2.2869651412370032e-01
      1.4726100492514951e-01 8.5549490881061507e-02
      2.8759662812479461e-02 -9.8526308754553968e-02
      -9.7436986823598748e-02 -3.0210207938626454e-01
      -1.8821429705866996e-01 2.5819269601640847e-02
      2.5105374632903876e-01 1.7043977742616065e-01
      -1.5130255139441037e-01 6.7505020062437943e-02
      -7.5973085671074178e-02 2.3158030597138470e-02
      -1.1066359490502126e-02 1.9235726642651169e-01
      1.2749116819604095e-01 1.3253632597267051e-01
      -7.4546795012074105e-02 5.0738364372647053e-02
      3.3081097012312346e-03 -2.2214083516159965e-02
      -1.1872358404483785e-01 1.1750502155557836e-01
      3.6085492503874217e-02 -8.4268659994672958e-03
      1.2014641556868293e-01 -6.6552358682978513e-02
      -9.9851556175056019e-02 -1.0303668663205941e-01
      -1.4721487409036277e-01 -2.9105597411126224e-02
      7.7861348209913583e-02 2.4924408291529129e-01
      6.4324733851964314e-02 5.6439694896692816e-02
      5.4594246570023722e-02 -5.5859585505149745e-02
      6.0548553080182943e-01 2.5594510392368049e-02
      -3.4631306458943523e-01 -1.7622288418485149e-01
      8.5528481537875956e-02 2.2268629694785025e-01
      1.5864697536760633e-01 -1.9603036588222439e-01
      -2.0892673733805631e-01 -7.6156682903929948e-02
      -6.1425512041553922e-02 -2.3125708708357035e-01
      -9.0450355041183386e-02 1.3952394877382518e-01
      -1.0759639280278825e-01 2.8441950909202862e-01
      1.2216973830984219e-01 4.1166127824837334e-02
      1.6870414929524646e-01 1.7855111044407786e-02
      -9.7633920740769722e-02 7.6927075569588527e-02
      2.6331355730832173e-01 -2.7011538407994773e-01
      1.4828833394251631e-03 -1.0458996731731188e-01
      -2.5482685738699429e-02 9.7677949706616252e-02
      -9.4001664150755976e-02 -8.9749582140372097e-02
      -2.0854419519549031e-02 -1.8157511487972952e-01
      1.1951205346312192e-01 4.2630326848664760e-02
      3.4264012013992307e-01 -1.3717736237506696e-02
      7.8217722065626778e-03 2.8368701507948302e-01
      -1.5982840691110864e-01 3.8890231202404882e-02
      3.2179124250578513e-02 -3.8970578018557168e-02
      8.2561230526653567e-02 -2.4639873182089645e-02
      1.1683291485209271e-01 7.5748548558877915e-02
      1.6392157255816747e-01 -2.6363711669476274e-03
      -1.4011996474372809e-01 1.3378284798044468e-01
      1.4090320026166200e-01 -1.4169518646586404e-01
      9.9885011602345170e-02 -4.0175224417229281e-02
      -1.7743109671848880e-03 1.1012927483972020e-01
      1.0527714696875637e-01 1.4420645385471700e-01
      1.4903661449090880e-01 -6.9810160103892724e-02
      -7.9871878877594185e-02 -7.2472560290690963e-02
      -7.5247373520087556e-03 2.1480238070008383e-02
      1.2121294019761908e-01 1.9997240064843264e-01
      -3.5807727953870785e-02 5.8739141030349391e-02
      -3.7031856058191363e-02 3.2082951264271575e-02
      -4.8170275681435400e-02 -1.7510150581486220e-01
      -1.1813114952488483e-02 7.9731638461890714e-02
      1.6873002579146656e-01 4.3278718965794834e-02
      -7.4332801654560979e-02 -2.1102923192664783e-01
      -9.2453390258553903e-04 7.7271678246162573e-02
      1.4672073042555769e-01 -8.1014231081200344e-02
      -1.8618646800259345e-01 6.1014237283745054e-01
      1.8241586764316017e-01 1.9332661105130869e-01
      -2.4213103169820741e-01 1.2021627482645322e-01
      -1.7039426664283146e-02 1.1021016988027016e-01
      2.2372960774949893e-01 -1.1927354769540502e-01
      -1.4981943147261309e-01 -2.1286845118580009e-02
      1.4019806393019393e-01 4.7508186628482010e-02
      -2.0762449055347740e-01 1.5089395618258375e-01
      -1.9061168383712346e-01 -5.1920310506609890e-02
      4.8132925770060633e-02 -3.4169352817706050e-01
      -1.3924061099457513e-01 1.8020535236032006e-01
      -1.7786373112727199e-03 3.1180293526400962e-02
      3.2030039546973288e-01 3.4325729902779642e-02
      -3.6168892165927347e-01 -1.0756078999169089e-01
      -3.7008715522124441e-01 1.7081407202582821e-01
      -5.3912109789274860e-02 -1.5979479826888668e-01
      -4.5247009563661404e-03 6.7029412195257639e-04
      -3.1341617177459091e-01 1.9983936901132995e-02
      -2.2399397858753577e-03 3.2458469736058709e-01
      -1.3040907830244551e-03 5.6386966383169611e-02
      -3.0350403292135800e-02 9.5277881333881945e-02
      -5.8906738533658964e-02 -1.3117852619113793e-01
      3.9266631309579064e-01 1.0806091743846771e-01
      -1.2847254971411853e-01 1.6707169380945558e-01
      -6.7874615701050509e-02 1.0449886595120464e-01
      -7.4119245943716439e-02 -9.4654165214422256e-02
      1.6273810572347697e-01 -1.0495892019444673e-01
      -8.3791327575227961e-02 3.0250450064419097e-02
      -6.6982906900327308e-02 -6.5707245436427836e-02
      7.9231886572058460e-04 -2.1717538122032032e-02
      3.1478990165639341e-02 1.8395417791279967e-01
      2.5708667177769495e-01 -2.2911173237173926e-02
      -6.5144706927487070e-02 -3.4407146670007695e-02
      -6.5302665040347666e-02 -7.6648562361095587e-02
      5.2177822076659962e-02 -7.6714058892978179e-02
      1.0649018376623227e-02 4.5012491056331028e-01
      3.7086148712456246e-02 -5.1631107859017582e-02
      8.3353317606641109e-02 -3.3514988822813369e-02
      2.0376389859525987e-02 7.9151211675627303e-02
      -7.6693530691793341e-02 -1.8266321697608226e-01
      2.6456667836232889e-01 1.1201244375459363e-01
      -2.1013058423791336e-02 7.3087928062314067e-02
      -2.6472908771212511e-01 1.0139080673232421e-02
      -4.6740137893926089e-03 -1.6686486774115113e-02
      -3.7717039093743154e-01 -8.5828169624737188e-02
      1.8908499937680129e-04 -1.4725759291337917e-01
      -2.5143084186297879e-02 -1.5355607957064837e-01
      6.7061165123916008e-02 -1.4025356406070758e-01
      5.5555054254871769e-02 -4.0207644827774815e-02
      -5.1541736135830296e-01 8.3444449425355033e-02
      -6.5266318756453737e-02 -8.2333698400672617e-02
      -6.3118392706642407e-02 6.0950132078474817e-01
      -2.1169211418533097e-02 5.0231135045325093e-01
      3.3858998404903320e-02 4.5280439105161718e-02
      3.2383063812899149e-01 -1.1212647983733007e-01
      4.1308493252635463e-02 4.9926897704907344e-03
      6.2190949147025082e-02 -1.3265444187540620e-02
      -1.9044516028013683e-01 6.4125997322343961e-02
      -5.4287483959778154e-03 -3.2073443960347965e-03
      5.0967480966414317e-03 -6.1508714980781358e-02
      -9.1171232299387783e-02 6.7530729887372798e-02
      -4.4249625815125648e-01 -2.7071867984203929e-01
      1.1077538119900732e-03 9.5874326101920235e-03
      2.0677893194714421e-02 -7.4373584606630641e-02
      1.7050796522054032e-01 -3.1531452670570345e-03
      -7.7362657309526545e-02 -1.6885926936172840e-01
      8.0574804268171374e-02 6.4555675677163846e-02
      7.2635516723842733e-02 -4.0685093327269370e-02
      2.1724329996184019e-01 3.0706523398247171e-03
      -2.4874660594566680e-02 4.0994201112378656e-02
      -3.2703345622682678e-01 2.9853847613847535e-02
      -7.4657520234419184e-02 8.4345606732262393e-03
      3.4891839630770673e-02 -1.3813042429351141e-01
      2.3862970030572514e-03 3.5157532526979493e-03
      1.1326617590623479e-01 4.3244138921200728e-02
      1.4372619485921356e-01 -1.1462500144788629e-02
      -1.0886578998920438e-01 -2.6480514119843592e-03
      5.0368215027061930e-02 1.6148946431743946e-01
      -1.1240606489530772e-02 4.6197266155781909e-02
      1.8590529990914897e-01 -1.7322145318701410e-02
      1.6624772189328435e-01 6.0151730588597178e-02
      -1.1534870548094186e-02 -8.9996064640053844e-02
      4.9897375820142108e-02 9.5522066679284742e-02
      -1.5906295742430232e-01 -4.4255953156571876e-01
      1.8817263653006493e-02 -1.8701116775730369e-02
      -2.8013048904576909e-02 -9.2295057329915123e-02
      -1.4039982967556767e-02 9.0749985709448464e-02
      1.1149477618683123e-01 -2.4701969952683530e-02
      -8.0410273584589145e-03 -1.8542513725455553e-01
      1.9200444853527013e-02 -7.4913653685859463e-02
      3.0649778647943233e-02 -3.9122258830792817e-02
      2.0165855993775905e-01 1.0774576091068348e-02
      3.0640085426534008e-01 3.9643974650786638e-02
      -1.6642021963705225e-01 7.9070426174641772e-02
      -1.2314283529390143e-03 2.9584764695521371e-01
      4.3417090917650253e-02 1.1845878680536621e-02
      7.9811348553786327e-02 4.4615240879583691e-02
      2.2516376062834464e-02 3.1970410351545070e-01
      -4.1415395351897316e-03 -8.6895533039733075e-03
      -4.1653038749184218e-02 -3.7893584097974935e-02
      2.1981896503375487e-01 -2.8358370436757113e-01
      -2.0690913488827486e-01 -9.6117179417631496e-02
      -4.5706897035719091e-02 -2.3935335028787200e-02
      -3.9677423943632988e-02 5.1947655362172711e-02
      1.4514949307601267e-02 -5.5527124221605058e-02
      -9.4215615056475507e-02 -3.4388802075012978e-02
      -1.2115705512892865e-02 3.1429410212532885e-02
      -4.9858888653071497e-02 -1.5570738295847483e-01
      -3.6867166590514547e-02 -2.0080926271956265e-02
      1.8032894806199798e-01 -1.1126564409647509e-01
      1.8145967780491878e-01 -5.5020036501289574e-02
      1.8666200582922763e-02 2.0166220287774695e-02
      -7.0340264846711215e-02 1.9437800920853517e-02
      1.8001993381900117e-02 1.3341622218875554e-01
      2.9920868826281092e-02 -9.1266201473608463e-02
      -1.6779395664687310e-01 -2.0520573941945158e-01
      -1.2948241696866619e-01 2.8637556196390770e-02
      -1.5600595640289197e-01 3.6790137314858133e-02
      -1.1439204917034001e-02 6.5281890542718948e-02
      4.0665445976593695e-01 1.1901409894272830e-01
      2.2444187197909827e-03 4.8199626243766256e-03
      4.4255817057976356e-02 6.8869890757187621e-02
      2.0936930444093715e-01 1.8604089182742545e-01
      -1.3317457957142326e-01 -3.6530522759827239e-02
      1.1996039757917168e-01 -2.0810538604634804e-02
      -1.4671867980369097e-01 -8.6942542389041283e-02
      3.6720428284335707e-02 1.2461963665666098e-01
      -3.6875265516732432e-02 7.4218881372765014e-02
      -4.2398224855879768e-01 -5.4326165157669568e-02
      2.4688252125413651e-01 4.5500552178108694e-02
      5.6901482202430818e-02 -5.0184935672512454e-01
      1.4285020251738434e-01 -2.5903507026431721e-01
      -8.1081669914229562e-02 -4.6374024944275505e-01
      -2.2922625155880583e-01 -2.5596078620787444e-02
      4.0174881979289656e-01 1.3846439402606023e-01
      -9.9728729217553307e-03 3.6439965888975395e-01
      -2.8301620943680272e-01 -1.0096911935330691e-01
      1.6745823655488287e-01 1.2809289807116167e-02
      5.5893587954832936e-02 -3.3107972972237040e-02
      2.5157894410864318e-01 1.7265435633036647e-01
      -1.1999937671360300e-01 -5.1715214920962767e-02
      -2.7795158483866006e-01 -2.8882619604290883e-02
      7.4418283065862911e-01 4.4903717871113288e-02
      -4.0105958788770331e-02 -4.2903764313208102e-02
      -4.9183519285330338e-02 3.9803518651307213e-01
      -4.3706054093718034e-02 -4.2077107200677200e-02
      -4.7710534093487314e-02 -7.0478253604591215e-02
      -2.3393126919376461e-02 2.3503686713850922e-02
      -5.8110547780262312e-02 1.5962950450589528e-01
      1.8374286142335122e-01 1.1654214400596143e-01
      1.6472177140418952e-02 -9.9885459763917814e-02
      -5.6708263464720188e-02 1.8371193181669840e-01
      -7.4760455252330466e-02 5.9090819057155665e-02
      -5.2186464852833243e-02 -3.6937271477297702e-02
      2.8020691998798181e-01 -7.5926921144162288e-02
      -1.6092603076699941e-01 -3.0975551275947055e-01
      -5.9353541284457356e-02 5.4680716320893663e-01
      5.8667478058950485e-02 2.4141380765708145e-01
      -2.5860524623520281e-01 -1.0207918313060058e-01
      -1.1490775741689412e-01 -1.8646990943187523e-02
      3.6877630968209091e-02 3.4489156529012738e-01
      -6.6251123781109214e-02 -1.3979303424964143e-01
      -3.2423790319487639e-01 2.0923854296635705e-01
      -2.5241477499048248e-01 5.6884574229574296e-03
      -6.1690285604296312e-02 8.3304965274623999e-03
      -2.5563897995501977e-01 -3.7150687186160235e-02
      -2.7123976786644627e-01 -8.4096471011432403e-02
      1.2017071614024753e-01 -2.7590733613071977e-01
      4.8859469960165498e-02 9.7297187618589090e-02
      -1.9294192685511050e-01 9.8845497808291327e-02
      8.8210884926230082e-02 9.7862905772353986e-02
      1.3268979202779063e-01 -1.4488654817673827e-01
      -9.3400822549644172e-02 1.2769148850004916e-01
      -9.3177610027130750e-02 1.2935580293559742e-01
      6.3794355641410089e-02 -7.5421258491765855e-02
      2.5101996852768815e-02 -3.1232062019365431e-01
      -1.9108762170386248e-02 -2.6154734469582958e-01
      1.8951051296808522e-02 1.4415314292384709e-01
      1.8945917882369680e-02 -9.7235522225360416e-03
      -9.7703656033026071e-03 -2.5087306844021301e-01
      -1.2181636513572582e-01 -5.2790476003522706e-02
      1.7946453472974122e-01 1.2803387638534769e-01
      -1.5590842374570027e-01 1.4327069823633690e-01
      -1.0814630756794136e-01 8.5037148694558883e-03
      -1.1126584887867277e-01 1.7786821473270609e-01
      1.4055487169703537e-01 1.2405389077017345e-01
      -7.2695493306184189e-02 3.4354134418752230e-01
      -2.8554650415341561e-02 -3.7872420779661353e-02
      -1.7491962206404432e-01 -3.5816587607804713e-02
      3.3480136408214047e-02 1.1284897220413866e-02
      5.3767136843762171e-03 -1.0849757351158693e-01
      -3.5889297615416538e-02 -1.4894065565544423e-01
      -1.2880041042181944e-01 -1.2688440663261771e-01
      9.4129367797274169e-02 2.4819591063848420e-01
      1.9091800339144319e-01 1.4106783500803667e-02
      -5.2533930432043310e-02 -1.2043516928214230e-01
      4.9553436168885878e-01 1.0840506476329499e-01
      -2.5833773048715192e-01 6.2504391924861485e-02
      -8.7016699724860817e-03 1.5665764120455503e-01
      1.5037017140394740e-01 -1.7784301204929709e-01
      -8.3530895877620706e-02 -1.0625810636363989e-01
      -3.5358867667421889e-01 -3.2362479316765114e-01
      -8.0316125863265073e-02 1.7484263610617357e-01
      -1.0231702989432888e-01 1.7956640408657379e-01
      1.3738740012168807e-01 6.1673564153471458e-02
      1.7912797751292986e-01 -4.1331193675813296e-02
      -1.3270732902112950e-01 1.1276490935251332e-01
      1.7616497647415311e-01 -2.5025239482416928e-01
      8.8815591274568936e-02 -1.2203246434668212e-01
      1.0152906357254626e-01 1.2082724141049521e-01
      -6.7558903701697759e-02 -6.5808137978431810e-02
      -8.3970045628640980e-02 -2.2122814637163765e-01
      4.7723263885556651e-02 -9.2192588622668659e-02
      4.2438034655943457e-01 -1.2875359368641091e-02
      -4.8268589549502555e-02 1.8013775848182906e-01
      -6.6669076784396680e-02 3.9074557063150085e-02
      -7.6622407317335689e-02 2.6123539645368427e-03
      1.3579247842112360e-01 2.5184273121771378e-02
      1.8492035702289353e-01 1.0000969683886433e-01
      1.6493049888652553e-01 2.1870365540620884e-01
      -1.8965974469187499e-01 1.8063565735791962e-01
      1.7104360020106346e-01 -1.8864435185610404e-01
      1.6199427355329804e-01 -9.2388294838140747e-02
      2.3860969139682508e-02 3.2273614346560391e-02
      1.2557137813427524e-01 2.1266670232276533e-01
      1.5659106495529720e-01 -3.7580682898820349e-02
      1.3703334910898218e-01 -1.2539063566768668e-01
      3.6845423021427237e-02 -3.7966308998040946e-02
      -1.6023668089182580e-01 1.1696039172432476e-01
      5.5401001184012186e-02 8.8626948744901596e-02
      -7.1888843673824074e-02 7.2220601450846161e-02
      -8.3011074392983983e-02 -1.8984604573467298e-01
      -1.0800560835308293e-01 1.1593787337493704e-01
      -4.2226660088494801e-03 1.0813581746922987e-01
      -7.8839263790966216e-02 -2.9158499231475826e-01
      -6.1425994196201178e-02 -1.7698316826808291e-01
      1.8612370161139316e-01 -2.3103794754511391e-02
      7.7492771478523292e-02 4.8809314185255859e-01
      1.0665566178001055e-01 2.3776876900329261e-01
      -2.8775725322326723e-01 2.6978080534380411e-01
      -1.1534412652529549e-01 -1.6458827202278750e-01
      1.6718887071682087e-01 -7.1326052725550648e-02
      -1.2854122888084757e-01 -5.3256660610741344e-02
      1.6868651463740275e-01 1.0324656940738935e-01
      -1.7102033048904955e-01 1.5633156021524916e-01
      -2.6877012691228808e-01 -8.0912242324130676e-02
      8.1875126930762196e-02 -8.4760358501466529e-02
      -2.0342596790219333e-01 1.2053693303150470e-01
      -5.9438812049833291e-02 -9.6013941211837178e-02
      -2.0398992087344323e-01 -3.4385008839895446e-02
      -3.9690411087671390e-01 -5.3578509455852762e-02
      -4.6947718055690196e-01 2.8652643894572249e-01
      7.8547520509301125e-02 -2.6730899620265688e-02
      -8.3638447430478602e-02 -5.4423971241975108e-02
      -3.7243044570416411e-01 4.2075028624175181e-01
      8.5421348608124545e-02 7.6607542929548123e-01
      1.0195302232769216e-01 9.2248765572117725e-02
      -5.6778366533129827e-05 1.4452947446553879e-01
      4.3346042926554425e-02 1.4647184773333360e-01
      6.5530347465007799e-01 -7.9056646343587153e-02
      -7.2425449912472142e-02 1.7037106660819981e-01
      4.0880590928540544e-02 1.3174771669030633e-01
      -8.8933069322025007e-02 9.7736912244177198e-03
      1.8454264272900892e-01 -1.3433140117948206e-01
      -8.0765877947760079e-02 -2.7607865690117538e-02
      -2.2553148100851069e-02 -3.3156081155817457e-01
      -6.5319715038358150e-02 3.8326014245378681e-02
      4.9389148298817860e-02 3.4662469311029953e-01
      3.3131699825605199e-01 -8.0311708849161084e-02
      7.0477514205820845e-04 -5.7762687890764539e-02
      4.8259103249141483e-02 -7.8781423317482766e-02
      3.7731766463900080e-03 3.2388242731812650e-02
      -6.7910956298294176e-02 3.4976146211475095e-01
      8.9122412430961279e-02 -9.8424856270179634e-02
      -3.3129612590005172e-02 -6.9764869185497638e-02
      -3.1154305822230277e-01 1.2773042708129306e-01
      1.6041798476080546e-02 -2.9946571926832732e-01
      5.2273843671874831e-01 -3.5363769933438260e-02
      -5.5018726398458798e-02 4.4618074157071370e-02
      2.3778546836507847e-02 1.1225917166659792e-01
      8.1144556397322307e-02 2.4019289515979472e-01
      -4.2994874835510122e-01 -1.1013245519319710e-01
      7.7490803840537512e-02 -1.2371256183654104e-01
      -6.8217082585696198e-02 -2.4599639566328899e-01
      -3.8080730079810887e-02 -1.9262178184981132e-01
      6.7432462050232067e-02 -2.5427995936269796e-02
      -3.0687326302882328e-01 1.0826907359830006e-01
      5.7244833893494839e-03 -1.3455341909112287e-01
      -1.1991472454484842e-01 3.4624485370379221e-01
      -5.0564392986541938e-02 4.3288356443194759e-01
      3.6715445328705201e-02 7.4623665954830068e-02
      3.7051063985230465e-01 -6.4280132829183892e-02
      1.2060241078923199e-01 -4.1257524800486091e-02
      1.6432073718029551e-02 -7.8558711117530947e-02
      -4.6044751606051336e-02 7.8156699219574757e-02
      3.1386040629334749e-01 1.9074865423483106e-01
      1.4282186320552304e-03 -3.6465759208715781e-02
      -3.1374245215639758e-02 8.8091180716598411e-02
      -2.3816481127923167e-01 -7.0860628797081689e-03
      -1.0972238179963292e-01 4.1726530965481616e-02
      -2.1177513955929574e-02 -7.8528634488001361e-02
      1.8794995071834789e-01 -3.0467219193421077e-03
      -1.5103718900835698e-02 -1.5562557288233553e-01
      2.6384406028351653e-02 7.6113056882502930e-02
      8.8740361483975780e-02 -2.0791868073875841e-02
      8.1910013430485526e-02 -3.7997423473378729e-03
      6.3119134512710272e-03 2.9805552624472466e-02
      5.2214460432967777e-02 -1.9635205428627334e-02
      -8.4786682328470100e-02 2.6829818039410643e-02
      5.1724756649980446e-03 -8.2061693197930316e-02
      4.7395735365800685e-05 4.3662295198907946e-03
      1.7135226137255452e-01 6.9705979948400928e-02
      4.5739919303712351e-02 7.0227191930628499e-02
      -8.9737815875940735e-02 -8.9902381917455740e-02
      1.0169153348764648e-02 -7.1073338884719089e-02
      -1.3048854433641587e-02 1.1355836988082810e-01
      9.1267506774269619e-02 2.3768000351387580e-01
      5.0062538108305452e-02 7.7445250947823840e-02
      -5.1467059826599305e-02 1.7641075631681466e-01
      7.5131627855149208e-02 1.0667090899726343e-01
      -6.6130506948457735e-02 -4.0250452912406676e-01
      -3.9153706165891658e-02 3.7099445465422924e-02
      -9.5441042242938763e-04 -1.2490100313416613e-01
      -1.4523977442472311e-01 2.9653771796483049e-02
      4.2910603095551648e-02 -1.6910082390889675e-03
      3.4698300025807196e-03 -3.3036152737718816e-02
      7.1700861122764095e-02 -4.8362377964894974e-02
      2.1972725713272984e-02 -5.6883124043962001e-02
      1.2853429693151805e-01 -2.7448743535422919e-02
      2.3935632600139414e-01 5.6783963377430614e-02
      -1.4114200280222577e-01 8.3027479898652501e-02
      -5.8845010400351089e-02 3.5601502812554187e-01
      2.1819965452965138e-02 6.6338558758473600e-03
      6.9398077218925172e-02 8.9315768249200331e-02
      2.8057857054179194e-02 2.4026035356905071e-01
      8.6103232320001249e-02 -3.7418233957417363e-02
      -2.6282621082616673e-02 -1.2454603332152816e-02
      1.6996566906675750e-01 -1.7805916343506648e-01
      5.2134112774642527e-02 -1.7063972850190731e-01
      3.4886423310328271e-03 -9.6200472068868042e-03
      -6.2469723861825477e-02 6.4048014544862336e-02
      1.3384138050389439e-02 -1.6416645533557289e-02
      -8.3340509644276931e-02 -2.1875711236631734e-02
      1.5392393057381323e-02 6.1888287248456221e-02
      -3.6966116217444021e-02 -1.9126227165427895e-01
      -3.1705582848700557e-02 5.2771573630210076e-03
      1.8769323585012493e-01 -5.6326347951271158e-02
      1.5653593260307591e-01 -2.8433997004357059e-03
      4.2483389113532798e-02 1.0683338209231039e-02
      -6.4981121456968757e-02 3.5946866021028527e-02
      -4.4227916152929131e-04 1.5976386726368128e-01
      6.6385058038014408e-02 -1.9142347458730480e-01
      -1.3224784392036862e-01 -1.3546777757675316e-01
      -2.1120594476799176e-01 8.8327421597222712e-03
      -3.1030799834613260e-01 4.3381690133564410e-04
      3.4982859924518085e-02 2.5733220087373759e-02
      4.4914546220220131e-01 4.9005956306740144e-02
      5.2780906077789007e-02 -5.4498521935148717e-02
      2.8427800782207424e-01 3.8900654057676141e-02
      1.7761592565569045e-01 8.1653585491695296e-02
      -6.9327183135326043e-02 -8.1816104810367121e-02
      1.1452139245304310e-01 1.4743469259128766e-02
      -1.2412539345495917e-01 -2.2586834847495615e-01
      3.5331277609952055e-02 2.2988262762258242e-02
      -2.8076080015630282e-02 6.2414209088457906e-02
      -3.6061432593691617e-01 -2.3510949902990416e-01
      1.3613361123705459e-01 -3.4602773551721429e-02
      -8.1697477964948279e-02 -2.6784215609348955e-01
      1.2324563041517056e-01 -1.5740834795150291e-01
      1.9406752135862234e-02 -1.5352202486169525e-01
      -1.7906625482483657e-01 1.1711753107009756e-01
      6.2481320192863565e-01 2.5940222064718393e-01
      4.8064677061099556e-02 4.3241361456714367e-01
      -1.2655489034024806e-01 -1.4739534831463952e-01
      1.0164699510006073e-01 -2.0587329696729292e-01
      4.7637239077127523e-03 -4.8618852689260805e-02
      5.2149607844426416e-01 2.8295750862647473e-01
      3.7959921941344898e-01 -1.1722942679952057e-01
      -4.2849941647700768e-01 -8.5258139210033682e-02
      9.2994345726121252e-01 2.4235445284393906e-01
      1.9624607156031586e-02 1.9978231095894514e-02
      -8.0408366098724426e-02 7.8050162356708586e-01
      -1.0556599869206981e-01 -1.7272941207830356e-01
      -2.3553796994228751e-01 -2.0641296742523147e-02
      4.7051468917065589e-02 2.8717368989396315e-02
      -7.8365319918029239e-02 4.0678031656304553e-01
      6.5714634362524504e-01 1.1402188014928918e-01
      -7.2287195485922773e-02 -1.5617608429446314e-01
      1.0109390914997676e-02 4.0121634068591172e-01
      4.9680544128210095e-03 -3.9109075451352261e-02
      3.0277973153395105e-02 -2.5422618063902236e-01
      3.5674120706511436e-01 3.0132483183246982e-02
      -1.8197074642825464e-01 -5.4041421776292053e-01
      9.4028013092195030e-03 4.9755487498023154e-01
      5.1286652334803076e-02 8.4275014100641532e-01
      -1.1921629281698837e-01 1.1151001843651875e-01
      -2.5416204010552479e-01 -1.9567914543216447e-01
      1.6904111958362000e-01 7.2525068329206566e-01
      1.0759516644951178e-01 -2.1583880253518248e-02
      -7.1542119780560577e-03 1.9287326635515120e-01
      -6.2697621860289232e-01 -2.0768269731100734e-02
      -1.2898848708206390e-01 -4.2090795061246024e-03
      -4.5022281715951629e-01 -1.9396932308285089e-01
      -5.3765864691953058e-01 3.0110994326385063e-02
      5.1644959834721837e-02 -2.7888721304269326e-01
      1.4789620919749569e-01 2.2641282754689637e-01
      -2.9538489712789145e-01 3.0061099993055812e-02
      3.1358583824661102e-01 1.6089493639018382e-01
      4.2892205501644648e-01 -5.7688728704770278e-02
      3.8053516188707154e-01 2.1232541789159695e-01
      -5.2292557632542140e-02 1.9177401259950425e-01
      2.2190118542855891e-01 8.8174309927818474e-03
      1.1357176830932750e-02 -4.0983613729814578e-01
      -1.3605805024973944e-01 -5.5585009667052987e-01
      -2.8921367854862734e-01 6.1486050025742020e-02
      -4.6206091341872625e-02 3.3961370314477955e-02
      3.7476971716290976e-02 -3.4857176163923607e-02
      -3.3037686668250199e-01 -1.0399695368708670e-01
      2.9742837249826088e-02 5.4392929932329019e-02
      -4.2883187722008859e-02 2.1406297480366809e-01
      -4.6866385179393628e-02 -8.0207081936615646e-02
      2.2749332895232077e-02 8.0439800053070706e-02
      1.4498277092172003e-02 2.4755234474816621e-02
      -5.4952791883779613e-02 3.8946408711870567e-01
      3.7002077965779660e-03 -6.6786876863864739e-02
      -7.4886028227919135e-02 1.6134648486710393e-01
      -9.7979856241264540e-02 -4.6201891553940513e-02
      -1.3613072536177295e-01 -4.2404840785458919e-02
      5.0343117064022653e-03 -7.1681431057601760e-02
      -1.2111651111883207e-01 -9.3332987372000825e-02
      4.3161989643597234e-03 4.7969028397228247e-01
      3.4537027840685419e-01 1.4605387707697568e-02
      -8.5580739277459378e-02 -8.3754990866963044e-03
      7.9791216326028991e-01 3.6665586053598919e-03
      1.9215342729467330e-02 4.1027870375113273e-01
      -1.2595737258777884e-01 1.1346448012686673e-01
      4.6299497954344140e-02 -3.0729696960797522e-02
      -3.1478190662026749e-02 -5.9362960545056168e-03
      -4.4363761250800743e-01 -1.5626668816371903e-01
      -2.0275907844121410e-01 3.5144458618447789e-02
      -1.0419225567077865e-01 2.3090492647894596e-02
      1.2412490635941885e-01 8.9559482577015861e-02
      8.6903184176354314e-02 -5.3451498171047857e-02
      -4.6459416782345810e-02 7.8376828402027962e-02
      3.1604874229571145e-01 6.6123143469524236e-03
      1.3666548583605781e-01 -1.8468743450380051e-01
      1.2996573532488823e-01 1.9732892591160536e-01
      -2.5472336699309216e-02 1.8564233940611119e-01
      -7.4356724453578896e-02 1.3942026905877192e-01
      7.0606409268893722e-02 -1.6370652420941084e-01
      3.2112113866395275e-01 -5.2483915171795828e-03
      -3.5634946361633786e-02 1.2773125671052651e-01
      -1.7981502184834203e-01 4.6248238927814114e-03
      -3.0588164663679979e-01 -9.5267728281515876e-02
      6.7693622058331140e-02 5.3577269599904441e-03
      3.4295025596094555e-02 8.1670676345646356e-02
      1.0616765299666818e-01 3.2244558243583937e-02
      -1.3374754431324759e-01 1.5815701632351925e-01
      -2.7195058098045521e-02 -1.1661703118606594e-01
      1.8341619982661717e-01 -7.0619960555314540e-02
      8.7014989117113282e-03 -9.1125411237890780e-02
      1.3946435120517509e-01 1.7491007495661462e-01
      1.0979854078877779e-01 3.9362646273620488e-04
      8.3991025549363371e-02 -8.5762178143505535e-02
      4.3565021278231419e-02 -7.3934345018562657e-03
      -1.9835821974540960e-01 -5.5466689933512697e-02
      1.1230324208915235e-01 3.4452320497369043e-02
      -6.0769437383449303e-02 2.3325697133399444e-02
      -6.0010884633061368e-02 -1.4323873798210962e-01
      -1.3070568309595401e-01 7.2982397719970213e-02
      9.9465539141594631e-02 2.1814036261323036e-01
      1.6042482030906698e-02 -1.8537860465408029e-01
      -3.5927433479577324e-02 2.6097569504761675e-01
      1.0239233475011141e-01 -3.7461238720117508e-02
      3.7432779342827627e-01 2.3722808253286726e-01
      5.8255806418747801e-02 1.6584780773814337e-01
      -2.0604020669367301e-01 1.1292840242139184e-01
      -1.2097590598327852e-01 -3.3795459048606447e-01
      1.5917785633481665e-01 -9.4596161374183141e-02
      -1.8675571859121668e-02 -9.5882561063672225e-02
      1.6894824429016483e-01 1.5437286399920414e-01
      1.0486639709363140e-02 8.7127740252050417e-02
      -1.4763317700933770e-01 -1.1792603911064127e-01
      1.1186098923954847e-01 -1.9916729727867077e-01
      -1.2513298745627274e-01 2.2188428805525323e-01
      -2.3260264248564849e-01 -1.2251986206712320e-01
      -3.3675156448468146e-01 1.1254536620750749e-03
      -1.8545838256250624e-01 -9.8620701308109335e-02
      -8.6037915984207139e-02 4.0843962899920805e-01
      1.5180623238238320e-02 -1.8500981532986110e-01
      -3.0016446694853548e-02 -1.3752900136727803e-01
      -4.1111325414629540e-01 2.6016481149167009e-01
      2.7233119119207359e-02 3.8821916889060348e-01
      6.6029947777148698e-02 1.3983842613164141e-01
      8.4310660842186608e-02 -2.4084687721549702e-02
      -1.4482590151255240e-01 7.0268142716224100e-02
      5.7165464057018478e-01 9.6918153349963565e-02
      -1.2081323872865730e-01 -1.2852521875005574e-01
      -3.1191731140247477e-02 2.7600322799042892e-01
      -1.3231183387624779e-01 1.2165716847761476e-01
      -1.7092382170125545e-01 -1.1471157773074200e-01
      -4.3235875561948803e-03 1.6022152541580605e-02
      3.6565287425050615e-02 -2.6723574183603288e-01
      -1.5133867638742379e-01 -5.1350570637210971e-03
      -2.0048266023563316e-01 1.3910843912199197e-01
      3.0533271311221266e-01 -1.0290887491340132e-01
      1.3698479445505767e-02 -1.3050118903309102e-01
      -8.3679691820236754e-02 -1.1801393815830422e-01
      6.2437726346007638e-02 -1.9243908818197507e-03
      6.5158479958146845e-02 2.9834778753594454e-01
      2.3706461619221042e-01 5.7490276521795863e-02
      1.3016618099743701e-01 -1.1755926419217246e-01
      -3.4355441003336079e-01 1.6780058936372871e-01
      1.3730843455641227e-02 -2.0666810065275043e-01
      2.9974652284083564e-01 7.2471473463819241e-02
      2.7029134495396887e-02 -2.7874748673107262e-02
      -3.5926855143431491e-01 1.2966761290009560e-01
      1.7158367220443473e-02 1.4955810056270771e-02
      -5.5423503091446635e-01 3.7526340723666209e-02
      1.0907208224792531e-01 -9.1816413830723004e-02
      -9.1303512770221654e-02 -9.6314186741885674e-02
      1.1462006376573233e-02 -1.1040906740343899e-02
      3.5857391016635909e-03 3.6953034522039456e-02
      -3.5810780657798158e-01 2.1354688070416616e-01
      1.1749943514049277e-01 -2.7641592259975867e-01
      -1.1604039652162405e-01 2.6868674229515688e-01
      2.6591599167340257e-02 5.1561031654110401e-01
      -2.6208588902738750e-02 3.7121192667688285e-01
      3.7058560826303127e-01 -1.2731041521986922e-01
      -1.6740445136621596e-02 5.4077249418489452e-02
      -6.5197796419144249e-02 -1.3542469013691422e-01
      -2.9779651035856997e-01 1.7738821257173836e-02
      -5.8006066126888141e-02 7.6711366526298452e-02
      5.0067019489466687e-02 1.2825851116690875e-02
      -1.7600469303639404e-01 -1.7299576248458633e-02
      -2.7562879340444579e-01 9.5806332510941783e-03
      -2.8455720585540249e-02 -2.6682668348429639e-02
      -3.3779539636733963e-01 -8.8184508616493476e-02
      2.9911104807441391e-01 -7.2908568478648697e-02
      5.1340965075601389e-02 -4.1746243648059272e-01
      2.7400613237843482e-02 7.3674535934506555e-02
      9.7146363508429062e-02 2.6272340859059121e-02
      8.5001467524574770e-02 -6.5162318289490262e-02
      -1.8009489928453908e-02 -1.3268549325457915e-01
      -3.1274835632776837e-01 -5.1038185898138758e-02
      -8.0232677263255670e-02 -1.2689152890567315e-02
      -7.8978698050963303e-02 -1.2651140550320036e-01
      -5.7904997467485703e-02 5.1611928659593291e-02
      7.9400691488310998e-02 1.2848488440836583e-01
      6.8878531001282071e-03 2.0647258097094837e-01
      4.2581218341849310e-02 6.7157908446086505e-03
      -6.7320910948241205e-02 -4.0427643360385103e-02
      2.3313213387470829e-02 -1.1590696798354809e-01
      6.3693989579671179e-02 -4.9306417719984348e-02
      4.1424802743806700e-02 7.2376783166621841e-02
      -5.1205311873074560e-02 -1.6848570739977205e-02
      6.1334423590715455e-02 -1.5669974122289054e-02
      -3.6208438917133423e-01 -3.8783691913963525e-01
      1.4366395245330046e-01 1.8764992477735148e-02
      -4.0656270564857266e-02 -1.1134005491623637e-01
      -4.7201753311928787e-02 6.1864890016481558e-02
      1.9962555527436235e-01 -1.1588064656129691e-02
      2.8415789086868293e-03 -1.0655753350400288e-01
      1.8224108217484727e-01 -3.3591128560136380e-02
      -1.1365949101473802e-01 -2.7960469448022180e-02
      1.9138895440810813e-01 -2.4083044838517125e-02
      3.8559561006926385e-01 1.6831429640666105e-02
      2.0856632435565856e-01 9.2103721188110069e-02
      -1.4711976225498116e-01 2.0444373623706200e-01
      -4.7635183050464054e-02 -5.1183318556613677e-02
      1.2684146465340115e-01 -2.9526732940194572e-01
      5.2454448833017676e-02 -2.1670811200813120e-01
      1.5284470621024709e-01 1.4460356526129910e-03
      7.9351337297269391e-03 -8.7480900693100147e-02
      7.1299431478690209e-02 -2.7090064974046923e-01
      1.0283330789070982e-01 -1.0933695049883647e-01
      3.2979342088108807e-02 -1.3637159935430623e-01
      -1.0927846904164470e-01 1.6548886877503444e-01
      -4.6132599793558375e-02 6.1329972516006533e-02
      -2.1789744777241246e-01 5.1008732407226039e-02
      6.9051731908048447e-02 1.0902921271263347e-01
      4.8082370894288969e-02 -9.0371892543021581e-02
      -3.7837039899024441e-02 4.6770403277176256e-02
      5.5961226184487317e-02 -3.1212448171182772e-01
      6.3688646397075555e-02 3.8932191228301917e-02
      8.0115467020262607e-02 -4.5996781072747558e-02
      -1.0455932614712032e-01 -1.5673020822204065e-02
      2.2227030019302305e-02 1.0305899244987017e-01
      1.3652692591616236e-01 -3.3688745239635903e-01
      6.0533306018015090e-04 -8.2511957292869288e-03
      -1.3248594070523434e-01 -6.1393606854799380e-02
      -2.1934884578898126e-01 5.5880622374574499e-03
      -1.6390637356854326e-01 3.5242381100710894e-02
      1.1249654526990123e-01 4.6651123970946250e-02
      7.3786124425883809e-02 -7.9157332825498833e-02
      2.0254205283521567e-01 -4.4509917693457406e-02
      7.9967961077624383e-02 -2.2467380301550890e-01
      -1.0191600723473927e-01 1.0647768776379674e-01
      4.1746019348607296e-03 6.0147301895592246e-02
      -8.7224281983902849e-02 -1.6158276452603254e-01
      8.3856902203517242e-02 8.9447021509722016e-02
      -1.2140706537191465e-01 1.6004036853645917e-01
      -1.1589705473254620e-01 -2.4569824803847246e-01
      6.8289467408805357e-02 -1.6679465542944244e-01
      -8.1831328557567570e-02 3.1434451253474066e-01
      -1.8817575902935132e-03 -9.4406661703637859e-02
      1.4362824477469218e-02 -6.8918657017846219e-02
      1.4923811542031607e-02 9.5315417008763420e-02
      3.3850230673064780e-01 3.4124602168818796e-01
      5.6794976335097997e-04 1.3249534149333844e-01
      -1.1431820171059540e-01 -8.2709700651123041e-02
      -1.0414188411550516e-01 -3.1773313931562214e-01
      1.1551299629283239e-01 8.0300668207688233e-03
      4.0856173237099930e-01 2.0928912753485210e-01
      4.0072763972397624e-01 -2.1314542790390145e-01
      -3.0194703395408623e-01 -1.1020571967084497e-01
      7.5245945590889907e-01 1.2834540359813004e-01
      1.7286659084492503e-01 -3.6228426075455240e-02
      -1.5189733083101455e-02 6.7353485688987469e-01
      -1.1662148856572352e-01 -1.7093301622796586e-01
      -1.5040618221721086e-01 1.2306346106072881e-02
      1.2503090934454758e-01 -7.7724172309164632e-02
      -3.4165431569074534e-02 3.1340535107004003e-01
      3.5353414465265687e-01 5.7463757448985853e-02
      -6.1832699632923128e-02 -1.8443996863101103e-01
      -5.5151847550568157e-02 2.6915814563361468e-01
      -2.5412232811657876e-02 -6.0623826919260493e-02
      -2.9477155995290105e-02 -1.6436776348749549e-01
      8.5344394312643912e-01 1.7029240687617006e-01
      -1.3501797105123525e-01 -3.4371065246115368e-01
      -4.6661998310614412e-02 5.4967529141529037e-01
      2.0376334282592912e-01 7.7050926678942711e-01
      -9.0263346179497730e-02 2.4003626750100432e-01
      -1.0801102731500645e-01 -1.1123863656351575e-01
      6.9580756060284993e-02 4.8728142601684749e-01
      1.2922531685568736e-01 -1.8435122428283307e-01
      3.1686973575734406e-01 1.3428882944848420e-02
      -5.5147982824289632e-01 3.9389436012018282e-02
      -1.2361184220532635e-01 3.7208020161900113e-02
      -3.3867582107183108e-01 -1.0010869094319948e-01
      -4.8240540467888643e-01 -2.5409906611082719e-02
      1.0289306121252070e-01 -8.0797659851429161e-03
      6.8734625548108191e-02 2.5293965992913231e-01
      -2.6963822346816713e-01 2.1269766746935710e-02
      3.7118589110420408e-01 1.4295484779886466e-01
      1.7596395078782692e-01 -4.5003502004480937e-02
      -1.7760911526640531e-03 2.0162917017762313e-01
      -3.3029639405428329e-02 1.0813156051506281e-01
      3.4408829200160396e-01 1.3757692504802565e-02
      -1.3246415357739791e-01 -2.5447406733169653e-01
      -1.5672838612161349e-01 -3.7201074715452748e-01
      -4.5366176520990087e-01 8.3399112221905672e-02
      -1.0722439972492726e-02 6.1081733605734774e-02
      7.1549114390969545e-02 6.8246625498277702e-02
      -1.6603117287826991e-01 -9.5815162433570605e-02
      -1.4533924274485593e-01 2.2244154415836592e-01
      -3.8314658021662035e-02 2.2603071482087281e-01
      -6.0562322896610656e-02 -2.0867704967020301e-02
      1.1725505562054607e-01 -2.2781556576337059e-02
      -5.7872859367979389e-02 9.7204670113504223e-03
      -2.9068899965378741e-02 1.3937142244578596e-01
      -3.8354795398817303e-02 -5.1883263423141798e-02
      2.1307107482647082e-04 3.4468001318180272e-02
      -6.0501142378797577e-02 -4.3629009866701964e-02
      -2.2688512176660819e-01 -3.1742150690211531e-02
      4.2640208389920402e-03 -4.7187890146796432e-02
      -3.7017480476983555e-02 -1.2715949917728067e-01
      -7.8070739071068327e-03 6.7856673359986508e-01
      2.8485987179144306e-01 -2.4687767560510464e-02
      -4.0081154705757733e-03 -3.8003069904558262e-02
      6.0166879058690281e-01 8.2037475802007417e-02
      1.0008112987415890e-01 2.7633226266164690e-01
      -1.1267080137006530e-01 9.1111509513964087e-02
      -5.8022622529091189e-03 1.9282122009551327e-02
      3.5762732759986655e-02 3.8627264338505045e-02
      -4.6366842634323896e-01 1.8730748985761769e-01
      -1.5931354891529373e-01 5.3660264012830076e-02
      2.0383463504952655e-03 -1.2570043798033703e-01
      6.0933947542768124e-02 9.7029174649229818e-02
      5.3455491704988395e-02 -7.3169405121358319e-02
      -1.1480908436399723e-01 1.6113291243334746e-01
      5.0740264454331230e-01 -1.0037441280354777e-01
      1.1792726444815527e-01 -8.9670142935709837e-02
      1.7341802890373739e-01 1.3178767453257157e-02
      -5.2170831040267367e-02 -1.8648715937893232e-01
      -1.0019008829212786e-01 -2.3273387649585664e-01
      -6.6937184247723894e-02 -1.6431729917480456e-01
      3.0787793478668285e-01 1.2525778221856701e-02
      -9.6773233517720256e-02 1.3167553690583103e-01
      2.8106213691882095e-02 -3.3958384099449456e-03
      -8.7197323853530809e-02 -1.0913120125308876e-01
      1.2802916417196278e-01 6.5809656381644058e-02
      1.0082149664515092e-01 8.8034680071717344e-02
      1.4550738759373757e-01 2.4015044864220006e-01
      -1.1638619532411121e-01 7.5987940471783172e-02
      2.0537335317929606e-01 -7.7427431556929216e-02
      1.3587648303385796e-01 -9.9657879036284300e-02
      8.1756074095168080e-02 9.4345945348275007e-02
      6.2108215062746379e-02 1.1808866301675573e-01
      6.6852214097003315e-02 3.1683217729534731e-02
      -2.4672652218807756e-01 -1.5443345366829808e-01
      9.8141864880135474e-02 1.0885461141823163e-01
      -2.4506480777836535e-02 1.6880243998108831e-02
      1.9653598264794847e-01 1.8766053268881602e-02
      -1.2108307732237404e-01 6.0221341152551830e-02
      -9.5921357283044795e-02 -8.5672055615223772e-02
      -1.6937069102979743e-01 2.1381358046738543e-02
      4.6220939432988651e-03 9.9558972885146924e-02
      7.5494559632468148e-03 -1.1851935079435322e-01
      -9.3931169548193721e-02 -9.1434695308192676e-02
      1.6998119400257908e-01 1.2894149771230287e-01
      1.4473791784073090e-01 9.7197826174081542e-02
      4.3566089747414886e-03 1.3218291778061780e-01
      -1.7941440975340314e-01 2.2520340707097841e-01
      -1.5071044214567011e-01 -2.9420934329488369e-01
      3.8933319187489523e-01 -9.4405715353818604e-03
      -3.8001038023980423e-02 -7.0281821339478103e-03
      1.1125992346240698e-01 9.9284624137883429e-02
      2.4284033292178049e-02 2.5751004898540816e-02
      -1.4446815922384590e-01 -1.0593519401503364e-01
      5.1046222710659818e-02 -8.1623481719661439e-02
      -2.1489924898772611e-01 2.8619918104351361e-01
      -1.0709527126859969e-01 -1.5630506525336824e-01
      -4.5046784879244695e-01 8.5883392038673095e-02
      -4.4001450185513080e-01 1.6043760992460708e-02
      -1.6695342016555986e-01 1.6822957035309191e-01
      4.8637523448335371e-02 -1.5650265975879502e-01
      -6.9501741682168224e-03 -3.5594239340601699e-02
      -4.3620589698172796e-01 1.8392286986759052e-01
      -1.5209885838809462e-01 1.3435056714413030e-01
      -1.4095089152817486e-01 3.0790519843789471e-02
      2.4906667621745000e-02 1.3713315119552734e-02
      -1.7845003260403211e-01 2.7666243683028391e-01
      2.4174933103461008e-01 1.1362440982802302e-01
      -2.0817870588149506e-01 -2.1030201087914302e-01
      -4.5785820117635621e-02 1.0137857883643980e-01
      2.3597533188640277e-02 6.8444096129901863e-02
      1.1144665097152623e-02 -9.3816465597832674e-02
      -2.9513576624648770e-02 4.1980650397143736e-02
      4.1393531547778036e-02 -2.5694641048614858e-01
      -6.4091513577675868e-02 -1.1722638736322771e-01
      -5.2021429556971192e-02 1.2566546233798931e-02
      2.9610479207593654e-01 -1.6091559811249265e-01
      -6.8375317099760385e-02 -3.3350953097136878e-02
      -1.2155246307506390e-01 7.7814729358278096e-03
      8.5312097772413595e-02 6.9117437521114961e-02
      1.3527496339715156e-01 3.6818202436162523e-01
      5.4805541594406433e-02 1.0024076507664015e-01
      1.4001028979438840e-01 -1.3341597047007506e-03
      2.3465378891620252e-02 1.0897945120095866e-01
      1.0966243997900169e-01 -7.8843134706585452e-02
      3.6213526207518204e-01 2.2780337750159682e-02
      1.4132136667146229e-02 3.5640613162077173e-02
      -3.1554211597211079e-01 1.6266369525153135e-01
      -1.6908372188900561e-01 -4.3839197708302451e-03
      -1.7574701963380157e-01 1.7337880328793201e-02
      1.3329229899081566e-01 -1.1192639987100694e-01
      1.4998348020312841e-03 -9.3901250206499892e-02
      -7.0559785841855082e-03 3.6197679289529584e-02
      -9.5486176176244400e-02 5.9401977709069492e-02
      -2.1704880804246479e-01 -5.0827433359167660e-04
      2.1862459062340520e-01 -1.9584547018539805e-01
      -1.8681085117782201e-02 -1.5853274267191566e-03
      8.0001160557415518e-02 2.1411762199520656e-01
      -8.0622414114391236e-02 7.7219625847346374e-02
      4.0307883555153461e-02 -1.0942552259029349e-01
      2.3635708337585975e-02 8.8335857246545954e-02
      -8.9868565258371336e-02 -1.8030398715676835e-01
      -2.6587840801373536e-01 -1.2820993316930088e-01
      -3.9749602077055357e-02 -1.2827729432172821e-01
      1.0423628598119672e-01 4.7624458938483209e-02
      -8.6513113981156797e-02 -1.1654822761234751e-01
      -1.6176363546755274e-01 -4.6369648419158520e-02
      3.9531279291303789e-02 -1.2071421655338997e-01
      -2.7169635631821260e-01 -4.3879367570675003e-02
      2.8053758651685495e-01 -7.7534882313515630e-02
      5.5148658325747224e-02 -1.8964329452754525e-01
      -4.2745064116859310e-03 -3.9229431756307269e-03
      6.1968032674363835e-02 2.4788840204298463e-02
      -8.0953032747255849e-02 -9.4186673016933148e-02
      -2.2934728750721046e-02 2.2972577417584683e-02
      -2.5789901590053288e-01 4.3315302008212271e-02
      -2.9323666130968002e-02 -1.0160769946473802e-01
      -8.3376025725873590e-02 -1.1793596792953279e-01
      -8.1546301324730980e-02 6.6575753316056793e-02
      -3.9930216336530162e-02 1.1553197128269284e-01
      -4.9664338728141563e-02 9.0173001060900426e-02
      1.1129758942502688e-01 1.5883246044315794e-02
      -8.2843576199604071e-02 1.8971489919307627e-01
      7.5394201897568680e-02 -6.9642564199608500e-02
      6.8568427901519943e-02 1.6623989678080991e-01
      -5.0253158605667307e-02 3.3921648370052009e-02
      6.7741254897545053e-02 1.3016344559878440e-01
      -1.5932599075108602e-02 -2.6607303697963924e-01
      -1.9260649378504277e-01 -7.6246966135300243e-02
      1.4976250059628293e-01 2.7365156608428923e-02
      -1.1315339944498777e-01 7.3812379913554785e-02
      -9.2627864950946215e-02 -2.9956097638480653e-03
      1.5731381654144971e-01 -7.3162912873224115e-02
      4.3811839589367026e-02 1.5037966342756641e-02
      3.3694345358807574e-02 -4.1444080388019430e-02
      -2.3892146809149951e-02 8.5760411848971624e-02
      -1.1521920711365510e-02 -6.1930954885915115e-02
      2.8320594722276171e-01 -6.4862917471011597e-02
      2.3702452175491395e-02 -1.5633190066627356e-01
      -1.7255837507866861e-01 1.8977290178432471e-01
      -1.1984709963112342e-01 -1.2107989822530703e-01
      1.5736558718515364e-01 -2.9337490575991887e-01
      6.1357624608049603e-02 -1.0351488329281533e-01
      1.7049117344373069e-01 7.8430866011957964e-02
      5.6250028021065573e-02 7.0850168264635126e-03
      -1.4703674846813036e-02 -2.3507871973069708e-01
      1.7280828181988103e-01 -6.3523428839923415e-02
      5.2164076974072354e-02 5.0543243288379072e-02
      -2.5056017741191646e-02 1.4101480044391523e-01
      -1.0703259846715571e-01 8.6181337216428636e-02
      -2.3331071212607675e-03 9.0100008851212748e-02
      7.9944466753453861e-02 2.2769168901828254e-02
      5.8780374733955074e-02 -1.9844752520334286e-01
      -1.0568599169834376e-01 1.2541467429773132e-01
      1.5509126327230333e-01 -2.3140028155357739e-01
      5.7482484208110994e-02 1.4372255283669635e-01
      9.6660472396941144e-02 -1.1260087242413619e-01
      -5.4024393995411625e-02 -5.3075356932497493e-02
      1.1542503795664905e-02 -3.1158720495161666e-02
      5.3932573460727419e-02 -4.5756127507617339e-01
      -7.8456869575954505e-02 6.4480886433024256e-02
      -1.3349431232305195e-01 -9.4782825277761232e-02
      -8.1168966688614050e-02 7.5336093022283057e-02
      -1.7081557500328806e-01 1.1337250547763472e-02
      1.8659959939599113e-01 -6.9713221431320249e-02
      5.5436902833237059e-02 -3.5624636965061268e-02
      3.6118492991638435e-01 -1.5430411116176748e-01
      -1.4327526208511979e-01 -7.9610234685698472e-02
      1.0075031053531090e-01 1.3918559064111305e-01
      -3.3998587447866553e-02 5.4391674056795784e-02
      1.0506106760564689e-01 -2.0357680334989733e-01
      -4.2976047009889377e-02 -5.6733834978160407e-03
      -1.2123819451922116e-01 1.7110386047175066e-01
      -2.1596767760571040e-01 -1.1766965952353806e-01
      7.8676983233921860e-02 -2.8047802261578730e-01
      -9.6226928331968886e-02 8.2152487308950828e-01
      -8.2448054820652802e-02 6.7901790069126569e-02
      3.6073417221257918e-02 -6.2824408800011347e-02
      7.3750207317826874e-02 4.4576015717508889e-02
      1.0492299000260800e-01 1.3994980846210442e-01
      4.2001197379261224e-02 -4.6565007233667979e-02
      -7.3147734345721527e-02 -1.2301495822939375e-02
      -1.2232864635476524e-01 -2.9627559813460963e-01
      6.8890663984687586e-02 -3.1846019474302337e-02
      2.2460645618881594e-01 1.5574669151775092e-01
      5.1562544750358597e-01 -1.1786767861674272e-01
      -1.8436485431773356e-01 -1.6261599832018723e-02
      4.1819133633161476e-01 4.5542559317454753e-02
      2.5528184654990416e-01 -2.6981830390397674e-02
      -6.5250381025989540e-02 3.7135462310326117e-01
      -6.0802377955631273e-02 -5.8543239481141818e-02
      -4.8034160021199111e-02 -4.5634686004359631e-02
      2.5501685526751783e-01 -1.2473732262899748e-01
      4.2693663207313215e-02 2.1296211035666801e-01
      1.5234549617682605e-01 2.5282575426795451e-02
      -3.4766967266722459e-02 -2.9318719148187383e-02
      -4.7397340697247131e-02 1.3286716012700561e-01
      -3.6377674554023917e-03 -2.7282745683278698e-02
      -3.7248434218129878e-04 -9.8035945408537870e-02
      8.1323636000379473e-01 2.9883842483743117e-01
      -7.3907239120635196e-02 -1.8986118916011702e-01
      -8.8410345399369799e-03 8.5665213658007910e-01
      2.1360066568594926e-01 4.6231194804437897e-01
      -8.1352221947032483e-02 5.3188643153460191e-01
      -5.3030106730723933e-02 -2.1718163116747222e-02
      -4.0164639250931868e-02 3.8308311536534440e-01
      1.9365409523096072e-01 -1.4440137989237098e-01
      2.5551971846462512e-01 -9.2885865508827520e-02
      -3.6042858116618570e-01 8.9954343734104797e-02
      -2.3070479615839003e-02 7.7618327296519454e-03
      -1.5051913051187116e-01 -5.3385711852813877e-02
      -3.6632057518607403e-01 -7.8289940588460713e-02
      1.1073797252036963e-01 2.1328843903199148e-02
      -5.9066163998607755e-03 2.8940703694199632e-01
      -2.4915438958086639e-01 2.5489549351379592e-02
      5.7209269768458670e-01 3.2278755096411489e-02
      1.1509212661334227e-01 -1.4711071345905236e-02
      -3.0355610249913745e-01 7.7191690504039109e-02
      -6.7519394124456150e-02 8.5091912187962998e-02
      2.6291926658138992e-01 1.5758473023688591e-02
      -1.2825083237975607e-01 -8.0187183376276200e-02
      -1.5597828289127255e-01 -4.0207181927150386e-02
      -4.3903104003887844e-01 6.3932610870612888e-02
      -2.4824553135101204e-02 5.2963725079412639e-02
      1.2135681028238897e-01 1.9523698380454516e-01
      8.5362238255689560e-02 -1.1795681871197210e-01
      -8.9521722501600703e-02 1.8181104721516492e-01
      -6.0669539858698225e-02 2.2307505728891946e-01
      -3.5324770143888656e-02 -2.6915220985780294e-02
