<?xml version="1.0"?>
<opencv_storage>
<opencv_ml_ann_mlp>
  <format>3</format>
  <layer_sizes>
    159 79 26 6 1</layer_sizes>
  <activation_function>SIGMOID_SYM</activation_function>
  <f_param1>1.</f_param1>
  <f_param2>1.</f_param2>
  <min_val>-9.4999999999999996e-01</min_val>
  <max_val>9.4999999999999996e-01</max_val>
  <min_val1>-9.7999999999999998e-01</min_val1>
  <max_val1>9.7999999999999998e-01</max_val1>
  <training_params>
    <train_method>BACKPROP</train_method>
    <dw_scale>1.0000000000000001e-01</dw_scale>
    <moment_scale>1.0000000000000001e-01</moment_scale>
    <term_criteria>
      <epsilon>1.0000000000000000e-02</epsilon>
      <iterations>5000</iterations></term_criteria></training_params>
  <input_scale>
    6.9794842132502779e+01 -3.1293902846153538e+00
    7.5210572606774818e+01 -3.3837945107344582e+00
    8.1506263843465476e+01 -3.5364927856265882e+00
    7.2615322759658582e+01 -3.2188932245645416e+00
    7.6667012176584009e+01 -3.4138453164801148e+00
    8.2755796779573259e+01 -3.5644452775144133e+00
    8.1911010209958974e+01 -3.5901536863004520e+00
    8.9898006260440098e+01 -3.9338325659738786e+00
    9.6180912551893073e+01 -4.0965315681294978e+00
    8.4954664044124470e+01 -3.6895960701797912e+00
    9.0940657632493327e+01 -3.9492402187810622e+00
    9.6235299560528574e+01 -4.0831453303714573e+00
    9.4768961466611813e+01 -4.0642159124308179e+00
    1.0487915603129532e+02 -4.4737519034170345e+00
    1.1024265830522680e+02 -4.6278715181745635e+00
    9.7520372453821551e+01 -4.1531958977026537e+00
    1.0584289252340484e+02 -4.4861718385646512e+00
    1.0966025628472146e+02 -4.5881648367377466e+00
    1.0739154767288890e+02 -4.5308614247008627e+00
    1.2131148002988112e+02 -5.0960225912259114e+00
    1.2542249409769380e+02 -5.2405659475890456e+00
    1.0967397281336027e+02 -4.6123171085323049e+00
    1.2110127781917767e+02 -5.0643244530673250e+00
    1.2252847829101178e+02 -5.1026262283316459e+00
    1.1895438078767201e+02 -4.9511795287081828e+00
    1.3787548389539597e+02 -5.7377594059883661e+00
    1.4130589724324417e+02 -5.9029789114561870e+00
    1.2332616538092597e+02 -5.1375443403928829e+00
    1.3931680615132782e+02 -5.7836824549617525e+00
    1.3966162134454842e+02 -5.8103349059333809e+00
    1.2543172655896528e+02 -5.1779572363051933e+00
    1.4607473180553677e+02 -6.0437200723228228e+00
    1.5145413864442762e+02 -6.3220549879716019e+00
    1.3220334921931257e+02 -5.4633506607429574e+00
    1.5099286749088290e+02 -6.2338749522309893e+00
    1.5302661585264696e+02 -6.3581801495279091e+00
    1.2971184332885937e+02 -5.3194011859948924e+00
    1.5022391786727985e+02 -6.1844627953348299e+00
    1.5714114413377359e+02 -6.5534644502479571e+00
    1.3618722804204930e+02 -5.5863214734384083e+00
    1.5656341785673123e+02 -6.4312366403416199e+00
    1.5946692981208059e+02 -6.6131619812043896e+00
    1.3281251071195663e+02 -5.4341338638550365e+00
    1.5398534710845814e+02 -6.3294198501607095e+00
    1.6127861511938420e+02 -6.7227401319372184e+00
    1.3710579532400303e+02 -5.6046743081836867e+00
    1.5869247307692638e+02 -6.5069036204885835e+00
    1.6399129209786139e+02 -6.7990989646016633e+00
    1.3481954116484349e+02 -5.5130014193762182e+00
    1.5528948066744192e+02 -6.3763358141450333e+00
    1.6452448546702476e+02 -6.8546044085476998e+00
    1.3671709496495225e+02 -5.5756458493624956e+00
    1.5773794968598835e+02 -6.4560045474134391e+00
    1.6526446973193512e+02 -6.8475866865392812e+00
    1.3354321589767935e+02 -5.4601940662828907e+00
    1.5211764890363042e+02 -6.2286689515957621e+00
    1.6367213944723824e+02 -6.7955972179889246e+00
    1.3765090400859876e+02 -5.5940233287148988e+00
    1.5818699890342521e+02 -6.4447215517145429e+00
    1.6665175454641442e+02 -6.8774732007496313e+00
    1.3710488498978845e+02 -5.5887378682173514e+00
    1.5506625728079743e+02 -6.3164110290982167e+00
    1.6690125147964531e+02 -6.8944415842967466e+00
    1.4179173371411099e+02 -5.7547168163329534e+00
    1.6072293637540113e+02 -6.5316380049060907e+00
    1.6931457772923153e+02 -6.9741518560024112e+00
    1.3566999526357645e+02 -5.5188488869588497e+00
    1.5283499725533019e+02 -6.2081246311804383e+00
    1.6641576421146351e+02 -6.8527455983432795e+00
    1.4457691124997493e+02 -5.8762925340819123e+00
    1.6200390174390475e+02 -6.5909531208822054e+00
    1.7175385029896313e+02 -7.0833809682480933e+00
    1.3666392408520545e+02 -5.5542864956488165e+00
    1.5346161117495160e+02 -6.2266904323115870e+00
    1.6790897277639797e+02 -6.9084549571150671e+00
    1.4516904708805069e+02 -5.8958206183535378e+00
    1.6050807334144559e+02 -6.5229893156570915e+00
    1.6933837964898780e+02 -6.9767508312549129e+00
    1.3791489120701331e+02 -5.6091187142422756e+00
    1.5577522059885075e+02 -6.3258806443043989e+00
    1.6923784845145931e+02 -6.9693892335469494e+00
    1.4820064746028513e+02 -6.0121520187728912e+00
    1.6419658859775242e+02 -6.6684749959058660e+00
    1.7243658527976220e+02 -7.1018320698986974e+00
    1.3345831792814874e+02 -5.4269000905067264e+00
    1.5440346890452042e+02 -6.2798698866640050e+00
    1.6766923586993698e+02 -6.9164554443974220e+00
    1.4319891772392262e+02 -5.8239255636209473e+00
    1.6140130070932801e+02 -6.5778612612723082e+00
    1.6970401422275344e+02 -7.0128988681013764e+00
    1.3372249985060969e+02 -5.4272396762962813e+00
    1.5538794741840553e+02 -6.3211257072435183e+00
    1.6589399539509841e+02 -6.8489654595756226e+00
    1.3973545274605922e+02 -5.6880433576919058e+00
    1.5801022182865100e+02 -6.4511313934692174e+00
    1.6389162079244943e+02 -6.7815362258226877e+00
    1.3102704053546609e+02 -5.3234623793859628e+00
    1.5185537627837519e+02 -6.1815387894552165e+00
    1.5969801213615932e+02 -6.5872123864167635e+00
    1.3892981290439579e+02 -5.6709960782130011e+00
    1.5839363800533931e+02 -6.4782400198018655e+00
    1.6238975603158869e+02 -6.7203154894877919e+00
    1.2683427128781878e+02 -5.1689573302723533e+00
    1.4595569626517408e+02 -5.9561192379314472e+00
    1.5048146681700499e+02 -6.2136027702449415e+00
    1.3815698479650126e+02 -5.6594488218858681e+00
    1.5793245003573540e+02 -6.4740835725669337e+00
    1.5930452777911390e+02 -6.5952471747728199e+00
    1.2307264487806682e+02 -5.0503970389311554e+00
    1.4085484449114321e+02 -5.7854972736688737e+00
    1.4500492713748321e+02 -6.0011725210690745e+00
    1.3394918668057832e+02 -5.5266588458001893e+00
    1.5342989804113066e+02 -6.3244889093394496e+00
    1.5477930828995298e+02 -6.4173758270689074e+00
    1.1596899320694043e+02 -4.7949405592735941e+00
    1.3118622922991526e+02 -5.4216656645476826e+00
    1.3331909642267343e+02 -5.5209095282800638e+00
    1.2345375079783791e+02 -5.1409120941698419e+00
    1.3966662226170965e+02 -5.7984809877893149e+00
    1.4287525883252329e+02 -5.9338023497243038e+00
    1.0639795865040310e+02 -4.4608571099325243e+00
    1.1711085792506067e+02 -4.8870763552401026e+00
    1.2078889011658801e+02 -5.0029893401471330e+00
    1.1177020991980991e+02 -4.7079405595127843e+00
    1.2298296808666231e+02 -5.1497495860376237e+00
    1.2509419313598409e+02 -5.2025282102701622e+00
    9.7467076108470891e+01 -4.1409986720934828e+00
    1.0596833425835297e+02 -4.4768176739622598e+00
    1.1034884510064164e+02 -4.5776783386525031e+00
    9.7990706073116030e+01 -4.1852338302763021e+00
    1.0764694703579777e+02 -4.5734783628891922e+00
    1.1125035888132410e+02 -4.6538311209880154e+00
    8.6812535850261042e+01 -3.7599458282500478e+00
    9.2264142145463026e+01 -3.9887059110544856e+00
    9.7216815549268105e+01 -4.0809276067398859e+00
    8.5085847851497476e+01 -3.7031412872743701e+00
    9.2526856678257460e+01 -4.0250465520085239e+00
    9.7567603331251789e+01 -4.1375566122983658e+00
    7.4402894553589505e+01 -3.2854997452604930e+00
    7.7676535341881134e+01 -3.4412959192878172e+00
    8.3390497112113579e+01 -3.5527403794414707e+00
    7.1522913662119251e+01 -3.1805600233821956e+00
    7.7272281530606818e+01 -3.4495882730911234e+00
    8.2954768399697699e+01 -3.5757566750290688e+00
    2.3645923907339139e+01 -7.5563220622274985e+00
    4.6809916809603308e+01 -1.5621965905473797e+01
    2.0342089600385407e+01 -7.0527394096630278e+00
    2.1774714116366699e+01 -6.9468983099619228e+00
    4.2003275640214703e+01 -1.4018775058189176e+01
    1.8508096686326638e+01 -6.4262066497129968e+00
    2.1641918135443948e+01 -6.9003470245787391e+00
    4.2199360281481844e+01 -1.4089790352047286e+01
    1.8524796363109278e+01 -6.4331412677531938e+00
    2.1811754291641364e+01 -6.9590524562651854e+00
    4.1836895156524442e+01 -1.3970793773464305e+01
    1.8611916315688244e+01 -6.4586080579806397e+00
    2.1768833799711373e+01 -6.9560115149808794e+00
    4.2207776182141146e+01 -1.4090766324572169e+01
    1.8715752148714760e+01 -6.4872011820897137e+00</input_scale>
  <output_scale>
    1.0526315789473684e+00 0.</output_scale>
  <inv_output_scale>
    9.4999999999999996e-01 0.</inv_output_scale>
  <weights>
    <_>
      5.1448385045699901e-02 -2.8192771930366674e-02
      -4.5692663939033304e-02 -4.0970414991890379e-02
      5.2067758523244322e-02 3.4756994135899200e-01
      -1.7570942110487667e-02 -2.0948100729366440e-01
      -1.5746533980710770e-01 -2.0343916901218009e-01
      -1.6513173474745718e-01 2.0663236768443598e-03
      1.1730400233481962e-01 5.5186810940978159e-02
      -1.7855054841389795e-01 6.7459111491147805e-02
      -8.2395458560049969e-02 2.2408861123018262e-01
      1.5916613716083722e-01 3.9718209590221105e-02
      -2.5341234238660992e-01 4.2702593052144452e-02
      -4.3793359709679042e-02 2.8063809171730555e-02
      7.6985969860303661e-03 6.6856709490394142e-02
      9.5578320513728679e-02 1.9084137237322504e-01
      2.9787502474210241e-02 -1.7752558304684468e-01
      -3.9706887351124938e-02 -6.0266454768537994e-02
      -5.5131753881728978e-03 -5.8794443328263231e-02
      3.1393745150807797e-02 3.6146352102788527e-02
      -3.5704052851761253e-01 -1.4982732391799772e-01
      -6.5537421419516406e-02 2.9187611390027249e-02
      -3.1975440386779403e-03 9.9907163544328131e-02
      6.5489073136782677e-02 -1.0838592349221673e-01
      4.9682260699077149e-02 3.7427477682869394e-02
      -1.9133839215959814e-01 -1.9910306574011029e-02
      -5.7220198969595203e-02 -2.0944377833345398e-01
      -3.4279060407841355e-01 -9.3149250698365722e-03
      -8.6106609902890888e-02 2.4168843648370991e-01
      3.4621307865013967e-02 8.7774739613440705e-02
      -5.1610453644014613e-02 4.2512971818554519e-02
      -2.7611118157141807e-02 7.9042196214942628e-02
      -6.9585507457233214e-02 -1.0396306030015427e-02
      4.0087502158881891e-02 4.1472154111314247e-01
      3.4405101467760518e-02 1.2730894435922449e-01
      1.6136306840703708e-02 -5.7991174593727528e-03
      -2.7627165370307821e-01 9.0427109431400043e-03
      1.2680608259827814e-01 -5.0125181936547643e-02
      7.2370212359839051e-02 -4.5271848346194599e-01
      -3.4149768459833037e-02 1.4385670107559432e-02
      7.3799996569417020e-02 -1.9644034987612158e-01
      6.6852542361219347e-02 8.8793020733306832e-02
      -9.2709491276026415e-02 1.4142586739598692e-01
      -2.8963638979033257e-01 3.9995924964244964e-02
      4.8276389544764836e-01 -1.5177519396064806e-01
      -4.5151710321522898e-01 1.4876195630267477e-01
      -6.2300705426261194e-01 7.2740865534560564e-02
      -3.0863959956238540e-01 -3.9606628435727417e-02
      1.9915338140649058e-01 -2.6965972663424199e-02
      1.6115469720806636e-01 6.2615492605556256e-03
      5.2778171121666284e-01 5.8069179930020842e-01
      2.0629284291244701e-01 2.6360332151124555e-01
      8.9089434369508669e-02 -2.7792800637220483e-01
      2.1143264231965228e-01 3.8957700662734501e-01
      3.1938574502845007e-01 3.1262433195344824e-01
      5.9744066536423301e-01 -2.2174700557275773e-02
      -2.5511725056905321e-01 2.3354750833351445e-01
      -3.1765347170276653e-02 -3.9972668350889716e-02
      -2.9526970279108992e-02 -2.1067427200833863e-01
      4.8080008963723458e-01 -4.9908182415918378e-01
      -2.3105024026414114e-01 -2.7713337048728981e-01
      -2.3176420872498632e-01 -1.9651436796806424e-01
      -1.4841360976837600e-01 -4.2270387103090667e-02
      -1.2188905415573149e-01 4.8615484160595329e-01
      8.5909634353234232e-02 2.2555326122954841e-01
      -2.0172830634340985e-01 2.5282399701136129e-02
      -1.8235970425171280e-01 -7.8708689980685892e-02
      3.3985464911322177e-02 -4.1709403566300724e-03
      -1.0377352498283539e-01 -1.9689455673915315e-01
      5.4645315764433267e-02 -4.2592982731674139e-02
      -2.4032199882111718e-01 5.8012926563563647e-02
      -2.5264497682252662e-01 8.1649007479918601e-02
      2.1007904226161367e-01 -1.7329816568210263e-01
      7.3798884319923630e-01 -3.0032211438225082e-01
      1.4421594132786432e-02 -1.7367005797455953e-01
      2.7501766473428152e-01 9.9993663372232630e-02
      2.0208919884102068e-02 9.5509612028128646e-02
      2.6761474437385052e-01 -2.9387471664334369e-01
      1.2764502317442489e-01 -1.8851804885679674e-01
      -1.3501703187012279e-01 -2.3568712846280312e-01
      -1.7352584518861566e-01 -2.1203982586269751e-01
      -1.2224851710608303e-01 3.8653816122338404e-02
      -5.7746296564115274e-01 -2.9301697548642706e-02
      6.1614481733853692e-02 -2.8019980621279578e-01
      -3.2132813453955258e-02 2.7664187165943560e-01
      2.0362848343803568e-02 -3.4069298877881671e-01
      -1.5779627575559088e-01 7.0675359311895836e-02
      1.0062117603454755e-01 -1.6308516503337667e-01
      -2.5779089584239212e-01 -2.5328153089983162e-02
      -1.1359803334371335e-01 1.2686354722293746e-02
      1.6981755703696486e-01 4.0790031624586665e-02
      2.4394072817934354e-01 -4.1353124322649912e-02
      2.0636148268951779e-01 3.2495847259172733e-02
      7.9913778212712949e-02 1.6334003969948243e-02
      4.2054757778966210e-04 4.0803319631555834e-01
      1.8136947384361359e-02 -6.4280863552792000e-02
      -3.3477629198093367e-01 -8.7779432721655767e-02
      2.1102158763759890e-01 -1.1512089537317964e-01
      2.5349383749608021e-02 7.5058794546558547e-02
      -2.0333949064631443e-01 -1.1489981843061317e-02
      2.1268297418079372e-02 -1.6794361490754786e-01
      1.3428309148415304e-01 -4.3092425007637901e-02
      -1.1568303721170596e-02 -7.5024344806889104e-02
      2.6575146866055849e-01 -7.9572307865302117e-02
      1.5192349232531754e-01 8.9250169144822339e-03
      -6.6711100211669996e-02 2.8290206507203174e-02
      -3.2500887085452573e-01 -1.1861951774722557e-01
      -1.7593278506381266e-01 1.5127715230521929e-01
      -8.1519783252129493e-03 5.5007889879051253e-02
      -4.8219078679736203e-02 -2.6402065232500039e-02
      -4.0073052517622103e-02 1.6698663064063537e-03
      -5.4528327873903042e-02 -1.3585318743167954e-01
      -3.1810573813004547e-02 2.6617158700698051e-01
      -1.4779133382895987e-01 1.1346542247096432e-01
      -2.5443950539102426e-02 -5.5145870711970066e-02
      -1.1430759223421198e-01 -1.1334443522527647e-01
      -1.1526502540756942e-01 5.9914789795493174e-02
      8.7959459578942981e-02 -1.9986899295788024e-01
      2.7710020166044819e-02 1.6718973124302816e-02
      6.0423978232151711e-02 1.4705642535033661e-01
      6.5962853570118565e-02 1.8367588839153695e-02
      1.3006045023139214e-02 1.1932195484137241e-01
      3.2623522700613382e-02 9.1938090302751907e-02
      6.5237037293315658e-01 1.5091311444473846e-01
      1.3795114675490153e-01 -1.8451135661393755e-01
      8.1462993375161150e-03 -6.1435237958225308e-02
      9.8069925973421970e-02 1.0926283061563510e-01
      -7.0591174909901216e-02 -9.2992678368625778e-02
      -3.9166623227428553e-02 3.6679800814838570e-02
      2.0969240997321970e-01 -1.8656916118737704e-01
      -2.7455553129185153e-02 -4.0077235764258512e-01
      5.4919241066716225e-03 -6.8203600466308495e-02
      -1.0249320749536075e-02 -2.3078089463146587e-01
      -1.3780489473165269e-01 -9.6743848788573811e-02
      -1.2428725225936120e-01 1.4204214004548293e-01
      8.4355095127013072e-02 7.8298746576943287e-02
      -5.2740519537614623e-03 -3.4762981814033520e-02
      2.1258446477088098e-02 1.1782191438650547e-01
      -5.2126074373913511e-01 -3.1917227290767403e-02
      -1.2571288612300144e-01 2.3622915906745270e-01
      2.1716971036950972e-01 1.0628283780244066e-01
      4.7111700413797135e-02 2.8305747681703902e-01
      -1.9145284657613688e-02 -2.7256708157167986e-01
      7.4839352936932349e-02 -2.7856485165859446e-01
      9.9998147238124266e-02 -8.5243871968651436e-02
      -2.3141234406154967e-01 -3.5964733706370010e-02
      5.7679859346730152e-02 -5.4277891536848637e-02
      1.3794704475223532e-01 -1.9393095680307108e-02
      7.2410279972957847e-02 3.9070342591934655e-03
      2.3174037486316706e-01 -7.8962454801479065e-02
      8.9373805301704828e-02 3.8538582877124715e-02
      2.4782358608994293e-02 -3.7147569763830865e-02
      -5.0289372524957706e-03 1.9276417589115447e-01
      1.0171248727660821e-01 7.8158410372414680e-02
      -1.3183160712425565e-01 -7.4156745547084351e-03
      1.0246786960440973e-01 9.0193952017844262e-02
      -6.3806924052772954e-02 -3.7407642524091650e-02
      2.3398610823537522e-01 1.5672340610351518e-01
      -9.7537883686588084e-02 4.6651548441506696e-01
      -1.2626913305795309e-01 4.0286223716530935e-02
      3.8898826965680700e-02 -9.7601662087718130e-03
      2.4989889477342198e-01 -1.5709131780803212e-01
      1.0582352497906870e-01 8.1222979658217254e-01
      8.7216668643935513e-02 -5.2409806059876618e-01
      2.2828876369967127e-01 -2.8816063038632372e-01
      1.1106598653768944e-01 -1.2033209288510426e-01
      1.7355692799658193e-02 1.6130164041123715e-01
      1.5824304032881875e-01 4.2420344871398570e-02
      1.9934889158957962e-02 4.1940007147802066e-01
      1.9945078588751189e-01 7.4619286492213818e-02
      2.1829056681441417e-01 -1.6710998198644692e-03
      -3.4119202729763576e-01 9.0844011370974725e-02
      -3.1397494774626569e-02 9.2798544319519047e-02
      6.0910443320385144e-02 5.1087466558836681e-01
      1.3931796402364111e-01 8.7915297748500917e-02
      2.8873085531319942e-01 3.3439420667469508e-02
      -8.0072155653085314e-02 4.6706416197483690e-02
      -1.1905081478152703e-01 -3.0484937041804044e-01
      -1.7419821569692620e-01 -1.3244498546667738e-01
      -2.2424213067217078e-02 1.0080102098887281e-02
      -4.9310403869358733e-02 -1.5923108995680041e-01
      2.5100867454042464e-01 -2.9964463143827631e-02
      8.0341648042535040e-03 1.0356597272721835e-01
      1.7633786715074792e-01 -4.8593750249906240e-02
      -4.2156248637800382e-02 -2.0787847545428867e-01
      1.9757915411753488e-01 8.7811609191314505e-02
      -4.8822436621944125e-02 -6.5966134729785554e-05
      -2.3028487620673657e-01 7.3014391558873681e-02
      -1.0453490972765919e-02 -1.3861514197295052e-01
      -9.3337600872159143e-02 -2.4561309983516150e-01
      7.6618997878625588e-03 2.0251236321979826e-01
      -2.0968670543230100e-01 3.7132462159408564e-01
      -1.1640540080647002e-01 7.7795925371329663e-02
      3.5367826543033624e-03 4.3045678511756127e-02
      1.5397397569919732e-01 9.6849251687489396e-02
      7.8157647167062985e-02 2.6278647329014226e-01
      -3.7026868920322858e-01 5.1027844299635317e-01
      -3.4323351980631328e-02 -2.5389841721081935e-01
      -3.1884905096542970e-01 -1.7569983418515414e-01
      -1.5947713359709026e-01 -1.0885759120595105e-01
      8.1916505556862890e-02 4.0408527284365982e-02
      -3.7085493695948588e-02 8.0471949007140234e-02
      2.0649311874705770e-01 7.2965982580561473e-02
      -5.5983330306094992e-01 3.3273669600546407e-01
      -1.4306030477495146e-01 7.6870293023135292e-02
      -7.8886829909756373e-02 7.4325385598298710e-02
      1.0534091648124713e-01 1.2744621011328286e-01
      -1.1691681230210955e-02 -6.5837897698850123e-02
      1.0882319504288733e-01 -1.0472109241319547e-01
      -4.8397581527060550e-02 5.5319031332574098e-01
      -6.7317607499523979e-02 -5.4657566766764809e-02
      -5.7878387541151453e-02 1.6222464895156312e-04
      6.1024916152267537e-02 -8.5790810680708741e-03
      5.8816798778262513e-01 9.8771879648386268e-02
      1.5724984620367727e-01 -1.7300377464647543e-01
      -1.2621885248184023e-02 6.3114928119168134e-02
      -2.5131812850423166e-02 -5.1210656197930665e-02
      -2.9878125818312734e-01 -7.2002314566205719e-02
      3.7794493555101623e-02 -4.5484121588109362e-02
      -4.7886062630260830e-02 -4.3412231088792289e-02
      -1.4651620518480207e-01 1.7352641034209906e-01
      -3.6128224033257363e-02 -2.9512527587070170e-02
      -6.0615982641763912e-02 4.6501488516872413e-01
      3.5840036272613209e-02 -6.1505037553012176e-02
      -6.1767254196490691e-03 7.5530601038247214e-02
      -4.4811597114062234e-02 -8.6054732596909142e-02
      7.7053571262604134e-02 -3.5928757986261252e-02
      2.5883208283861727e-02 -1.8710084162572294e-02
      -1.8510332586269179e-01 -1.2196465843549834e-01
      -9.2343646129883161e-02 -5.0968865398913939e-02
      1.2288377754795747e-01 -6.2317126928065292e-02
      2.0681644353316128e-01 -1.4652536598812074e-01
      9.4568536356865629e-02 7.6738003090205370e-02
      -9.9021873386092203e-03 4.5555012550310685e-02
      -5.8367823014982910e-02 -1.1920656267982101e-01
      1.1521386228464878e-01 -3.0987785378081067e-01
      3.1631540783012263e-01 -3.8968978883092566e-02
      -9.2528801336369634e-02 -4.6704432668988721e-01
      1.2629173686789338e-01 -6.1549823577227859e-02
      1.0126918935805231e-01 -3.2745825012876977e-02
      4.2790802472807608e-02 1.7831535128238377e-02
      6.2678198537009816e-02 4.7854843882402925e-01
      -3.6461797593168414e-02 -5.3269231748648831e-02
      -3.7690564935863057e-02 1.7395206221427234e-01
      -1.1559929186700553e-01 -3.6314946809579397e-02
      7.0726611598243005e-02 1.0178206564752816e-01
      -7.0225698852459773e-02 1.0927420395252045e-01
      -1.2761203775110523e-02 9.2882371915164214e-02
      1.4945178530217576e-01 -1.8425560766761308e-02
      -1.4459836508505783e-01 6.2838908879040756e-02
      -5.6440503271433712e-02 9.0395542284322696e-03
      1.0803071410492349e-01 1.1701458221934147e-01
      5.6239580034925060e-02 2.0729176887686657e-01
      -1.5041949074914164e-02 -1.5630067494181338e-01
      2.6963118909873823e-02 -8.9182305091658198e-02
      -8.3322998233995402e-02 -8.1471455295874032e-02
      -8.9871872342736969e-02 -1.5251113724347704e-01
      -8.6862883132040783e-02 -1.2243226276785185e-01
      -1.2892694373765784e-01 -5.3747109582139706e-02
      -5.2683865140317421e-02 1.3288081517050943e-01
      -6.1536970394734079e-04 -9.9216782085078642e-02
      1.0184141368466795e-01 -6.7275020523464138e-02
      -2.4423619921314602e-01 -1.1502243922001554e-01
      -1.4932055169409703e-02 -1.3003219495066995e-01
      -1.3836189409024119e-01 -2.7678825338618124e-02
      -9.6127577307830225e-02 2.4205277329341948e-01
      1.1642125787136659e-01 7.5486429687908294e-02
      -4.7125542996958779e-02 -2.6978891575403088e-02
      -1.4290931683935633e-04 2.0183582988555954e-01
      -3.1070352017770565e-02 4.1450844904558873e-02
      1.1634997507009343e-01 2.4384918915556295e-01
      7.3931422269885888e-02 1.4375804962323210e-01
      1.3641482167905946e-02 5.0113268764849755e-02
      -2.4956946938349944e-01 -4.2164579771833050e-02
      2.9503783578386261e-02 -1.9376749150856368e-01
      1.9987155542752785e-01 -2.8452218737682355e-01
      -5.4643519575407966e-02 1.0631249644781537e-01
      -2.8675014770339468e-02 -1.5817392714403586e-01
      1.2443817086124548e-01 6.2239622839323605e-02
      -6.8446873499943744e-02 8.4225697123703563e-02
      -1.7593551685096465e-01 2.8777345772025478e-02
      3.4262140142448827e-01 -1.1351549271751889e-01
      -1.6463843047665469e-01 1.9183052793734395e-01
      -1.0034484583684133e-01 -4.4374863988427264e-02
      -8.4093237256089887e-02 6.4437709124866627e-02
      6.2647857953676861e-02 -1.6165974788367424e-01
      1.1041264567896965e-01 -2.1331011492647118e-02
      2.2130754045659565e-01 4.2033491213438468e-01
      6.1864569096331694e-02 1.0173522348434300e-01
      7.1197757403641745e-02 -6.3524670113944803e-02
      1.2179603947612842e-01 2.7178655765587401e-01
      2.1073161272644830e-01 2.1516355595368042e-01
      4.0786744244156026e-01 -2.8297405327352053e-02
      -1.9359605343376046e-01 1.3778005438385332e-01
      -8.5148025213369685e-02 -2.8000616931512786e-02
      -7.4527090389181913e-02 -1.3930457013930464e-01
      1.4458205412407210e-01 -2.5599687274280930e-01
      -1.5629466367255218e-01 -1.6547367793796930e-01
      -1.3088081786499284e-01 -5.9681944577220904e-02
      -6.1657868136171827e-03 -6.2970782469217501e-02
      -1.1564601168185409e-01 3.5518042136819050e-01
      -1.6644499083856582e-02 -6.1481948486363194e-02
      -1.3576829087997927e-01 -1.0902895380427678e-02
      -1.0413865143714307e-01 -8.5519294644376811e-02
      -4.0909162354883941e-02 -6.3087367401533270e-02
      4.7373423438256283e-02 -3.3447793216592435e-02
      5.7775105147419542e-02 -6.6039244691712032e-02
      -9.9828612576408016e-02 3.4262566179628459e-02
      -1.9213245826199751e-02 2.5576686653873956e-02
      9.3182543393017500e-02 -1.6668075791827722e-02
      3.8505730904368757e-01 -6.0016738694986013e-02
      8.5545017834206302e-02 -1.1156423438520999e-01
      1.4738398875208428e-01 -8.6815734976305653e-02
      -4.2314484492234995e-02 4.0625865338416424e-02
      2.4025582365195853e-02 -1.4724236792589757e-01
      9.2689972090170519e-02 -7.5149769173019867e-02
      1.8044127465915161e-02 -1.8340235226570339e-01
      -1.0192317888087778e-01 -1.0802892984466730e-01
      -1.3671646810843258e-01 5.6651485312866956e-02
      -6.7176078608412748e-01 4.9986371602179225e-02
      8.7251657446454162e-02 -4.1730957747476927e-01
      6.9611193376914460e-03 5.5697640957599248e-01
      6.4976792893777197e-02 5.2287169373352600e-02
      -2.8146161047018531e-01 2.8588966577446784e-01
      1.7707888251674453e-01 -2.8259906621736053e-01
      -4.1197439647195311e-01 -5.3198900185223170e-02
      -1.2327405867558619e-01 -3.1171775083440406e-01
      -1.1837775538593959e-02 -4.7296386394591466e-02
      6.7228925118358152e-02 -7.9169860369377745e-02
      4.1193422408464209e-01 -4.8747435515446851e-02
      -7.7447545843603851e-03 -7.7623196996770422e-02
      -7.0801529286665499e-02 2.5568221036150218e-01
      1.8759193159618395e-02 -3.0519473129873569e-02
      -4.3532486783652963e-01 -1.4370493314040789e-01
      2.4268614764155999e-01 -1.4387129879290070e-01
      8.3734254481481765e-02 -1.8373576664076946e-01
      -1.0464537865159097e-01 2.5316651169605964e-02
      1.1519868921728163e-01 -7.5548880329440515e-02
      2.4870532064194079e-01 6.3672874888804770e-02
      -1.9978891274692136e-02 -8.3090116211343906e-02
      8.2435685854060789e-02 -1.1963946357524270e-01
      -1.0427592097000779e-01 1.5164284137887372e-02
      -7.9054991691242041e-02 6.3393121856135604e-02
      -3.3374291912571341e-01 -1.5908586808999528e-01
      -2.1766022029101953e-01 2.4580651280692861e-01
      1.3075407860454444e-01 4.6397590453631947e-02
      -9.1685993909203609e-02 8.5356131102445248e-02
      -5.6343475669752750e-02 1.7651929077799192e-01
      -9.5359535439336132e-02 -2.4667439822228815e-01
      1.1861885517611698e-01 9.9520454177672406e-03
      6.7771864996813536e-02 1.6710817596782565e-01
      5.0904883261307987e-02 -1.9938316311991131e-01
      -2.8007506588967207e-01 -1.5270893297190719e-01
      -1.5571993619344535e-01 -1.4605667171692135e-01
      1.2396251232789403e-01 -1.9706602205974261e-01
      1.2752884515578009e-01 1.2156584406163583e-01
      7.6438744694804189e-02 1.9882159788898665e-01
      1.4019110008527888e-01 7.6346819706708591e-02
      -1.8226999832864597e-02 1.4381355693431569e-01
      9.1225645106251099e-02 6.5139437686547050e-02
      3.1531630967139224e-01 1.2749130591123256e-01
      -1.5470406812711171e-01 -1.2563067264412439e-01
      -1.4040493742951343e-01 -5.2656357011959483e-02
      -1.2788309897148839e-02 -2.5694772176237023e-02
      4.2342629719520006e-02 -1.0461086049332573e-01
      2.6169463558445221e-02 4.8430614769266793e-02
      2.0163568043428251e-01 -6.0032534335435962e-02
      1.6884158798079880e-02 -3.2074370734229080e-01
      -6.0965953537993767e-03 -1.3850130006345512e-01
      -1.1109551931134781e-02 -6.6699310793157301e-02
      -1.3074563931249126e-02 -1.2330689625904050e-01
      -7.6699258132927788e-03 9.8127917587013641e-02
      2.8675533004000189e-02 2.1970822705858342e-01
      -2.7608943939869630e-02 -6.4968933914992838e-02
      9.6349600790610502e-04 9.7208959748172008e-02
      -3.1142637573446569e-01 1.0342154339805704e-01
      -1.1341020762593897e-01 9.5103428303014895e-02
      9.1964999006666784e-02 -3.8271110744826073e-02
      -2.7231724011280725e-02 1.9362791377606900e-01
      -4.3200676943513643e-02 -1.3633798964680111e-01
      -9.5778626855848824e-04 -2.4760460522531916e-01
      -6.9275781153854132e-03 -4.4290281087588201e-02
      -1.6579840254164802e-01 -3.2787192218993268e-02
      2.4769401758050470e-02 -7.7763212543505988e-02
      9.7194441084244104e-02 -1.2750096045886667e-02
      6.6017211312980523e-02 9.8597852851931445e-04
      1.7365459144320342e-01 -7.2490740769711182e-02
      7.3626699927260814e-02 5.9529376238995971e-02
      4.9033886868240700e-02 -4.9749679505382352e-02
      5.0720258135351824e-02 1.0162724729962129e-01
      1.0176574593001081e-01 2.2957673110760114e-02
      -9.3339571478411085e-02 4.6814078558777616e-02
      6.2981909979726150e-02 6.4931590504222786e-02
      3.1529101164208116e-02 -1.4965116956474313e-02
      2.4909631921339381e-02 6.3894872574999567e-02
      -6.5010390222975362e-02 4.6576118505086983e-01
      -1.1527407553522542e-01 -3.5085797098247697e-03
      5.6490327644273461e-02 -9.0455669613178722e-03
      1.9575852593464801e-01 -4.4386865960469911e-03
      1.1412490610451498e-01 3.1507849710523428e-01
      1.0340235875468888e-01 -4.7365878383374599e-01
      1.5515647376208205e-01 -2.0428601939467081e-01
      4.7807379896238449e-02 -5.9226509142544008e-02
      -3.4978451325285861e-02 1.5843182866296082e-01
      6.4931114743434507e-02 2.4825529644624183e-02
      -2.2939215279489753e-02 3.1197546774346269e-01
      1.7693625727712134e-01 5.6506292735698550e-02
      -1.2441687961800440e-02 -3.4062322568650452e-02
      -2.0335398637379123e-01 1.4908993942930883e-02
      1.9815405422478116e-02 8.0710216775418175e-02
      -2.0749176810678664e-02 3.7292805273812712e-01
      9.6128146123688335e-02 1.1311772562592558e-01
      1.5873999836080424e-01 3.2051130126521743e-03
      -6.0768695444013317e-02 2.1697508527343617e-02
      -6.0898923239478923e-02 -4.7154958451136081e-01
      4.0440109130210025e-02 -8.6301522340011663e-02
      -6.9947561798969320e-03 1.9342842985841834e-02
      -7.7598366275430250e-02 -9.9728762089946604e-02
      2.1067624617276803e-01 -2.8817735526660365e-02
      -4.1669753974059968e-02 1.9346327876644427e-02
      -3.1256038068638879e-02 -7.8000328721960110e-02
      -7.2064269832121997e-02 -1.6431514157083330e-01
      1.5665832826949991e-01 3.8371275787334999e-02
      -1.1103837728342775e-01 5.9394387117369440e-02
      -1.1026587836646316e-01 5.1890218366093512e-02
      -7.0636687068221116e-03 -2.2200670412373762e-02
      -1.0649903678682780e-01 -1.4691919817108764e-01
      -1.0148421449103245e-02 9.8503809401816758e-02
      -1.4670902836814967e-01 2.4221867094263144e-01
      -6.8923511458492390e-02 1.4209551617309216e-01
      2.4054097202869443e-02 -8.4351379156077239e-02
      8.7089222902679675e-02 5.7247805432624331e-02
      1.5897899976167182e-02 1.9545008818000245e-01
      -1.9238734114962083e-01 2.7320850677012620e-01
      -1.1894965745362585e-02 -1.8145108612434219e-01
      -4.0091970711509783e-03 -9.9850283143014112e-02
      -1.2559481500718297e-01 -1.0262064746507178e-01
      8.6553579935087971e-02 1.3288169436960567e-02
      7.8302940140077687e-02 1.0217081252291607e-01
      -1.6878295324591988e-01 9.5541895471882909e-02
      -3.5490614336021981e-01 2.2382797268883275e-01
      1.4279735885615374e-02 3.9349366040700239e-02
      -1.9672055499351290e-02 1.6781837350268624e-02
      1.0877970537734101e-01 3.0109939020406928e-02
      -3.0303457650477390e-03 -6.9902773377779504e-02
      -1.4033514675401003e-02 -1.1972191854393018e-01
      -7.5385465630431456e-02 1.6753908024288869e-01
      -9.5534203523051614e-02 1.2458655070548855e-01
      -1.0194547098650179e-01 -4.0027727343564454e-02
      4.0414118753958027e-02 -8.4559245402728092e-02
      3.7225286542074948e-01 7.2027093283287880e-02
      1.8054766718394810e-01 -3.3134433678784186e-01
      -4.4933946656303764e-02 6.9665327510802677e-02
      -3.4177138431179928e-02 -5.3563768324556178e-03
      -5.7519550565108613e-01 6.6228494419954403e-02
      8.5774147117699595e-02 -2.1262361959948163e-02
      -4.5515750525272815e-03 -5.7209400735617651e-02
      -3.4079568164900008e-02 1.2625832008200855e-01
      -4.7079809034432187e-02 -1.4030675089787378e-01
      -1.1733656191031434e-01 1.0495224014172039e-01
      -3.7407739066119453e-02 -6.5647088646164656e-02
      4.9240338592021052e-02 6.6962647530129690e-02
      -6.3891637558996864e-02 -1.5379204192833071e-01
      1.1485837367157442e-01 6.2410011759176695e-02
      3.5120095868116825e-02 -1.8192469980221445e-02
      -7.1286767634568871e-02 -1.0106329977509332e-01
      6.8595703533647061e-03 -5.3765944995237173e-02
      2.2990499694278251e-02 3.5002981579525180e-02
      1.1678241371101646e-01 -7.4360786126638961e-02
      1.4342710181513754e-01 8.4601809532714664e-02
      -1.3918511400856123e-01 6.8467573272925908e-03
      -9.3718989368402436e-02 -1.5859635032803696e-01
      3.7812918885291005e-03 -2.0937437252719163e-01
      2.1431072289803407e-01 -3.3171791014701239e-02
      -1.7498221772845653e-02 -3.7184076531250913e-03
      1.4826446392777523e-01 -8.2450807806630111e-02
      8.1457682249187660e-02 -4.5077194202275614e-02
      1.0543991412021912e-01 7.2139805510024649e-02
      1.6802294464723290e-02 3.9072415742816441e-01
      -3.2528700704826628e-02 1.2716588481253380e-01
      9.2542589777187864e-02 3.7553737680129090e-01
      -6.2519909205926871e-02 -1.3925153672669674e-01
      -8.9614372030513700e-02 1.5895103524513529e-01
      1.7536753037329059e-01 1.3169340169169116e-01
      7.4518464027275522e-02 -6.8325328615200572e-03
      1.8250953232886907e-01 6.4677587517879250e-03
      -4.9322373116335937e-02 7.8080508186113312e-02
      -1.6880251178424213e-01 3.4532372176346124e-02
      1.1929889980905255e-01 2.0182779273675300e-01
      4.7594293421655179e-02 2.4717199239259493e-02
      -1.8837705463912002e-02 -4.0489485363105662e-02
      -8.3192098454636182e-02 -9.9899256898504166e-02
      -1.4012067914442172e-01 -9.3046827657134637e-02
      -1.8252077996165805e-01 -3.0503089746195272e-01
      1.7909775887217466e-01 -4.2391870064167732e-02
      -9.5787332502237713e-02 -1.7977161299594480e-01
      -1.0548121221788595e-01 6.9072974100312892e-02
      5.5946924421487482e-03 -1.0473474167517081e-01
      1.6558320559465980e-01 -7.1654035020339235e-02
      -5.4539832472827322e-02 -1.5323728247951307e-01
      7.1009180905402147e-02 -6.3375316505734927e-02
      -8.9922896384133255e-02 -2.4219015881602381e-02
      -8.4624233639734744e-02 2.9657981571388781e-01
      6.6615431128498076e-02 4.8215477062447977e-02
      -2.2258669977495905e-02 -6.5256171965383414e-02
      -1.1257945093111666e-03 1.6437242639728564e-01
      1.5242366573359329e-02 1.0927718752730642e-01
      1.0603913736740837e-01 1.7727665596452780e-01
      -2.0239628734770723e-02 1.2650352295822628e-01
      1.0667982169098250e-02 -1.2129394223051398e-02
      -2.9416532051923544e-01 -9.0758750468112312e-02
      1.4728894061324656e-02 -1.9786330754098669e-01
      6.9714592611745729e-02 -3.3769132710176050e-02
      -6.9457941791465957e-02 1.4613599857663709e-01
      -7.4747790627333138e-02 -2.9414832675789787e-02
      1.3203841851830794e-01 4.5229668741488732e-02
      -8.0095495011550236e-02 8.8703420161763108e-02
      -7.8395948688738004e-02 1.6416818701250373e-02
      9.6919395267861599e-02 -6.2628637751669616e-02
      -7.7542816907422412e-03 1.7905088033350064e-01
      2.6280024210876324e-01 -1.3492830289569524e-01
      1.5757849783255506e-02 8.2904103708783344e-02
      -2.8738444170372846e-02 -5.9544452349677486e-02
      7.4207577776956857e-02 5.9171804961543834e-03
      1.5833197256841891e-03 2.2031347641985613e-01
      3.9345877399807154e-02 -1.0884948935344781e-01
      1.2699081005177887e-02 -7.8437903733874520e-02
      9.6554630015917450e-02 1.4131415372090750e-01
      1.1333105044454263e-01 2.3593897858906215e-01
      2.6671796100130429e-02 -1.8865640068339764e-02
      -7.0281372870175662e-02 -6.4723976782565182e-02
      -1.0825455024506762e-01 -5.1666917549972505e-02
      -7.3854358735501599e-02 -6.7501878260552692e-02
      -1.8845426755673170e-01 -7.5010384738679298e-02
      -5.6989874807790039e-02 9.6956598075063419e-03
      -1.0147081452108207e-01 1.8820080815987045e-02
      5.2432083296958872e-02 -3.1316178614227252e-02
      -8.8442715923857523e-02 2.0304636195837736e-01
      -3.7023386575461031e-02 -1.0799194474444583e-01
      -5.6887737464987606e-03 1.7792821608545759e-02
      -5.5807816034762155e-02 -1.1772284395576466e-01
      -3.1645149557853670e-02 -8.6528292880059560e-02
      2.6291066187683948e-01 3.3394106116733987e-03
      5.1278141798428344e-02 -5.1750870639121031e-02
      4.6023056854626251e-02 1.3597461063919701e-03
      6.3123904948300585e-02 6.9762584940717695e-03
      -6.3237837855290267e-03 3.5860529588866361e-02
      1.6032367411441950e-01 9.1648040918890630e-02
      1.1428866299382766e-01 -4.6617214700043735e-02
      -5.6944718619598239e-02 -2.4967177167765187e-01
      -8.6083913240843607e-02 -8.1404617969791041e-03
      -5.6369211163876810e-02 -1.6695742311280670e-01
      1.7894835850364574e-01 1.9003719533382857e-02
      8.8607338621108381e-02 -9.4091946910101878e-02
      3.9043182910413310e-02 -8.9160089982918508e-02
      -5.6623579586924329e-02 -1.3009719444216949e-02
      -3.9404251956629122e-01 -8.9814622223331286e-04
      5.9465096179985064e-02 -3.2422789105401290e-01
      3.0819219751561217e-03 3.2251250421404382e-01
      1.7036830199258882e-01 6.5985128023412359e-02
      -2.3454800069186574e-01 1.8869722979515086e-01
      5.1185115578876637e-02 -1.9691150219353662e-01
      -2.1065996370315968e-01 -5.9519150909687867e-03
      -5.2699842880447059e-02 -2.6157288731279577e-01
      1.5321695457071580e-02 1.8424187055882689e-02
      -4.4854815118058097e-02 -6.9433963145581451e-02
      1.9530437470964407e-01 5.3074121988631547e-02
      1.2388794722907795e-01 1.7301812707902320e-02
      1.4201486250732639e-01 2.0571262781895830e-01
      3.4253806416877843e-02 3.7654469400441753e-03
      -2.9446350618190759e-01 -1.1231562140724320e-01
      1.4416717822487315e-01 -1.0501552186614550e-01
      7.7477388330208412e-03 -2.6870700964668831e-01
      -1.7451725329106715e-01 -1.3111468976033682e-02
      9.5490934999011123e-02 -1.6627169501343356e-01
      1.6504023209668583e-01 1.7609023615454290e-03
      2.9614648330687833e-03 -7.8217665804461031e-02
      7.0371786630433669e-02 -1.0144941447510861e-01
      -4.0875979905829800e-02 -1.2086088208696187e-02
      -5.8490228313500458e-04 3.7893098454851060e-02
      -2.2102698586762617e-01 -8.5807307384772200e-02
      -1.3620617915188760e-01 2.5193388485972873e-01
      3.7296863926091293e-02 4.7867693879992013e-02
      -8.3468041875899179e-02 4.8461925285987438e-02
      -4.2101541369663716e-02 9.2053275103049642e-02
      -3.9263325228692976e-02 -1.2506623209637288e-01
      2.7618771018897453e-02 4.0492791417973080e-02
      5.7667711498605660e-02 1.1615814758936620e-01
      4.0503578098595144e-02 -2.0237729564115062e-01
      -2.8708929995925569e-01 -1.2106683772986654e-01
      -1.3265964282101733e-01 -4.9155349887077371e-02
      -1.3169966633309521e-01 7.4831558309482737e-02
      7.1444137002466185e-02 5.8125859114597875e-02
      -4.8837853227906104e-02 2.1256902551326534e-01
      -5.8537279608631795e-02 2.5382624850119655e-02
      -7.2902740026845186e-03 1.9500938323243042e-01
      1.9748658120225451e-01 3.7415174279594454e-02
      -1.0011018742688980e-01 1.0694383339753707e-01
      3.2672351178614216e-02 3.2738363751781935e-02
      -2.4534053913603626e-01 -1.2789622071267626e-01
      -9.9368743985248323e-02 -5.9768829127659691e-02
      1.1491818905684754e-01 -1.3119474012344118e-01
      6.1241920033060671e-02 6.8562835680006290e-02
      1.3246359626696266e-01 6.5911050313821953e-02
      8.2412105974286248e-02 3.3633071650374893e-02
      -8.5586947571596739e-03 -2.5259394683767245e-01
      6.1462650002176489e-02 1.0230925053794089e-01
      8.5861269275421068e-03 -1.7551344045309872e-01
      -1.4264995057410543e-01 6.7003816081872544e-02
      4.2231081446529387e-03 -6.0168008570995642e-02
      -3.1838877840313348e-02 -2.6354586163367721e-02
      6.3756883152761663e-03 -3.8656081439604383e-02
      -1.9556558641388014e-01 1.9614915656823950e-01
      -4.3810651919995544e-02 -4.9875356311088283e-02
      6.7539407428344241e-03 -8.2450123510410575e-02
      -1.6715482113279004e-01 1.0275310014845457e-01
      -4.7416283739242768e-02 9.3144654299827906e-02
      -4.9743378167382321e-02 -1.9226159645966767e-01
      -3.3230371011053882e-02 -4.5076345825388279e-03
      -1.2853413476303366e-01 8.6384642930742179e-03
      1.2592871569855911e-02 -6.5129217876830237e-02
      1.4866357404098357e-01 -5.4475036567071866e-02
      4.2297961076885424e-02 5.9491073515327120e-02
      -8.7336732773613483e-03 -6.0804624628319842e-02
      -4.6909634426618177e-02 2.4612222491611699e-02
      6.7556136750865137e-02 -8.5136440559713783e-02
      -4.3508201665465540e-02 -1.3845331500700038e-02
      9.0838150571836390e-02 3.9045137034711239e-03
      -1.8061237972539754e-01 -1.6732578086018138e-02
      3.9082460817820117e-02 -3.1322341413739518e-02
      6.0417189761567576e-02 1.3530300340177120e-01
      -4.2366220258933829e-02 -2.9577600724032732e-02
      -2.9180633655329590e-02 1.8582250756094668e-01
      -3.0355414953335603e-03 5.0055703234178142e-02
      -2.8118013235903665e-02 3.0385552039949752e-02
      1.5770074348894697e-01 1.6411551345121350e-01
      8.6676579908085097e-02 -2.0012806016033258e-01
      1.4894315181593254e-01 -1.7122161879399317e-01
      1.0033148641114042e-01 -1.0810826385525472e-01
      -1.1636511965532018e-01 6.7963886713004202e-03
      8.2805975883441088e-02 3.7208039273904495e-02
      -1.6985441074329635e-01 -2.2793121846375546e-02
      -6.9746579361364566e-02 8.2772926055145579e-02
      8.8012641036809058e-02 5.5819648337052273e-03
      -4.7304710351213884e-02 -7.0214600014969444e-02
      -1.5062593446826522e-01 -1.7337876413710381e-02
      -2.8054572486559185e-02 -8.1580223213610997e-02
      -1.2554816086151729e-01 -8.9345247545720832e-02
      1.0945130411216351e-01 1.4669102579243642e-01
      -2.2004414981897932e-01 -4.2781052154966179e-02
      3.0995827984960055e-02 1.3605621882298575e-02
      -5.4831488191150551e-02 -6.2073874444107391e-01
      1.8097391335932184e-01 2.1352951705557205e-02
      7.3114574554950171e-02 1.0141811407533802e-01
      -8.7941381502663167e-03 -8.0624324452028648e-02
      1.8774053215849182e-01 -2.4967265590038722e-02
      -3.3652293041742623e-02 -4.5878776186981746e-02
      -2.4179637200548404e-01 5.4979458571156447e-04
      -1.2509720486215029e-01 -1.0534619526020841e-01
      5.6255747270965425e-02 3.6135952156609026e-03
      -1.8174606257671791e-01 2.1323271584287784e-01
      -2.2916808894589216e-02 5.1311248698759394e-02
      1.1489611262446749e-02 5.2564802698344758e-02
      -1.3659132771257926e-01 -1.0706526249973419e-01
      -1.1284606703624372e-01 -6.5843862455993246e-02
      -6.7431032904412172e-02 -6.2286729546710461e-02
      5.0869933846282418e-02 1.8473310211092331e-01
      9.7829390712862535e-02 -2.9433338627121719e-01
      -9.6262818465228189e-02 2.0647212160583454e-02
      -5.1173039554953600e-02 1.1427037471774325e-01
      1.4605556511084375e-01 9.5190918552049919e-02
      5.3964054358334110e-02 -9.4420654726715708e-02
      3.4254154558644133e-02 1.4807110872530037e-03
      -1.7301269921761449e-03 -1.1904032501223821e-01
      7.2585328728278498e-02 7.2347502534932689e-02
      1.6143236438340652e-01 8.8814169626892051e-02
      -3.2028155426364063e-01 1.2584281927413649e-01
      -2.2995316584002939e-01 1.5760526001924102e-01
      -4.3889534134668881e-02 -2.7847537968897183e-02
      1.5049568673068253e-02 8.9774045124218105e-02
      5.6265014163313122e-02 -1.4799588691939453e-01
      -1.3474409315250664e-02 -6.9175642475207452e-02
      -1.2052945824701437e-01 -7.0276098749370117e-02
      -7.5525102083955353e-02 4.3714674256381134e-02
      -8.8686229465887848e-02 1.0418716872728077e-01
      -1.1223770482496671e-01 -5.3665942714506615e-02
      -6.6389422170658102e-02 -8.6729757298773524e-02
      -6.9247854561383590e-02 8.0485165043773774e-02
      1.9478607796451172e-01 -4.5702683725816579e-01
      -5.2956576879474783e-02 8.3784369897434222e-02
      -3.2781158583789813e-02 -1.9716795875528957e-02
      -5.9278918963640126e-01 6.4118155057440673e-02
      1.1827902362696441e-01 1.2249822256813080e-02
      4.7692348292228660e-02 -1.0766388358985931e-02
      -5.9412108340787050e-02 1.4427350453488150e-01
      -4.6126715780947361e-02 -1.0469384870455971e-01
      -1.0936486010333993e-01 -1.6469979848654112e-01
      4.4849949311171009e-03 -8.2936354532886961e-02
      1.3437255471254577e-02 1.0410310365622852e-02
      -5.7038383504055157e-02 -1.5769339898898527e-01
      1.3372070401920896e-01 9.9872738016195672e-02
      4.3898113793397350e-02 -9.2079811783274852e-03
      2.4454797294040328e-04 -1.2373742663357561e-01
      2.0981052452031149e-02 -1.2722913493222773e-01
      -3.3820183149550966e-02 5.1561941903730944e-02
      7.4166928051030338e-04 1.0143890129798569e-02
      1.5344642231068636e-01 1.2624330873021841e-01
      -2.6298834875424187e-01 -9.3338806066885549e-02
      -9.1345065252415231e-02 -1.6790397444075753e-01
      -1.4689860035142535e-02 -7.0825547189974553e-02
      1.9391062807782422e-01 1.0698168602438270e-02
      1.7364530618668668e-02 1.3673219194479064e-01
      1.4721414314039444e-01 -7.2171878011581800e-02
      7.5122438534926131e-02 -5.2317200027360865e-02
      2.2158839790420803e-01 -2.0982802364026519e-02
      -2.4046147402614692e-02 2.4691269215186193e-01
      -1.1769835197955585e-01 1.9324881521790632e-01
      1.5663823244892372e-01 3.1845420004287778e-01
      -2.7196222626933216e-02 -2.6010970734125594e-01
      -1.0930505566824139e-01 1.3238830058263992e-01
      4.1159220745453984e-01 1.2794804701987528e-01
      1.5033084727861346e-01 -7.2437449328152770e-02
      7.8939820561633775e-02 -1.3091713847660925e-02
      3.0887518696080713e-02 1.0178842146718202e-01
      -1.6907576625886972e-01 3.6556288814338835e-03
      1.1203678586710115e-01 2.2740818377476693e-01
      1.4015937581950785e-01 -1.5520879863514880e-01
      -5.8194619426346933e-02 -1.3988116895002402e-02
      1.1550062172883685e-02 -6.1746825423931936e-02
      -1.4317865026933912e-01 -8.5358358906781923e-02
      -1.7718841835951776e-01 -7.5207202377074414e-02
      1.8371805767893012e-01 -5.3639174847894593e-02
      -1.1429229524705382e-01 -1.7721493541424349e-01
      -1.3561949803063533e-01 -1.5529561690207465e-02
      -3.4378862409382691e-02 -1.0731571087836321e-01
      3.1692282171530228e-01 1.1802106718874239e-02
      8.3614205186858359e-02 -1.0933647559785996e-01
      1.3241588207273527e-01 -4.3825478945932195e-03
      -5.1688269154380635e-02 -2.6707893741555987e-02
      1.6148116554090895e-02 5.4221804078468341e-02
      -2.2247873985187867e-02 4.5557441375875703e-02
      -1.8697820130490497e-02 -5.8713338089615402e-02
      6.7655772773399722e-02 1.2685597655250147e-01
      3.8182114427837970e-02 1.6988576513402459e-01
      5.2859303407198070e-02 -2.0080232005182266e-01
      -3.6179400294772429e-02 -1.0861198531177193e-02
      -7.7937321006697827e-02 8.4186201977603625e-02
      -1.6610779597577202e-01 -9.9197889363127525e-02
      1.2029070217992620e-01 -1.7118659143251336e-01
      4.2211037186422211e-02 1.4225757007026199e-01
      -1.1512787650603400e-01 6.3397503720961840e-02
      -1.1501862579911615e-01 -3.3795002797189992e-02
      1.5124011139507340e-01 2.3125625726096062e-02
      -4.7406275160099869e-02 6.6219713861327786e-02
      -1.2852813354675238e-01 -1.2652860277323444e-02
      -1.6749315666467104e-01 -8.7041106847349295e-02
      -8.0862522552451101e-03 1.3451083509914241e-01
      2.5016825091311773e-01 -1.4396987415192186e-01
      1.7917796196648732e-02 1.4130396423250538e-01
      -1.5068090735190376e-01 4.0184180164851410e-02
      5.4246761624659710e-03 5.0137728689964446e-02
      -1.2816181397578569e-01 -4.9339764164990210e-02
      -4.4864369432088394e-02 -2.1369463897025381e-01
      4.7921777191490843e-02 2.8559595099832268e-02
      1.2205675114339478e-02 -5.1333769239383367e-03
      3.6195943542491317e-02 3.2500954367858109e-01
      -2.1591845829927178e-01 -5.0769498737219365e-02
      1.5988817388677908e-02 -2.0917961323944492e-01
      -1.0049681118630993e-01 5.7723456215035803e-03
      -1.0191776969982327e-01 1.9648349901531439e-02
      -1.0155809101452649e-01 -1.0020534938458046e-01
      -4.9597867014364902e-02 1.2007263932082259e-01
      5.5085500167411150e-02 1.0276775115434264e-01
      9.3382749303195497e-02 -2.3283428024564130e-02
      -9.8059806723279144e-02 1.3857149153126869e-01
      -4.1430257410907459e-02 -8.7329883119599855e-02
      1.2300453402562941e-01 4.5363670543753391e-02
      1.3508842979145569e-02 -1.5118769749869904e-01
      -6.2104185837603798e-02 -4.5391607138022545e-02
      1.2887326547357511e-01 2.4846785063654599e-02
      3.7220284779869363e-02 -7.4685656688789959e-02
      1.5654953308766736e-01 2.6648868851161515e-02
      1.8164133413417352e-01 -2.1052546711727202e-03
      -3.6396417399233778e-02 6.7398764535869626e-02
      -1.8254366065059160e-01 3.0809175702483838e-01
      3.2614671949431073e-02 -5.2629447607340708e-02
      -7.3829751465264062e-02 -1.9323066433780514e-01
      -1.1068704344900461e-01 5.5921434807080762e-02
      -1.4792500119103663e-01 -1.0659745293319839e-01
      1.7059665505149285e-01 2.3051290758814867e-02
      8.5803352197404814e-02 -1.0951015590060953e-01
      5.9553263447644673e-02 -4.9531703520006284e-02
      2.8155804375374547e-02 -6.5319245099074719e-02
      -7.9647908047540836e-02 -1.8016887055583275e-01
      1.0442957170076074e-02 -2.2330365209987477e-01
      -1.1583776738304687e-01 -1.0601464362984031e-01
      2.6463557335210564e-01 -2.0190874568882594e-01
      -1.0091591378476376e-01 -5.6586910351196222e-02
      -4.4661499334209591e-02 -9.7811835719046100e-02
      5.1492900552750527e-02 9.3289403898702633e-02
      6.8922954023451374e-02 -8.7408605370896258e-02
      2.3902498471000105e-02 4.6700391285865714e-02
      6.1724922626865738e-03 2.4629468824739383e-02
      -1.3843192317656357e-02 5.4276637372065950e-02
      2.8899281159413071e-01 1.6944573555915476e-01
      4.3690026269671939e-01 2.5346812753517589e-01
      -2.5136703548323352e-02 -6.4479145381949547e-03
      -1.5233012149102937e-01 -4.4395191510139112e-02
      4.2533989256886333e-02 -9.1499665279085318e-02
      -1.3206268165998061e-01 -3.9019682416725876e-02
      -3.5221617543981093e-01 -7.8089681710407144e-02
      -4.2060472331327654e-02 -1.9822713264845984e-01
      3.8837500868206851e-02 -6.4958171052631755e-02
      -5.3095245232736767e-02 -9.9015985386930516e-02
      1.4841467639725850e-01 -4.0302099288037317e-02
      1.3544686308301526e-01 -6.9300979035679167e-02
      7.4168542661870271e-02 2.8349703538452429e-02
      -9.1850235610656111e-02 -2.5169932823279128e-02
      -2.0832402830758278e-02 6.7528640133521604e-03
      -4.9173482950004226e-02 4.0368013897453217e-02
      -7.5949180917545087e-02 -5.4122820569746211e-02
      2.5257739884978453e-02 4.4127724247566551e-02
      7.8620571358646543e-02 7.9472444045492446e-02
      -2.3165407917664565e-02 3.5845729039515092e-02
      6.1895302810002363e-02 8.7399948662695431e-03
      -6.5791789828056113e-02 9.1428996473876638e-03
      -7.6651753553987179e-02 -1.0289532971494970e-01
      -2.9401173635755774e-02 -1.8211184040274359e-02
      -3.0517888768229173e-01 2.6964443583505143e-01
      -7.7416653206881597e-02 -8.4661739164958120e-03
      -4.2607033268711242e-01 1.2623065255982116e-01
      -2.1954914864042294e-01 4.7514159957811775e-02
      -5.2725226629707064e-02 2.1042709057853093e-01
      1.3778913430394057e-01 3.5984482152082255e-02
      -3.4800486623378857e-01 2.7720028733284531e-02
      7.6479579478245518e-02 1.3260251712538559e-01
      -1.3344332333411058e-01 -7.8590591574691879e-02
      -1.8823629806142364e-01 -1.0468285178309281e-01
      2.4496212734301703e-01 -1.3601656756307237e-01
      1.3543119048158600e-01 9.5389921645400458e-02
      1.7758509294899635e-01 1.3537000908213234e-01
      1.2068381957925825e-01 3.8832631225653935e-01
      1.3939528329012681e-02 -3.8968799666241644e-01
      1.3163957306799925e-01 2.2167743800679282e-01
      1.0332113216906409e-01 3.8226220890307167e-03
      1.4032670933238464e-01 3.7082385164717645e-02
      4.6958312391067548e-02 -1.9942651919583659e-01
      9.3468890375901972e-03 -1.0291642254131672e-01
      4.3679481962103243e-02 -1.0438905492555790e-01
      -1.1888765964170692e-01 2.2657381479301583e-01
      3.4185334527005173e-02 -2.6125645418382792e-01
      -6.6818859267926259e-02 -2.3294054815485715e-01
      -2.1680922618042034e-01 -1.3530232908712651e-03
      -2.4367551801315064e-02 2.3442546060264197e-01
      -4.7019899185575746e-02 1.9772797628301067e-01
      -7.9922146549156914e-02 5.5373954927725205e-02
      -1.8134247195526313e-02 6.8020919536900148e-02
      5.9737080144358592e-02 -4.6276058297927337e-02
      3.7246339928601269e-02 -8.3835859788987346e-02
      6.5411839301327712e-02 5.7909833424524118e-02
      -1.9263129280513189e-01 -4.9518619749760158e-03
      -1.0583167044723908e-01 5.9205880735932886e-02
      1.8177046507419664e-01 -7.7228082853576518e-02
      5.4836217694465145e-02 -1.8982236194409605e-01
      6.5398070105614312e-02 -7.0110288673163587e-02
      -6.3731009861622168e-02 1.0201137095065720e-01
      5.8236669056374903e-02 -3.6431323546718006e-02
      7.7617474834916877e-02 7.0727099097809165e-02
      1.2187071485087020e-01 -1.4795888396447990e-01
      2.2645472257299463e-02 -2.7763320329235408e-01
      8.7268531507636943e-02 1.0870178300207615e-01
      -2.7971399109257489e-02 3.2691799942912061e-02
      7.1070172946084947e-02 1.6254692804829721e-01
      1.2103530619645148e-01 -5.8256168935932484e-01
      1.3978997234151372e-01 -8.5701853207568179e-02
      -4.3045408413212388e-02 1.9022440636389948e-01
      -1.6717320757279089e-01 6.8804968680959658e-02
      1.6410071159181300e-01 1.3627931073098329e-02
      -3.6324543164224177e-01 -3.8996834266178448e-02
      -9.9411460261170537e-02 -1.5593216519369903e-02
      -2.3508684444463808e-02 -1.0847200954881942e-02
      -1.4382911910499603e-02 -9.7019957099428636e-02
      -1.4805269211630342e-01 -4.1888028389942353e-03
      -1.7900604487582983e-01 -2.1215810034977123e-01
      -1.0311496397341716e-01 -1.9076661062110734e-01
      9.4633980448128457e-02 2.2919941537457864e-01
      -4.1070812024022502e-01 -1.6611639154345621e-02
      8.8075356372664254e-03 2.0466433747759229e-02
      7.8619932810059939e-02 -6.0635659542263010e-01
      2.5210689984721291e-01 1.0523642296300920e-01
      6.0412200614139516e-02 1.5901313968816472e-01
      2.0769393459328170e-02 -6.6167584726600434e-02
      1.4324050217965997e-01 1.7023358622548907e-02
      -1.0659810852679556e-01 9.2469059956003935e-03
      -1.1921962004871829e-01 4.5350891682021811e-02
      -1.3269669353230898e-01 -2.5867191987438077e-02
      -8.4174740869866774e-02 7.5811922433402634e-03
      -2.3403445101292092e-01 2.3704974437766124e-01
      3.0031608545032902e-02 7.7301207675685990e-02
      5.0723123836764116e-03 5.0220976989515137e-02
      -1.4182789895418893e-01 -4.1518128010391717e-02
      -1.0993772050046753e-01 -1.0478281399767300e-01
      3.0962751237832735e-03 -1.5610190832391246e-01
      3.8921526788529066e-02 2.3149369511010837e-01
      1.0546311132200779e-01 -3.2708251266337951e-01
      -1.1700139395715616e-01 5.7021696709515228e-02
      -4.4087731910899021e-02 1.9953147078215362e-02
      1.8161698673694388e-01 1.1377369348557220e-01
      5.6250607572811834e-02 -1.6069882327370746e-02
      -2.0114121209452041e-03 5.2924675746603630e-02
      1.3486026538524132e-01 -7.7889542977771953e-02
      3.3734192569042157e-02 1.1692209384542911e-01
      5.4828213455846195e-02 1.0483705024980107e-01
      -4.0409546323275070e-01 6.8151229443371375e-02
      -4.7097268538997428e-01 7.7638828915023217e-02
      4.7172481139352296e-02 -2.0302551204695325e-02
      -2.5491935009142931e-03 1.0264892981009703e-01
      1.1668668313301785e-01 -2.1612552484484213e-01
      3.0322360624951306e-02 -7.1149158942348453e-02
      -5.8860852129137768e-02 -3.5723316518489472e-02
      -1.2830891282763553e-03 1.5141963797204039e-01
      -8.4643442233696506e-02 3.1164189254564337e-02
      -1.8182016499782360e-02 -1.2809877229681821e-01
      -9.1658921883728636e-02 9.1407263931980332e-03
      -1.8422084620154378e-03 7.3459986113101436e-02
      1.7697869210248152e-01 -4.0611795535148454e-01
      -1.0035788543194439e-02 6.0265521556103312e-03
      3.3157633465360891e-03 2.7036428147707077e-02
      -4.0373447031562421e-01 -2.4864017722370887e-02
      9.5439288384530196e-02 -6.7647589878169462e-02
      3.2850872142116350e-02 -6.5931702939364831e-02
      -1.2563017013758793e-01 7.8515376443420923e-02
      -1.7238817762202503e-02 -9.6766220645773449e-02
      -9.1504789526770207e-03 5.0463819965469836e-02
      -4.0762577184202640e-02 -7.3390809721986569e-02
      1.5964484950210679e-02 -8.0899272567950264e-03
      -1.0555847553057593e-02 -1.6185561231858708e-01
      4.0486043281342449e-02 4.6240443972006808e-02
      6.2777717457518367e-02 -1.1596848900831945e-02
      -4.9559026342357183e-02 -9.0089807944407949e-02
      -3.7543319672201321e-02 -6.8258177544365181e-02
      2.1468154494283506e-02 1.4567859295064770e-02
      1.6433227583133259e-01 -7.6859965596697624e-02
      1.3562548083270148e-01 9.0458314372707391e-02
      -2.1445703144520201e-01 4.6651337121849899e-03
      -2.7129637208169154e-03 -7.6811408113087898e-02
      1.8845385762849862e-02 -2.2708596745372431e-01
      3.4789036489474001e-01 -3.3230992722874088e-02
      -2.5225768348274356e-02 -2.4194812227126994e-02
      8.0996408125347696e-02 -6.0541013391010388e-02
      3.1234043865340060e-02 4.5263420741404735e-02
      2.5596455634190729e-01 -2.0920397222645082e-01
      -2.0518808942378237e-02 8.3850671053650835e-02
      -1.9765287896362038e-01 3.5453437251106201e-01
      1.4030791006645771e-01 1.4263078568779766e-01
      -1.4489985612664741e-01 -4.0657038970082676e-01
      -6.3666307294765162e-02 1.0859112714813726e-01
      4.0850395735548978e-01 8.7584250787731799e-02
      1.2682989755066262e-01 -9.1550219790048196e-02
      -1.0771490107125738e-01 -1.1479942872972775e-01
      2.0087000674779612e-01 1.4010319992512438e-01
      6.7407402294419841e-02 -1.1398405403704591e-01
      1.0691986041157958e-01 2.7293758082723446e-01
      2.5515480826600490e-01 -2.2270883439030018e-01
      -1.3503181565680256e-01 -2.8647855745897299e-02
      -2.3790966595174484e-01 -8.5511623139707255e-02
      -6.3244040640278276e-02 -1.0070217012422089e-01
      -1.6407864406358788e-01 2.6669963698633233e-02
      -2.2579443650230228e-02 -2.7343179901512201e-03
      -2.0422217359812703e-01 -4.8630028721377207e-02
      -2.2441156520495822e-01 -8.4762214958718732e-02
      -1.4269725505666950e-01 -1.0332058524544156e-01
      4.0933550539678165e-01 8.0395859774860551e-02
      1.8456433221489180e-01 -4.3063121022363857e-02
      1.2221634022608419e-01 8.8146341124061139e-02
      -2.2349275019982048e-01 -9.2304159807142766e-02
      4.4293719222165615e-03 1.9001412702519579e-02
      3.7837884481596772e-02 4.2131425473257524e-02
      -7.7585542951123160e-02 -1.2314415928738508e-01
      1.3004502775370005e-01 2.0954658259879189e-01
      8.4698666917325860e-02 2.7910237389913434e-01
      2.9054169106303082e-02 -4.8324051391820533e-01
      -1.1301771504685705e-01 1.1170273473092580e-03
      -2.1234925171297644e-01 2.2934844188324222e-01
      -2.0222953305561658e-01 -1.0187494601225429e-01
      1.6349708796405743e-01 -2.0039552892467150e-01
      -8.2650074598800805e-02 -1.4625768740208175e-03
      -1.3828415409682959e-01 4.2638592424401101e-02
      -2.2641219496661852e-01 -2.0728932452532278e-04
      -2.3925295295965807e-02 -9.2380993378120613e-02
      1.0494841600195721e-01 -2.9439220181362705e-02
      -1.5171907069893995e-01 2.6324272191215550e-02
      -4.8539790657820164e-01 -1.1479525160305752e-01
      1.5452428987025929e-01 -9.4470543436085394e-02
      1.4747583861849742e-01 -2.6422211900316994e-01
      -5.0079577917003801e-03 2.8007601049248421e-01
      -2.2909615867311989e-01 -1.3454171956936767e-01
      -6.1263713843290893e-02 -2.0767683479932420e-03
      -2.4936911108010870e-01 -3.7436500268371048e-01
      -2.2211842663833037e-01 -2.2263786811255762e-01
      5.9467502220987296e-02 4.1800972223610822e-01
      -2.0070352603408431e-01 -2.5118138848021743e-01
      -2.4207176564165291e-02 3.7935848592992832e-01
      -4.4090360328938172e-01 -1.0218065155183752e-01
      2.5599292311773186e-02 -8.0332630455602061e-01
      -1.2203410515045046e-01 1.3553563037290284e-01
      -1.0444533337413704e-01 1.1050657887734489e-01
      -2.2461158342805868e-01 -2.2873230698998398e-01
      1.0575089585960704e-01 1.3941302303927855e-01
      3.5171385867674476e-01 1.2580523478733696e-01
      2.1161551966267703e-01 -5.9847827140960298e-02
      -8.0345024434712364e-02 6.5353591371560438e-02
      -2.8143009143387194e-03 -1.6225360542790576e-01
      3.1430841484524280e-01 5.8639414174275293e-03
      1.4847764448873513e-01 -3.1714442264735082e-01
      -1.4227884972047816e-01 -1.0163976859827165e-01
      1.8558854052182808e-01 1.5705635693599548e-01
      7.6419324982883299e-02 -1.2603035501932627e-01
      2.1755209535227810e-01 2.0326251072875917e-02
      3.1749273539308048e-01 -2.3637405540685202e-02
      3.7505418660298467e-02 1.3329067787792245e-01
      -4.4615185772718796e-01 4.1764906112763628e-01
      9.0682007890276264e-02 -7.7624654654688305e-02
      -9.6477448260958457e-02 -2.1790454303169324e-01
      -1.2643066238730880e-01 4.5471934059722843e-02
      -2.5299057280694187e-01 -2.2433676624226409e-01
      -1.2052761216322616e-01 3.3819202183943436e-02
      1.1228465029316204e-01 -1.1625115794120841e-01
      1.1751089164053173e-01 -7.1073951055053597e-02
      -2.3722399829893336e-02 -2.9324015760037020e-03
      1.1846332781193751e-01 -2.4115559652190383e-01
      2.2950031203460449e-02 -2.5453295838407231e-01
      -1.8858311794343105e-01 -2.5010027002889157e-01
      1.1990499715955430e-01 -4.5125968426902197e-01
      -6.6491997397542843e-02 -2.1203266998018838e-01
      3.0923450136618343e-02 -3.0750306685166446e-02
      -9.6557590284054182e-02 1.2541072830437944e-01
      7.8021180259211065e-02 5.0527180009635325e-02
      -7.9871265447854389e-02 -5.3193679780822400e-02
      -9.5979054771965309e-03 8.5653184943123642e-02
      9.6139167684538243e-02 -2.4899511734289833e-02
      1.5551198171489952e-01 2.3132552620974459e-01
      6.1475604944095663e-01 9.4968592144767980e-02
      -9.9800090843819300e-02 -4.0647857338740261e-02
      -5.6162750665529548e-01 -6.3405543344168702e-02
      8.6822796466068164e-02 -8.5119537887355948e-02
      -1.7438590310626478e-01 -4.3614511896003690e-02
      -5.7188744766780308e-01 7.0514471214609365e-03
      -1.5457743468596949e-01 5.7621366493999189e-02
      -6.4338389959563133e-02 1.7558442377809198e-02
      -8.6752528906007834e-02 -1.1929817215673041e-01
      1.7304131749896151e-01 1.6287016524409496e-02
      4.9666687161040959e-02 6.2387188249956940e-02
      9.4323209269136093e-02 1.0474483975758524e-01
      -7.5013295732937482e-02 -5.2076952999832303e-02
      -2.7255901463724131e-02 -1.4480190955283315e-02
      -1.4789841647794944e-02 7.2868640744369342e-02
      -1.2552139913693000e-01 -1.0102118664803118e-01
      6.4907302479055934e-02 2.8475476483211231e-02
      9.8893502731811300e-02 2.7779591562493772e-01
      -1.4671483529760141e-02 3.2874472451799280e-02
      1.4429994818472686e-01 3.5752293468377896e-02
      -1.5416826425448635e-01 1.5590600018078968e-01
      2.8631034680100108e-02 -6.9175933571699294e-02
      7.9002823560161810e-04 -3.7335842509994298e-02
      -5.6970421512211056e-01 1.8224097009467638e-01
      -1.4449043068190948e-01 -3.1517669670194086e-02
      -5.1575175938181994e-01 9.9630648583242040e-02
      -3.3561479860901960e-01 2.3885047975875005e-02
      -6.5724077012205478e-02 9.8031852577058570e-02
      7.1526747673952853e-02 4.0718010900305947e-02
      -3.2267490048696101e-01 -2.2896101133111350e-02
      3.4675551134365351e-01 2.9067112059104178e-01
      1.2988957469285628e-01 -1.0676255317214069e-01
      -2.0140505034016520e-01 -1.3530603059738958e-01
      2.5244948414864526e-01 1.2998643913470196e-02
      1.3873671371709792e-01 1.0732082681857923e-01
      6.0372482469694316e-02 1.5998143781900004e-01
      1.6136003936742396e-01 4.6248566735652025e-01
      3.1982111801866470e-02 -3.9861774376874226e-01
      1.4357793385958487e-01 1.4810353164830245e-01
      6.2264543549921628e-02 1.8347708384102140e-01
      3.9198042764037550e-01 4.1114218340239282e-02
      1.2490030025727650e-01 2.7821128939819456e-01
      5.2948863298026359e-02 -1.0824044806212417e-01
      4.7754817243348922e-02 -9.7431231086396355e-02
      -2.0210408681891118e-01 2.4364742447291832e-01
      1.1419216772340084e-01 -2.3792832871982961e-01
      -1.3164966227485919e-01 -2.6276829501460386e-01
      -2.1893237994950954e-01 -2.2550298132115110e-02
      -1.5551961847785739e-02 1.5683673404075224e-01
      -3.6864195047933888e-02 3.4790189061932086e-01
      -1.0061347097627581e-01 7.7824404613919915e-02
      1.0091070594955251e-02 1.1691646817367922e-02
      6.9886453429430104e-02 -4.0616074079023366e-02
      6.0953858406069407e-02 -8.0769490493901350e-02
      5.3857967393104562e-02 6.4303018551002358e-02
      -2.8791918442565578e-01 2.4483697502078298e-02
      -1.1456058097687101e-01 1.1031666678792303e-01
      2.4870392950085021e-01 -6.6269517794211599e-02
      -2.3551253612250472e-01 -3.1933349192022231e-01
      5.9092649217491737e-02 -1.1919516510517106e-01
      -7.7572411384216514e-02 7.8878788778278031e-02
      5.5940904885077060e-02 -5.8411867383092279e-02
      1.0089517817109750e-01 -9.1203598433419367e-02
      2.1006962450022679e-01 -2.0843155335020797e-01
      6.0747512716236012e-02 -4.2307881693979710e-01
      1.5061174125613064e-01 8.1628534081737342e-02
      -4.4358800453213283e-02 4.2699856464940671e-02
      -1.3667897851704353e-01 1.4289890163357433e-01
      1.0100792171090392e-01 -5.9687255324771726e-01
      1.2549436833702654e-01 2.5071670458270190e-01
      -1.6827393557785657e-02 4.4876551760279337e-01
      -2.5604410686476636e-01 9.3052694859077162e-02
      2.1543679204571908e-01 -5.7224768932250633e-02
      -3.5268662647868876e-01 -4.1145966383819260e-02
      -7.4696299114580686e-02 -2.5511551855588299e-01
      -1.1463763708565509e-01 -4.1743347220807379e-02
      -8.4295678313680622e-02 -7.0942221910636968e-02
      -6.8009442262884495e-02 -4.8195090212310103e-02
      -4.4319367509539065e-01 -3.2366034615600586e-01
      -4.9614994946790818e-03 -2.6696691284120588e-01
      1.0271386491535801e-01 2.5582281131881635e-01
      -1.1543258226025911e-01 -1.6299001008142466e-02
      3.9293894919604000e-02 4.1027358744694091e-02
      1.2795919189729701e-01 -5.8765734620411136e-01
      2.6007070975297869e-01 2.1077965014869618e-01
      2.0203633544171734e-01 1.8905961017506412e-01
      2.6223612060077922e-02 1.1833405418895835e-02
      8.0698953431678599e-02 3.2197611021941568e-02
      -3.1438771040813029e-01 2.1012812821636011e-02
      -2.1257707742718224e-01 1.0147861267634636e-01
      -8.7062903238812148e-02 3.6240112473126772e-02
      -2.2569691816712559e-01 8.3693193147548663e-03
      -2.3665767889096831e-01 3.5878677028893385e-01
      1.1053621921215941e-01 7.1221691938346321e-02
      -3.9475138533843438e-04 8.6866389472914557e-02
      -1.0350092913147528e-01 7.2494599231573892e-02
      -6.7060923138214337e-02 -7.3987417371061959e-02
      9.2499614597462171e-02 -4.8864134957419431e-01
      3.8262363114056973e-02 2.3173257461114924e-01
      8.8076459404337767e-02 -4.4788422529708671e-01
      -2.1984247524537812e-01 6.7833094796197660e-02
      -4.7204401055815654e-03 -6.1822772256865409e-02
      1.4051522970464471e-02 7.8403815826460898e-03
      4.0181445450109231e-02 5.9508086813938307e-02
      9.8910109265943402e-02 6.8900820995753009e-02
      1.5022485573636851e-01 -2.4887162877836100e-02
      2.1563203497245827e-02 4.6566565667705548e-02
      -2.9001436311290735e-02 6.0884215485517451e-02
      -1.3889110130619570e-01 2.5721765949604344e-02
      -4.7472521356708874e-01 1.4152518583905599e-01
      2.8517679965570898e-02 -3.6061321264742222e-02
      -3.8246752802687196e-02 9.5064964699304880e-02
      8.1363064094691628e-02 -7.8689084893717232e-02
      6.9187693254558993e-02 -3.3489202538686900e-03
      -1.0241903431123328e-01 3.3911327416743617e-02
      3.4184457073003056e-02 1.5574814927567654e-01
      -3.9823486980695669e-02 -6.0869563573442247e-02
      2.6898989648564627e-02 -3.3464406825935361e-01
      -1.5657343825640263e-01 1.0934948337769922e-01
      -3.7869520254010934e-02 6.8999350357399861e-02
      1.7665345505076646e-01 5.7965078339596493e-02
      2.1471645336093963e-02 -4.0686312061525676e-02
      5.2557796427715880e-02 4.9725974085409012e-03
      -2.6696915245332836e-01 -3.4406641355896515e-02
      7.6636697077137772e-02 9.0109439145639007e-03
      -4.5831648350719033e-02 -6.2384033384919803e-02
      -1.5782956533271292e-01 2.5525826665718451e-02
      2.2363067498809355e-02 -3.2486264821671179e-01
      7.9918907388204924e-02 5.2226447456937865e-02
      -4.1810382281086175e-02 -5.2202782055184660e-03
      -3.8913877006560137e-03 -4.8467448695894075e-02
      2.9310021859208321e-02 -1.3516358415486415e-01
      1.1806863594894408e-01 5.8013940138317427e-02
      4.9990536023359004e-02 -1.9532512287832995e-02
      -2.6389737487140449e-02 -3.9048981559243814e-02
      -2.5599614927433591e-02 -2.0187518352307646e-02
      8.4209615451988962e-02 1.4813704371656964e-02
      -2.3322399130648297e-03 -1.8314229091823298e-01
      1.2288155464348442e-01 3.7776269980067306e-02
      -3.1831909785316786e-01 -1.8445641553194912e-02
      4.7801825421495032e-02 5.6953680794023527e-02
      2.8057345173004324e-02 -3.8806900483729478e-01
      2.8685540937271237e-01 -8.2421177557991249e-02
      -1.6124453871372024e-02 4.1735919040457245e-03
      -1.6104534484114183e-02 -1.0761348539362990e-01
      -3.9855261547790427e-02 1.2964639617705354e-01
      3.5751182325160286e-01 -7.0133525044003123e-02
      -9.9612009240491479e-03 -1.2893636386591825e-01
      -2.3789701065751420e-01 1.0030789395337558e-01
      1.4581869611835532e-01 -1.4926973135148275e-01
      -1.8315242011626290e-01 -6.5864748018860941e-01
      -1.5210085729978473e-01 2.0471489866868256e-01
      4.2749044597561253e-01 1.2488589152358660e-01
      1.0765280586188271e-01 -3.4963669336593395e-02
      -2.0421996920857965e-01 -1.8950998682054954e-01
      3.5872846996845770e-01 1.4499267084661840e-01
      4.7339808805705368e-02 -1.7351766208791988e-01
      3.7180291158687984e-01 4.1722709418309356e-01
      2.1404477542763531e-01 7.4950490669165495e-02
      -1.3074515770464493e-01 1.1429257453667004e-01
      -6.4594228420150959e-02 -7.7061321492922233e-02
      -2.2939880268019647e-02 -8.0079153270304404e-02
      -2.0209854597471189e-01 1.1397113392701555e-01
      3.2880700743831877e-02 1.0343105330313962e-01
      -4.2316768985572117e-01 -1.1390660960163931e-01
      -4.1841298601023047e-01 -5.5916422520673054e-02
      -1.5103241942759932e-01 -9.5404636187692765e-02
      4.0468655727116554e-01 1.0609801454579300e-02
      2.8023255455251889e-01 -1.6469423456836735e-01
      1.2933900345352364e-01 1.6613344725112744e-01
      -2.7898234894398194e-01 -1.0819259774918659e-01
      1.9077315868861581e-02 7.2041100942613678e-02
      1.4246679592258643e-01 2.0054588044919927e-02
      -3.6069069895781673e-02 -2.8865008737159620e-01
      1.5773536330821433e-01 2.1931941816338821e-01
      1.2080305476830042e-01 4.5742833582378284e-01
      1.0475799084628612e-01 -3.9075683801868610e-01
      -1.9009247224070971e-01 -5.4122162221570458e-02
      -2.6932419896249987e-01 3.3621622912289362e-01
      -3.4170889609454225e-01 -1.2955607064277189e-01
      2.0042418825348109e-02 -1.7890837498740950e-01
      -3.4732075607584201e-01 -1.5330962718406710e-01
      -2.2525162567796445e-01 5.9683208287142873e-02
      -5.8532311241056645e-01 1.8843137274140903e-01
      -3.0385411395064443e-01 -1.4575171145583504e-01
      2.1002749964967790e-01 -1.9791187166990967e-01
      7.0226662398258796e-02 4.7927408038153547e-02
      -7.7846235199769964e-01 -8.2870956911649266e-02
      2.2453775906491272e-01 -3.6320904033334139e-01
      -4.8699885860895173e-02 -3.4867013990340645e-01
      -1.9830585896364222e-01 2.0964577927906730e-01
      -1.4200307456159864e-01 -1.2035386185077618e-01
      -7.8983501681042081e-02 -5.8335200687987074e-02
      -4.0101519854975776e-01 -5.8152945847918225e-01
      -3.2682889781506097e-01 -1.2273429725441649e-01
      4.0216568464649660e-02 5.9740963032178118e-01
      -3.5641514344646830e-01 -2.2418463049490345e-01
      -3.2359861221479436e-02 2.8421091253036390e-01
      -2.3674564082782257e-01 -7.9868681441859810e-02
      1.8074899290594149e-01 -8.0813891557386375e-01
      -1.3145670918405283e-01 2.0313832533251294e-01
      -9.7530016285572604e-02 1.0315867617138538e-01
      -3.3192611024821156e-01 -1.2129011395100163e-01
      2.5192504060441495e-01 3.2204356104331894e-02
      3.1960143138847041e-01 9.4748908399394149e-02
      3.3142200094500973e-01 1.3007801790201744e-02
      -3.7626661847933694e-02 -4.7655252745495827e-02
      -5.4825675482663587e-02 -1.7623387710574154e-01
      2.7783448649576498e-01 -5.1861953165849489e-02
      2.3110224153467401e-01 -3.8472853246332084e-01
      -1.6365112735123055e-01 -1.3944134174636683e-01
      3.7832590703930197e-01 3.2729531322579347e-01
      3.9513489695898699e-02 -1.1693487734147234e-01
      1.9196299661419719e-01 1.4152093891274677e-02
      3.8263415496900993e-01 -7.7952518044769520e-02
      1.3759845807987664e-01 2.5458322838633674e-01
      -6.3021367800679495e-01 3.7135655376197224e-01
      1.3288397187420725e-01 3.7832319649514592e-03
      -1.6170410797204485e-01 -3.5712996235035627e-01
      -1.2606123627115798e-01 -4.0277820373736908e-02
      -3.6373163854325813e-01 -3.0110477427759463e-01
      -4.1143427684115524e-01 2.3596877011897874e-02
      1.5217326514995114e-01 -3.0321224387618700e-01
      2.5701107216207969e-01 -9.0227376106198590e-02
      -7.1861619239446707e-03 6.4140046071037279e-02
      1.3313565911708117e-01 -1.4442449408647096e-01
      3.5664596110272666e-02 -2.9466775531283335e-01
      -1.9334676556822208e-01 -2.3429852179010668e-01
      -1.5470052456799391e-01 -6.9239830105795863e-01
      -9.5405330502618471e-02 -4.2111917886458677e-01
      -2.5325519610917172e-02 8.1215453483011762e-02
      -2.5254777630855187e-02 1.0439002121094823e-01
      4.8902548399232734e-02 3.6244638600581705e-02
      -1.5585218865055944e-01 -1.2072173470401470e-01
      2.1271935992531056e-02 1.0899626459659538e-01
      1.2144310856898802e-01 -1.3876173653159804e-01
      1.0661783737106731e-01 2.4710170966567691e-01
      6.2262374368976203e-01 1.4724346557766158e-01
      -1.0541144336043588e-01 3.0059282823688679e-02
      -3.9862996073752544e-01 -5.6588327537682573e-02
      5.7324830902474491e-02 -5.5205013151662943e-02
      -2.4014193298336683e-01 -9.5816475073508961e-02
      -5.0119383587695443e-01 6.8720266322205306e-02
      -2.4942438975289957e-01 7.9537381887753444e-02
      -1.0410635955267122e-01 1.8776695542653202e-01
      -4.8607045092440716e-02 -6.9002800496569580e-02
      1.4052209083753717e-01 5.3201404134256933e-02
      -5.9845748640713981e-03 -4.0652196902676965e-04
      4.6169122823910044e-02 1.2386370574462705e-01
      -6.3536014418664924e-02 -3.1042468350007492e-02
      -3.7429332039642930e-02 7.2362218352632707e-02
      8.4891549955921297e-02 6.2155084860288277e-02
      -1.1611612510106600e-01 -8.2960468997387807e-02
      6.6471005146751042e-02 7.1610188308861081e-02
      7.4717937415803501e-02 4.3884749899578607e-01
      5.4919830245422956e-02 -1.0374932368278313e-01
      1.1920122058684256e-01 3.8919054115850102e-02
      -1.1314011555906334e-01 1.3053473593701323e-01
      -1.1335347754102250e-02 -2.6126332469095362e-02
      3.9358865472789772e-02 -6.6129025775754149e-02
      -6.6581026003934118e-01 -1.2780667307435002e-02
      -1.4371090695412114e-01 -1.7193590095887376e-02
      -5.4075855933570616e-01 6.8282957926813645e-02
      -3.4904276888803593e-01 3.2139679682333284e-02
      -7.8706928512673746e-02 4.9348704828516242e-02
      3.1395189534307144e-02 2.0284541019255441e-02
      -2.8176551604851979e-01 -7.6075851608988318e-02
      1.9133482402439345e-01 3.2995252849153811e-01
      1.5482077280655571e-01 -3.7217328302301816e-02
      -2.3957942629582174e-01 -1.5683599882366964e-01
      5.6861504029032964e-02 1.1762271269187724e-01
      7.7388468065113347e-02 7.9643373921732943e-02
      -7.4257302281151946e-02 1.9901285227418228e-01
      1.2604001551375155e-01 4.6637091690735205e-01
      2.7924446457938113e-02 -2.3542931142090057e-01
      1.2412929548816484e-01 2.5055052940121980e-01
      3.8124356652665475e-02 3.1075716440248946e-01
      5.3870541704489161e-01 1.4866586326989398e-03
      1.2348153687536270e-01 -6.5768383908685599e-02
      4.7961431373482549e-02 -1.3517815019984528e-01
      4.7105356563365036e-02 -5.5363859977990044e-02
      -8.5878522407632954e-02 9.4854052365704752e-02
      1.4780420147923862e-01 -1.0767711160235202e-01
      -2.0902885111746639e-01 -2.0499687983129861e-01
      -1.7866758706270527e-01 -8.0108415077009595e-02
      -3.6462269710782987e-03 1.9343496013439085e-01
      -9.5262995534569864e-02 4.3533309263029168e-01
      -1.1963695554347446e-01 9.9263642721317144e-02
      1.3763230248864507e-02 4.9823955093602219e-02
      5.7607037516858708e-02 -1.3951578513811142e-02
      1.2961389525925887e-01 -4.0606220657509573e-02
      4.6870241224048120e-02 2.3724945755234837e-02
      -3.8341539638590294e-01 7.1819751422601663e-02
      -9.5711519608003226e-02 1.2654403310816734e-01
      2.5753938888969719e-01 2.2410951383480916e-02
      -3.3729540905927995e-02 -2.5360561150844574e-01
      2.0522156169987114e-02 -1.2520758181477340e-01
      -1.7696271609221947e-02 9.3428584566126030e-02
      1.1494348887068516e-03 -6.3584118372259815e-02
      3.4949601183323138e-02 -2.9499298250234862e-01
      3.1739429233857985e-01 -1.8140165314863774e-01
      1.6907705290032876e-01 -5.8202411686889099e-01
      2.5846936166580642e-01 -1.9607013214386754e-01
      -7.4571883022085311e-02 1.0665759160468652e-01
      -1.7203366286519584e-01 7.3698866903097335e-02
      4.8238130936112456e-02 -7.3628868417770021e-01
      7.6733536348937648e-02 1.8057002925417667e-01
      -1.8477927968829194e-01 5.5350382521760444e-01
      -1.9322631973119483e-01 1.1720572740765288e-01
      3.2245320823660500e-01 -3.6227230813321198e-01
      -4.7435044006320759e-01 -1.2332366952951650e-01
      -5.5497901703631371e-02 -5.1894333701550521e-01
      -2.1706386760217977e-01 -7.4266198315234594e-02
      -1.6260068995289520e-01 -9.6635348541123170e-02
      2.7521687631390634e-01 -8.2724946390871565e-02
      -4.3676486743914950e-01 -3.8724511456552507e-01
      8.5950584140816411e-02 -3.5232559921257323e-01
      3.2422613448243646e-02 1.8095469790426941e-01
      -6.5070345534355312e-01 -7.9693135201431026e-03
      7.9181592510385798e-02 3.6067535641721410e-02
      3.3704806147574978e-01 -3.1959057212436720e-01
      1.7187768072277701e-01 2.3077084695289876e-01
      3.9938425823922552e-01 2.8483638842875458e-01
      1.7414288443606893e-01 7.6177720166272236e-02
      -2.4267345941142611e-02 6.2803897103079209e-02
      -3.3000384203828664e-01 3.2333352840769524e-03
      -1.3739261801721669e-01 2.2870166147003518e-01
      -3.5057511133875521e-02 2.2561532693712111e-02
      -2.8943231400261166e-01 -3.1183071780675163e-02
      -1.7195028238808563e-01 4.4181513113118653e-01
      2.0688413213270401e-01 6.2771702655842088e-02
      -5.1032081214383539e-02 1.9495878520008500e-01
      -5.2617504005826696e-02 1.9644002612351372e-01
      -2.0326381057929315e-02 -1.1114189821717028e-01
      1.8144481127524034e-01 -5.2768182827658894e-01
      3.2803136900053964e-01 1.1908862486454891e-01
      7.1824640712426308e-02 -3.0290134222552306e-01
      -2.5492441782410424e-01 1.6584294549989199e-02
      3.4992708777455486e-02 -2.2512443093883336e-01
      -1.1597400539369324e-01 -3.5207270253752344e-02
      1.3063545678951485e-01 1.6243074053728682e-01
      6.6892476791798355e-02 1.1667955888794446e-01
      -4.6367539919292954e-02 4.3261941750343445e-02
      -1.6755687127592196e-02 2.1582210199330748e-01
      -1.7507201009554713e-01 2.9645401657610499e-02
      -2.7849639037297791e-03 -4.3591656083522355e-02
      -7.9085043982325198e-01 5.9670605341098658e-02
      -5.7088294832873275e-02 7.4759208189025428e-02
      -5.2271229521322793e-02 1.2625546579614744e-01
      -1.0766805905343205e-01 -1.1807431365514741e-01
      3.9795340411653626e-02 5.8023053929356833e-02
      -1.3478693686688975e-01 1.2046984838129111e-01
      1.0097325427968427e-01 1.8459029253150694e-01
      -1.6260537850566616e-02 -1.6668464301114939e-02
      9.3951100405185242e-02 -1.8414241809093784e-01
      -1.3319059484609835e-01 2.6180949697158146e-01
      -4.5958519721222404e-02 -2.3455237720974688e-03
      5.8843693038544996e-02 -1.8913629953691111e-01
      5.5715806277747512e-02 -8.6984552876002486e-02
      9.4454928211683345e-02 1.0842683224934900e-01
      7.1845047171282372e-02 -1.4472336897910651e-01
      -4.0970094088548402e-03 1.4805176471050982e-01
      -8.1057359999110734e-03 3.1697154113980004e-02
      -2.0286689424187726e-01 -6.1079774758490184e-02
      5.6585511351519117e-02 -2.5105402275579675e-01
      1.6150115247222835e-01 2.7279388442732921e-01
      -1.2494250126364197e-02 6.9084101701977832e-02
      -8.9964881691655244e-02 2.4344025166579339e-02
      9.4798218323026276e-02 -1.8887769871030288e-02
      1.2912976838273460e-01 -2.4636608953700033e-02
      4.3306398748739143e-02 -7.5290772905134543e-02
      3.1317298122599334e-02 4.8739026845378217e-03
      -1.0709705947974649e-01 4.7932477093039799e-02
      7.9036705778412680e-02 -4.8046896862291098e-02
      1.0845258699220942e-01 -2.8783592976017167e-02
      5.0486575546903681e-03 -8.8546873775881773e-04
      -9.9077636155655222e-02 8.1533199610484469e-02
      1.1972258723122900e-01 1.9526825232412612e-01
      7.0706873547990684e-02 -5.4105598210016204e-01
      3.8208397906580199e-01 -3.1730607204907647e-02
      -7.6184191110140811e-02 -2.7005975558455703e-01
      -1.3375815790220785e-01 -2.9048956548703325e-01
      -7.2482265757158590e-02 1.5221897528992101e-01
      4.2013201466612005e-01 4.2283170366903523e-02
      1.3118645725438114e-03 -1.9646098778865304e-01
      -1.7263704174600344e-01 -3.5123787379782107e-01
      -2.3055728638786438e-02 -3.7724589829038757e-01
      -1.3079175967720200e-01 -6.3563695401489073e-01
      3.3860833209930497e-03 1.5885187578496232e-01
      2.1003603455927494e-01 6.5522486143137146e-02
      3.9115176289782977e-02 -1.0975285883072372e-01
      -2.1706866321401971e-01 -1.3693891183469972e-01
      3.0192966976836710e-01 8.9212554927909513e-02
      1.5213314091822772e-01 -1.5510383525814977e-01
      2.4171306093832351e-01 3.9218193719240696e-01
      2.1564852860835836e-02 8.2256953020501733e-02
      -9.9105540917463222e-02 1.3077914978144362e-01
      -2.6671783196208667e-03 -8.7921394024122829e-02
      7.6154885119610202e-02 -5.2513561897246812e-02
      7.7027254520369876e-02 9.4431069379396035e-02
      -4.5974040097063025e-02 6.7186396377339003e-02
      -3.5125706421878078e-01 2.8317065919448405e-02
      -3.5546376609517949e-01 -2.2656238010307618e-02
      -1.4312323811304248e-01 -4.3032859773616532e-02
      3.9706810520011410e-01 3.2863026112924590e-02
      2.4614363270278922e-01 -3.5593518717538832e-02
      4.2683092753749749e-02 1.5899386966598295e-01
      -2.0856171823127520e-01 -8.3715373273661145e-02
      1.0052727778222895e-02 1.7799744161139067e-01
      6.1225399071142154e-02 2.2544107302401469e-02
      -4.3908022624773065e-02 -1.2642957925726450e-01
      8.7793223067450590e-02 1.9777926513555441e-01
      4.6097278934327288e-02 3.8678996028680235e-01
      4.3857166866034719e-02 -1.9365016821107253e-01
      -2.2326568171770138e-02 -6.6705082884510603e-02
      -1.9134314036827699e-01 3.0443533698348813e-01
      -2.5309719303477984e-01 -6.9475420099286214e-02
      -1.8250361854561900e-02 -9.5337493840005436e-02
      -1.8238830905145909e-01 -5.0633185028999092e-02
      -4.9510896304291133e-02 -1.9928657887075252e-02
      -4.2437660428968760e-01 1.8107751604310512e-01
      -4.2232415214589619e-01 -1.5651902262365738e-01
      2.3001962415078508e-01 -2.1802279159947568e-01
      1.7965414618087489e-01 6.7799166912231493e-02
      -6.7908268036268626e-01 -2.7326574484482827e-03
      -6.7686269622803552e-02 -4.8263918384607074e-01
      -2.1808437282031284e-01 -2.9446096909448521e-01
      -2.8230242660829563e-01 2.5938206876551378e-01
      -1.4749524842341968e-01 -2.2477750056806203e-01
      -1.6996647783702701e-01 -1.0357099993997292e-01
      -4.9207482026160715e-01 -5.2310558176235900e-01
      -2.4066718196243722e-01 2.3191305028190150e-02
      -9.3085081146058145e-04 6.3107145779932705e-01
      -2.8606695857763087e-01 -3.4470747431107407e-01
      -6.4172300182031725e-02 7.4655905900339631e-02
      -2.0572654111533697e-01 -1.7919884552681290e-02
      1.9329244697251333e-01 -6.5618226362529830e-01
      -1.0842059779515080e-01 2.5426999742265199e-01
      -7.2408576477394904e-02 3.0349664383508729e-01
      -3.1061802319408244e-01 -1.0609562213655281e-01
      2.6710453667117368e-01 9.8835528031595316e-02
      3.3349967242099410e-01 1.1405154579027837e-01
      2.9858577297478767e-01 8.2258805776539795e-02
      2.2691531740694958e-02 -5.4607329681403825e-02
      -8.2123096930850261e-03 -5.4688474756800456e-02
      3.1496549571397020e-01 -1.0939873015265401e-01
      1.9654326465916608e-01 -2.9949226881548419e-01
      -1.1913919651392606e-01 -1.5267352118162952e-01
      4.3889952191837350e-01 2.3231122854100780e-01
      2.9751523216518624e-02 -1.2172172289944122e-01
      3.2539457763888202e-01 -7.7594471822479541e-02
      3.5235900593106373e-01 -1.6274191337843780e-01
      5.3992436639113003e-02 2.1409225133961871e-01
      -4.8022729739742892e-01 4.0292316662195476e-01
      1.1575919780939865e-01 1.0624834098659497e-01
      -1.8883632306451176e-01 -2.6678906314647194e-01
      -4.0076782807102369e-02 -5.1128675948098383e-02
      -2.4421751744202333e-01 5.6037841513498644e-02
      -3.3082014341088128e-01 1.4739121808812203e-01
      6.3583775592903111e-02 -8.9189451111445120e-02
      1.8462762757622656e-01 -6.6734457248680018e-02
      8.2330854900100076e-03 9.4303271217186804e-02
      1.7260926553162875e-01 -1.0224168814695470e-01
      5.5516508467699927e-02 -8.1451581554556313e-02
      -1.3741373066994408e-01 -4.1545272398533950e-01
      -2.7952077159985950e-01 -7.4403972144827746e-01
      -5.1449226625535152e-02 -4.7991006296616751e-01
      2.0075572696711980e-02 9.3404162582742617e-02
      -3.9522135888776663e-02 1.6136401949448667e-02
      1.2490522346065793e-02 -2.3604226936774268e-02
      -8.3915676857447941e-02 -8.2299117762880153e-02
      1.7014141307176928e-01 1.0523075385938979e-01
      1.1573837845150080e-01 -9.1479815415541191e-02
      -6.6766601524725716e-02 1.9196043259471901e-01
      4.3149541309243050e-01 3.5138381396199479e-02
      -4.1906821606003779e-02 5.7906690429952980e-02
      -2.0425514752966764e-01 -4.1256999135064670e-02
      5.9096908062020559e-02 -3.9983373888775077e-03
      -8.6706746035659463e-02 -9.1723894697903086e-03
      -4.2199554721830446e-01 8.4964682310401218e-02
      -1.5602010170931011e-01 1.4415952907748381e-01
      -1.2004056245132599e-01 1.3772147473005214e-01
      8.0243336067809868e-04 -2.0901243545710269e-02
      1.8295394800310213e-01 1.2228957512785919e-01
      1.1357936841819255e-01 2.9982822611805928e-02
      -2.6310182196736569e-02 7.2130108768405851e-02
      -1.5622290369433522e-02 5.6634429525530923e-04
      -4.8509696723771215e-02 1.1407761305039209e-01
      4.2377010656716334e-02 4.5372773218244310e-02
      -1.1156987987794932e-01 1.1158274809390359e-01
      3.5010479685629009e-02 6.3473310083591375e-02
      1.8189742529423616e-03 3.6434001784103576e-01
      9.4450572513578163e-03 -7.3564309663490382e-02
      2.2411579905346646e-01 5.4888030703065346e-02
      -5.2320212134177708e-02 9.7693730510833673e-02
      -6.6605878367822762e-03 6.4470979031260769e-02
      1.2626681742764415e-01 -2.1384857850989068e-02
      -3.3912421177081731e-01 -4.8566248856336978e-03
      2.9677726536749411e-04 -8.4939714005086570e-02
      -3.2445835412354840e-01 -7.9901184452246546e-02
      -2.9325063728685802e-01 3.3930107813539945e-02
      -3.0450202185766832e-02 -1.4086616090050549e-01
      -6.3375585235720816e-02 3.6182002767324598e-02
      4.3811060577752685e-02 -8.6915853608612439e-02
      -4.0620816307277802e-01 3.4107886246791769e-01
      -1.7492763115463085e-02 8.0635101671731435e-02
      -1.6208906599942066e-01 -1.5841092479202687e-01
      -8.7529266160460570e-02 3.0449971587421620e-01
      -1.5393318623714949e-02 -3.0260890668038963e-02
      -8.3150412485386127e-02 2.9262602112965291e-01
      7.9714801143552630e-02 2.4288894380146442e-01
      -1.6812670474122667e-02 -1.4778894528914116e-01
      8.4507595766568466e-02 4.1640072301872390e-03
      -4.6126439679427159e-02 3.1066758925991411e-01
      9.9915954557314418e-02 -4.3566082573621885e-02
      5.8420166000454146e-02 -1.5076216180691929e-01
      5.2712467097859032e-02 -1.1238074846262916e-01
      5.4731078474623551e-02 3.0935604610138459e-02
      1.8866062233582222e-02 -5.3594101421789178e-02
      6.3877897437145004e-02 3.6908574863055994e-02
      -1.3709823993277667e-01 -1.0678385785816112e-01
      -2.3416969226604423e-01 -8.5305444901719832e-02
      3.2125832476377257e-02 2.8370602624031815e-01
      2.3341092064154398e-02 1.6421773621161320e-01
      1.3813601657504920e-02 2.4589755320526107e-02
      -4.9961975347388984e-02 6.9368146588928883e-02
      6.3794901403219056e-02 2.0590848113067647e-02
      3.5896435410897529e-02 -9.3764350075146941e-02
      1.5679835300038813e-03 -5.1611916531295973e-02
      -2.4334066204746438e-01 2.9565703238147889e-02
      -6.8836806780159826e-02 4.9169280966173734e-02
      9.0511863777421389e-02 -7.4985618452217684e-02
      -9.5628415531228264e-02 -2.0111711006098684e-01
      -1.7711610170055084e-02 -1.3060943640632630e-01
      -1.3131279100087448e-02 1.9927959268744794e-01
      8.6522385184436314e-03 4.4770293916262006e-02
      1.2869158061653876e-01 -1.3034799347733911e-01
      3.5373797526330325e-01 -5.3705945198439811e-02
      1.0413718080435315e-03 -3.0353296827169490e-01
      6.3941741975710994e-02 -1.4720231460102001e-01
      -9.1429783190099992e-02 1.3241732948169851e-01
      -2.6866025180358583e-01 -1.9548140733173715e-02
      5.5565373344865228e-02 -4.7868454752980288e-01
      2.2808026096982129e-02 -1.5959600411377761e-01
      -8.8252327242218473e-02 5.4200370135663400e-01
      -9.3760052822331019e-02 2.1210946101558759e-01
      2.6495134247820784e-01 -4.4015971557477390e-01
      -1.9519310327656331e-01 -1.7531943420049423e-01
      -1.0579045536644496e-01 -4.3055513945099982e-01
      -7.8424966710863159e-02 -9.2043806674577205e-02
      -2.4406093760128383e-01 -8.5945232060201979e-02
      4.3062033796121779e-01 -6.4713150027841157e-02
      -5.4521736804128640e-01 -3.4616855115220352e-01
      -1.5217651256436850e-02 -5.9889929728248503e-01
      -3.7386621884951586e-02 1.0212680748651318e-01
      -7.1403858296082579e-01 -2.7879788528517226e-02
      1.1977980942989720e-01 2.9129153871315042e-02
      3.6777165800233313e-01 -2.6259437946140018e-01
      1.6292404601703564e-01 1.6639978111834894e-01
      4.9765389061530818e-01 3.5836337385058986e-01
      2.0671723656415086e-01 -2.3642355313345728e-02
      -7.6585619150097831e-02 9.5979368527789669e-02
      -1.8786697930393872e-01 7.5571349067653587e-02
      -2.5673693245077261e-01 3.0923351298040153e-01
      -4.8528037734703870e-02 -3.7046591093191410e-02
      -3.2214922800926671e-01 -3.4499197359981859e-02
      -1.1019872301031931e-01 2.9804562204684848e-01
      1.1958628666227974e-01 1.1935130316752302e-02
      -9.0841404544420176e-02 3.6722701105905964e-01
      -5.8303777076931296e-02 1.5616554195798243e-01
      -4.3892453313621078e-02 -2.3406980085019560e-01
      1.1120515172713652e-01 -6.4961947160951994e-01
      3.4741376254784667e-01 8.3052460429778444e-02
      1.4372523319582695e-02 -2.0068536571949247e-01
      -1.2014972302410706e-01 1.2764612310395364e-02
      1.0072748264401199e-01 -1.7006555904351081e-01
      -4.8457000460583370e-02 -3.4385871713790493e-03
      2.3501133298600835e-01 8.0870987526058827e-02
      2.5600880186245567e-01 -2.1173764288479464e-02
      -2.4913414971649055e-02 5.7250473485436423e-02
      8.1787478591064788e-03 1.4573166948976626e-01
      -2.3725497202273149e-01 4.9622634466062771e-02
      1.7113716976563192e-01 -5.2398804403267434e-02
      -8.4149364375073588e-01 1.2217134971347696e-01
      1.6504077530337005e-01 9.7509923410951646e-02
      1.2972575530541325e-01 8.6054734963243604e-02
      -2.3809676566983953e-01 4.8718196685189674e-02
      -3.3836422569520734e-02 -4.5916011702580644e-03
      -3.4760994945011052e-02 1.9494933142924689e-01
      9.8223572625562985e-02 5.6160646100353297e-02
      -1.8858189324778993e-02 4.7311379277579113e-02
      9.8738842243667427e-02 -3.6083016123147865e-01
      -1.2621593932056241e-01 1.0307276682446898e-01
      -3.5849939759450300e-01 -3.1587775562142054e-02
      2.3734345285760523e-02 -2.6843115200700707e-01
      3.3571981207274081e-02 -6.7669332650898001e-02
      8.0914769486101296e-02 1.5052794052843407e-01
      -4.5770620068706531e-02 -9.4885857381474762e-03
      -3.1650313466150500e-02 2.6438325118519673e-01
      1.2855080571462585e-01 1.0445778521906181e-01
      -2.2546155213847707e-01 -7.5413929076999342e-02
      7.3124119848314878e-02 -2.2837595386719833e-01
      2.1614787455037918e-01 1.3549181277598973e-01
      1.0468814587372356e-01 8.7616821643947511e-03
      -1.5421102474206666e-01 -2.6567673999810498e-02
      8.2624708892341137e-02 1.0322505208987613e-02
      7.1699676227833423e-02 -8.9585511813607743e-02
      3.7323559378459999e-02 -9.1111872130511321e-02
      2.2370371501103459e-01 -3.4513242550869103e-03
      -1.5134639805303057e-01 2.3019287051346773e-02
      -1.1819397678205665e-01 -1.0141992749941633e-01
      -1.3580345265620966e-01 8.6398991201925041e-02
      2.3905572564403187e-02 -4.8384493696694529e-02
      -7.8667466512041276e-02 1.2166141923609373e-01
      1.4085770108622611e-01 2.6186791173759644e-01
      1.1128339558943356e-01 -4.5050956989961805e-01
      4.1600932474979502e-01 9.8723823423259957e-02
      -1.3472006606975218e-01 -9.5268643726363983e-02
      -2.8330405713495077e-01 -2.1959886326247149e-01
      -6.7439378752625387e-02 1.1837583933134067e-01
      2.9249345211143057e-01 -9.9606700513770269e-02
      -6.4259141964856511e-03 -2.5687868709158190e-01
      -1.6066747049853666e-01 -2.0822899833701947e-01
      -1.0796735992269721e-01 -1.6833670743459728e-01
      -5.4457145837492962e-02 -4.7927263810649628e-01
      1.4129201714180503e-01 1.1371483085879301e-01
      -1.6476791822862108e-01 4.6882941104850757e-02
      4.3379453156971927e-02 9.7399997454065579e-02
      -3.3539804643002324e-01 -1.2907563817641388e-01
      2.8066461413643912e-01 8.0236099608534631e-02
      2.5520802642008866e-01 -1.5970052246993735e-01
      1.2098294862247935e-02 2.6134315229410937e-01
      2.1904438727641584e-01 7.6978608304569290e-02
      -9.4361655686706056e-02 5.6693148593632552e-02
      1.0623989301720428e-01 -7.3348213706970311e-02
      1.1961680040253536e-01 -5.4240143945369967e-02
      7.6607959954573562e-02 5.5752106235468675e-02
      -2.3720215994093588e-01 1.6888823090295525e-02
      -2.2308204319874272e-01 1.1775150898838659e-01
      -2.3965280986935783e-01 1.2312968409970389e-01
      -1.3844401263934772e-01 -4.2155417957638525e-02
      3.3147469865712709e-01 8.7786399126108777e-02
      -6.2010869923811267e-02 6.2664962260004439e-02
      5.9692953985393586e-02 9.2926464738284129e-02
      -1.2185018770172568e-01 -8.1604366598178379e-02
      -5.7106484092583291e-04 1.2821284016782672e-01
      -1.9047848669722405e-02 1.2971277704575963e-02
      -4.4537104976879439e-02 -8.1408480255823507e-02
      9.4322056366293622e-02 5.7812743765248802e-03
      -1.3563703532557666e-02 2.6378396709743990e-01
      -3.3413071249515390e-02 -5.8254194608905782e-02
      4.7345946546431324e-02 -4.9693311767520745e-02
      -1.5460591391423834e-01 2.6766585132285475e-01
      -6.9154285427259932e-02 -3.8418419181933283e-02
      -3.3594404423785230e-02 -2.7497371384722292e-02
      -3.7243922635032511e-02 2.0859050431298004e-01
      -1.8268390961289117e-02 -1.0494806134279397e-01
      6.2574298157868800e-03 8.5189820900820265e-02
      -1.2224708900200454e-01 -9.2974087375465142e-02
      1.2677114375103221e-01 -8.2722770806173060e-02
      -3.0748922829686030e-02 2.8911836200296918e-02
      -3.6693594066209756e-01 -1.3737648894333222e-02
      -2.1249205610119064e-03 -2.2362455835303127e-01
      -2.2183836230877149e-01 -1.2510316785742637e-01
      -2.6753671734780610e-01 1.2697742376399282e-01
      -2.4856938403804162e-02 -3.0372357305069264e-01
      -6.3855711875785301e-02 -9.5466682678813520e-03
      -9.6075100051936022e-03 -3.8882254196281241e-01
      -1.4826548078923352e-01 1.7723286608143482e-01
      3.4176598202273402e-02 4.0472861431844592e-01
      -1.9680289231226455e-01 -2.0574640069301919e-01
      -4.8490299124499210e-02 2.3842470034966726e-01
      -2.6527024737042743e-02 -1.6926999154353972e-02
      7.4905953919209997e-02 -2.3387371817412189e-01
      -5.6573195407289105e-02 1.8884820539361932e-01
