<?xml version="1.0"?>
<opencv_storage>
<opencv_ml_ann_mlp>
  <format>3</format>
  <layer_sizes>
    159 79 26 6 1</layer_sizes>
  <activation_function>SIGMOID_SYM</activation_function>
  <f_param1>1.</f_param1>
  <f_param2>1.</f_param2>
  <min_val>-9.4999999999999996e-01</min_val>
  <max_val>9.4999999999999996e-01</max_val>
  <min_val1>-9.7999999999999998e-01</min_val1>
  <max_val1>9.7999999999999998e-01</max_val1>
  <training_params>
    <train_method>BACKPROP</train_method>
    <dw_scale>1.0000000000000001e-01</dw_scale>
    <moment_scale>1.0000000000000001e-01</moment_scale>
    <term_criteria>
      <epsilon>1.0000000000000000e-02</epsilon>
      <iterations>5000</iterations></term_criteria></training_params>
  <input_scale>
    6.2414471834633382e+01 -2.7368811146840910e+00
    6.3375967825558035e+01 -2.7651260132463733e+00
    7.2560821855158039e+01 -3.0836700761160705e+00
    6.4182618229720717e+01 -2.7991448605390183e+00
    6.8073040142109832e+01 -2.9418489471940235e+00
    7.8968066096211246e+01 -3.3280781217818820e+00
    7.0830258351456720e+01 -3.0574629834142373e+00
    7.2551310372770502e+01 -3.1234120380608164e+00
    8.0979863784607886e+01 -3.4221645905812355e+00
    7.4218369291729573e+01 -3.1824138892664782e+00
    8.1336051780886777e+01 -3.4622718268722901e+00
    9.0554680845914277e+01 -3.7914519131946678e+00
    8.2123300803775038e+01 -3.4817660994750810e+00
    8.5659282757292331e+01 -3.6239794721962020e+00
    9.2285923762372107e+01 -3.8687313414140103e+00
    8.6292099370637587e+01 -3.6370211725010710e+00
    9.5478805702900161e+01 -4.0046691932229059e+00
    1.0277864356033575e+02 -4.2787434674729763e+00
    9.3468222804510859e+01 -3.9077778573283872e+00
    9.8805162786839659e+01 -4.1262109637889530e+00
    1.0445929453019095e+02 -4.3561095073283420e+00
    9.6265176242117761e+01 -4.0137671120347465e+00
    1.0762877069225785e+02 -4.4782348791609561e+00
    1.1460767665468148e+02 -4.7621321657706872e+00
    1.0308954434573333e+02 -4.2724896774692604e+00
    1.1227441251929477e+02 -4.6581521379377326e+00
    1.1794121715590829e+02 -4.9103479226301161e+00
    1.0618513298305079e+02 -4.3959848418379330e+00
    1.1945930421420965e+02 -4.9517634262829135e+00
    1.2708118344085869e+02 -5.2819079495011163e+00
    1.0953173079815438e+02 -4.5073674608053071e+00
    1.2044166937843198e+02 -4.9750654153453189e+00
    1.2691051580254310e+02 -5.2771400786623586e+00
    1.1186818373086084e+02 -4.6136825835872290e+00
    1.2837847179524394e+02 -5.3098046449962242e+00
    1.3782299769334332e+02 -5.7290324735540974e+00
    1.1406852958065727e+02 -4.6778215057392769e+00
    1.2621388544835911e+02 -5.2002271654467771e+00
    1.3365988783317991e+02 -5.5513334333894475e+00
    1.1819907901773195e+02 -4.8555811906583690e+00
    1.3605427396561200e+02 -5.6154883818014500e+00
    1.4645689624576877e+02 -6.0904852674232801e+00
    1.1761694145980687e+02 -4.8157368778589174e+00
    1.2843324016916569e+02 -5.2876341848477448e+00
    1.3746366819494469e+02 -5.7082311262706860e+00
    1.1802989224198329e+02 -4.8557295854438625e+00
    1.4048564746521666e+02 -5.8029615246099198e+00
    1.5472559599637430e+02 -6.4353522674617345e+00
    1.2082190024245499e+02 -4.9483071279840170e+00
    1.3130277353199261e+02 -5.4027259686370712e+00
    1.3987904556568176e+02 -5.8082117796502084e+00
    1.1887018081493605e+02 -4.9021550758417982e+00
    1.4522835562618982e+02 -6.0013613811165136e+00
    1.6071994496127130e+02 -6.6855446443999202e+00
    1.2577768745259006e+02 -5.1422896478981395e+00
    1.3370792202667292e+02 -5.4927114674638435e+00
    1.4216449558554163e+02 -5.8972186056227658e+00
    1.2246719212260901e+02 -5.0605705632629201e+00
    1.4828759930462792e+02 -6.1303822499607223e+00
    1.6359709248954206e+02 -6.8065360721578614e+00
    1.2785162528216075e+02 -5.2287954335288465e+00
    1.3460016735293328e+02 -5.5266921860021574e+00
    1.4361450424472216e+02 -5.9562628379415550e+00
    1.2500095632136467e+02 -5.1666894982245504e+00
    1.4956267895742715e+02 -6.1790649098680630e+00
    1.6483706830072296e+02 -6.8533651579338448e+00
    1.2771867930150393e+02 -5.2157378943168986e+00
    1.3404510232729140e+02 -5.4939806025714422e+00
    1.4300469725305473e+02 -5.9216195451987401e+00
    1.2415076131454158e+02 -5.1275387005597679e+00
    1.4871889811329720e+02 -6.1362309828330943e+00
    1.6278218205590218e+02 -6.7609106587758250e+00
    1.2695971100650202e+02 -5.1863219123605786e+00
    1.3333073773628809e+02 -5.4658797574670990e+00
    1.4234953724373810e+02 -5.8957508936772927e+00
    1.2634613995765335e+02 -5.2071966921572139e+00
    1.4936384407704043e+02 -6.1557022763907812e+00
    1.6304093817599593e+02 -6.7693358932845191e+00
    1.2679339330213733e+02 -5.1802762003639069e+00
    1.3509775378073067e+02 -5.5412449807670905e+00
    1.4331237444221114e+02 -5.9385343792148300e+00
    1.3168385196617749e+02 -5.4189450381805129e+00
    1.5250687053689188e+02 -6.2878748134607321e+00
    1.6475519135404528e+02 -6.8453526272987233e+00
    1.2373899147585617e+02 -5.0670397380287922e+00
    1.3451711059646414e+02 -5.5289244198330660e+00
    1.4314774579157356e+02 -5.9399295062986326e+00
    1.3162422037606049e+02 -5.4105431010674838e+00
    1.5552761523615408e+02 -6.4135026363888654e+00
    1.6651470801897997e+02 -6.9200523327665122e+00
    1.1914030222369037e+02 -4.9044697034954776e+00
    1.3111607238467232e+02 -5.4093861950656059e+00
    1.4076568267153635e+02 -5.8532808210076110e+00
    1.2729954151226218e+02 -5.2256737009096197e+00
    1.5076782292770250e+02 -6.2140627539334297e+00
    1.6116969051124198e+02 -6.6958607137173267e+00
    1.1498116253347428e+02 -4.7401761594305114e+00
    1.2781577034401545e+02 -5.2765572629586579e+00
    1.3621852262242689e+02 -5.6672866921978180e+00
    1.2668955961856541e+02 -5.1988993983183054e+00
    1.4581502600249542e+02 -6.0164634515464614e+00
    1.5538247874199814e+02 -6.4636008234604185e+00
    1.1177119633625115e+02 -4.6139963445391299e+00
    1.2509284598746339e+02 -5.1658256493337262e+00
    1.3212721075006235e+02 -5.4936891972958959e+00
    1.2368389326847517e+02 -5.0651111954188455e+00
    1.3968720758735853e+02 -5.7572822015494838e+00
    1.4762212105555352e+02 -6.1353192236708303e+00
    1.0680541610420804e+02 -4.4245353158221956e+00
    1.1798345810246620e+02 -4.8829792331785553e+00
    1.2425629316640922e+02 -5.1655961677882747e+00
    1.1513197022783324e+02 -4.7405627282788654e+00
    1.3026451655257085e+02 -5.3938540675208246e+00
    1.3802644234563235e+02 -5.7502591110387167e+00
    1.0049487742216999e+02 -4.1844699462622224e+00
    1.0953659783492655e+02 -4.5469670904877661e+00
    1.1457656701770617e+02 -4.7597610389254488e+00
    1.0634478681761701e+02 -4.4002791002095849e+00
    1.1926886301937897e+02 -4.9537242201946281e+00
    1.2635715546851964e+02 -5.2622345062723399e+00
    9.1712919577262696e+01 -3.8481413731364893e+00
    9.7793662488768618e+01 -4.0807912818043643e+00
    1.0347322627712437e+02 -4.2972431283523544e+00
    9.7179192313676609e+01 -4.0549998067031936e+00
    1.0667358090627953e+02 -4.4497052813193978e+00
    1.1331559108091076e+02 -4.7200436227587872e+00
    8.1648989092857590e+01 -3.4700028808873693e+00
    8.6097677459752603e+01 -3.6335563603930399e+00
    9.2007115672732397e+01 -3.8365386983710472e+00
    8.6021547315870578e+01 -3.6350208316882524e+00
    9.3791074913732714e+01 -3.9475034620314742e+00
    1.0067141426870282e+02 -4.2025360991977010e+00
    7.1642557421214590e+01 -3.0900775673733931e+00
    7.5170720059019217e+01 -3.2164930272336494e+00
    8.1868197708655600e+01 -3.4322306247444576e+00
    7.4948466609179476e+01 -3.2189711948281685e+00
    8.2156519650550976e+01 -3.5054877105782118e+00
    8.9390266118394365e+01 -3.7510625678435523e+00
    6.3011732408056254e+01 -2.7519392867764743e+00
    6.6342399951240893e+01 -2.8688209867407246e+00
    7.3412121029762943e+01 -3.0889798712686782e+00
    6.5826051434977174e+01 -2.8709477689116452e+00
    7.1823795896092079e+01 -3.1063649918010898e+00
    8.0026526843351974e+01 -3.3757978524946517e+00
    1.3895426860359525e+01 -4.6053196130379348e+00
    2.8116265937540156e+01 -9.2930201055989983e+00
    1.7966624124447694e+01 -6.0736508570773591e+00
    1.2617752415558190e+01 -4.1837248312227828e+00
    2.4673064732233026e+01 -8.1456730987454122e+00
    1.6557083702561915e+01 -5.6009493701843907e+00
    1.2492069754930489e+01 -4.1256160108274260e+00
    2.5247433428788636e+01 -8.3384635864626411e+00
    1.6000258522664538e+01 -5.4316308835907510e+00
    1.2822585620549200e+01 -4.2533332780175570e+00
    2.5115799568948709e+01 -8.2894192406296696e+00
    1.6624773436933058e+01 -5.6232571697828266e+00
    1.2712101355054644e+01 -4.2178705256626081e+00
    2.5043790552989858e+01 -8.2652939467206679e+00
    1.6384601279248663e+01 -5.5407266704025977e+00</input_scale>
  <output_scale>
    1.0526315789473684e+00 0.</output_scale>
  <inv_output_scale>
    9.4999999999999996e-01 0.</inv_output_scale>
  <weights>
    <_>
      -4.9213708108751164e-01 -9.5223745752246319e-02
      -7.6477102099444871e-01 2.6523724166970336e-01
      2.0005913003154915e-01 2.2026682194619021e-01
      -2.0929194542787452e-01 5.4572045586025286e-01
      -1.0203988765283649e+00 -1.6830222732163397e-01
      -1.8333003646435903e-01 -1.3598337903160551e-01
      1.6174758356158789e-01 -7.2954827222977553e-02
      4.2196171328544962e-01 4.6640275864501944e-02
      -7.1361403200865065e-02 2.8003520518145558e-02
      2.4725538804764050e-01 -6.3248159841803347e-02
      2.1051833731513570e-01 -4.2629726685404207e-01
      -2.8498751797111821e-01 -4.2082377858054028e-02
      -2.1241876183795798e-02 1.7866437913802546e-01
      -3.8126450428856623e-02 -1.0236627630991485e-01
      -1.5617789031613233e-02 9.9527992874401228e-02
      -2.0483269963815562e-01 -3.1134867275121947e-01
      2.2622864078945676e-02 -1.3733582649119802e-01
      -7.7251928551243756e-02 1.0268258226053362e-01
      -1.9256549262502476e-01 1.2931860725907218e-01
      6.0645194288236248e-01 1.0538179687134649e-01
      -4.1259755730255049e-01 4.3580952374343102e-01
      7.2449920176770516e-02 -4.8174962833543061e-01
      1.8947474073609696e-01 -1.9758803049566040e-01
      -8.4106163489976252e-02 2.4930808631816920e-01
      -4.6044704740587522e-01 3.8164884632722401e-01
      -4.5572000850404436e-02 -1.2649655903799223e-01
      -1.6541650579925196e-01 -5.6092303795221199e-01
      1.2048927988373627e-01 3.3565527039938087e-01
      -1.7862379030837594e-01 -1.9461510175352073e-01
      2.3891167516671480e-01 1.6686378434825755e-01
      -5.3040190485612530e-02 -3.7254167545134770e-01
      5.0020696487202654e-01 2.0917318395637402e-01
      1.3487073124107499e-01 1.7584404201491435e-01
      -5.7811144592441732e-01 -1.0146002704316893e-01
      1.0740872907842101e-01 -6.2203935380117525e-01
      -4.1173023296250522e-01 -3.2289124481508857e-01
      2.9077248852957993e-01 -1.4868859298977827e-01
      3.2686728101676062e-02 -2.7398077347702926e-01
      3.8208377414266848e-01 1.6699796039201262e-01
      -2.4019569977875654e-01 -7.2191011442350361e-01
      3.0374073235733579e-01 4.8350646646382311e-01
      -3.4608996620298255e-01 3.2227116129608496e-01
      1.9771520258536232e-01 2.0955296913756256e-02
      -6.2837912033831511e-01 -1.6987411473195030e-01
      -8.1403854939857201e-01 -2.8713001641300800e-01
      -1.7594402258413572e-01 -5.3473483542355349e-01
      4.6450136715435764e-01 7.4508800463629699e-01
      3.3675338189311510e-01 5.0210684753581335e-02
      1.7065938445344786e-01 3.7744000934865890e-01
      -1.8165173721655081e-01 1.4618034036213987e-01
      -1.6520230880585832e-01 -1.8826482558041840e-01
      1.5456177154655767e-01 1.6273315294154050e-01
      7.5882495732556010e-01 1.5704116198652429e-01
      3.0654707101846818e-01 -2.4388858744925970e-01
      -2.7801166369182662e-01 3.4429998765459568e-01
      3.9435088911193704e-02 -2.7435204257359019e-01
      -2.3201765842387778e-01 -5.0098711766428095e-01
      4.8572741953592619e-01 -1.7219720136028063e-01
      3.1112684329030565e-02 -1.5161073282179098e-02
      4.5849412660660349e-01 -1.0346347288911815e+00
      -1.6740957866450840e-01 -4.2158549574566462e-01
      4.7717795374056449e-01 3.1720076910626416e-01
      1.6886979446780445e-01 1.4792056360380956e-01
      -5.7046678960584174e-01 -2.2420115627374901e-01
      7.7097333016956682e-01 -1.6643363662278022e-02
      2.6759409420967362e-01 -2.0711768951699219e-01
      -8.8091234223007941e-01 -1.6178376859933671e-01
      -3.1345666371755815e-01 -2.3870288960368949e-01
      -2.1534225061556095e-01 -2.6892730504192242e-01
      -5.0907006045059178e-01 -1.7392912427025123e-01
      3.2510800284827152e-01 -1.1914752524553328e-01
      7.3544425853804740e-01 -1.8140096906525549e-01
      -4.0666462204156528e-01 2.8119184386942975e-01
      3.8348932732026936e-01 -1.1774758700366945e-01
      5.6420784224335629e-01 4.5715890403308351e-01
      3.7964647235388005e-01 -3.4325250020143006e-01
      -3.5058624076898359e-01 -4.0290010691637984e-01
      -9.3347538178341877e-02 -4.8010447625053282e-01
      -1.7148544929262691e-01 -9.3225669043480885e-01
      5.3906202199756295e-02 -1.0312876744185261e-01
      -3.4853017193486802e-01 1.7609553461732066e-01
      -4.9547360517401828e-01 -6.9124076872177664e-01
      -1.8596374788298084e-01 2.4067546135095805e-01
      -4.6871646355801155e-01 8.2262376070401932e-02
      3.8392218980240067e-01 1.5967312942714998e-01
      2.7787084247888966e-01 8.3281655673014873e-03
      -5.3038065934735223e-01 -1.7648712495527841e-01
      1.1093357315072212e+00 -5.2700083005678566e-01
      -2.8131444498847075e-01 3.8172387893598003e-01
      -6.2914737603655690e-01 5.0421044045726726e-01
      7.2851956045427679e-01 -4.7049649909161528e-01
      -3.0480311403370142e-01 -3.3158280555846312e-02
      -6.4257388670883042e-01 -2.4106929778013256e-01
      3.7501871992806163e-01 3.1543533320265349e-01
      -1.7126567768570902e-01 -3.6734425099515183e-01
      2.0229465881706651e-01 3.2145313875448406e-01
      -3.6259728091937407e-02 -3.3990322233733339e-01
      4.3154777737394662e-01 4.1044060048474412e-01
      2.4714362575508173e-01 -3.7127917083255035e-01
      -1.7708461080173382e-01 2.3875712115208289e-01
      -1.9004448431439661e-01 2.2810840028696058e-01
      -2.9074716389136424e-01 -7.6176770191372700e-01
      -3.1002464661670587e-01 1.5941191184528961e-01
      8.7148188046037045e-01 1.5325108149568886e-01
      8.5016910546816848e-01 -2.1130132050300587e-01
      4.4583817891968275e-01 2.8866221990007757e-01
      5.5262705132512580e-01 2.9345343385212880e-01
      2.6132779150137309e-01 4.3311310523042251e-01
      1.9612986312450756e-01 5.9610175764324225e-01
      9.6025212492854242e-02 -6.1623397758791643e-01
      3.3823343224976526e-01 -1.9957624407844148e-02
      6.0008626881448324e-01 -1.6403355046845140e-02
      -2.0798342002975742e-01 -1.5408862229432299e-01
      7.1152718776686552e-01 3.2525182294948829e-01
      -5.4214958194490948e-01 -4.0299986460349169e-01
      6.0524498127414494e-01 -3.6135824687644567e-03
      9.0879937166709779e-02 9.6059566526169005e-01
      2.7628164105019760e-02 3.9270545836831866e-01
      -2.4084200236240702e-01 -1.9743564833229466e-01
      -2.8733689389210765e-01 -8.9139405298357499e-01
      5.8588869374105457e-03 3.1066683453984750e-01
      7.7372852096630210e-02 1.8962047129710802e-01
      -1.5226823259107560e+00 -3.3797119721941438e-01
      -5.3552582946647009e-01 1.2549408132601217e-01
      -2.1305758212881162e-01 -1.8537364444338905e-01
      4.2319472699148997e-01 5.1971336506759658e-01
      -9.5930067657011439e-02 3.2907725305680757e-02
      3.2809182222166627e-01 3.6810221560033535e-01
      1.4512501449589890e-01 2.2131323236993056e-01
      -2.0924079177681815e-01 1.7076369098722291e-01
      -3.4482901521640304e-02 -8.6895196246398826e-02
      -6.2352489407600042e-01 2.8131622303407676e-02
      -4.1124563638642572e-02 -1.1533496510552968e-01
      -7.2412896632880960e-02 5.7870439091620832e-02
      9.9056901533220582e-03 6.2731184275469046e-02
      1.2672899128401710e-01 8.5755766931844668e-02
      -1.4606115983717496e-02 6.3641935925189227e-02
      7.3047833797406356e-02 2.5676576987198996e-01
      2.6193198135015194e-01 -2.5112112153887162e-01
      1.4483210686982773e-03 -3.0206281627908810e-01
      -4.4061900510063118e-01 2.7555842590939006e-01
      1.1147339487576576e-01 -2.0090119522704239e-01
      -4.9975819540415856e-02 2.6279854774742213e-02
      -2.4482249091019891e-02 2.8500816028410644e-02
      1.9800779541758645e-01 1.2268993588799204e-01
      -2.4117496384483930e-01 -5.7190853429657107e-01
      8.1407084143955019e-02 -4.1543750936610231e-02
      4.8255803339034765e-02 3.2309573040970202e-01
      -8.0409049370661878e-01 1.0387995783028747e-01
      3.9708569774187019e-01 -2.0117958376896297e-01
      2.1350160331439660e-01 9.4619138156455868e-02
      3.2433418077378157e-01 -3.4449983038269189e-01
      -3.5340931505243305e-02 -2.9191574263226400e-02
      -5.1031017720441074e-01 5.7013376159238238e-01
      -4.5196670070678006e-02 -2.9917640315969433e-02
      -6.0785588946465872e-02 2.6369753846916277e-01
      1.4741229255636029e-01 1.9347811619704300e-01
      -1.0066003524966760e-01 7.5036320377692062e-02
      -1.2415831293066708e-01 -8.0212536092892448e-03
      4.4742756141482865e-01 -2.6753722536656466e-01
      4.2583938884035161e-01 1.9593278720501112e-01
      3.1424424346241553e-01 -1.2896035550069871e+00
      2.1642244327126120e-01 -4.6762506214811711e-01
      -3.2969799532463989e-01 -1.1122573641434311e-01
      -5.3502186952970587e-01 5.1293532873663916e-01
      5.8269345882501133e-01 2.3198863560931871e-01
      -3.0246674817206898e-01 8.7984678844709430e-01
      5.3406045870568841e-01 -1.8400104662005260e-02
      9.1090718548028610e-02 -1.4463353132110665e-01
      -1.5045635860794340e-01 1.9914032974657278e-01
      9.1919283942017940e-02 2.7787929471973138e-01
      2.3258534446791101e-01 1.0730082288477469e-01
      -3.5737557892840360e-01 -3.1633712014306875e-01
      2.3883819759389752e-01 3.0469086237838522e-01
      -2.3301484349015292e-01 -7.9281296542466101e-02
      -7.4402862750973547e-02 2.8306031518482955e-01
      1.0797147601489446e-01 -1.4312373424865724e-01
      -5.4830513759860929e-02 3.7812602811641483e-01
      -6.7260292467959293e-01 -1.9434457662838608e-01
      -2.0731397717305236e-01 2.8308420284415187e-01
      1.9183247926915081e-01 1.9770061547253354e-01
      4.3060080100724962e-01 -3.7145072746129187e-01
      -1.3007987835835383e-01 3.8053014567156879e-01
      -2.9053113551366200e-01 5.5871507774889917e-01
      -1.7024738063892164e-01 -8.6889444958894335e-01
      -8.7650813606108169e-01 -1.8233801959536558e-01
      -1.2179125036504804e-01 -3.3150807939895893e-01
      -1.2485268355903320e-01 -6.7153916158502158e-01
      1.2075301169540533e-02 5.4125879098233365e-01
      -3.2336339387249752e-01 4.9507983146932288e-01
      -6.1599968972326324e-01 -2.2930929021165219e-01
      3.6394395100643601e-01 3.2766904186828555e-01
      -2.8861977871583461e-01 2.4485857420748189e-01
      4.9521132419507929e-01 3.8146199757964028e-01
      -2.9590320328859482e-01 -3.2023723411148375e-01
      -3.3403149029889133e-02 1.6647993036858627e-01
      -3.3569835255462388e-01 -3.2297430962475115e-01
      -3.4973929810034662e-03 5.3413596785884720e-01
      -1.3823262431070132e-01 -2.1973793348855497e-01
      1.5964578936923909e-01 -2.9855673174905717e-01
      -5.8927027245705643e-01 2.3528541471475342e-01
      1.8820268716088975e-01 -3.8261897075300179e-02
      6.4340167274688542e-01 1.4592214080106697e-01
      3.3607086627953964e-01 4.0029665140259808e-03
      2.9358262512726457e-01 -5.3392453462116096e-01
      -4.9645308970732265e-02 6.5968512254940914e-01
      3.4659592208794948e-01 -8.2134717602144539e-02
      3.7580132694338603e-01 -5.2229290771186765e-01
      4.6676178888909264e-01 6.3744065487327151e-01
      -3.2666267992764808e-01 -1.7382735438152827e-01
      -3.7903107394211072e-01 -4.6204045565955454e-01
      -4.9221794418905107e-01 1.4771045022211074e-01
      1.0549690962122239e-01 -1.7600170953150604e-01
      -1.0573652959043066e-01 -2.3961280857410443e-02
      3.5702431614746871e-01 1.9039174779575169e-01
      -2.2429299597363775e-01 5.5997682205764288e-01
      -1.2564846049413686e-01 1.4815487456382237e-01
      -2.9500163657851786e-01 4.7844440642290131e-01
      7.9516232953371832e-02 -1.9829554397702842e-01
      1.9268916793525537e-01 -4.0600640348515465e-01
      -6.9785752585984717e-01 -1.1612318602850689e-02
      -1.2231417837835044e-02 7.0831833220286544e-01
      -2.6675618796542611e-01 4.7878076754818766e-01
      1.5305577609582549e-01 4.0158237109427408e-01
      3.9782599562849748e-02 -9.2572729817570157e-02
      1.7436596539049215e-01 3.2677135464828438e-01
      3.5410761635009397e-01 4.0447818563904103e-01
      6.0584527529030330e-01 2.0026386946995858e-01
      -3.3228447627053070e-01 1.4541514799712577e-01
      -2.7144703037445728e-01 5.1055618345797527e-02
      5.3117486681253843e-02 1.1535166614846268e-01
      -8.1986177450385320e-02 5.6859895497654189e-01
      2.1475257344517006e-02 -5.6509268513380773e-01
      -4.9911819817734926e-01 6.1962926537694385e-01
      -9.7060778705220035e-02 1.7090310777369874e-01
      9.2942309411956237e-01 -4.2092900612608515e-02
      1.5638252484399914e-01 8.0526490568626996e-01
      -3.5924072213552545e-02 -1.0321645634398681e-01
      -4.4117324714177225e-01 1.2698857479917564e-01
      8.4991395373639228e-02 1.7620551091338710e-01
      2.7704676243075418e-02 5.2815231449844602e-01
      -6.1382739349026416e-01 -3.3628408011033495e-01
      4.6835902593887575e-03 -8.2438432936992725e-02
      1.0119827790030238e-01 -1.9199563195927985e-01
      3.7628983376558695e-01 1.5924012616159094e-01
      3.8165707314031634e-02 3.9484102844745052e-02
      2.4475334132601825e-01 2.0547342643390851e-01
      3.8034007827207325e-02 -2.4709253733851014e-01
      3.3890300011454140e-03 -1.7101049418677977e-01
      -1.1081407200188253e-02 -1.2351433230425704e-01
      -1.4129084205222228e-01 6.4274985543934862e-02
      -1.1929550147222397e-01 1.5275517384218578e-02
      3.5733090976759307e-02 -9.3367357149132177e-03
      -2.0324443072847198e-01 -4.6619554107779480e-02
      -1.8713820494600616e-02 4.5210124544434654e-02
      -2.5139686200365156e-02 7.5449537164997305e-02
      -3.7984425717752623e-02 5.3610458339197744e-03
      -2.6163142673985085e-01 1.1578466266924889e-01
      1.0736734990549767e-02 -1.3209060026683248e-01
      1.2513911892634916e-01 -2.3857799595501658e-01
      8.4094909519885821e-03 6.6180323526012122e-02
      6.3400651925615698e-02 1.7669411973162716e-01
      1.4037987827813578e-02 -4.7097839331853651e-02
      -1.8179457405286668e-02 -4.4575471910535458e-01
      9.4269069718305676e-02 1.4006018655496314e-02
      -5.8305376987938910e-02 -2.6530992192964603e-01
      -1.8288082341900014e-01 -7.6264319563262017e-02
      6.9403318313638968e-02 -4.7799089998867846e-02
      1.6590714845214191e-01 -1.2191247063861151e-01
      2.2161682504996319e-01 6.5041605358822571e-03
      -4.3287852804972399e-01 -1.8489921539624041e-01
      1.0997583311041838e-01 -2.0473903353121642e-01
      -6.4142821361313906e-01 7.9286710101672375e-02
      3.2868197652250969e-01 -2.4997648923759882e-02
      2.5272124081949204e-02 1.4287489457858615e-01
      1.9208057333952661e-01 1.7576058611815118e-01
      -8.4981917014721742e-02 -3.3412892129866706e-01
      2.6739849210487199e-01 6.8164917253425683e-01
      -2.9188807482407725e-01 1.9836151546971995e-01
      2.6166752628383311e-01 1.0541447497689448e-01
      -3.7724581495528853e-01 8.8631967100813072e-02
      -7.9774632370246212e-01 3.7942922856193183e-02
      -2.6403751369963330e-01 -4.9449709172768885e-01
      3.0607455798838562e-01 6.5594688561401882e-01
      2.3119895774381949e-01 2.0676532407691961e-01
      8.9406813895842902e-02 3.6425326597925473e-01
      3.5843045291509112e-02 5.6664789984328820e-02
      5.9601841180298085e-02 3.2624259226807832e-02
      8.3514374657948004e-02 -3.5577968689968660e-03
      1.9385933949369641e-01 6.7840850573099978e-02
      3.1569907158765614e-01 -2.9122921637551136e-01
      -1.2821834536284610e-01 2.9333326765850959e-01
      2.7982594244732628e-01 -2.5626506646637631e-01
      -3.2619931302140755e-02 -3.9798079253715846e-01
      3.6329334061970159e-01 6.7145786454360104e-02
      5.8470600070990100e-02 -4.4221513532128354e-01
      3.9885006580066901e-01 -6.1026514141309252e-01
      -2.8226325299914573e-01 -3.2506799143021714e-01
      4.8395676793279940e-01 1.7668882014636200e-01
      2.7655894069185122e-01 1.0950224833681996e-01
      -4.1873124754189012e-01 9.9484025460948047e-02
      4.1639834804399850e-01 -5.9498115565364537e-02
      2.4185753424945486e-01 -7.7286761330304848e-02
      -7.4777484683738338e-01 -1.5277184272966296e-01
      -3.1873232162138210e-01 -1.5363085272780297e-01
      -3.6568445957920237e-01 -3.0902935341346471e-01
      -4.8328868061637292e-01 -1.7923214781404250e-02
      4.4787119816211929e-01 -3.1945211707312671e-01
      5.3586451787069078e-01 -1.5404399779607625e-01
      -4.2625684104124290e-01 1.6000961320557788e-01
      2.5686097451534540e-01 -9.3262147489845376e-02
      6.1543449139916573e-01 2.0644654032968340e-01
      5.8251540904450838e-01 -2.4254984476252309e-01
      -2.1901074292265529e-01 -2.7999358001889291e-01
      3.1520538708538337e-01 -2.7966525948184140e-01
      -1.3263752015564789e-01 -6.3183516352034375e-01
      1.4275264112586411e-01 -3.3143519474313217e-02
      2.8350228295735591e-01 7.2177254808617586e-02
      -2.9198109890393720e-01 -3.5412581438892110e-01
      -2.4315352931093475e-02 1.3131851982127918e-01
      -9.3454842415567033e-04 -4.0118626294999715e-01
      4.5078510255226673e-01 -1.0681452104629920e-01
      -8.3860636325872540e-02 -2.7338453597591867e-02
      -2.0508416709041574e-01 -1.1503494879467127e-01
      8.8520145548898455e-01 -3.5160251487879729e-01
      -6.8977732132822434e-02 3.7901098910137448e-01
      -3.6900815360569134e-01 4.3086357819054327e-01
      5.7430304901195939e-01 -3.2289839764041867e-01
      -3.2235233584820078e-01 -2.9254668714198578e-01
      -4.4012289812649008e-01 2.0266304597873524e-02
      1.0208389865091140e-01 2.8252133530804879e-01
      -1.0154549208448722e-01 1.0430045878334843e-02
      5.4100350780303362e-02 3.3454387345399256e-01
      -4.2781290581787805e-02 -1.8821460593906530e-01
      4.0370629891786586e-01 3.4290402050030039e-01
      -3.2998208401904766e-01 -1.5781357625101328e-01
      -1.5459084364019521e-02 -1.1752108365596620e-02
      -1.0262666629915043e-01 3.8923019435565887e-01
      -2.4656258557527902e-01 -2.2912802936021048e-01
      -1.5025761606162999e-01 9.4931509324337235e-02
      7.7854331247689756e-01 1.8783169441535442e-02
      5.2403208073048602e-01 -4.7550793394768281e-02
      3.4232679691030427e-01 3.4608041876576436e-02
      3.1358888807476398e-01 7.0067319715468271e-02
      1.5651874245466499e-01 4.5872971961256247e-02
      -1.4242069379854236e-01 2.3487149103312371e-01
      1.2709713534929690e-01 -5.1609819414571066e-02
      -4.4834515663628567e-02 1.1851795168931871e-01
      2.4734517519688165e-01 -2.0911893104277163e-01
      -8.8720041532715094e-02 -1.2299143838069561e-01
      4.7643354593847431e-01 5.3951736175081344e-01
      -3.9404699302173213e-01 2.1472772930005324e-01
      3.6378673824027657e-01 8.4345795227694243e-03
      8.6325542150408163e-02 9.8523170290442241e-01
      1.9614932785647389e-02 2.5208914923762094e-01
      -2.7394507044097527e-01 -1.4813205543870001e-01
      -1.1305675083863886e-01 -9.0469238855942191e-01
      -6.2194479622534479e-02 -8.0952557540159738e-03
      5.0284924021995019e-02 8.3019345271374598e-02
      -1.6387648060132152e+00 -2.4030099899687235e-01
      -8.9619396269577112e-01 3.3953947696994091e-01
      -6.6178482430447549e-02 6.4142488704995490e-02
      2.5349014056927310e-01 3.5312879813253795e-01
      1.3853271288752472e-01 2.0815530060726867e-01
      8.0317029906201903e-02 2.0130174158036784e-01
      2.3604928512440729e-01 1.3084911940524909e-02
      1.4868366543288550e-01 1.1299145321359666e-01
      2.0544634750930241e-02 -3.2243438030942810e-02
      -9.0235923148301111e-01 -1.5469332160956084e-01
      -3.4827967840857793e-01 -1.0484163771705657e-01
      -1.4835992827824818e-01 -1.6083519935283206e-02
      -2.3227841336577959e-01 4.6529460687506886e-02
      7.0323631479501533e-02 4.2734846717612136e-03
      1.0139342824769405e-01 3.1161251420807279e-01
      -2.4355510957652572e-02 1.4502623559700645e-01
      4.5401218773876671e-02 -9.8700224270278941e-02
      -1.0214702996463286e-01 -4.1175966151636273e-01
      -3.0804113631821822e-01 3.2397472241521302e-01
      -3.1991361515363401e-02 -1.0494663875745056e-01
      -7.7848287695567550e-02 -1.4278156221923109e-03
      -1.6348472542712109e-01 2.6167724341127285e-01
      -8.5541003480484337e-02 5.7336569352083658e-02
      5.3742422990765248e-01 -2.5093157072472810e-01
      7.1938437494082588e-02 -8.7708199385929761e-02
      4.3676535739668655e-02 5.3900740221665362e-02
      -5.8675510659800234e-01 2.2912883254681854e-01
      2.8035159942016658e-01 -1.4881892827355064e-01
      1.0894961237152881e-01 3.5447958087179221e-01
      1.4905463765865742e-01 -3.2106178713246719e-01
      -3.6849258878187694e-03 1.2239440980286907e-01
      -3.4845710307700128e-01 1.7442662509088633e-01
      2.4099056564040719e-01 3.6169870919072519e-02
      -4.9715769059036796e-02 9.5529275476366957e-02
      2.2594068993371294e-01 3.1126728409073839e-01
      7.7517334674957264e-02 1.9375182430909660e-01
      -1.5062726079803276e-01 2.8271835724156195e-02
      9.1149214460831601e-02 -1.7438593248496098e-01
      2.2101142478846655e-01 5.3047320904449066e-02
      1.7117562860674981e-01 -1.0644715288755298e+00
      2.2151753711230057e-02 -2.3416150372699610e-01
      -1.3648484153887092e-01 -1.4667057689016844e-01
      -1.4086441364874708e-01 4.0234622096182193e-01
      3.7263047321388371e-01 2.1833569603835129e-01
      -3.3994264617558423e-01 5.1798095095632191e-01
      2.9389566896002239e-01 9.8643238872870798e-02
      -7.0085939989766227e-02 1.9737495583826017e-01
      -2.6394518900380765e-01 1.1199634512443508e-01
      -5.1421025093577974e-02 -7.8558359055451332e-02
      6.2687682610112191e-02 -2.6281464413851058e-01
      -1.0873810303085572e-01 -1.8032681238635201e-01
      8.3219739081217374e-03 5.3039624138536620e-02
      -7.3399796157877117e-02 4.9825575930987583e-02
      -7.1826559380469598e-02 2.4358756660380390e-01
      3.0044717254001602e-01 -1.2368918634568857e-01
      1.0157820150764632e-01 1.8256063613296816e-01
      -4.8852924794001062e-01 -1.1208187184557414e-01
      -1.5102012068715395e-01 1.3467368012126360e-01
      1.9510497353915787e-01 -2.6753381796971690e-02
      3.7118804963481244e-01 -2.6147738504135737e-01
      -3.3462217365601876e-01 1.0558397493264653e-01
      -2.7132248863011049e-01 1.9377222084408063e-01
      -3.8612199040290202e-02 -1.6269872104889194e-01
      -4.0903652012864988e-01 5.5603423596284368e-02
      -8.4728718877576589e-02 -1.5340295137851456e-01
      3.9629403721215695e-03 -2.2991373280508171e-01
      1.9168248904325105e-01 2.5082113787191962e-01
      -2.1300616475295259e-01 4.0445457089176534e-01
      -2.9061032810814008e-01 -1.8769611087573437e-01
      2.0919724125358696e-01 2.8517930078245268e-01
      -4.0053143171693278e-01 1.1833512364419675e-01
      -1.9057464244426756e-02 2.8558999804069979e-01
      -1.2308488760482847e-01 -2.0566050883862710e-01
      -7.7429399756159048e-02 3.9588185958064140e-02
      4.5130303562786835e-02 -5.7804308732565826e-02
      4.0031021125562810e-01 1.5388417510754654e-01
      4.8830090117156999e-02 -3.1508775136503209e-01
      5.2889780564096094e-02 -2.1590625372842634e-01
      -4.8857000722602423e-01 1.8313876705400903e-01
      -6.6274979551699358e-03 5.8807142892727080e-02
      4.7885444630289453e-01 1.0526760596296196e-01
      1.4099575133628106e-01 -1.2109459554409382e-01
      3.6246892373387068e-01 -3.1606042661606620e-01
      7.8914401294542413e-02 3.0600431251511612e-01
      3.0350009878322454e-01 -5.7398779227971229e-02
      2.6363910861599482e-01 -2.7284048815226303e-01
      4.9310082208017514e-01 2.7149245308933206e-01
      -1.8998464315217417e-01 -2.3268671898620102e-01
      -2.7195803792648249e-01 -3.5522685329453074e-01
      -5.0713553464622596e-01 2.2573188193805505e-01
      7.7351545797084864e-02 -1.5532308269975620e-01
      -1.7318776358818189e-01 4.7440576311110611e-04
      3.0186991345135911e-01 3.9729202693375994e-02
      5.9296128757852437e-02 4.8095011807853816e-01
      -2.0917429652538466e-01 4.3178341446063417e-02
      -2.3336083299133856e-01 1.8757289096294405e-01
      -2.5292370222437160e-02 -2.5235103485673360e-01
      1.9661777423853585e-01 -2.3651992215997797e-01
      -6.0245593062002889e-01 1.1460038056891772e-01
      -1.5653402312941508e-01 1.5234512357369856e-01
      -2.1245774734058723e-01 1.8058769117049125e-01
      -9.3518843971038615e-03 3.3889259150214102e-01
      3.1822070298345828e-01 7.2435805642026896e-02
      2.3601510552955121e-01 2.0349682522712145e-01
      2.7456987320165027e-01 2.4793583172849626e-01
      6.5031760805177996e-01 2.2033211105926653e-01
      -1.5288551378544804e-01 4.9609444095163609e-02
      -6.4652341855537657e-02 5.6580912951471017e-02
      -1.0086909244568545e-01 7.0042210135341537e-02
      8.7281828409005863e-02 1.7518152083000507e-01
      8.2846806084962782e-02 -6.3073442387720646e-01
      -1.7003465605659804e-01 3.6720417536490091e-01
      -1.1283771809752831e-01 -4.8656013601387153e-02
      4.5558004606261671e-01 2.3711476297137161e-02
      1.6665563415125803e-01 8.2866046866275478e-01
      2.5533812692884378e-01 -6.6235988477604646e-02
      -5.0071338004581323e-01 7.5241422536470468e-02
      5.6185967366595285e-02 -8.0804010599110521e-02
      7.0699612026836320e-02 4.7640132703457461e-01
      -2.2054957164295363e-01 -5.9959767761699236e-02
      2.2842044573081510e-01 4.7208301055122429e-02
      1.7908197372722884e-01 -1.5091187241680770e-01
      1.5386358410968870e-01 2.0986270312528299e-01
      2.2026228015438021e-01 -3.8793328822945269e-02
      3.1822461113499717e-01 1.9177949954168250e-01
      -3.8043268857048468e-01 1.4576457773315632e-01
      2.5112739106739479e-01 -2.3649705238694782e-01
      1.1873632301304260e-01 3.4541656139608889e-01
      -4.8861073104025987e-02 2.1141325606952130e-01
      1.3272232878708709e-01 -7.5353103042993669e-02
      -6.6943366017004416e-02 -2.1517137578415429e-02
      9.3934900187814738e-02 -1.5898259996997610e-01
      1.0434438392536625e-01 1.3500959688667855e-01
      1.2958054551566528e-01 -1.6051218644863494e-01
      1.1735418251224171e-01 -1.8232287092760432e-01
      -5.4806127667328008e-01 -3.7087391424334912e-02
      -1.7641113618877119e-01 -5.7630459649971093e-02
      1.8367678546287385e-02 -1.9949244001483493e-01
      1.6747657996534160e-01 -1.5591006740201369e-01
      2.7629534111248372e-01 -2.8512017478125561e-03
      2.7728738355226562e-01 -2.7365942169187862e-01
      -1.0732374177977377e-01 -1.4268110793955124e-01
      3.9665291808348525e-02 8.9000667644085606e-03
      -4.9321355769415071e-02 -1.3847559009312746e-01
      -9.9172811104215983e-02 1.4070090336306920e-01
      3.8044128151755513e-01 8.3218341333470655e-02
      5.7699730450969093e-02 -3.3127478724192233e-01
      2.2530567861935119e-01 -2.0398491230378440e-01
      -2.9275652117704221e-01 -2.8620525009294168e-01
      -7.2491456367341653e-02 -1.4472858294351959e-01
      -5.3998135955382498e-01 4.3722438738614207e-02
      2.3299754767880176e-01 -3.9168359612184914e-02
      -7.0563638848049365e-02 2.3198022552000408e-01
      4.8602971618842916e-01 6.7055342514204030e-02
      1.3995178603112698e-01 -6.0534335562375495e-03
      8.3336512781237410e-02 -2.1147382745586901e-02
      2.9853040163570380e-02 2.3294236664783022e-01
      1.4597179614586253e-01 -1.9165182618556799e-02
      6.9170345200947309e-02 3.6407981340110834e-02
      3.2412007925216085e-01 2.8032783012748458e-01
      -2.5927537646924859e-01 -2.3978920993667521e-02
      2.6708784460129958e-01 3.0959177263207244e-01
      5.1700542160101046e-02 2.3019859258831543e-01
      -1.4000762676027764e-01 1.6752555210870673e-01
      -3.8010933426183197e-02 -3.9357002652155310e-01
      2.3348695348971946e-01 1.1841896354743317e-01
      2.9209663139144710e-02 1.2663952479656901e-03
      3.8017697975387489e-02 -5.4400663122690807e-03
      1.1308165623682154e-01 -5.0765132227944924e-02
      1.1923061424842980e-01 -1.5175699796947359e-01
      7.4021587562231719e-02 2.7647192915115631e-01
      4.9361205505734383e-02 1.0494219929234364e-01
      3.2657595267838824e-01 1.2716228485806541e-01
      -2.3504331379322362e-02 2.0969868167877569e-02
      2.2585956190859688e-01 -5.5263567457250407e-01
      -1.1010310700858378e-01 -3.4774226576164985e-01
      1.1304047141710954e-01 9.6063472083546222e-02
      2.6123633806309116e-01 -7.5569641114666642e-03
      -2.3575873018647089e-01 7.7771170418483956e-02
      9.4783581817015197e-02 -3.2764115948494474e-02
      -1.9837883946780938e-01 -1.8423656173318256e-01
      -3.3024302831978486e-01 -8.1947589193355902e-02
      1.2502131860501019e-02 -1.5127113481298488e-01
      -2.1465912242586721e-01 2.0588875560267791e-01
      -4.6797010143195407e-02 2.7618237113826327e-01
      2.2883934858044744e-01 -1.5516210397517852e-01
      2.6754798132778562e-01 1.8202095980569689e-02
      -2.9146451777602939e-01 -1.2710960326832474e-01
      1.7921952209741357e-01 -3.6665610105935731e-01
      9.4534912202313207e-02 6.9976409323954394e-02
      2.8688602486089887e-01 -2.6599329613553761e-02
      -1.3596798797926699e-01 -1.3301019589301843e-01
      1.9152850761103321e-01 5.1832779473464063e-01
      -1.9049679681325468e-01 -5.2661795765885595e-02
      1.0418343416310487e-01 -3.6217140396994793e-02
      -1.7936285429326485e-03 1.5972721000921197e-01
      2.7186632264619190e-02 -1.2305242191936090e-01
      -1.3947126365232673e-02 1.5713600882619821e-01
      1.1019929143661575e-01 1.4298390649698228e-01
      4.0116033966248560e-01 -2.5909165176758792e-01
      -7.5311063867967279e-02 1.0438240929258694e-01
      -6.3861480692862446e-02 -1.2255369482647206e-01
      4.7846112180590528e-01 -2.2126976561934833e-01
      -2.4025728244473264e-02 8.0254802544834206e-02
      -4.2115174774260933e-01 2.5897886852246982e-01
      2.4753884188857364e-01 -9.9083119001411243e-02
      -1.2674040107885454e-01 -4.3099981263015286e-02
      -1.5935837436144357e-01 1.0877163058830266e-01
      9.5434088472369352e-02 2.7266700030897267e-01
      -2.5513269904884339e-01 3.6085967334839777e-02
      3.3977024988526255e-01 1.8745128952959386e-01
      2.7010615891858669e-01 6.0828857169592424e-02
      2.0808521539729824e-01 1.1911802222843700e-01
      -7.2466075886180412e-02 1.7800058323407190e-03
      -3.1783880359975902e-01 -1.5859862930001602e-02
      -1.6978493573329120e-01 2.0171630018333753e-01
      -6.7110188092045220e-02 8.7093111830855052e-02
      -9.2516275533361513e-03 2.0345685328901828e-02
      3.1201055361468788e-01 -1.2614593591033951e-02
      1.8812177657546361e-01 -2.3839981230710416e-01
      2.4017905461280749e-02 -2.7673770706345528e-02
      7.2024699382531976e-02 1.5764844544296533e-01
      -1.8294734535151593e-02 -1.0743913116469284e-01
      -4.4144279773545318e-03 1.5215859997735315e-01
      1.8105376824265138e-01 2.1225286447448974e-01
      -1.4463080157592351e-01 2.4382593686808543e-01
      5.2731896037348500e-02 -3.3346382560934967e-01
      -1.4674703389532651e-01 2.1394729094587204e-02
      -1.2282631795067823e-01 1.9351272847250317e-01
      -1.3605064893134788e-01 4.2579349141201106e-01
      1.4212494335101672e-01 -6.7395032461492949e-02
      1.5723721762144403e-02 4.1960498299315563e-01
      5.5154131328543743e-01 -4.3828644892880325e-02
      -8.2700032978073920e-02 2.6255349128633133e-02
      -6.8692323901464583e-02 -2.0372050309925657e-01
      -1.8532736427070398e-01 -1.5204081050716142e-01
      4.7628992905813343e-02 1.4846899941103267e-01
      -1.6151673719101658e+00 -1.4618402978131481e-01
      -1.5383509730350704e+00 3.0846514713834527e-01
      1.3527773332672868e-01 2.0755712866709014e-01
      4.1780679405536697e-01 9.1417347447399683e-02
      8.2263753151058466e-02 1.9611466139658942e-01
      -2.3685684209195139e-02 2.6186141329482677e-02
      7.5588988436898041e-02 6.9364530711523500e-02
      2.2912727663042642e-01 -8.1222862065121210e-03
      2.5047459375689057e-02 1.9586178469959106e-01
      -4.4662506273614416e-01 -8.3693740581918336e-02
      -5.1379297514396371e-01 -3.8219075093863110e-02
      -2.2752382573240107e-01 1.0718203309499649e-01
      2.0565527953450506e-02 -1.2519173321682056e-01
      2.9656233152548287e-02 1.9277660136013515e-02
      1.4266979450022987e-01 3.7807844373378735e-01
      1.3365459645230133e-02 -9.3984075976045064e-02
      -5.5066389751889683e-02 -3.2479811942819581e-01
      -6.0948655451625297e-02 -4.2364554603370347e-01
      -7.2649257562599920e-02 8.2760965655868449e-02
      -3.4084583415692521e-01 1.1088548077572738e-01
      -1.2874047548231201e-02 -1.3911428447380406e-01
      -1.1309086092180134e-01 1.6322182852928105e-01
      1.0298180680789619e-01 -2.0742950402896969e-02
      5.3389753649239502e-01 -3.3866469209356674e-02
      -1.9789519290867053e-01 6.9449476353971334e-02
      -6.1557132073487134e-02 -1.4413203351229664e-01
      -4.5453453733142785e-01 2.1451927629877660e-01
      7.1864420725118922e-02 -1.5332046731441154e-01
      -1.1370075203339176e-01 1.1919779168540659e-02
      1.0992803449164465e-01 -7.4159249230944232e-02
      1.4512763137701695e-01 2.0092018269807624e-01
      -9.9391290228474552e-02 4.0076977323320784e-01
      3.0122821689028290e-01 -2.7238185799131859e-01
      6.8476875078639669e-03 1.0508259993261006e-01
      5.5252562221261392e-01 3.5092539329096888e-02
      -8.9677572901989383e-02 7.7583800675615142e-02
      2.4683937927880073e-01 -1.3889699318975829e-01
      2.6188466179688574e-01 -3.5116565275306988e-02
      -3.7069445025589641e-02 -9.8859123943824220e-02
      1.7666937757584722e-01 -6.6746856803603605e-01
      -2.8649682218802525e-01 -1.1915935188471585e-01
      2.2863710613569545e-02 -2.8763929771160521e-02
      3.4019444976400326e-01 3.2160383416122951e-01
      -2.1742665299388175e-01 3.1916932544574214e-02
      -2.5484552922767162e-01 9.8109548616219192e-02
      -1.0956306744129962e-02 3.4755945132435982e-02
      -1.0547032323673626e-01 3.9255454046580518e-01
      -2.8695701934192541e-01 1.5022428841804586e-01
      -1.2418639851182504e-01 -2.7266457137376532e-01
      1.0617508926836479e-02 -6.2422367817266844e-01
      2.0639312438638624e-01 3.2159970671144011e-02
      -1.9559940736549864e-02 1.0827829937815625e-01
      9.4642336269449776e-02 2.3434701849359488e-01
      9.1080829616368417e-02 3.9459604419570998e-02
      4.4229941911498089e-01 1.8988030485212956e-02
      1.0522621650464895e-01 8.1053233484460280e-02
      -3.4213669761117049e-01 1.8035607117560848e-01
      -1.0486478741299203e-01 -6.1597675915156171e-02
      -7.8828805393982335e-02 -4.9364017029383911e-01
      2.1183579217306997e-01 1.8164705391961123e-02
      -1.8460920516396151e-01 -1.9865401782233064e-01
      -3.1664394641137894e-01 1.5811129161943346e-01
      1.2208100544487110e-01 2.3208618747269738e-01
      -5.4437969435355928e-02 1.0477850282552349e-01
      1.2545914222643906e-01 -1.4725139676154692e-01
      2.6467286094747072e-01 9.9589373499683984e-02
      3.0664239457934944e-01 -2.2492524569261957e-01
      5.4520325698949157e-02 5.7835959063948304e-04
      -2.8143230849127243e-01 2.6443594019886517e-02
      1.4020830049337449e-01 2.6712878997120815e-01
      -1.2090788563435040e-01 -1.6345505538228413e-02
      -2.3952031985014688e-01 -7.7294583483903820e-02
      -7.3753576344814829e-03 -1.1226925151864789e-02
      1.5383899795238115e-01 2.4536729736399374e-01
      2.2433481819403189e-01 -1.2433388299483062e-02
      7.6460793543634276e-01 2.1590119932662238e-01
      -7.2820728994028765e-03 1.4086159813176438e-01
      -3.2288122102753745e-02 -1.3328784207310831e-01
      -3.1571109849435236e-01 2.6449621785796651e-01
      -8.7527917062558386e-02 2.6184512925811580e-03
      2.3026292432606169e-01 4.9374577863830198e-02
      1.1393885287396176e-01 -1.2557602815168334e-01
      4.2548750669791358e-01 -4.4217689696463541e-01
      6.2082886529779176e-02 -3.3532008009413486e-02
      1.5588334051598918e-01 -1.1872717484819921e-01
      3.6562522029717562e-02 7.5194135409441129e-02
      3.7813546253174574e-01 -6.9302915287941885e-02
      5.9164607672467777e-02 -1.3051823612957933e-01
      -2.3346725097463973e-02 -1.2156377723347210e-01
      -5.2715616680848021e-01 2.7409693600012730e-01
      8.4899495383275528e-02 8.8702902207843590e-02
      7.2174906567327390e-02 3.7737890329651184e-02
      2.6415239617249042e-01 6.7036310201841571e-03
      1.9524884995573052e-01 3.3022022600413276e-01
      -1.5694730260397624e-01 -1.8669008745904200e-01
      -7.0325578611873468e-02 -4.9157069451334148e-02
      2.1651593522713342e-02 -2.8603812347940977e-01
      1.2940887976438140e-01 -2.3026463136881875e-01
      -6.3212942631348767e-01 9.1839218203896233e-02
      -1.0404545278769628e-01 -2.0352173411026107e-02
      -2.8153173711290441e-01 -1.8825505177091600e-01
      1.3444354711779266e-01 2.9106752910593142e-01
      3.7412454049343530e-01 1.3888408641163749e-01
      7.4577963231365230e-02 1.9684440292306341e-01
      5.3578914571084275e-02 1.4973886443461654e-01
      5.1867605286346108e-01 2.0336798314727861e-01
      -1.2256983140431989e-01 8.3236777303679205e-02
      -1.1669825459271409e-01 -1.9739848708355712e-01
      -1.1340745749864255e-01 1.2118806659843100e-01
      2.6389616385337378e-01 2.0288091951715639e-01
      1.7615061958536507e-01 -4.4718211198656632e-01
      -1.1886007794516391e-01 8.4898058788849942e-02
      -6.3627538778714798e-02 5.6830231713560107e-03
      2.8164930831093810e-01 -3.9263241187220091e-02
      4.0260900351452321e-02 8.2736197174677450e-01
      1.1544250752590912e-01 1.0839881381717884e-01
      3.8479477308640914e-01 -2.2755735516887557e-01
      1.1924690747566115e-01 -9.1599562508330332e-02
      1.4607708991445489e-01 -3.1316640111403415e-01
      5.6248490458605985e-02 -2.7238288381393611e-01
      1.4245933655817044e-02 -4.7135979400485199e-03
      -2.9078485687615058e-01 -3.4882302092819500e-01
      -4.4460977171486338e-01 1.0833098933750314e-01
      1.5542669789433239e-01 -1.0492826805243140e-01
      3.3794034533231959e-01 1.1309602907273296e-01
      -2.1215891476870757e-01 1.1611369624094423e-01
      3.5243870711927155e-01 -1.5385728862188744e-01
      1.0546279704211467e-01 4.1338876627381610e-01
      -8.0762642569839171e-02 2.6009820165516950e-01
      1.1041465835733114e-01 -9.7157774937606009e-02
      -3.5349273262528381e-02 2.5543107757694083e-01
      2.1906708343921431e-03 -8.1185397754236624e-02
      -5.5770987184721774e-02 2.6349687326851862e-01
      9.1862439682603436e-02 -1.1399333707940087e-01
      -9.3292486045372841e-05 -1.3918843433573097e-01
      -7.1923772634444549e-01 5.5641581631362617e-02
      -1.6470422986422667e-01 2.3276127721582804e-01
      -1.5337375043768522e-01 -8.1120671604856906e-02
      1.0074514721651563e-01 -2.7213325297102436e-01
      3.9127593468526595e-01 -3.5074844835798619e-02
      1.8575620840487472e-01 -2.7925036926035228e-02
      -1.5391290677085784e-01 -1.1733563743684930e-01
      -1.1428361211215034e-01 -7.1275242185640533e-02
      -1.0543223409915024e-01 -1.5160905575857361e-01
      -1.4931633554732776e-01 2.7543326438096516e-01
      1.7436888285098087e-01 2.5754684964260166e-01
      -2.2131516632237599e-01 -2.4389276808489160e-01
      -1.8003062444892085e-02 -8.4349928681507452e-02
      1.1194851178888028e-01 -6.8357377847364439e-02
      -1.0745113512353845e-01 -3.4172251631234218e-02
      -3.1245799224681386e-01 3.6261471780363824e-01
      -9.9694536172904774e-02 1.1628893609229597e-02
      -1.8473170478047643e-01 -1.8634583616840550e-01
      1.2027347772524284e-01 -1.2637702813033139e-01
      2.3906161146920721e-01 1.2862433840530846e-01
      -3.6767700973629788e-02 1.7485912416415523e-02
      1.0638947149676421e-01 2.7222872812802340e-01
      1.7767431213776558e-01 -8.7391944959676102e-02
      8.8411727959977149e-02 -1.5699245288940672e-01
      7.9113413099358521e-01 1.2043335160445244e-01
      -2.2301530011274975e-01 1.3844886210078777e-01
      -1.4163538890608657e-01 -1.6881348115122635e-01
      -1.8240443747904073e-01 -1.1773494652900278e-01
      -4.0820665924046395e-01 6.4146874790145011e-02
      -1.3257924638631732e-01 -4.7396662861904643e-01
      1.2053801818856112e-01 4.7185073842155451e-03
      4.1420603929863874e-02 -3.9191520779542542e-02
      -2.6358784190865731e-01 -1.9316264412986714e-01
      -1.6912783476815332e-01 1.4954208510404321e-01
      2.7097983685910398e-01 -4.4676870570591315e-01
      3.4987513515285264e-02 3.7044107379164443e-01
      1.9477831022940420e-01 3.3155313695236160e-01
      1.8522031658212479e-01 1.9211079873045045e-02
      9.3166636587069543e-02 1.4011243669562418e-01
      -3.8464829219836470e-03 -1.9401698005670065e-01
      3.0163391723906985e-01 -1.2569625411478255e-01
      -1.7928472794912317e-01 -1.7184802169583682e-01
      -7.3577502985598925e-02 -8.2136018509829017e-02
      1.0046915574000906e-01 8.1341642728075328e-02
      -3.4278870093515205e-02 -4.1716587130212202e-02
      -2.1582215764309581e-01 -1.6378000469654949e-01
      9.2014014705553877e-03 4.5618434924980696e-03
      1.9585533099840877e-01 -1.3058994308194158e-01
      -1.9371978898533854e-01 4.0083752173933417e-02
      3.9032351155001244e-01 1.5593544467012735e-01
      -2.0258925521410101e-01 1.2612055859232152e-01
      5.0396425535202726e-03 2.0883196567780823e-01
      7.6968752090483566e-02 -2.7014665431296409e-01
      1.9223785344934236e-01 -3.3198990723275990e-01
      -3.3689373526230587e-01 -5.3409909305957216e-02
      7.2097652764831197e-02 9.3347297613312785e-02
      3.8090175843845255e-02 1.2375377011783587e-01
      -2.7741953845365214e-01 4.3292709076684666e-01
      -1.3475961753891263e-01 3.0982616913844574e-01
      3.1938527854079397e-03 -7.5707974786853094e-02
      3.9743458714537822e-01 7.3286654635712101e-02
      3.0268415431746920e-01 1.9547207996609953e-01
      -1.6991381791162657e-03 -2.0094246856830027e-02
      -4.4829456300537480e-02 2.0461888264739347e-01
      5.3881731344717319e-02 -2.6039965846052981e-01
      -1.5886365201979835e-01 -7.7634327911378226e-02
      -4.0829356719788764e-03 -1.2540215501796612e-01
      -1.4280400969713986e-01 -2.6587754885329390e-01
      6.6191254214837264e-02 -1.7078147752181444e-01
      -2.4267406661421204e-01 -4.6564815981984052e-02
      -1.5253687669303012e-01 1.0175952960063625e-01
      -4.0727214835520904e-03 4.1663214989522170e-02
      -3.3398019113225173e-02 3.9231602039480576e-02
      1.1865692513640591e-01 1.9867991723966766e-01
      -4.1358705807958784e-01 1.4907967502471633e-01
      2.7463810458993820e-01 1.4410650308397094e-01
      3.8009996173879995e-01 1.0693860635596714e-01
      -2.5475426003112374e-02 1.3539315329260493e-01
      -9.8635045446493430e-02 -6.4957990328127465e-03
      -1.3217164585777710e-01 2.2193580260443627e-01
      -6.9590012612717354e-03 -2.6154822925501826e-02
      -1.3976182780260243e-01 5.0773270409441913e-02
      1.0890373315482681e-01 1.8058278475197204e-01
      -6.7389647931659427e-03 6.2384830682464545e-02
      -6.0370171953653559e-02 -1.3367115546506850e-01
      -1.4874128607609824e-01 -4.3785776435039024e-02
      -9.2550151597256089e-02 1.6492602305536780e-01
      -1.0167952834629353e-01 -3.0139424008213689e-01
      -4.6186871472257068e-01 1.4884198351811651e-01
      1.6864612439936109e-02 9.7836709024676366e-02
      2.4351057421703150e-02 2.1897195968966621e-01
      5.6478874316278092e-02 -1.6617871055856795e-01
      -2.6803108760661365e-01 1.8128643703364983e-01
      -3.2069673356156830e-01 -1.4496300003496385e-01
      3.2996612295074702e-02 3.7485977543338245e-01
      1.2032620257851482e-02 -1.5946297875944811e-02
      1.2102666884256505e-01 -2.3484020318114102e-01
      3.3729457305542221e-01 -2.2902882265658173e-01
      4.0047476375453861e-02 1.3378476176992615e-01
      -3.7530459301104123e-02 1.9000002937345173e-01
      -3.3111234433440918e-02 -1.7847357745847003e-01
      -3.0035488134731024e-02 -5.5971143107061860e-02
      -1.2143563162086901e+00 -1.0867131418477104e-03
      -1.6698155318184886e+00 3.3738895223218046e-01
      2.5800618364249361e-01 -1.2235732201459944e-01
      1.7094023232703451e-01 3.2211255712950015e-01
      -1.1478729476151302e-01 2.8913754072140468e-01
      1.2244794093770642e-01 -7.2474835484857281e-02
      -3.7570820172863499e-02 7.0024310955973709e-02
      4.4602240730579064e-02 5.6114423437040019e-02
      -4.2464460687547140e-02 2.7592310938617520e-01
      -2.7332952630500912e-01 -3.4812229489109997e-01
      -2.2874701353940743e-01 4.6841905623217175e-02
      -1.7312993426276105e-01 -1.7342288873646969e-01
      1.0827167391445591e-01 -1.8180261690151150e-01
      8.4036584743924104e-03 8.1533735279911493e-02
      8.8939025210939007e-02 2.8575026813524695e-01
      3.4536000981849169e-02 3.7122899535496912e-02
      -1.3539972796503136e-01 -1.9584801924309073e-01
      -2.0930688544755308e-01 -1.1579788691825663e-01
      -2.0560359625839350e-01 1.1418508276795848e-01
      -4.8821161767176402e-01 -1.4180693409149103e-02
      9.5380420113356609e-02 -2.0799234271434244e-01
      -2.5916473779156457e-01 1.4316543914250940e-01
      -1.2709140267194684e-02 -5.1397644971110990e-02
      5.3275988307303512e-01 -4.5491151855155822e-02
      -1.9995889901724201e-01 1.8848479124291929e-02
      5.2136522650519983e-02 4.5677703477836444e-02
      -1.0318917801381926e-01 6.2467337788282959e-04
      -5.2145817780981485e-01 -1.2165400672388051e-02
      -8.4217639916736323e-02 1.2783612269706171e-01
      2.1799928026759505e-01 -7.8636696980504087e-02
      1.3900592100138134e-01 1.4812545110549122e-01
      1.8091094205611696e-01 1.5974563457472103e-02
      3.1349712302948618e-01 6.8691899449906321e-02
      1.4827020194706463e-02 1.3637757678160872e-01
      3.8670712348409270e-01 1.3296401535467498e-02
      -2.6280575808277543e-02 1.0149541040377824e-01
      2.8214825019457973e-01 -1.1722211010251468e-01
      2.4191685328215462e-01 2.0779820211853717e-01
      -4.9536581506839740e-02 -3.9081809430027104e-01
      -9.0914015054968253e-02 -3.0218518319567061e-01
      -1.1625479102657955e-01 -2.1785980436068206e-01
      1.9822945651962137e-01 1.7103859484050241e-01
      6.5462814356492358e-02 -4.7194387955661783e-02
      -9.1065114934215929e-02 -1.3858423317902782e-01
      -1.7913869268257304e-01 6.0252067764360540e-02
      -8.0043429200914576e-02 1.6945705448101405e-02
      -2.0860053568068024e-01 2.0768559582917498e-01
      -1.2140787336430969e-01 4.8606185974732529e-03
      -7.0180009110835134e-02 -4.6656613901848554e-01
      -4.2329197202126093e-02 -3.5262383640267270e-01
      3.6154147527491720e-01 1.4210565703257272e-01
      -2.5891320769557552e-01 4.8523834577369404e-02
      1.9509814359553548e-01 1.6937368037038342e-01
      2.6166139717686093e-01 -1.2724627389598983e-01
      3.1897661577549347e-01 -8.2737975214790694e-03
      1.8397048042421352e-01 -6.8394852583734900e-02
      1.0881470631745594e-02 9.0092364550791865e-03
      1.4600001936634213e-01 -4.2873863911516036e-01
      5.3955158711823537e-03 -6.1812157877570584e-01
      -1.4767801694847596e-01 2.5148088222823334e-01
      -1.0728550742693781e-01 -3.9227481567705891e-01
      -1.4704481401703323e-01 -1.2446141803128254e-01
      1.2103620353030532e-01 1.7993068850223914e-01
      3.7679506921767052e-03 1.4352412829710701e-01
      7.7816053367597296e-02 6.2294247765364200e-02
      4.9943782673714943e-01 4.6392752380150559e-01
      1.9071672997815314e-01 -5.8889962530593698e-01
      2.1846977925959540e-01 5.4147808170268062e-02
      -9.2813360169335755e-03 2.9071592800625312e-01
      -2.0400455452229360e-01 1.5059335744434681e-02
      -7.2732429602469464e-02 -3.4695157191334300e-02
      -4.9369685341096614e-01 -2.8361287775313604e-01
      2.5301734568391493e-01 1.1709758717927839e-02
      2.1868653813941227e-01 2.4868927222453682e-03
      3.9877918693645215e-01 1.1757455816015576e-01
      7.9518630993307771e-01 -2.2251474695413796e-04
      9.5020813016970698e-02 2.5647276810247605e-01
      3.2111460633667314e-02 6.8243505568661211e-02
      -3.6403646356643782e-01 3.5946463241239859e-02
      -2.2075679770021470e-01 2.9919594801854998e-01
      -1.3681988978226040e-01 4.9139683640809985e-02
      2.9399617727404254e-01 -5.7659872579896365e-01
      1.6870568963794674e-01 -1.0041408598254167e-01
      7.2437137439294058e-02 -2.8643658597375932e-01
      1.8420793416306885e-01 -2.9956194124151993e-02
      -8.9594234970060235e-02 1.1063813796527579e-01
      7.1428956880927125e-02 -1.5663836914808005e-01
      8.1006448366198178e-02 2.8476081073782203e-02
      -5.1851629080119206e-02 9.9371327675845625e-02
      -1.4398861389869616e-01 2.9759881989686421e-01
      6.6232126086983908e-04 1.7021653213530059e-02
      8.9949181212129539e-02 1.1490100989630654e-01
      2.5960356606581896e-02 1.8522347344366943e-02
      1.9130734727620233e-01 7.7978065475376834e-02
      -2.4109543119249946e-01 -1.9349684402079628e-01
      9.1783365360715834e-03 -3.4126112550652829e-02
      -2.0279053576006917e-01 -8.8119179364606906e-02
      -1.6858384145773828e-01 -1.5753422354611356e-03
      -5.1435961522747609e-01 -1.2163993415099608e-01
      7.4209927270041554e-02 -2.2414335578850092e-01
      -2.8683407261531507e-01 -1.9157710026335401e-01
      1.1700013859030287e-02 7.3831913156863632e-02
      9.1271871870382132e-02 9.3857708565047940e-03
      -4.5321482795763694e-02 6.1340351908337719e-03
      5.3395846279144205e-02 8.3472385179023473e-02
      4.5549526253225064e-01 5.8079978991424974e-02
      -6.4632327675537227e-02 9.0981017036876652e-02
      6.7090901896763422e-02 -4.4621196001131555e-02
      -3.7418720478156974e-03 -1.0245304386135655e-01
      1.5562113484989887e-01 2.9116105137318406e-02
      2.3044025030812237e-01 -2.2658756994807602e-01
      -5.8176718130455773e-02 -3.6892465791304660e-02
      -1.3241172888434175e-01 -5.0268178548681687e-03
      -2.6888485007150059e-01 -9.0206956053697634e-04
      6.6614459230203024e-02 7.3529631161297104e-01
      -1.3122666070881622e-01 2.7849328187195871e-01
      7.1881966768031413e-01 -2.0475251893131635e-01
      -5.6027289988292567e-02 -1.6591744836774228e-01
      -2.1197649365911175e-02 -7.0916250326295682e-01
      2.7913584580411921e-01 -4.5988678857864967e-01
      -5.8784064955899676e-02 1.7752828341081717e-01
      -3.1374760442088212e-01 -2.2830243794087729e-01
      -9.1930730602166200e-01 2.5530658005313117e-01
      -1.9685453618468535e-01 -2.1782985262892622e-02
      1.7117498376825704e-01 1.5903568239175284e-02
      -5.6918380619312881e-01 1.4713385748230959e-01
      -5.2453037600346218e-02 -7.8535013600327275e-02
      1.6109570254766464e-01 6.6075681869479674e-01
      1.1707207351871049e-01 2.9178182272937842e-01
      -7.6600020891022025e-02 -2.9914986923506165e-01
      7.7905287038291429e-02 1.8544936410192928e-01
      -1.3148207774710291e-01 -1.0870967967726365e-01
      -3.1626020405478594e-01 5.2737683016735232e-02
      1.0257709253665380e-01 -1.8240533174242127e-01
      -2.5897349516770568e-01 -2.1214915542660306e-01
      -1.4748345684747055e-01 -3.2073779098552122e-02
      -2.5324629315586616e-01 5.0486127911445078e-01
      -1.8128768679594490e-01 -1.5765402190967706e-01
      8.4961600117455058e-02 -3.6466210580617020e-01
      3.2907039531006832e-01 1.4024734693469676e-01
      1.3233550806784428e-01 1.5236015808635284e-01
      -1.1910957517895045e-01 -1.0628249509109841e-01
      -2.3146065195812887e-01 -1.3770201052182138e-01
      -5.3871264474143823e-02 4.7286221126704034e-03
      -4.3396672074131298e-01 1.3789360650671617e-01
      -5.3711167797942522e-02 1.0615657324732750e-01
      -2.6054550310650848e-01 -4.1887850756051254e-01
      -1.9277732846933029e-01 -1.4273055035018345e-01
      1.7941973920960008e-01 -8.7458689661168397e-03
      -1.1945173987654990e-01 1.4717080225220433e-02
      -3.6485286408324691e-01 3.9103034630096917e-01
      -6.4652923569913950e-02 1.0187527663342121e-02
      -2.8228287845857564e-01 7.9130491571735323e-02
      -3.1412271839370537e-01 -1.5341179055242901e-01
      4.5538789320651606e-02 -7.6419790364815358e-03
      -1.5511330644033716e-02 1.3653540286613036e-01
      3.2810978853517642e-01 -7.5502605942574574e-02
      -1.8296610007652242e-01 -3.4567915510081781e-01
      8.7461065766138352e-02 -1.3753106317087385e-01
      5.0747268836238035e-01 1.6535827753708540e-01
      7.3696624981181777e-02 4.5382665761889662e-01
      -4.1459041799342344e-01 -3.0032660217327933e-01
      -1.1113481841727645e-01 -2.6799084430906284e-01
      -4.7239742497113624e-01 7.0409328933135812e-02
      8.3966768431982475e-02 -8.0875623816269593e-01
      1.9061170423346771e-01 -2.3890467589386674e-01
      -2.0128211133198179e-01 8.6189330535159803e-03
      -4.1772139237553951e-01 1.4690347441770929e-01
      -3.9305319085655188e-01 2.2818753905721262e-01
      1.0038597425326569e-01 -4.5287491235578575e-01
      -2.5036498486275544e-01 2.1947970013343746e-01
      2.4096577667061975e-01 2.1662463018703718e-01
      -1.4620073069811624e-02 1.6134458801609011e-01
      7.0260221139137519e-02 1.1857198391095168e-01
      -5.1443582669442478e-01 3.1055437133514791e-01
      2.1902269781279479e-01 -8.2859696426763496e-02
      -7.8883200819621802e-02 -1.7876574699669226e-01
      -2.4929154040057888e-01 1.9448615712740251e-02
      3.3204280427746935e-01 4.2660843825449359e-02
      -7.8848421270899648e-03 4.6207134760017903e-03
      -1.0502040389182760e-01 -1.3013192455357311e-02
      2.0334644246654132e-01 -2.0775124662428626e-01
      4.1969847899027679e-01 -1.0931939917511369e-02
      1.6637363783392911e-01 -4.8472210931173054e-01
      2.7888695733720181e-01 1.9529618847504523e-01
      -4.5001066420256913e-01 4.0908971599276595e-01
      -2.9331237503959723e-01 3.2025411255918912e-01
      -5.5500793160346347e-02 -2.5851642606876135e-01
      -8.7030970840910361e-03 -6.8205349117791067e-02
      -4.5822631945060432e-01 -2.5077687725431835e-01
      -7.7758115254102186e-02 -2.0356143451031896e-02
      6.6421663527336666e-02 2.1897418429027932e-01
      6.5820565392433569e-02 1.2221327922266817e-01
      1.3860294354584521e-01 3.5671675444565221e-01
      -3.2328421036798916e-01 1.6003634175548752e-02
      8.7533624428614276e-01 1.4546596060117245e-01
      1.3704658341124509e-01 1.0333672095164949e-01
      -1.0553351142920957e-01 -2.9710788643102559e-01
      6.2346660715991646e-02 -3.6668041287811931e-01
      1.1557931257733727e-02 -6.5763524700752446e-02
      -9.1863798827263574e-02 -3.0470306610463938e-01
      3.2775535496065478e-01 6.6724126024995056e-02
      -3.9919190005868777e-01 -2.3082541400985487e-01
      2.9228519559621219e-01 -3.9071025344098217e-02
      -3.2712320598806671e-01 -3.9229960667364061e-02
      -4.1768693115104361e-01 4.4676370144830321e-02
      1.6242361016061907e-01 -1.6156326962608748e-03
      5.5473657422175393e-01 -3.3350136112570608e-02
      6.4402695506202187e-02 -8.4686491772427444e-02
      -2.5444693728648415e-01 -3.7311470301409903e-02
      9.1906772750466548e-02 2.2809447883663396e-02
      2.1432164791322653e-01 2.3934174811261272e-01
      3.8745055757650926e-03 2.3570576932872612e-02
      -1.9606790742580146e-01 -2.5894860412333365e-01
      3.0530499270564185e-02 5.4899708215171098e-03
      4.6239839544901053e-02 1.2722534571694577e-01
      2.0434550007554470e-02 1.5470631679057986e-01
      4.1086760258110172e-01 2.2385076006573634e-01
      -2.1380144136443260e-01 2.0954447211544108e-01
      -2.4244308003740853e-01 2.6943197002186375e-02
      -1.7504755240411468e-01 -1.3051981267201598e-01
      -5.1749481283551035e-01 2.3173531138180090e-01
      -1.4651235185969727e-01 -1.2526396450215546e-01
      -1.1029961042279681e+00 -3.4567517225395711e-01
      9.8941027753491478e-02 1.8703861048665674e-01
      1.8778426366318601e-01 1.2480565740095372e-01
      1.8886172759495255e-02 -3.9817017476510164e-01
      -1.3946831815700078e-01 1.6161123109381120e-01
      -1.7367966073585439e-01 -1.4934683504943258e-01
      1.0619023828878640e-01 4.2880149552289265e-01
      -5.1059799292835650e-01 -1.2160248219384938e-01
      7.3212563458362426e-02 -1.2701956050619034e-01
      -9.6638393271680875e-02 -1.3256706182515612e-01
      -8.6655360018222202e-02 2.4639538971407809e-01
      -1.1641931867997916e-01 1.6804601422872784e-01
      -1.2465038514730253e-01 -1.0107727608289342e-01
      -6.6872059390933013e-03 -1.8427061921516708e-01
      -3.9349445868012844e-01 2.3969094505440736e-01
      -8.9677443977060189e-01 4.8874498199979555e-01
      3.0215857681083026e-02 -1.9337738898310058e-02
      4.4778634157299706e-02 1.9693765360063928e-01
      -1.9893726844915777e-01 3.3266057545311389e-01
      5.6637243373078891e-02 4.9841191599228535e-02
      1.2794246281540975e-01 4.3421673652856698e-03
      5.9187599424549439e-03 2.2905306024505026e-01
      -1.3218305293829555e-01 3.2902986194338879e-01
      2.6446298960649728e-01 -6.5878660402492573e-02
      -2.8546642027914293e-01 2.2777183149664826e-01
      -9.5835758112664732e-02 3.3917909419757135e-02
      -3.5621039743246360e-02 8.3492933358942645e-02
      -1.4963423800762338e-01 1.2218276075046117e-01
      -6.6055276026790358e-02 2.0110530604532287e-02
      1.1064702486176016e-01 2.6910052897716214e-02
      -1.3584373348471824e-03 -5.2841360208187904e-01
      -1.2871390668830310e-01 -3.7403493992058169e-03
      3.2388680503350011e-02 -3.6853726213437830e-03
      -2.2947712868424769e-01 -8.4659524600773167e-02
      2.3527171097943453e-01 -8.6815373299562792e-02
      -1.0743927480926266e-01 -8.2599871196396460e-02
      3.2191811862782076e-02 -1.3220867020466637e-01
      -3.7986969727792767e-03 -2.6381627112531830e-03
      -1.1952231492813116e-01 3.3242040563132839e-02
      -2.8562384483105125e-02 -2.3536040144567716e-01
      3.9984369436014194e-01 -5.6196001879266246e-02
      -1.8733693405403584e-01 -1.7850765679430169e-01
      -5.3648496142825219e-01 -2.3472273945864541e-01
      3.6303407601262316e-01 6.6356882491483610e-02
      1.3850599000081754e-01 -3.0458274463710888e-01
      4.4938363005032322e-01 2.6694382973691300e-01
      4.9666520307446621e-01 -2.1694257136338793e-01
      2.3534828928970328e-01 2.8602774510595219e-01
      6.2483510089823902e-01 -1.2768855736090160e-02
      8.3612278931725501e-02 -8.1449385982276787e-02
      2.8433432578570578e-01 -1.1475865718148452e-01
      8.7302118068599291e-02 -2.4354142700862908e-02
      -3.7152738667488840e-02 -4.2008121025338696e-01
      -1.8092688359154416e-01 1.4219565623016489e-01
      8.8731187553850968e-02 5.6127156163737535e-01
      2.1333238994633485e-01 -5.9336316372850029e-02
      1.3779189429298505e-01 -5.0196890409157008e-02
      1.8112729022464144e-03 -1.9990947637686624e-01
      7.3674581858983373e-02 -1.1370163079541473e-01
      6.6200210983029112e-02 2.9469602269950557e-01
      -3.4774095366064001e-01 2.8044922790990762e-02
      -1.0638593838064776e-01 -3.6355739252265268e-01
      9.9640811267101170e-02 -3.7093799980359121e-01
      2.6416921437978885e-01 -1.7110979052170436e-01
      4.9109973499766013e-01 5.6276593976204374e-02
      -8.2354341796425493e-02 -1.1884234556749335e-01
      4.1356299682303876e-01 -9.2047425052283804e-02
      1.0210267658151781e-01 -2.3863780163513199e-01
      9.0733725789788805e-02 -1.0742645875495074e-02
      2.8869631332916779e-01 -5.6636019818825281e-02
      -2.3272122039823158e-02 -1.2115829732214799e-01
      9.8220545903083559e-02 -3.1928316575398075e-01
      5.8807208971430720e-02 -3.0440882965450983e-01
      -2.3437174254383189e-01 2.9327039273988981e-01
      -2.1029462609154143e-01 -1.6845838558083678e-01
      -2.5096606341882971e-01 -8.2104556794392894e-02
      1.2317448784271122e-01 -2.7287481366600858e-01
      -3.7292352150623216e-02 1.6681320927373020e-01
      6.8937981796823936e-02 2.9136523197998793e-01
      1.7817324514777252e-01 9.7877062080651311e-01
      1.9687948323792506e-01 -4.8391756439933115e-01
      -6.1185142495503338e-02 -1.4871469222927552e-01
      -2.0889976495632678e-01 4.1680094196394829e-01
      -3.4705444010479430e-01 -1.6731074568107476e-01
      -4.0959060862571733e-01 1.1303119218954839e-01
      -1.7910695451544700e-01 -4.5644812535041163e-01
      5.3663425209653448e-02 2.5133234564225404e-01
      3.2687723283480602e-01 1.0131945478651674e-01
      3.9153430528519489e-01 1.8798318536562436e-01
      4.4733118410125527e-01 -9.5094884533612034e-02
      1.6412468771801991e-01 2.5347113506587554e-01
      -2.8565513933482817e-01 2.3131539427723646e-01
      -2.0341141376168814e-01 -3.3141686794745703e-02
      -3.1038859414313114e-01 4.6725798883758013e-01
      2.5897007286986151e-01 -1.3782837420342614e-01
      -1.6243935471074580e-02 -6.7968925867849972e-01
      1.9523251830753899e-01 2.2948933909563782e-01
      1.3972123122227539e-01 -2.4822188717197585e-01
      7.8054086285410412e-02 2.1048003865035458e-01
      8.5478975820820896e-02 5.2437469653827937e-02
      -1.9076645486204089e-01 -4.2055779933330317e-01
      -1.4780147717989722e-01 2.4757165584417251e-01
      6.1336377597821304e-02 5.9770836526234072e-01
      1.3461080570173375e-01 2.8342552977962504e-01
      -1.9753219476452810e-01 2.0359794162233119e-01
      1.0209942063617529e-01 2.4069062533756982e-01
      -3.2227922495544725e-01 -1.6866555250601264e-01
      2.1145251602713408e-01 -1.2733565160198548e-01
      -2.6359607286465453e-01 -1.1089374604567054e-01
      1.8193881695187142e-01 -1.6776650283775399e-01
      -4.5254525793852302e-01 -1.4138230052203149e-01
      2.1438331720490041e-02 2.2804255371429866e-01
      4.2759816592333841e-02 -8.0330173557219789e-02
      -1.5493822895807106e-02 -5.8397320032790945e-01
      2.3347098331349441e-02 -4.7612185206609448e-01
      1.7265367273794643e-01 -1.2445827117859089e-01
      -4.9445914683809206e-01 -2.3444542952230821e-01
      -1.1627992226617734e-01 -1.0918156872160295e-01
      1.4858192087960487e-01 -2.7521150260817706e-01
      5.6425578702630586e-01 2.7008182494023598e-02
      1.1802011579954232e-01 -3.2425294057013215e-01
      1.2636884519033245e-01 -3.5149287449957078e-01
      1.0590002037313941e-02 -1.2557830032223385e-01
      2.5661652461462257e-02 -3.9394959423053222e-01
      4.0920698687243162e-01 2.8165068965082346e-01
      -1.0284035640163502e-01 -3.9024329471585212e-01
      3.2559925762440774e-02 6.8099987936148174e-02
      -3.7329983876234807e-01 -2.7234759183601517e-02
      -2.8077199550319534e-03 1.6559976210862570e-01
      9.4846722337337420e-03 2.3587010680640688e-01
      1.0320574644038397e-01 -1.1432300063210522e-01
      3.8081597285993279e-02 -1.9800369400598324e-02
      -2.5506857552441259e-01 -4.9577961902908063e-01
      1.8261520692018565e-01 4.8431243404085139e-02
      -2.0629105061406919e-01 4.2163446301808793e-01
      -1.3653898610865625e-01 2.4742020836289175e-01
      -9.2305101265013989e-01 3.2880471992819266e-01
      -1.6813220935360931e-01 1.7066791205412386e-02
      -1.4058880800674264e-01 -3.1441236364020881e-03
      -9.1339205132569615e-02 -3.7266425608780726e-02
      -2.4042509268398438e-01 6.8600684601280541e-03
      1.3653481979584184e-01 6.8413572664008437e-01
      -2.7064780498286378e-01 4.5429182669621793e-01
      -1.7046436043691235e-01 -3.8670834506962842e-01
      8.3614710533043257e-02 -9.4844273182317793e-02
      -3.7787919452990432e-01 -3.1959856196688302e-01
      -9.9741191903936058e-02 -1.8298763930950132e-01
      -1.9067313524974025e-02 -2.5239689202374760e-01
      -1.5311839877504951e-01 -9.7625146661452888e-02
      4.0605794614833579e-01 -2.1370124806675628e-01
      -4.0674347088399532e-01 3.2685944805122352e-01
      -1.6267095069942891e-01 -6.8921383930322135e-03
      -4.0875972770186016e-02 -3.0807922197089233e-01
      6.0988299774904851e-02 6.7015829553072115e-02
      4.3370887065552827e-01 7.4204629881413298e-02
      -2.1365211247546739e-01 5.2611997509711084e-01
      8.7008331035890313e-02 -1.5335524193864150e-01
      -4.8399628992023914e-02 -4.5789106916468661e-02
      -1.7366644521962959e-01 3.3294914309429813e-01
      -2.4997160785664091e-01 -3.9586311130231211e-01
      -1.6436089280437260e-01 -3.6271863452952618e-01
      -6.6230704224391285e-02 -1.5698044183286400e-01
      1.1378281985806961e-01 -8.9198057576412221e-02
      -2.3883552913598000e-01 -5.2717038040555088e-02
      -2.2537753183541534e-01 2.6374624348995263e-01
      2.0999028796364994e-01 -1.0988583782903043e-01
      -3.4477566837577489e-01 1.8140102171992362e-01
      -2.8211816370016102e-01 7.3296982978014874e-02
      2.6659589021132213e-01 1.1238127216614809e-01
      -3.0430203302055264e-01 -8.0007022469759803e-01
      4.6104118732015542e-01 -2.4328217022205662e-01
      -4.9563427868771326e-01 -7.4367431811981322e-01
      7.5789164511084672e-01 -4.3780198611057286e-01
      1.0323807375800949e+00 1.7652989286050713e-01
      4.7643651554049982e-01 7.7006733553456697e-01
      -3.9111300439162189e-01 -4.6208453880102762e-01
      -4.7496898987044775e-02 -2.9909494160785566e-01
      -5.0300289296133172e-01 -1.1400449380696272e-01
      5.2206676352972758e-01 -5.0440656242293824e-01
      1.6339537900388987e-01 -1.3110066075768874e-02
      -5.8121955225546962e-01 -4.8514518628693236e-02
      -9.0705002497884202e-01 1.4972152626743429e-01
      -4.5587668829556682e-01 1.2088763381451752e-01
      -2.5166590569766376e-02 -4.9189941862168290e-01
      -7.8848356085785021e-01 -2.0849179714047422e-01
      -4.0225093905691019e-02 6.6500045303892341e-01
      -7.4300465405441565e-02 1.2163673872499919e-01
      5.6652409689595715e-02 5.0553927007475197e-01
      -8.4686036906452411e-01 6.1639318046928637e-01
      1.9284993772747494e-01 1.9591892129224905e-02
      -3.1715965624754017e-01 -1.5300912835445543e-01
      -6.3333222649727003e-02 -3.5699470994688134e-02
      5.3785344948913949e-01 -9.7072843643716669e-02
      1.2560504349013511e-02 3.0939725662582324e-01
      -2.5385756652547686e-01 1.2307876298821047e-01
      6.3704920717626967e-01 -6.8285364172769010e-03
      5.9665434706155462e-01 -4.6379837740928444e-02
      4.8142941247888427e-01 -4.4097483957999517e-01
      3.1584708432243164e-01 3.0146143522813190e-01
      -9.5169361194417290e-01 6.0726911650228754e-01
      -2.6543552535451470e-01 6.1756403193110232e-01
      -3.0017267324609367e-02 -2.5933639359895116e-01
      -3.3472075224455844e-01 2.3845415814374113e-01
      -8.4674050163259429e-01 1.2434478233642386e-01
      -4.7920613599674772e-01 -1.9355330417156336e-01
      3.3818416690827822e-02 2.6910830332957925e-01
      4.4320272006320666e-01 2.7555280017772243e-01
      6.8799571430249240e-01 2.3129120306483894e-01
      -4.7643760946882696e-01 -1.4596087461363705e-01
      2.4440966887356888e-01 9.9085065344743567e-02
      1.5632467258829608e-01 -3.3386448506496635e-02
      -3.8168511505820701e-01 3.4522765207031410e-02
      -7.6574555871436939e-02 -1.8960720370236103e-01
      -7.1912944230613979e-02 2.0163834730710509e-01
      1.8906771301570813e-02 -2.9554266747897201e-01
      3.4666957736244247e-01 2.5830136153217537e-01
      -6.3368310552568041e-01 -1.2148246001761077e-01
      3.1869639632340790e-01 2.6393264292635127e-01
      -1.9981579108846927e-02 -1.0934091928880525e-01
      -3.5175085281633411e-01 -1.9278646670385730e-01
      2.2479443389253020e-01 -2.6144817292441846e-01
      9.2277440049084170e-01 -8.1374605641761980e-03
      -2.0705054037979145e-01 -3.2314450088405444e-01
      -1.5503903414910208e-01 -4.0353408285510362e-01
      -3.5353257384233044e-01 -3.2700786181494707e-01
      4.9094127862582571e-01 4.7192688144145983e-01
      -1.3698606864446555e-01 -8.7024575626316450e-02
      1.1560931873527233e-01 -3.5249270483066975e-01
      -1.5108676795873663e-01 -3.6958627365498001e-02
      7.3554007003010055e-02 -3.3768316979417602e-02
      1.8837245275756748e-01 5.5678158071029193e-01
      5.0630111199724182e-01 2.2730575715179896e-01
      -5.5139449057529255e-01 4.4551206775957641e-01
      -2.1997312592808010e-01 2.4317160625465955e-04
      -1.9939651296464769e-01 -1.1705592527507096e-01
      -5.5114810482167631e-01 2.6642321471297087e-01
      -3.0038075706493511e-01 1.4304527941076329e-02
      -1.2653526425469901e+00 -6.2097516189608504e-01
      2.6100786381878782e-01 6.8304674493754269e-02
      2.2449917721915866e-01 3.4482827406388228e-01
      6.1447709261855187e-02 -4.6642249608660824e-01
      -1.8347151829024348e-02 5.2282656790659264e-02
      -1.8885132827890720e-02 -4.2768481999990388e-01
      8.4082310091584855e-01 2.9111262911683883e-01
      -1.0729658083404261e+00 -2.6242969415049738e-01
      2.1715040757011129e-02 -2.1237863873031202e-02
      -1.1625521069784951e-01 1.6929681021627022e-01
      -4.9329534413828530e-01 1.4099283531801290e-01
      1.2926864261479820e-01 2.2758137740538609e-01
      -2.6234524574446899e-01 1.5750111530490322e-02
      2.3483361273790134e-02 -6.5476993783198337e-02
      6.4972982136017998e-01 3.9041857140603509e-01
      -1.7740104875471979e-01 7.6620589353732435e-02
      6.9653126032022056e-03 5.2435200579818285e-02
      -2.4426728354709162e-01 3.3300490104584834e-01
      -4.6870469112697717e-02 1.8775632912813101e-01
      3.0148513083655326e-01 1.1611382904904576e-01
      3.1092509343957103e-02 2.0551190792771107e-01
      -8.0429777736326882e-02 1.9930797693096849e-01
      -1.4174418771027592e-01 3.5848703354608569e-01
      1.0605868660778208e+00 3.4901171299819005e-02
      -6.2683200882788767e-02 -4.8479796188579220e-03
      -1.3992605137921760e-01 1.0323603311009040e-01
      9.3354823376611315e-02 -1.2077743079190462e-01
      -3.5362323463747813e-01 -4.4743602365939245e-01
      -2.4870605330138446e-01 -3.4906154207497525e-01
      -3.3853217179741185e-02 -2.8114629053628548e-01
      8.1675528706752876e-02 -5.0643596843726324e-01
      -1.9475779446766223e-01 2.8988373788911415e-01
      7.9070502436293003e-02 1.1806335570065721e-02
      -4.7141786851385273e-02 -2.1415324021351319e-02
      -1.6040420165216793e-01 1.1274844067603196e-01
      4.4825803886011331e-02 -1.4798946778170197e-01
      1.6012102636470060e-01 -1.4192582405334561e-01
      -3.1197414415581171e-01 -2.0012108724007588e-01
      -3.7581837444421495e-01 3.9943817396442892e-02
      -1.6941145803329721e-01 -3.1248443639114382e-01
      4.7376367438153755e-01 -2.2919405110079541e-01
      2.5037745944587891e-01 -2.2916149892971333e-01
      -3.7298316418695882e-01 -2.8351732452771972e-01
      -3.6593121997632497e-02 4.3467623457025173e-01
      1.8428954820322815e-01 -6.1301543269761727e-02
      5.0943276012759486e-01 3.7241110408616140e-01
      5.7840952928155875e-01 -3.1803983770223954e-01
      1.5146609840408015e-01 -4.4629833420352920e-02
      4.0709182174664177e-01 -2.7795755423965035e-01
      -2.2273701095216764e-01 -2.3483557458671750e-01
      1.4254036540219978e-01 1.0964065779008587e-01
      -1.3560502754449965e-02 -2.1880962697023071e-01
      -1.3418827633175459e-01 -4.2620612792719170e-01
      -8.8757997554253032e-04 7.8818251927383343e-01
      -6.6887691282928222e-02 1.0222179319012494e+00
      2.9065822829995844e-02 -8.1828149482205834e-02
      2.8805117302945232e-01 -2.1974359207205202e-01
      -1.9771790254247490e-01 -2.1090324330613380e-01
      3.2106488238117459e-01 -9.8127039283596368e-02
      1.1197311484287097e-01 3.4108385741827130e-01
      -2.3650594295114147e-01 -5.7686754310747733e-02
      -8.0944273244889883e-02 -6.1819269446119418e-01
      1.4845554631000107e-01 7.5187375305233641e-03
      1.1831346235436895e-01 -1.1078747349781119e-01
      2.7247015222060078e-01 1.0627265910169968e-01
      -9.4123452944596425e-02 -5.8998251280047112e-02
      1.6758349023260483e-01 -1.3756834820593350e-01
      -3.7199284318550618e-01 -5.4349724046404080e-01
      -1.0290925578109011e-01 -5.8019925549374136e-02
      1.7160350692688348e-01 -1.8674251993117880e-01
      1.3432315504388573e-01 -2.0161379331070102e-02
      3.0297562351820623e-01 -4.1372199056946996e-01
      -3.8158823978012492e-02 -1.9292662506683850e-01
      -3.8765922213315424e-01 6.6676618361987169e-02
      -3.9871441514175480e-02 -6.3383155577630093e-02
      -1.9750107687607793e-01 -2.0081339212524038e-03
      1.9326229388428015e-01 -2.1562018147337689e-01
      -1.5099023586463212e-01 -6.9750514755026638e-02
      1.6606611882802730e-01 4.0707561099046069e-01
      -2.4141657307791810e-02 1.0887208056181579e+00
      1.2289689386825735e-01 -3.5709530501769049e-01
      -5.7578900031358189e-02 -2.3807523252685056e-03
      -5.8766494701803965e-02 1.2291719574944659e-01
      -2.2427074067804820e-01 -1.8556411360218703e-01
      -9.6562358430665365e-02 -4.6538210806961834e-02
      -2.3748706416350174e-01 -4.5922389486255605e-01
      1.0605745929225166e-01 3.2246234724052075e-01
      8.0914481101860461e-02 1.7177903055446742e-01
      2.2400569385279076e-01 4.9904035965797340e-04
      3.3926707158572889e-01 -2.4323242543904380e-01
      2.9203391741007639e-01 2.4432504188303136e-01
      -5.1655109231817442e-01 2.2531352917717298e-01
      -8.7791752654953162e-02 9.3188745943726226e-02
      -1.3047398269308902e-01 1.2401019235261292e-01
      3.1342196028758107e-01 -3.0221421427529677e-01
      -1.0164411815835685e-01 -3.8756141487925594e-01
      1.0247551106026126e-01 1.3541323534769957e-02
      9.6236846023044220e-02 -9.7902161528423209e-02
      5.9658969921354908e-02 2.9142132922685576e-01
      5.7416495075373726e-02 4.8919784785355393e-02
      -3.0941588564564748e-01 -5.6428764430569800e-01
      -3.2013383369541187e-01 3.2583760891058883e-01
      3.7980315188912639e-01 4.8027166048662873e-01
      1.5351280229836295e-01 -6.7921987328140934e-03
      -1.4887771403730465e-01 2.2423434428084718e-01
      1.4554976106813317e-01 1.2513975297980134e-02
      -3.3979948748081135e-01 -5.5982720675607089e-01
      -8.6332928566112327e-02 -2.7088917492845166e-01
      -2.3328514550855420e-01 -3.0041017136691911e-02
      1.5451462523193579e-01 -2.4420322908555223e-01
      -2.3874278946926533e-01 1.1357354383766682e-01
      -1.6030631837353498e-01 1.7987904592624979e-01
      1.8031257543319429e-01 -2.3592012972192208e-01
      -1.5018380546826390e-01 -5.2297073713749764e-01
      1.3591538045223286e-01 -5.4942952051745975e-01
      2.9177943259841205e-01 -1.3355695280772834e-01
      -4.9043909879502035e-01 -4.2734234568919133e-01
      -3.6070567801798803e-01 -6.6488877294301085e-02
      2.1039909399619877e-01 -4.3788856378634289e-01
      4.3378358413912621e-01 6.8618400794436263e-03
      1.3936694724624765e-01 -3.1206238276776754e-01
      3.4290979350085266e-01 -2.7278506238748834e-01
      -1.2411494395222752e-01 -1.1021144617582999e-01
      2.3407744217967881e-02 -2.3501173457256486e-01
      1.9393212096307114e-01 2.4058714920090263e-01
      -1.1338325756203060e-02 -3.1212216933037140e-01
      1.0544138842431440e-01 -1.0031836620210943e-01
      -3.3545116264486774e-01 -7.1748874371958329e-02
      -1.9950160307589104e-01 9.2406124421507876e-02
      1.9043240957249352e-02 1.9169264435251013e-01
      -2.4747254020462339e-01 -2.5900770522652700e-01
      -5.3546498958108493e-02 1.2064575112781925e-01
      -1.7677967735289457e-01 -7.0247184678420982e-01
      3.5763528787731985e-01 3.3758133292841547e-01
      -1.1981829283319404e-02 3.8953454847439739e-01
      5.5388616312458769e-02 6.4200495148033943e-01
      -5.9318974642928812e-01 1.8831180194476116e-01
      1.1253215665635748e-02 6.1483336635705696e-02
      -1.7845882784327327e-01 5.9240672147273368e-02
      1.1598545932796279e-01 7.3831958365491151e-03
      -1.2186327166192572e-01 5.9843506997946133e-02
      4.6781479930041177e-02 8.0106836848506158e-01
      -2.5956705020294119e-01 3.7109758375881202e-01
      2.8419152304177828e-02 -4.4296644251281353e-01
      2.6652947891381162e-01 -6.7305599424473631e-02
      -1.7212951981394736e-01 -3.7820636779487543e-01
      -1.2036895363275790e-01 -5.2983090093530016e-01
      6.0879351208422687e-02 -1.3393505833040639e-01
      -8.1397757057615733e-02 1.0813970687484016e-01
      1.1228072859112566e+00 -4.8125927119349488e-01
      -3.6977912164016807e-01 2.7667519844841476e-01
      -1.7282651920608769e-02 9.3532563874584099e-02
      -2.1644796360898946e-01 -4.4464780100564621e-01
      2.3866547861788620e-01 -3.9494368339964399e-02
      5.3626055144387441e-01 1.4204138600174934e-01
      -2.9674785860767505e-01 6.5699355425422656e-01
      -7.6776020437776787e-02 -2.0700100754678616e-01
      -8.0601724379860462e-02 -1.1599295941988608e-01
      -9.7944756525328594e-02 3.2394832291476339e-01
      -1.9466762375154603e-01 -5.4659863571179990e-01
      -4.1646507668386606e-01 -8.2182549167747065e-01
      5.9986678802677114e-02 -1.5887148285948835e-01
      7.0788677840294648e-02 -1.7747182043839688e-01
      6.1636630055030187e-02 1.4656942863916247e-01
      -4.5810953568337620e-01 1.2998860048763669e-01
      5.5144035918181056e-01 2.3925732116781669e-02
      -4.3551325152418113e-01 4.7339241114394959e-01
      -3.4790787342274176e-01 2.0184129295508718e-01
      2.8763613283514755e-01 -5.5013482260070079e-02
      -2.0225007141840209e-01 -8.6625019246375290e-01
      1.5849048318542081e-01 -1.7610353880803878e-01
      -2.7379630980061237e-01 -4.9843621612773498e-01
      1.7536401083147862e-01 -2.9550960092371981e-01
      9.1344151389717310e-01 2.2823977235033532e-01
      3.3344787048843166e-01 7.3229046558997957e-01
      -6.9180744101445216e-02 -1.6044138718755607e-01
      5.0491610708882514e-02 -2.4854886073221277e-01
      -2.3552476660135685e-01 -1.8044591836498515e-02
      5.8794801415108222e-01 -2.3616881040522431e-01
      2.0083142290547426e-01 7.3289714734495540e-02
      -4.6808766334187346e-01 3.1231764690310908e-02
      -5.1862915657386333e-01 1.9896938099673417e-01
      -4.4291216460217109e-01 1.8144388161481839e-01
      -3.4142672011644576e-01 1.1863256836460449e-01
      -5.8618581348218257e-01 -1.4220966222390499e-01
      -4.2375029942325493e-01 3.4160996278735967e-01
      -1.0117548800645033e-01 2.0997326514197195e-01
      1.6116148415778153e-01 2.9076374539884037e-01
      -5.1424855981646456e-01 7.0299072939514318e-01
      -1.3078596024884026e-01 9.6788006932553503e-02
      -2.8913796789286378e-01 1.9940606473674552e-01
      1.8899099926433457e-01 -4.8571782774995104e-02
      -1.3607236109214375e-02 7.0182776260162338e-02
      1.1931334462676327e-01 2.5804426990432905e-01
      1.0193586819904316e-02 -5.5902559028388601e-02
      7.0881045330489201e-01 -1.9778102723040844e-01
      1.2693803388076602e-01 -2.2140192816516460e-01
      2.3033966466798583e-01 -3.7321125705618541e-01
      7.4669710426976095e-03 3.3883205021126728e-01
      -6.9239606715621838e-01 1.6966074158226893e-01
      -5.0981408265664729e-01 4.8127826961693770e-01
      -1.1894909645028071e-01 -1.7518763017345496e-01
      -4.1353025567968271e-01 5.0201745086842919e-01
      -5.8386369786496206e-01 1.3155479389776126e-01
      -3.6971295939610588e-01 -1.5625153511282397e-01
      5.4416245803190183e-02 -1.3300769842024932e-01
      5.9379403389712504e-01 -1.4229462568747114e-01
      7.4603389067477088e-01 7.2832802199546548e-02
      -6.2433310830459532e-01 -3.3456033465360073e-02
      1.2078681574258992e-02 -1.3801358355863164e-01
      2.3991249820410523e-01 2.1148404237730378e-01
      -1.9175614557651016e-01 -3.4412653632966689e-01
      -7.1144081174429316e-02 -1.1424182165004029e-01
      -2.3386173312438783e-02 1.2208979802195707e-01
      9.7241098363175155e-02 -8.9175347134022850e-02
      4.5113918669535719e-01 3.9612012445239869e-01
      -6.1539008934502060e-01 9.9596480588667852e-02
      3.7983392320577780e-01 3.0225863478388088e-01
      6.1588571579004651e-02 -7.0238960602374027e-03
      -2.7891293108240500e-01 -9.1696224464044906e-02
      3.3985036684746073e-01 6.2466090820381898e-04
      9.4580417207984357e-01 -1.0520643317436852e-01
      -1.7219295691377492e-01 -5.9427116574204897e-01
      3.9431185523331730e-01 -2.8096593640428275e-01
      -2.6686612655689124e-01 -6.8325751992126360e-01
      1.4951982703605074e-01 5.5541654068623825e-01
      -4.0449009929832226e-02 -3.0339983266026205e-02
      -2.8642595192872773e-02 -7.2252823081321749e-02
      -1.1661642121291817e-01 -2.8899605556531954e-01
      1.2991705504034134e-01 -1.5362108619471848e-01
      5.5330268061559174e-01 8.0670739061573349e-01
      4.1463318546042188e-01 -2.9854921502923243e-01
      -4.2475338398730356e-01 5.2753631547049185e-01
      -2.6547380724695546e-01 2.1334668034577273e-01
      -3.6504576183140680e-01 -6.8765266201932254e-02
      -6.2551636687044554e-01 -1.5697296917015927e-01
      -4.6358465759702605e-01 -2.1825883298133858e-01
      -9.4335332244381909e-01 -7.6843076273464894e-01
      3.5983451279397438e-01 2.4490345528681789e-01
      -1.3648176627408157e-01 1.8876353982594407e-01
      -5.1676716297850894e-02 -4.1513709703404189e-01
      4.1654084079493937e-03 -1.2408132364518171e-02
      2.3025004418076456e-01 -3.1627022005265254e-01
      9.1974959792541500e-01 2.5137860135241463e-01
      -1.0974410999600916e+00 -2.7490203103940131e-01
      -3.6071863082896150e-01 8.9075440641932208e-02
      -4.9259941969242360e-01 2.2466166897452894e-01
      -5.9298001346048157e-01 1.1104922671332663e-01
      -9.0420336568219670e-02 -2.6143831808883927e-01
      -2.6896463547087950e-02 -5.6813045952079970e-02
      -1.2432175133636213e-01 -1.1754844477151652e-01
      1.3568362664732423e+00 2.7316465628610992e-01
      4.6243199689781345e-01 2.2790645889588373e-01
      1.9858116502334069e-01 2.0037637745720208e-01
      -6.3191973626333242e-01 -4.0398242447048194e-01
      -1.5786020558197214e-01 -3.7738405956383014e-01
      -1.7124391695040367e-01 -1.9541578408826232e-01
      -1.2121570295818462e-02 -2.8380458386594126e-01
      7.8859896581188763e-02 6.6823673582150842e-02
      -1.1588979136961614e-01 2.7847456747755484e-01
      6.1181163562374641e-01 -1.0738892544914938e-01
      -2.4826867196779256e-01 1.7502854484677657e-01
      -1.5849947086049088e-01 4.5073841414111464e-02
      -2.3796908897213748e-01 1.4932061966041618e-01
      -2.6890330334870371e-01 7.9685267582999854e-03
      -7.1397706647367609e-01 -2.5120925694897489e-01
      2.7006722670757494e-01 -5.6506357043567781e-02
      1.4674420014762704e-02 5.3601394850006712e-01
      -1.3775831200696531e-01 3.4420313005159858e-01
      -1.0888610874099110e-01 6.2794844105776210e-02
      -8.2039423246813445e-02 -1.0398291362242595e-01
      -1.0034298183422437e-02 2.4960331545827044e-01
      -1.6876111586143866e-01 2.4199726196412621e-01
      -1.2659949701308479e-01 -2.4090509284690670e-02
      -4.4985621602802735e-02 1.2865766241104899e-02
      -1.5521701773167912e-01 -7.5379278204367545e-02
      -5.1256374052752553e-02 -1.3110407544416020e-01
      9.3938310467012609e-01 -3.0015538942789749e-01
      -2.1889461373112529e-01 -7.0119654491274136e-02
      -6.6598931917336712e-01 1.8592286129213684e-01
      -4.9609018896643334e-02 1.1677778600345447e-01
      -1.5222070793658068e-01 -1.4557272647427733e-01
      1.6352756210220523e-01 -2.0111015527982203e-02
      1.7885482309663550e-01 2.5725827217786579e-01
      2.6128173723094322e-01 7.0181279831471197e-02
      -4.1289362091003928e-01 -8.6512134547845426e-02
      -1.8214817053456445e-01 -1.0982146759266737e-01
      -1.4777459135408588e-01 -1.6970324412222693e-01
      -2.3863477920613113e-01 -7.6979667930594756e-02
      -1.6468393091484834e-01 -2.3292000212912792e-01
      2.7711434355215301e-03 9.3642739357737448e-01
      -2.9240630717993660e-01 1.2044124248341139e+00
      1.1697381938037822e-01 -7.7402942333650339e-03
      2.9285139256192722e-01 -4.5511560115331728e-01
      -4.3461722380958923e-01 -3.5527989623544171e-01
      -1.5295779283505304e-01 -2.4692507119363830e-01
      4.2947687343661757e-02 1.6279724123820849e-01
      -3.9419082103856234e-01 9.2384045842512207e-03
      -1.0714272287513800e-01 -4.2102492318386214e-01
      1.7439929619730890e-01 -4.7563893504333682e-01
      -1.9460286489112317e-02 -2.6149264181144598e-02
      2.8155586046916409e-01 7.3170728906307769e-02
      2.1763566610510158e-02 -1.3732679872981152e-01
      2.8639575277328094e-01 7.0837289393808303e-02
      1.7124603206550235e-01 -7.9496787826307991e-01
      -1.3723007224090464e-01 3.6754294000617016e-01
      3.1007500858287929e-01 -1.9737779174897793e-01
      6.7612233258512955e-01 1.1990842721312345e-01
      2.7752418477101309e-01 -4.2690471140955694e-01
      6.7015491333926661e-02 1.0054560117179652e-01
      -3.9639883251382008e-01 1.5672438974004158e-01
      4.9744845190311096e-02 -5.3687844666812472e-02
      1.2094368160489852e-01 -1.4102864166754608e-01
      1.3761885169259516e-01 -1.6522923338125065e-01
      -2.1521612036180354e-01 -1.0397392506372620e-01
      6.6480127500295624e-02 2.3044706876006785e-01
      1.2310289590936484e-01 8.6436597579538621e-01
      4.8845488830110924e-02 -5.9791476047312164e-01
      3.9625862852337594e-02 -6.9269753907317336e-02
      6.7907580650216334e-02 1.8690089498111545e-01
      -3.4772441332789117e-01 -2.4950790224052100e-01
      -2.5985253676329678e-01 -3.5023091773026399e-01
      -2.6302488942597485e-01 -5.7581683523657601e-01
      4.8877655133925063e-01 4.5216209907936988e-01
      2.4656353848491225e-01 -3.8783522649485735e-01
      2.2613293089927972e-01 -2.3044442103535314e-02
      8.8749035463285234e-02 -5.9056677732395946e-01
      3.4254734849603154e-02 3.5326593276786966e-01
      -4.6941512688447024e-01 3.3061141679935152e-01
      2.2706302570320558e-01 7.0957307689580612e-02
      -2.3649304382268727e-01 -1.5270991738654449e-01
      2.3389261696181046e-01 -3.3519576747344404e-01
      -2.4694003940184578e-01 -3.1861679423405082e-01
      -7.6010156152520839e-02 4.9448729110474147e-02
      -6.4201595126789260e-02 -5.8616561336575268e-01
      9.5394366954927270e-02 3.7290728635291998e-01
      -1.4882499263841248e-01 2.8496962475634224e-02
      -3.4409685840899884e-01 -7.2936994759254270e-01
      -9.0377155852972360e-02 3.7697810754642586e-01
      4.4564800614793454e-02 3.9666162888570250e-01
      3.7371692582183946e-01 -5.3859568310014226e-02
      -2.1235713894809274e-01 3.4456923927996835e-01
      2.3134491260615445e-01 5.3989908063080440e-02
      -1.5692973959207421e-01 -7.8010461563665701e-02
      -2.3676125178573063e-01 -3.8455395486682742e-01
      1.6032450212772001e-01 1.0572811857626982e-01
      2.1368015810415322e-01 -1.2825999861502591e-01
      -8.4868512381650274e-02 1.2549246927576593e-01
      -3.1052980325529184e-01 3.2282513604662111e-01
      5.4263689875198085e-01 -1.9026635960554761e-01
      -6.3473452426996535e-02 -5.8725597928345252e-01
      2.7014276544943372e-01 -4.1516499786893635e-01
      2.0320754481097061e-01 -2.5709890939703578e-01
      -6.7353398065723147e-01 -6.2070888518832779e-01
      -4.0861276739297020e-01 -1.6486406952625501e-01
      -5.6892466161055165e-02 -1.0590004926758632e-01
      -4.9342956329920598e-02 -6.9116569802097988e-02
      3.2123304188206275e-02 -2.8986020072220958e-01
      4.3895098834420282e-01 -3.4261796758247220e-01
      2.9533168652490612e-02 -2.3348471721259251e-01
      3.6280480573390450e-02 -5.9028549719491841e-01
      -1.3724015484675911e-01 2.3114805349826306e-01
      -1.0072691307101701e-01 4.1949970572669956e-02
      2.4544600638414937e-01 4.9160219155050727e-02
      -8.7096996309192520e-01 -4.4869651054313772e-02
      -3.3485287503652250e-01 -2.2714271687168033e-01
      1.4290861435793603e-01 1.6769879831743825e-01
      -5.2435354420469238e-01 -1.3979596308651719e-02
      -4.5127508054421825e-02 -8.7009627670007389e-02
      -5.4468817284459979e-02 -4.5843662585548023e-01
      1.1796838116560450e-01 3.9013420310681773e-01
      -1.7598629131795085e-01 3.8063214986290578e-01
      -2.5601661182612062e-01 3.0792418816180961e-01
      -5.6642075168353612e-01 -9.6380015066963157e-02
      -2.4728039543680056e-02 3.1237670852389227e-01
      -1.5974586779820540e-01 -6.7784694677724161e-02
      3.5247417479347920e-01 -3.9037011793796865e-02
      -8.8946471288247744e-02 -1.6514861390997282e-02
      -1.9119508094961127e-01 3.0887392588970730e-01
      2.5208915751067985e-03 3.1902001247090322e-01
      8.6892388999245829e-03 -1.0416126984186090e-01
      -2.0835282811146657e-02 -9.9662141084746608e-02
      -1.0924169850318275e-02 -1.2356171024574079e-01
      -1.7675379768370938e-01 -5.0036208048648978e-01
      -2.2446372206095650e-02 3.3195971707199567e-02
      -3.3652285272490506e-02 1.5369674795436911e-01
      1.2655482715176625e+00 -2.9315360091053605e-01
      -3.0626470553623431e-01 2.4072342655916681e-01
      -1.0082907744227960e-01 -1.2474696079521701e-01
      -2.9269763761710071e-01 -2.2688792731516427e-01
      2.2106987565715128e-01 -1.5690181742815487e-01
      1.0862208391795919e-01 1.0093157666823005e-01
      -2.4282857342985695e-01 6.3545848924887471e-01
      1.2440898878971694e-01 1.2050430584879070e-02
      -4.2715344662439494e-02 -6.0239765551696099e-02
      3.8064491688697666e-01 5.9721213345364343e-01
      -2.0519456139490019e-01 -7.0425866784618353e-03
      -1.3617409745582651e-01 -4.7510469698905566e-01
      -8.6808561104276330e-03 5.5143022732235578e-02
      3.0710120141417374e-01 -1.6567053293585771e-01
      -2.1534228886343634e-01 4.8844300199334174e-02
      -1.9230776154689930e-01 1.7525180099009391e-01
      3.5026416823578543e-01 9.5618768145587257e-02
      -3.6207017726005691e-01 1.3219219611091801e-02
      -1.9856915457505001e-01 2.3626965541241349e-01
      1.9930944054038260e-01 2.4419351165341368e-02
      6.8562982061449618e-02 -8.7103025487183505e-01
      2.4401205219932273e-01 -2.5212274236183202e-01
      -2.1462119563157497e-01 -2.3097352642770952e-01
      7.7220224635524096e-02 -2.1808489550877797e-01
      3.9853798474772933e-01 1.0358999980883286e-01
      2.7318962410003816e-01 2.8171703461243042e-01
      1.6230317510619020e-02 -1.8787400282974409e-01
      -9.8550863782460602e-04 -1.7000176301711895e-01
      1.3909744689573361e-01 -1.2975114251734340e-01
      2.6136490690354097e-01 -1.8048150299445739e-03
      1.0863927953097587e-01 -1.5991080589880297e-01
      -2.7165892129119024e-01 6.3350649651539914e-02
      -5.8458828084715120e-01 1.7357428037862480e-01
      -4.2888237289905790e-01 8.4331065484197235e-02
      -1.7231132506220570e-01 1.1555796186221690e-01
      -3.6643392130772756e-01 -1.8051203571598065e-04
      -2.4356919293932805e-01 -4.7874836286314851e-02
