<?xml version="1.0"?>
<opencv_storage>
<opencv_ml_ann_mlp>
  <format>3</format>
  <layer_sizes>
    159 79 26 6 1</layer_sizes>
  <activation_function>SIGMOID_SYM</activation_function>
  <f_param1>1.</f_param1>
  <f_param2>1.</f_param2>
  <min_val>-9.4999999999999996e-01</min_val>
  <max_val>9.4999999999999996e-01</max_val>
  <min_val1>-9.7999999999999998e-01</min_val1>
  <max_val1>9.7999999999999998e-01</max_val1>
  <training_params>
    <train_method>BACKPROP</train_method>
    <dw_scale>1.0000000000000001e-01</dw_scale>
    <moment_scale>1.0000000000000001e-01</moment_scale>
    <term_criteria>
      <epsilon>1.0000000000000000e-02</epsilon>
      <iterations>5000</iterations></term_criteria></training_params>
  <input_scale>
    6.2770473454520221e+01 -2.8047033061261843e+00
    7.4746338989311397e+01 -3.2751516667530116e+00
    8.1619241614453429e+01 -3.4476353821755676e+00
    7.1338158086978183e+01 -3.1211482499760930e+00
    8.1008561224793525e+01 -3.4854536647174559e+00
    8.5379682732687840e+01 -3.5479071826935749e+00
    7.3015164348555828e+01 -3.1989768781566026e+00
    8.5522411256259844e+01 -3.6837006618451982e+00
    9.1423056708164438e+01 -3.8381330018101467e+00
    8.1585643618566252e+01 -3.5053995216875928e+00
    9.2348965977042894e+01 -3.9095275466513248e+00
    9.6091636162913531e+01 -3.9731594623995168e+00
    8.4298059654084781e+01 -3.6162856456448567e+00
    9.8095576031472078e+01 -4.1538134978864862e+00
    1.0344012415618680e+02 -4.3200429864719965e+00
    9.3876799000847015e+01 -3.9644120034320109e+00
    1.0715148482148669e+02 -4.4772090639872397e+00
    1.0966875711507988e+02 -4.5285565591803447e+00
    9.6480649959092688e+01 -4.0560153839355984e+00
    1.1257823807494056e+02 -4.7053888085680269e+00
    1.1787382939614912e+02 -4.9118968048665881e+00
    1.0342620930805884e+02 -4.2997445317502772e+00
    1.1959166138811020e+02 -4.9587296876049463e+00
    1.2327321436552302e+02 -5.1000035503851580e+00
    1.0799708246872355e+02 -4.4690009377403017e+00
    1.2580236298839171e+02 -5.2198096792245510e+00
    1.3153182843375242e+02 -5.4856703295467950e+00
    1.1139564616044161e+02 -4.5847043448603673e+00
    1.3253386584537739e+02 -5.4807515872789940e+00
    1.3737605838404642e+02 -5.7110029711632704e+00
    1.1547348410147839e+02 -4.7418598449396159e+00
    1.3738154716631794e+02 -5.6855580862205652e+00
    1.4439999757157486e+02 -6.0350016439518308e+00
    1.1825881814636651e+02 -4.8406476057128449e+00
    1.4329608043070530e+02 -5.9196467909729336e+00
    1.4859110336963639e+02 -6.1996691917915392e+00
    1.2242564307764110e+02 -5.0089697275015350e+00
    1.4545924333880160e+02 -6.0144596837315296e+00
    1.5256960109646170e+02 -6.3842157666139778e+00
    1.2292991099762153e+02 -5.0126183491397516e+00
    1.5014691100906185e+02 -6.1980333762361193e+00
    1.5710738014913943e+02 -6.5688019760695733e+00
    1.2776338640219367e+02 -5.2294556996968433e+00
    1.4933187744919022e+02 -6.1818663016330602e+00
    1.5665384427485651e+02 -6.5596137364720200e+00
    1.3016880786534082e+02 -5.3112151250815893e+00
    1.5691036321199456e+02 -6.4813667536066255e+00
    1.6332182078513162e+02 -6.8356393798331387e+00
    1.3124418096952181e+02 -5.3763430856263765e+00
    1.5217363716422307e+02 -6.2979981079492200e+00
    1.6039839029783568e+02 -6.7107919699132470e+00
    1.3383904783405023e+02 -5.4820465866903225e+00
    1.5878867784543019e+02 -6.5715964870041210e+00
    1.6610210354883299e+02 -6.9580436383828959e+00
    1.3241591106734379e+02 -5.4217537061717822e+00
    1.5567423946151791e+02 -6.4341469934607556e+00
    1.6527336431638815e+02 -6.9100300388999507e+00
    1.3598455702154379e+02 -5.5805659546284110e+00
    1.6108459491023413e+02 -6.6599762091437471e+00
    1.6839896960521395e+02 -7.0412984622520245e+00
    1.3426015059668771e+02 -5.4918899253861850e+00
    1.5720279473784998e+02 -6.4838175780493659e+00
    1.6727413750572711e+02 -6.9790974765954141e+00
    1.3729317638435842e+02 -5.6526107668047940e+00
    1.5985975437572313e+02 -6.6167897179301507e+00
    1.6732073325671263e+02 -6.9991795402858354e+00
    1.3312348230978606e+02 -5.4447649767785258e+00
    1.5698369043218045e+02 -6.4683512828838490e+00
    1.6912354903774218e+02 -7.0456220160309613e+00
    1.3818724017913436e+02 -5.6919731386997086e+00
    1.5948794960772867e+02 -6.5998306204300468e+00
    1.6760021602797374e+02 -7.0068453745969217e+00
    1.3183477357807257e+02 -5.3815919456549119e+00
    1.5661968162770975e+02 -6.4391589316131945e+00
    1.6906541613977589e+02 -7.0288964152433620e+00
    1.3903364387692292e+02 -5.7296219838455507e+00
    1.6092445253881439e+02 -6.6595827844815130e+00
    1.7016158744366348e+02 -7.1135609106986175e+00
    1.3142273297982132e+02 -5.3663191886374255e+00
    1.5688915245917480e+02 -6.4528640461482043e+00
    1.6984883457971085e+02 -7.0674313149362371e+00
    1.3993839602931422e+02 -5.7622975431266985e+00
    1.6333981108740917e+02 -6.7585961342623735e+00
    1.7336690149190235e+02 -7.2499660202445391e+00
    1.3095640592998998e+02 -5.3361556746713790e+00
    1.5760330529222946e+02 -6.4761498795192622e+00
    1.6897751774553072e+02 -7.0324600829146036e+00
    1.4000774270738785e+02 -5.7464939977726255e+00
    1.6502442929597123e+02 -6.8227054124685402e+00
    1.7321126020837409e+02 -7.2434554658137804e+00
    1.2870927729071127e+02 -5.2314541732763775e+00
    1.5374150096675143e+02 -6.3057645982336181e+00
    1.6394054500648403e+02 -6.8143105711997345e+00
    1.3860898691477865e+02 -5.6776522258772939e+00
    1.6328417105355973e+02 -6.7488503808110245e+00
    1.6995285175096714e+02 -7.1087318516510862e+00
    1.2413206458555446e+02 -5.0416483176146016e+00
    1.4849233650071881e+02 -6.0824667069241078e+00
    1.5745865211725865e+02 -6.5358426243785512e+00
    1.3330700576198700e+02 -5.4571118718177765e+00
    1.5867973191919117e+02 -6.5514154510245941e+00
    1.6499578623096440e+02 -6.8958504007502306e+00
    1.1814582153114773e+02 -4.8020411596965236e+00
    1.4206830638017226e+02 -5.8149175603460437e+00
    1.5046909849714183e+02 -6.2352727382267705e+00
    1.2728076644216401e+02 -5.2235888875266099e+00
    1.5114236953895167e+02 -6.2493446175054279e+00
    1.5681675545642480e+02 -6.5539204975424497e+00
    1.1075176408871752e+02 -4.5282740734327689e+00
    1.3293996920609229e+02 -5.4581661940256891e+00
    1.4097760170476914e+02 -5.8395242890781605e+00
    1.2013013521482358e+02 -4.9557120295992192e+00
    1.4183667436565548e+02 -5.8781983365243509e+00
    1.4577918549741574e+02 -6.0827528872416261e+00
    9.8550435058477163e+01 -4.0657481304393137e+00
    1.1880485703082020e+02 -4.8964218060146463e+00
    1.2711489542908647e+02 -5.2571871610573355e+00
    1.1220891000419184e+02 -4.6540344242370235e+00
    1.3253740686730120e+02 -5.5019966183747053e+00
    1.3516223907294864e+02 -5.6242652599104694e+00
    9.5971113209325267e+01 -4.0128360729975299e+00
    1.1098480139118089e+02 -4.6038384596769655e+00
    1.1537141937160729e+02 -4.7645467966580517e+00
    1.0333134926803417e+02 -4.3385099575713806e+00
    1.1996710455181419e+02 -5.0020242566525956e+00
    1.2158151457461152e+02 -5.0411784152742278e+00
    8.7667721235351834e+01 -3.7297675500628364e+00
    1.0022436602910807e+02 -4.2060101194392399e+00
    1.0366685071760718e+02 -4.2839715615772551e+00
    9.3537920423712379e+01 -3.9945534571636641e+00
    1.0707842551738476e+02 -4.5031361088061912e+00
    1.0808122019172805e+02 -4.4739588799227246e+00
    7.7498439713107615e+01 -3.3685085130265260e+00
    8.7846218385185267e+01 -3.7537060050741573e+00
    9.1514666975620088e+01 -3.8031182477299330e+00
    8.2213679969108483e+01 -3.5742122771158629e+00
    9.4046093910496865e+01 -4.0088001130882622e+00
    9.5749497904990264e+01 -3.9698143695928771e+00
    6.6687209961609966e+01 -2.9536350753898346e+00
    7.6080277527809798e+01 -3.3086205793007286e+00
    8.0040185728981569e+01 -3.3473334692169963e+00
    7.1910648066655455e+01 -3.1774119396107174e+00
    8.2817277945294876e+01 -3.5807407601759622e+00
    8.5450788331415652e+01 -3.5564563808885898e+00
    1.7774235945703136e+01 -5.8530564914163419e+00
    3.6209711467623123e+01 -1.1973076323937415e+01
    1.8503009954482884e+01 -6.2917766297541329e+00
    1.6114578471619144e+01 -5.2844481160243992e+00
    3.3405871194605673e+01 -1.1046609906390318e+01
    1.6426975641335311e+01 -5.6080323684730669e+00
    1.6527880962494727e+01 -5.4339504220845001e+00
    3.3491172642506321e+01 -1.1078747541306118e+01
    1.7076317553742800e+01 -5.8132766717003301e+00
    1.6501785060929205e+01 -5.4152437095308867e+00
    3.3843290723137031e+01 -1.1192672730943432e+01
    1.6604994113806910e+01 -5.6642679422514153e+00
    1.6815016091451596e+01 -5.5316449779177095e+00
    3.3627950999044351e+01 -1.1120667923133707e+01
    1.6945979843821501e+01 -5.7672642408642618e+00</input_scale>
  <output_scale>
    1.0526315789473684e+00 0.</output_scale>
  <inv_output_scale>
    9.4999999999999996e-01 0.</inv_output_scale>
  <weights>
    <_>
      -1.4087243410207634e-01 -3.5843916592998085e-03
      -6.0677615630181725e-01 -1.6226084972557034e-01
      -3.7485347433763368e-02 2.1069112337439835e-01
      1.4143162735587439e-01 6.9196263387547885e-01
      1.1113184504186739e-01 5.4841758070571722e-01
      -2.7940261205131656e-01 -4.2422307782441125e-02
      -6.2312551888533220e-02 2.7666855317625932e-01
      -8.0157299340583965e-02 -1.1469713162637976e-01
      -4.0437342150527987e-02 2.4592053239705711e-01
      -1.1968955572744708e+00 2.3444166832918772e-01
      4.3864183663911521e-01 1.0900635591057875e-01
      4.4522690292700166e-02 5.9857653642506246e-02
      4.7145166235543617e-01 1.2800280332238617e-01
      9.1464338495856584e-02 -1.2597477364601736e-01
      -5.0499326354230142e-02 -1.5881451101401400e-01
      9.6414734001482247e-02 2.9501698587858349e-01
      5.0437020014691178e-02 4.2653981822663181e-02
      -3.3081818291838688e-01 -3.6415578184473031e-02
      4.3402330224320482e-02 -1.3938318483091625e-01
      -9.8936207872782705e-02 -5.3409473579876486e-02
      -3.7065136179684394e-01 1.1096220769010148e-02
      -2.1110182002329420e-02 2.7281715244979698e-01
      -4.8031192660145577e-02 3.4177353814761935e-01
      2.5339628753583593e-01 -1.4701798140126787e-01
      -3.0176988860761155e-02 2.7094739287522368e-01
      -1.0078827339448369e-01 1.7640873972361648e-01
      -1.2884165077352622e-01 -2.9386892552457000e-01
      5.9937930841431945e-02 -1.3384685895507811e-01
      1.1359140935222942e-01 -1.1901751284141794e-01
      6.0137235490019258e-02 3.5826033547838448e-02
      -7.0171627944614215e-03 -2.2506085767124848e-01
      -1.3462055217074800e-01 9.3692623324872382e-02
      -4.9325939032519334e-02 -7.8198659718616947e-02
      7.0978977579220573e-02 6.3563546418853062e-02
      2.4973009049633527e-02 4.0379196848030464e-02
      1.2035441659496204e-01 6.6785998226632570e-01
      -1.6298775466557563e-01 -1.6884579452013507e-02
      4.6344393563597812e-02 -1.4310144877699951e-01
      -1.0388883512688647e-01 -9.2852293826825943e-02
      -1.1100592984550925e-02 -2.0350825367852576e-01
      8.0668516377757141e-02 3.5942191648062435e-02
      -2.8075452743160697e-02 1.6950759545332422e-01
      -2.3927244677353812e-02 -1.3054404356086430e-01
      1.2494759057315926e-02 4.9832941266680537e-02
      2.3134977982513732e-01 -9.1020752305656094e-02
      -8.2479231288493660e-02 -4.2215365921746689e-01
      1.6675791054384576e-01 -8.6399892357339442e-02
      5.5297563210548142e-02 2.0153898580388815e-01
      9.5804468164484013e-02 -4.1281560910521214e-01
      3.8369376052610565e-01 2.8068516535432203e-01
      2.2178469594350220e-01 -8.7537175337117898e-02
      -7.0889357623733096e-03 4.0518519159420147e-01
      2.8450099617505931e-01 1.9858272560596957e-01
      -1.0425807015766764e-01 -1.3564216961869643e-01
      -2.2339690152569300e-01 -2.8504604517220720e-02
      6.1434044043993741e-01 7.2999996552450763e-02
      -2.4906706700393858e-02 -3.3521305552474312e-01
      2.5936302713200941e-02 -3.7024095386016627e-03
      -1.7084155964989889e-01 6.8395872886830829e-03
      -3.2584803505691269e-02 -4.1769331892280920e-01
      1.5614548742729192e-01 -4.9803851560145364e-02
      -9.8603095192015461e-02 1.6228391231417019e-02
      1.4983314163622286e-01 3.5755016337262907e-01
      -4.5773760253502854e-01 -6.6726907146070838e-03
      7.8201838425537532e-02 -8.7504277698634322e-02
      2.0332116894535662e-01 -1.2938184047368684e-01
      -3.6367686852123871e-01 3.0338403682607366e-02
      -1.2402992549455705e-02 1.2331939294412151e-02
      -1.6693996222599142e-01 7.9053519401514200e-03
      -5.2205222006442720e-01 1.4970206745363449e-01
      -9.2972767636108154e-03 -2.1516709803526310e-01
      1.3800705225000273e-01 -6.1563595397127809e-02
      4.6796387065844366e-02 -8.1876324458620947e-02
      1.6686780393834671e-01 -1.5691096947938368e-01
      2.8764130917225689e-01 1.5702166145345017e-01
      5.4372239461185734e-01 -1.9863247469021156e-01
      -1.3182735122354333e-01 -1.3380968218398734e-01
      -2.4962108894658680e-01 -2.7857525118361154e-01
      -9.7352611267121636e-03 -1.1775780019385351e-01
      8.7768230782446874e-02 -1.3462913338590424e-01
      -9.0149894067224293e-03 -3.1133720303643034e-02
      -7.2451041186767540e-02 -2.5758476312909356e-01
      -2.8086074524747573e-01 1.4428349973849253e-01
      -2.2933796632724698e-01 5.1575734595491729e-01
      2.3361457209430034e-01 1.3050428594180571e-01
      -1.9666088120823347e-01 -1.5881885326771586e-01
      -5.1995114184594282e-01 -2.3607774793890382e-02
      3.5941280012840560e-01 -2.1230126359504908e-01
      -4.0385672928580074e-01 5.9551735534378744e-02
      -1.4899419911862344e-01 2.5358682450258391e-01
      4.6237518936696899e-02 -2.4973868391881257e-01
      9.7289867769465313e-02 2.2662959033150179e-01
      4.0345511954995396e-02 -1.6730723479239798e-01
      1.0751258298941281e-01 2.1824125533187008e-01
      -8.7565517737697746e-02 3.8414225327510343e-01
      1.3963782622018245e-01 1.6446602654819698e-01
      -3.6905094091325408e-01 -1.4918617463208100e-01
      1.1464252042020477e-02 -2.1525720581197208e-01
      1.8227053185908082e-01 8.9590114109459953e-02
      -5.5757030750307371e-02 2.7070296978324587e-01
      1.7977429200017983e-01 -5.0849150659125897e-01
      -1.1231896982607149e-01 -4.2862335170989735e-01
      7.5110428204504198e-02 -3.7792939529559350e-01
      6.5501724175274390e-02 -2.4684077446674771e-01
      -1.1555783896439500e-01 -2.0306964141813506e-02
      1.1058144383629398e-01 -6.4782815791907547e-02
      1.9439180894434038e-01 1.8513524504187054e-01
      1.8802314573515391e-01 3.8799454738822452e-02
      1.5028278133534403e-01 -1.6865669791754642e-01
      2.4844531675004780e-01 -1.5621656271673393e-01
      -3.6555213673178773e-02 -1.7044228661275140e-02
      1.3280123529442420e-01 2.0131360391715261e-01
      -3.3720343476056824e-01 -4.4755908276413098e-02
      -3.0150507788416081e-01 1.1672469513298879e-01
      3.4802047090289966e-02 -7.8873146305757618e-05
      3.3874880011475372e-02 3.3675960112420612e-02
      -4.5780707924259735e-02 -1.1827631904893005e-01
      -2.0276671365018799e-02 2.4424180398864542e-01
      1.1199852350238007e-01 -2.5206401823591235e-01
      1.0913896971673244e-01 3.7966753808903804e-02
      7.0134567518474869e-02 1.9310239432663237e-01
      1.1699237874766651e-01 -2.4409448826470892e-01
      -8.3181977706807492e-02 2.8117750779331258e-01
      -3.5651923657714812e-01 -3.5514884159078747e-01
      -2.1030118595144617e-01 -3.4857297892590355e-01
      2.0457559316166377e-01 6.0632066695567574e-02
      1.4636385032262067e-01 2.4180952200064124e-01
      3.1939027375048051e-01 3.4872220936454194e-02
      2.0083414253376808e-01 4.8084193812914133e-01
      -1.3324351734033824e-01 -1.7841785709333913e-01
      5.0655010474701745e-01 4.8752783661135662e-01
      7.5273164508528709e-02 9.2416065836581698e-02
      1.6432708351558084e-01 -2.7924714372624765e-01
      -2.8401216894940928e-01 1.0516165334012911e-01
      -6.3816238501930633e-02 3.8264677961229919e-02
      -3.6877470170247964e-02 -5.5325635685423358e-01
      2.6850815958003182e-01 4.0615426903778923e-02
      -5.7882436553174994e-02 -1.7732425505433622e-01
      -8.6316689755713535e-02 -4.7370669543946148e-01
      -1.4340401988634704e-01 -1.6798805860775864e-01
      1.3120025700090812e-01 5.5075892186450093e-01
      -2.7862091245051285e-01 1.2245682265712277e-01
      3.0817327541988893e-01 -8.4669349512421138e-02
      4.2748106241106404e-01 8.9809604041129389e-03
      1.0480589194508570e-01 -2.1508807472006822e-01
      -3.7956066413900252e-01 -4.2153039105010309e-01
      -3.0102717575471361e-01 4.2516202654824871e-02
      -1.8585074008833888e-01 -1.8537954556444475e-01
      -1.7879760786658797e-01 1.0704169636332108e-02
      4.3017328533109417e-01 -1.2965314402305739e-01
      3.7059268298269910e-01 -4.1940485215414974e-01
      -2.3157787983032729e-01 3.0339036971077382e-01
      1.9753953330394544e-01 -1.0386559479296802e-01
      6.0668254581471615e-01 2.8397110078048782e-01
      -2.1157474385111116e-02 -1.5834931832423957e-01
      -1.6756462868674263e-01 -1.4600095009683942e-01
      -3.1592035466814877e-01 -1.4138566840159450e-01
      -6.4388491288102001e-01 -2.1364965271888361e-01
      2.4289546351577103e-02 -8.1049345636704365e-02
      4.3993189197017574e-01 2.1157626872386720e-01
      -9.7349398497647413e-02 1.7226429405414353e-02
      -2.2231891530843770e-01 -8.1465133929123057e-01
      7.6916537449373656e-02 -2.6255367501766064e-01
      1.1983562749687393e-01 -9.9075527426490090e-02
      -8.6612041854976296e-01 2.4899325104379258e-01
      -1.5235733647615793e-01 2.4525844688292217e-01
      2.6897239396572896e-02 1.4843872463600596e-01
      -1.6343339746696930e-01 9.4886387743411252e-02
      2.6146185718341500e-02 1.1819736585966606e-01
      -1.1218084811037704e-01 1.0248949329880833e-01
      2.5905878120514342e-01 4.1960065536247426e-01
      1.6958015455179415e-02 4.8787953748705301e-02
      1.5291152660084914e-01 4.8963087314880742e-02
      -9.0103520509312252e-02 -2.3333218780515214e-03
      1.7169481672823406e-01 7.7389503277421154e-02
      -4.5077412778484516e-01 9.2096581541423972e-02
      1.7720214734876150e-01 -2.2869017485222559e-01
      -1.6995530603588344e-02 -6.7635554127530043e-02
      -2.1229632244156416e-01 2.5435294587919592e-02
      1.2594233593494913e-02 -1.9414096200851011e-01
      3.5570852818831045e-01 -2.9084538602152360e-01
      1.7030770059187545e-03 -4.7908536511218697e-01
      1.1558613877563599e-01 -6.8025081552008176e-02
      2.9084393169105167e-02 7.3209341571711412e-02
      -1.4376638077770077e-02 -9.9674837633087765e-02
      -4.9567160275970867e-01 -1.3029643748752458e-02
      1.0777021936386015e-01 -7.4797293214048211e-02
      -1.3417611523768586e-01 -1.7998572238328392e-01
      1.4362778680151322e-01 5.9399961629709674e-01
      -4.5671928709366982e-02 2.2958439245893686e-01
      -6.6548487688307223e-01 -1.1686939668025124e-01
      3.4905877053430227e-02 9.3570663032895587e-02
      -7.6481899117568173e-03 1.1130720744307539e-01
      2.7907622614098476e-01 2.9812773353549366e-01
      3.8355449271979640e-02 2.0714512673424909e-01
      -3.5952967792944146e-01 -1.3248417548651348e-01
      -2.0774737428920603e-01 -3.6598426108174636e-01
      3.4034971115885951e-02 1.6614440558375107e-01
      -2.2064911493778547e-01 6.6281437361380049e-02
      1.7579522019074151e-01 -3.4637619951213028e-01
      -3.4194093411582066e-01 -2.0402858443602701e-01
      -5.3331788305936867e-01 -3.7307746249992263e-01
      8.7577445956185957e-03 4.7976496387383594e-01
      1.0897042080755372e-01 -4.7882985164704095e-01
      -1.9100570877756379e-01 -4.6635908006238186e-01
      6.5632868943398343e-02 -9.8843073858772681e-02
      -2.7475617229748434e-01 -4.7285219312448873e-01
      -1.6467772764217178e-01 -1.9354046785264831e-01
      2.5554936757889735e-01 1.1390105839719758e-01
      -5.0895414618340917e-01 -1.6106960975079435e-01
      1.6498808128208631e-01 -1.6691569887090518e-01
      -1.8165667890059220e-01 4.4294698028930990e-01
      4.3058188856559998e-01 -2.4388654548087094e-01
      -1.5953456250508483e-01 2.8882965827525703e-01
      1.8260200679590838e-01 -2.1535173511611314e-01
      -2.0878858068822323e-01 7.6835282764537050e-02
      -1.1435374077428746e-01 2.0542751608451559e-01
      1.0287058948482299e-01 9.4732494805526576e-02
      1.3823426394064586e-01 2.1375901384379137e-01
      -5.4335317069351341e-01 1.4901825452210471e-01
      -2.2147413640252048e-01 -1.9344390254166571e-01
      -2.9730863463057899e-01 2.6075303441885578e-01
      -4.0211148732499252e-01 -3.9959043816001336e-02
      -1.5606985414129160e-01 2.2038979714812859e-01
      1.9468015204334813e-01 -9.0017940605165367e-02
      2.9883841049734194e-01 1.8261727054434188e-01
      9.8858457881448786e-02 1.5198143033688050e-01
      6.1266197353186926e-02 2.9351712845002398e-01
      2.5046160425983810e-01 1.3835061318368824e-01
      6.2664687510057021e-02 -4.3702245397290668e-01
      2.3938150504299591e-01 -2.8092123607408931e-01
      -7.1704472548214951e-02 -8.0520329540791802e-02
      -1.8682588800034208e-01 9.7380274216506135e-02
      -2.3125813506730158e-01 2.7101429609592498e-01
      4.2562390791850141e-01 -1.8510319443778933e-01
      1.5136713753766753e-01 3.9061494970960647e-02
      5.0273835948925061e-01 2.3216008126479920e-01
      -1.6162228692618921e-01 3.1980682417003428e-02
      -4.6249511411095751e-01 -6.9191542346155627e-02
      -2.8828215565460072e-02 1.1824419295442699e-01
      8.3219318727836528e-02 6.1043537289316641e-01
      7.2505346646981259e-02 4.7947929900069747e-01
      -1.9994080053082902e-01 -5.5224363873370777e-02
      -8.8499169617939688e-02 3.1565628107981464e-01
      7.0564726065878297e-02 -9.0472356986783631e-02
      6.0017824057454210e-04 1.5100897628990131e-01
      -1.2514418119673638e+00 1.8383401108662756e-01
      5.0217284157371422e-01 1.1011739743906560e-01
      1.0321715924073081e-01 -3.2110104056305232e-02
      4.4409047164872184e-01 1.5806765366086734e-01
      2.1347494856562590e-02 -1.8508247469661634e-02
      -1.0993948816432417e-01 -1.8207367329794180e-01
      1.4009645804802523e-01 1.8895528236820852e-01
      5.4749484671180765e-02 1.2699738037403669e-02
      -2.0059404117267496e-01 -1.8639803354989259e-01
      1.2959052030975721e-01 -1.3030794236681728e-01
      -3.0111802604614848e-02 4.1906276441958538e-02
      -3.7147597533201066e-01 3.3481883672566076e-02
      -1.0798203256268535e-02 3.7212986590635849e-01
      -3.5705212598793876e-02 3.8726804515112706e-01
      2.1077229337054271e-01 -2.6131247950788223e-03
      2.0793123234393612e-02 1.5900304695766701e-01
      -1.5344352066395064e-01 1.5590177903586289e-01
      -1.8205789596850937e-02 -2.8178775604939588e-01
      -4.4976188830543613e-02 -1.2270036224372149e-01
      5.2161871517615310e-02 -8.9133065934568392e-02
      1.5237945177083861e-01 -3.3315248969182809e-02
      4.2619429589870819e-02 -1.7036309660483165e-01
      -9.0522416619661455e-02 9.9817450636756247e-02
      5.1516876184369930e-05 8.2610377751265368e-02
      3.2889403672981855e-02 6.5991854131594016e-02
      3.6066101063802099e-02 -8.7197448245633538e-02
      1.4052149376566099e-02 4.2836312459096554e-01
      -1.2268525873141274e-01 -1.4801554415916693e-02
      1.9687267415873918e-03 -1.6157272583567467e-01
      -2.0013039787689613e-01 2.8425478210279211e-02
      3.9290159002349806e-02 -1.9033685100116884e-01
      1.7957659418221514e-02 9.6469871513605934e-03
      -5.1277070075102189e-02 4.2927180603574665e-03
      -8.7961969866478543e-02 -1.2453295655122777e-01
      -1.6909386672861756e-01 4.5793969430564491e-02
      6.4051726102600418e-02 -1.1685349137144131e-01
      -5.7622095782299501e-02 -3.2342792083718652e-01
      1.5491538554454642e-01 -1.4306598164804976e-01
      6.3897049411610091e-02 2.4224172669783581e-01
      8.5251003697188146e-02 -3.2110992871044591e-01
      2.6551206158034918e-01 1.3148266515210916e-01
      2.1417953695552144e-01 -3.6754643527156801e-02
      -1.2654126736414414e-01 1.9886667805374214e-01
      2.2973023222781946e-01 1.0143956867494963e-01
      -1.1443679390411519e-01 -1.0246799490368443e-01
      -1.1360367219725297e-01 1.2495135063430043e-01
      3.2817877988036404e-01 5.0642343474109230e-02
      5.7730975010480745e-02 -1.6963538591431412e-01
      -1.0671781121314636e-01 -3.0610419215517468e-02
      -8.5682741297576026e-02 -5.8163294354412511e-02
      7.2129358120056983e-02 -2.0741107451040880e-01
      1.2858368250909960e-01 3.2539740352151812e-03
      -4.9286368159494429e-02 -1.8917603579030846e-02
      1.4274945678173381e-01 1.7430559879433491e-01
      -3.3318841742375871e-01 1.9409110917719304e-02
      1.4957633138925353e-01 -1.1665445970899473e-01
      6.0370482053165163e-02 1.7704420166725722e-02
      -2.3305887680368531e-01 1.9619350437731657e-02
      8.1066016956352807e-02 6.5124936760940139e-02
      -9.9892849077285489e-02 4.1744885408077227e-02
      -4.4598689055524232e-01 9.8386080166130555e-02
      -3.4579457412154978e-02 -1.1105491677276734e-01
      8.9151344002893040e-02 5.7300283517370869e-02
      1.6464454564146611e-01 -2.5298236808422675e-01
      7.6422447456985482e-02 -1.2484725044560445e-01
      1.2827552528218850e-01 8.9889732146195334e-02
      2.5983273601803442e-01 -9.6854589770006771e-02
      -1.0344876417934699e-01 -1.4659159623705847e-01
      -3.4392201648290460e-01 -1.5263298443783552e-01
      1.0041493978867913e-01 1.6763175622961882e-02
      4.2718439377982240e-02 -1.4572215223026599e-01
      -3.7838373252945157e-03 -8.6917094920256149e-02
      -1.0023580775774180e-01 -2.1546401627682960e-01
      -3.1031458835477099e-01 -1.7589865469025376e-01
      -1.3063719837675314e-01 2.1753804037825783e-01
      5.9526208693505160e-02 1.2358954045049403e-01
      -1.8138943164827798e-01 -4.0690667807334983e-02
      -4.6357046269899838e-01 6.5058467852215493e-03
      4.7181823833335090e-01 -1.1822766345382879e-01
      -1.8394787397343837e-01 8.9839087938692538e-02
      -1.9021467758497862e-01 1.7323128956583220e-01
      9.2934315534509929e-03 -2.4349239373725881e-01
      -3.7560866072940076e-02 1.7628068838300479e-01
      -5.2211407386848050e-05 -7.2058650676131403e-02
      5.5294486158535723e-02 1.9016125674569667e-01
      2.2913209404729708e-02 2.0662273263308820e-01
      1.4348151525987349e-01 2.1772588194175782e-01
      -2.8354937812253544e-01 -1.8250801314637388e-01
      -4.0309510494276231e-02 -1.8116952743037984e-01
      4.5066798699109095e-02 1.2714107237823546e-01
      5.4521161395974696e-02 2.3240860877762534e-01
      1.8046413258742480e-01 -2.7865392401260258e-01
      -7.9941113536877814e-02 -2.5004462609995237e-01
      2.9166092480676476e-04 -4.0274594788058132e-01
      2.8767330600708307e-02 -1.2001035363469727e-02
      -1.0291126690600082e-01 -4.1884430284119874e-02
      1.3641983092194801e-01 6.6799969188255308e-05
      1.3877558391680961e-01 1.1967502656271171e-01
      2.0601483620227287e-01 6.2592642812771174e-02
      1.2224121903945361e-01 -1.7540267716347949e-01
      1.3588600077698618e-01 -8.8276161137800638e-02
      1.7852105206261942e-02 2.4463287972440996e-02
      1.7751771198939711e-01 1.9500795456128728e-01
      -3.4589816904459897e-01 -8.2875384184015424e-02
      -2.9204556502823864e-01 6.4411274470895369e-02
      1.1273707682245365e-02 4.6819029856129464e-02
      7.3456952315545679e-02 3.1566437070891427e-03
      -6.8076572921023523e-02 -2.7378642001125519e-01
      2.1661727457317530e-02 1.7053249555905092e-01
      1.6697314535805630e-01 -1.2405596826088038e-01
      3.3972500310403379e-02 -3.3341090836707232e-01
      1.5093713100964851e-01 1.5549047855963638e-01
      2.8265592769272235e-02 -1.7632816129060030e-01
      2.7650926907360995e-01 1.2258241666434859e-01
      -6.6488880014493157e-02 -9.1890021269065592e-02
      -6.0102784399893604e-02 -2.6425845997936327e-02
      1.3735558857468880e-01 -3.3669335816324314e-01
      6.6938181939600258e-02 1.4428969640247877e-01
      8.6963397277653287e-02 -1.1182762973413116e-02
      2.8128773820656747e-02 2.1851648705302390e-01
      -6.4954385844864182e-02 -4.6498404150848209e-02
      8.0300340631037637e-02 4.4620283173477016e-01
      -1.0809874235838640e-01 -6.1762397119933657e-02
      7.2734717164379709e-02 -1.7220592450261565e-01
      3.9573892908571558e-02 9.2388256018631765e-03
      -2.0743371903800575e-01 1.2081076343478936e-02
      -5.6810559897569120e-02 -3.4070713751090831e-01
      9.1586706349021080e-02 1.1599581696327904e-01
      -1.9162025832656256e-02 -7.3022745986780477e-02
      -3.6856269598616147e-02 -2.6252321670980455e-01
      -4.1153492668632712e-02 -8.1891030133210405e-02
      -2.0126361766812806e-01 3.0202324804494185e-01
      -6.1005305841677049e-01 -9.6844994453279695e-02
      3.9475111416944042e-01 -9.9384929546277367e-02
      1.9636536427296850e-01 3.7751757582975545e-03
      -8.0841276855605340e-02 -8.5337569113882017e-02
      -1.8230385965702722e-01 -3.0009082949816768e-01
      -9.1445302389256591e-02 -3.3586452655983770e-02
      -1.0251972097292479e-01 -1.0911279551395234e-02
      2.3366128924959477e-02 6.0126321190138075e-02
      1.0045096896592776e-01 3.1888001558764562e-02
      1.7282261416464864e-01 -1.8927049277380525e-01
      -8.3309577775151786e-02 1.1444126960282404e-01
      1.5267086089662191e-01 -5.3365627912321849e-02
      3.6532114378531694e-01 1.8016470262038550e-01
      -2.1052241122909301e-01 -2.8948830610313031e-02
      -1.9116273883396492e-01 -4.2666123085937771e-02
      -9.1233101939573236e-02 -3.5064107397184435e-02
      -2.3552707481500790e-01 -1.6873463382545972e-01
      1.0239763594171181e-01 -1.6394988792602636e-01
      7.9973089260009247e-02 2.4273446522876674e-01
      -1.1995333190142694e-01 3.6061900436760934e-02
      -1.2223254468363957e-01 -5.5889996038299283e-01
      -1.9244487247143484e-02 -1.6777367843482088e-01
      1.0953616213991038e-01 3.7274301460737742e-02
      -4.6236619713797228e-01 2.0180297392441077e-01
      -4.0728681773958048e-01 1.1952622717492602e-01
      6.5245362408243010e-02 5.9843702495768376e-02
      -1.1324668177866982e-01 -7.7481299051187197e-02
      -2.2432923706042032e-01 1.2172327175986107e-01
      -3.7736581816803429e-02 -2.0542370633956619e-01
      2.1059403174446872e-01 1.8065264517246171e-01
      -5.3142842641517543e-02 3.0660117782517472e-02
      9.8552829017276938e-02 2.7248306108601889e-01
      -9.3803428564632751e-02 -1.1461836903851637e-02
      1.4153156636751532e-01 1.0813760930347457e-01
      -3.1086014168661097e-01 -2.5935573110793210e-03
      2.0177141802922197e-01 -1.7056512640824736e-01
      1.4224239691265305e-02 -2.6520225398627872e-02
      -7.4469612827952211e-02 5.1074577630049037e-02
      1.2026288912401313e-01 -3.2715249544813252e-01
      1.9148611538725058e-01 -4.8364236779269149e-01
      -1.4988328574034657e-01 -2.5601738495747722e-01
      -1.6468904648735141e-02 -7.9603930049597635e-02
      7.7088267157814264e-02 -5.6548781496721344e-02
      6.4424428667671174e-02 2.5517556440061987e-02
      -4.3284581607602890e-01 1.3008318090558274e-01
      1.2288510922474520e-01 1.7115641322163155e-02
      2.4318067595516463e-03 -1.3244795824319266e-01
      1.0593968040369402e-01 1.2256128048843201e-01
      3.1206621335432422e-02 6.0687624286135729e-02
      -3.4186966156943016e-01 -7.9124652556823397e-02
      -1.4263200607477264e-01 4.8163170537735785e-02
      1.1508548050407122e-03 -1.5516436145062412e-03
      1.4415592768037711e-01 3.3559615391284586e-01
      1.3924703301988905e-01 1.0427488685754491e-01
      -2.1336798974113713e-01 -5.9660892402078829e-02
      -8.0138599595342738e-02 -1.6215277827850993e-01
      7.7726152917875740e-02 1.1485263237550759e-01
      -2.2301534116637783e-01 -7.1504474408401339e-02
      1.7094681814842833e-01 -2.5165549787285274e-01
      -2.1453153487331691e-01 -1.6835742059486181e-01
      -4.6818637795862050e-01 -3.0316560291307321e-01
      -8.4327259321958933e-02 2.6275661783901755e-01
      1.4886849664486476e-01 -1.9235718363998774e-01
      -1.4243019267172091e-01 -4.1264384852571445e-01
      1.5288585147083471e-02 4.2287887030502659e-02
      -2.0636807864370252e-01 -3.0938501224211118e-01
      -2.2637972720327790e-01 -3.0263732515272807e-01
      2.0176333067591823e-01 1.2532202173500206e-01
      -5.9151844083843186e-01 -1.6776458232270253e-01
      1.1132872853872561e-02 -1.5970859275633326e-01
      -7.5355706017765270e-02 2.6921083761527348e-01
      4.4106924213198911e-01 -2.1528592725482906e-01
      -4.8095419426810899e-02 2.9284696062629167e-01
      1.8594830492273526e-01 -1.9643688252107153e-01
      -2.0292822374248828e-01 1.1724165725887285e-01
      -8.3918796897824485e-02 1.5350098296175227e-01
      7.1996081090313871e-02 7.0358229724781618e-02
      1.2246901307517029e-01 2.3266117922988069e-01
      -4.4225218896549123e-01 1.0696393154058906e-01
      -2.1720978652722855e-01 -2.4561859421237447e-01
      -1.9274151781053830e-01 1.0795229327169092e-01
      -1.7262471232007737e-01 1.4305801125791818e-02
      -1.6441634121012799e-01 1.5682625503471226e-01
      1.8391899516945640e-01 -1.3045137201807128e-01
      2.8300412083449772e-01 1.9938970560189329e-01
      9.1146744378459349e-02 2.1315142749400984e-01
      -5.6161148736504296e-02 2.0727421229461138e-01
      -1.3319427015040172e-01 1.5413954198869143e-01
      5.2747540889781256e-03 -2.2755433563570834e-01
      1.5904749952734334e-01 -3.1359195736949019e-01
      -9.1104785338625236e-03 -9.3939938497696260e-02
      -1.4795105243744772e-01 4.0017231232104981e-02
      -9.7853182797636121e-02 2.8149020358882865e-01
      2.4676232469199411e-01 -1.2481744361471872e-01
      1.4112728568485022e-01 9.4173029335469560e-02
      4.5220514548049612e-01 1.8482946598450406e-01
      -1.8798804939361613e-01 2.6494113686591610e-02
      -2.5759791390395564e-01 4.4393189586459372e-03
      -5.8915062498984989e-02 4.1778439563268752e-02
      1.6708884161474627e-01 5.7762955262326421e-01
      -1.3885089305725701e-02 3.1337206195846096e-01
      -1.3566354624034790e-01 -7.6692874934152902e-02
      9.9225785436869732e-02 3.3948741001196397e-01
      2.5352172682530494e-01 -1.2686782069304578e-01
      -4.6951595826064015e-02 2.0144224652670811e-01
      -1.0181376630044665e+00 6.9550779986454397e-02
      4.0055568413940412e-01 1.9134819769572073e-01
      1.5011208272863011e-01 4.6145782077426888e-02
      4.6531104835518322e-01 -4.9260467906194219e-02
      9.1466788299024732e-03 1.5070081038188110e-01
      -1.6649069860468096e-01 2.8343199150261029e-02
      1.3698941012344809e-01 7.7239708806289067e-02
      2.6158532723162365e-02 -3.7367426268080581e-02
      -1.4764351135372206e-01 -2.0556820266848530e-01
      1.4064608741507018e-01 -9.3127755249418354e-02
      -1.0619961895478031e-02 1.4816849482358677e-01
      -2.4017706532659622e-01 -2.4682652021336605e-02
      9.7296072753769530e-02 1.3143151116880478e-01
      4.5871780460413757e-02 5.1570744579635164e-01
      1.5456796506694329e-01 9.3308374733840849e-02
      7.4934507627741800e-02 -3.7510586959724666e-02
      -2.1450660356029760e-01 1.7817285526921184e-01
      8.3553919759737624e-02 -2.1801937704713653e-01
      -1.5069388592165300e-01 -6.4553219248911567e-02
      -5.0391116207793726e-02 -5.8825798001489613e-02
      9.3108399402211425e-02 1.3008280326102253e-01
      1.5782251615404286e-01 -2.1700525517294497e-01
      -4.8663979917361676e-02 1.6817952057875762e-01
      -4.1138179540173563e-02 2.0872142188589082e-01
      -1.4955907152019671e-01 5.4208185983653408e-02
      -5.0648271692189613e-02 -1.1433306213160802e-01
      6.6822681546231569e-02 4.8920583529699624e-01
      -1.5353297301785546e-01 -4.1971637716195456e-02
      9.6826286594781111e-02 -1.1928317679919768e-01
      -2.9209522818999073e-01 -6.2499045701701582e-02
      5.7820212691061378e-02 -9.6402255677469392e-02
      -9.9360333037992313e-02 9.3207731842103861e-02
      -1.3981699689636545e-01 -1.8075130310119189e-01
      -8.7325090678735770e-02 8.7099258378587771e-02
      -3.1955968268199175e-01 -7.8616136856072175e-02
      -4.6234030661937368e-02 -1.5387728994251226e-01
      -6.7422100902051765e-02 -7.1252411313003070e-02
      1.2335821826603893e-01 2.6501338638200724e-02
      -1.0550616731754088e-02 1.0684423667644222e-01
      1.5875340505140637e-01 -1.3351679699151528e-01
      2.1584630170984612e-02 -8.3912050855412951e-02
      2.5334989706345989e-01 9.5268250473048745e-03
      -9.3094662048818250e-02 1.6772815196095706e-01
      1.3482088367878900e-01 5.5186830029972031e-02
      -1.3579778373006776e-01 -7.2002055599266479e-02
      3.5523928020782586e-01 2.1187387490624252e-01
      1.9191754024397528e-01 -5.0386668786908458e-02
      1.6470211021518091e-01 -1.6282677924576996e-01
      -1.2976778053101251e-01 -1.6012829467795470e-01
      1.0611907190545017e-01 -1.5055682496986583e-01
      1.4546279991315050e-01 6.0913484784864080e-02
      -3.4835049838393195e-02 1.3767221811651598e-01
      -3.3686360065071158e-01 -1.0016444447694384e-02
      1.1736609143504606e-01 3.8306765519027820e-03
      -1.8070414180740083e-01 8.4588967511846733e-02
      3.1789791248424494e-02 -8.3659759022690114e-02
      3.1801960410809571e-02 1.4402000851193603e-01
      -9.8472976780968391e-02 -1.4572549109618618e-01
      1.9572560422489160e-01 1.2405535504530454e-01
      -4.8529542525663494e-02 -2.1098647410329473e-02
      -1.2679896945655666e-02 1.3775465238195841e-01
      -1.2608390882213699e-01 -3.1679274280180220e-02
      6.8347145012902150e-02 6.8785710992232518e-02
      2.6149676023751267e-01 -4.9790467573775105e-01
      -2.9734674174682268e-02 -1.3972676457677941e-01
      1.5186547249450585e-01 9.3868607895992009e-02
      3.2069537414542865e-01 -5.5761696483618207e-02
      -1.9674640271819439e-02 -6.5769705313858179e-03
      -3.0584079340362791e-01 3.1023020555316232e-02
      7.5320310703238025e-02 1.5821602764881956e-01
      4.2030804818753688e-02 -1.5569059934095611e-01
      9.2020639699817469e-02 -1.6665189191897439e-01
      -1.5767378577022140e-01 -1.3695342861467233e-01
      -1.2454427811403107e-01 -4.7070852153609838e-01
      -1.5092921618554081e-01 -3.2253972167589615e-02
      -1.0273699696294240e-01 6.9351920884598572e-02
      -2.5490017927740301e-02 -3.0352750847801604e-03
      -2.3996365609108294e-01 -6.1914185412329528e-02
      3.7587155106158632e-01 2.9541660029087664e-02
      6.0237463680498579e-02 -6.6426541171144826e-02
      -2.9936983227235503e-01 1.6637938209466299e-01
      1.9564112080073352e-02 -1.4599613039659537e-01
      2.3842350980235153e-03 1.9492664311325139e-01
      2.7238493458381238e-02 -6.3769677359730104e-02
      -2.9324616030803751e-03 4.5400461837283840e-01
      8.2018782169775498e-02 2.1692913288100413e-01
      6.4950192043670446e-02 2.4196113019460008e-01
      -3.3510508894778157e-01 -1.4317610092478492e-01
      -1.5352512276929470e-01 -2.7487397933300333e-02
      -6.5543416630590670e-02 1.5864364896170294e-01
      2.2218905843173495e-01 6.5591140921933258e-02
      2.1889013484942560e-01 -3.3444671580419949e-01
      -2.0030302965817631e-02 -2.1650500928758026e-01
      -6.0142491234231474e-02 -3.5214285440443155e-01
      2.7261029465838339e-02 1.2999915939455245e-01
      -9.3689658243820181e-02 -3.3793941939622388e-02
      1.5431645938601754e-01 4.0744879122730289e-02
      -7.8911301465232342e-02 6.9617050188464175e-02
      2.0751517223851121e-01 3.4105293459884375e-02
      3.4560048251543851e-02 1.1463155269365552e-01
      1.2358092711445319e-01 -8.8866491170097692e-02
      -1.2190590493797813e-03 2.8357184608851282e-02
      1.4351662902427054e-01 1.7520947565863262e-01
      -4.0367828986524673e-01 -9.5279103501696591e-02
      -3.3638695154095921e-01 1.7676745396949514e-01
      4.6199869305798516e-02 2.6039207369740930e-01
      4.0556308599531153e-02 -2.6533361795733412e-02
      1.3539784528206375e-02 -3.2420993473206372e-01
      1.7141012561812546e-01 5.6022730467398939e-02
      1.8611899381938854e-01 -5.4347149636743398e-02
      2.3444806511472301e-02 -2.0480128202985962e-01
      1.7079940969968158e-01 2.0612725333400767e-01
      1.9873898263295695e-02 -1.5300243292705351e-01
      1.8412924269173744e-01 9.6680182307418372e-02
      -2.1716190655275017e-01 1.7794782175814438e-02
      -2.0512382266870171e-02 -2.6862226679827583e-01
      1.6896176663426246e-01 -1.5979576608354840e-01
      -8.4457286781192218e-03 2.3817017470382557e-01
      6.6983551966747365e-02 1.8383466923166711e-01
      9.8128625221475980e-03 3.4095415065145063e-01
      -1.0478122464621245e-01 -1.1806128395135611e-01
      2.6331414015213083e-03 6.0569903680131920e-01
      1.5295992236431408e-01 -4.9556633332051063e-02
      3.3761696227261750e-01 -1.9811423793390293e-01
      1.4618368297560000e-01 -7.6143242378974699e-02
      -1.2842462281684708e-01 6.8641928191679122e-02
      -7.2438811501178993e-02 -2.3955058322689626e-01
      5.0933852784697253e-02 2.2709401395770953e-01
      -9.3472779629069053e-02 -6.3449435238263643e-02
      -2.7114081131224474e-02 -3.0033918567886536e-01
      4.3289181155624613e-02 -8.4732695013247372e-02
      -1.7742099647022791e-01 3.1628308878414502e-01
      -4.9843486749099541e-01 -2.1817215916373606e-02
      3.1563037192966492e-01 -5.2851502815409276e-02
      2.1784029782983560e-02 5.7810922091324227e-02
      -5.3612543678445312e-02 -2.9852883001711638e-02
      -1.4417880831392368e-01 -4.0723333903168407e-01
      -1.4148263183240709e-01 -2.1248687165627889e-02
      -4.4018133505983013e-02 3.3260912008620649e-02
      7.0590938929175617e-02 7.8848860679789426e-02
      3.3139581134265583e-01 1.4762169989019537e-02
      2.2546134413064389e-01 -1.3347080451690352e-01
      -1.1001921201096258e-01 1.2567348117605298e-01
      1.1861835838909368e-01 -4.6926039624132505e-02
      4.6643411877660329e-01 1.4552955260982647e-01
      -3.0022072007056849e-01 -4.9208098346035470e-02
      -2.4385984920356046e-01 -4.9528833532674503e-02
      -4.3090397441910400e-02 -7.9147898467689465e-02
      -8.3012859951439685e-02 -1.8506613397070998e-01
      1.4663720223994900e-01 -2.2273566956720584e-01
      -2.7998504847288570e-02 1.8647855395166490e-01
      -1.5115777340427408e-01 2.3197131722987853e-02
      6.0020680875268170e-02 -5.3152046852415580e-01
      -4.1708060001195708e-02 -9.6041170077918847e-02
      1.3929974047168833e-01 6.7666752835092950e-02
      -3.5425552667928700e-01 1.8021150603674391e-01
      -2.7471104389570949e-01 3.4666260566599901e-03
      3.4847727544595898e-02 4.7080010209399947e-02
      -2.2595732728833121e-01 -1.7770811605603062e-01
      -4.1829740549933359e-01 7.1316632715820616e-02
      -4.2183885698799703e-02 -2.7393934290059840e-01
      1.2680489556538463e-01 9.2024379368722445e-02
      -8.5807032087001092e-02 -7.6196491845417130e-02
      6.3823124979293031e-02 3.1656919266248118e-01
      1.2260638901111997e-02 -1.1607104303797232e-01
      9.0514578342402396e-02 1.6645818510196389e-01
      -7.6783106637206569e-02 -8.3478503991599909e-02
      1.9719844156081642e-01 -3.9036713981010947e-02
      -1.4847065617836675e-03 -1.4478193978676715e-02
      -2.7029351205637209e-02 2.1599554687821605e-02
      1.6543713627110015e-01 -3.0229890684514710e-01
      9.1793299769663314e-02 -4.3781452177298869e-01
      -1.2607249447235347e-01 -6.8381925752565104e-02
      2.6145076231639799e-03 -1.1173171793970649e-01
      1.1721089927461334e-01 -6.5610788938669395e-02
      8.2786210178582509e-02 1.1318437823325872e-01
      -1.8898372555892917e-01 1.2262073675504090e-01
      1.8953760345369580e-01 1.1037978665022279e-01
      1.1224017445261848e-01 1.5517115207427687e-01
      1.0011475913529803e-01 1.0769937821961126e-01
      5.9537258962397803e-02 1.8773280418121045e-02
      -1.5560035536031410e-03 -4.9063854906456331e-02
      -1.7665822811616480e-01 -3.2684561325972458e-02
      1.1640318736432453e-01 -8.3469438562163625e-03
      2.0144649180078290e-02 1.4660799824984139e-01
      1.9253739108878787e-01 5.6590935313818959e-02
      -1.0169799416053336e-01 1.6830703882917023e-02
      -5.7183360822261380e-02 2.9629998567038292e-02
      9.3373348044843221e-02 8.5889050657283902e-02
      -2.4565466409333817e-01 -5.5475072940374792e-02
      1.2920831706526015e-01 -1.8079039022663457e-01
      -1.5396468978299566e-01 -7.7694962688469288e-02
      -4.6120210631808495e-01 -2.5345622253165945e-01
      -3.8742740728125752e-02 1.1595097564690890e-01
      1.6683977187612106e-01 -1.6211913574561432e-01
      -5.3667667315284641e-02 -1.1306847065698680e-01
      -4.9035707471586643e-02 9.3476052686838632e-02
      -1.3873166131909384e-01 -3.4067246574593502e-01
      -2.3295676818066227e-01 -4.0167678307826310e-01
      1.1923423217513442e-01 8.1964587760143842e-02
      -5.3717939680873206e-01 -1.8930123472067861e-01
      -7.7735153324861209e-02 -1.7626967006762087e-01
      -1.1949910945895829e-01 1.1032438932116598e-01
      2.8345402036946865e-01 -1.0155293445763339e-01
      -1.9251152570288223e-02 2.3478374566140886e-01
      1.9885742479823268e-01 -7.8269558476375165e-02
      -2.1230377892251442e-01 1.3330547423505454e-01
      -5.4737623309571576e-03 8.5322114785602213e-02
      3.3860208821773576e-02 4.3903917352219386e-02
      6.6520719394461247e-02 2.3353918989909861e-01
      -2.3957773066342314e-01 9.3341645912958376e-02
      -9.1588087234891466e-02 -1.8637279979688531e-01
      -2.5521392381813671e-02 6.0295248542460281e-02
      8.1442122322601430e-03 3.9171404032501855e-02
      -9.6460248212011782e-02 9.3563383526427998e-02
      1.7593931589568659e-01 4.5817047900089176e-02
      1.5164951741041352e-01 2.3976276052875051e-01
      1.1921677351661794e-01 2.4945397514254986e-01
      1.1996521861186092e-01 1.3810393536046581e-01
      -7.8746473410522752e-02 1.3054921575380332e-01
      2.4911602589613353e-02 4.8016328816717087e-02
      1.2699106455068568e-01 -2.0296509417196573e-01
      -3.1319109642877027e-02 -1.9374056486681557e-02
      -4.2138501237954609e-02 -4.0694695037103344e-02
      -8.0981049271770411e-02 2.7660698840376458e-01
      1.1864855672452315e-01 -3.7987556253851050e-02
      1.6994179846155955e-01 7.4325640591500292e-02
      4.8302548595319245e-01 1.5597348361966609e-01
      -1.6050622516392757e-01 1.0990179158313160e-01
      -8.9402600584096423e-02 8.9676643103401718e-02
      4.5335101003840445e-02 1.3952953826549586e-02
      1.0856708193684683e-01 6.1903348270613601e-01
      1.5141078530159544e-02 4.2723949456918364e-01
      -2.4800029800125120e-01 -6.5349965430453780e-02
      -5.9715958028313525e-02 7.5940850170770180e-02
      2.8387587370111173e-01 -1.4636226885400688e-01
      -7.8496995288006674e-02 2.1585856598169378e-01
      -9.3372378275224344e-01 -1.2336945425631194e-02
      1.7828993781839175e-01 1.5738376110856112e-01
      2.4174324634648886e-01 2.0962117693728263e-01
      3.9848026262563568e-01 -4.0160390640824696e-02
      -1.3280095651878837e-03 1.7974754889174716e-01
      -1.9022266466184323e-01 -1.7714697733330925e-01
      9.3680724963859915e-02 -1.8165096223970761e-01
      -6.1807709722776646e-02 -1.1776144865677526e-01
      -7.6449159820477425e-02 -1.8826337388894221e-01
      1.6582856671925422e-01 -9.4997911110410949e-02
      3.0208663903593620e-02 2.2348091195280881e-01
      -1.9757845733533275e-01 -7.4910013303272127e-02
      4.3756857708957327e-02 2.5023396130181957e-01
      -1.1617629971065903e-01 6.1797470988515468e-01
      1.7741160486940999e-01 2.4352324260025312e-02
      1.2053885741990624e-02 2.1915193834071266e-02
      -2.0841853387247031e-01 1.0368220352213067e-01
      8.8548382506504528e-02 -2.2284385303154525e-01
      -1.0295168763212945e-01 -9.2153315890186799e-02
      -1.3452955213821377e-01 -8.4570524706665332e-02
      7.2904029334757911e-02 -2.9874333058723217e-02
      1.7119118032734215e-01 -2.1400760788525106e-01
      -6.6546070300727012e-02 1.1262315741558275e-01
      -1.2480805367901403e-01 3.0817204431618189e-01
      -3.4910612281266740e-02 4.5966951281057815e-02
      1.3241108716240372e-02 -1.9050381120846183e-01
      3.6214138748007392e-02 1.7448045060887621e-01
      -1.2727099578505380e-01 -8.6852321995177090e-02
      1.2863318372809379e-01 -5.7593401574049128e-03
      -2.9566793886461046e-01 -1.2625659141476842e-01
      -2.3826819749190615e-02 4.8283685391363448e-02
      -9.6783876726629942e-02 7.6561573488851523e-02
      -2.5442975731259249e-01 -1.8691357819764340e-01
      -9.3754697867205628e-03 2.0216442791014297e-01
      -6.8711351869917461e-02 2.2998888446878994e-02
      2.6955100984636904e-01 -2.0912178234409862e-01
      -1.0162352815455527e-02 8.2788413915516071e-02
      -1.9554819754904129e-01 -2.0605598421062198e-02
      -1.6818667409514765e-01 -6.1224310121987612e-02
      2.4183083315597270e-01 -2.4008631537337269e-01
      -1.1089539490285982e-01 -3.2817520483898505e-01
      2.1693292117620280e-01 1.7962546993207559e-01
      4.8448385442640990e-02 8.4695129710577022e-02
      1.3962758175706130e-01 8.7144286102233230e-03
      -1.4958943827990639e-01 -1.1623419199865729e-02
      4.1561354384198890e-01 3.1350878894757239e-01
      -4.0064127725696494e-02 -1.0262127011808010e-01
      1.6721808020984488e-01 -8.1418028661161115e-02
      -9.2783707497158266e-02 -2.6405565744238985e-01
      2.3404687872715432e-01 -1.3661441602353974e-01
      1.4470893802208531e-01 1.6055267828393202e-01
      -2.3145593151425853e-01 1.9548084024026774e-01
      -1.1772994753484538e-01 -2.4619663908999204e-01
      3.1357922798024233e-02 -6.8791167244416545e-03
      -1.8261821244613147e-02 2.5908987531492483e-02
      -1.8017339210570742e-02 -2.1396976994293333e-02
      -7.2450951574579661e-02 1.5724339591846184e-01
      -5.2004182722227357e-02 -1.4429791694777039e-01
      1.5065734892868426e-01 1.1335499714270554e-01
      -4.0463888605400566e-02 -7.1775209126203998e-02
      1.2779168823550502e-01 7.0910607798762515e-02
      -1.8696864624844503e-01 -2.1847701908795026e-02
      -4.1932233437531462e-02 9.7269642888513509e-04
      2.6239770604800755e-01 -3.2381238504056781e-01
      -1.4450322568879245e-01 3.1942207670180712e-03
      6.3915769944026812e-02 2.9880325749362221e-02
      3.7567033704128013e-02 -2.1990340516602553e-02
      3.4095899633833741e-02 1.7066371615237352e-01
      -9.2037670063937524e-02 1.0009327939435578e-01
      2.3582975272717015e-02 1.7793122436515119e-01
      9.8833727031421376e-02 -1.0931134758710950e-01
      1.0625793915700940e-01 -2.5899129614636085e-01
      -1.3077144344512850e-01 2.2456778466629197e-02
      -4.6189048639837658e-02 -3.6525826065565148e-01
      1.4342969398335554e-02 1.4501074354564364e-01
      -2.0958253222742970e-01 9.4017211245437451e-02
      1.2410468767467110e-01 -2.0414756548898097e-01
      -1.2660490960957979e-01 -1.3749170366457300e-01
      2.6482616893210686e-01 1.3449873661053433e-01
      1.0094953218866741e-01 -1.2213469640127173e-01
      -4.0608961808330268e-01 8.4995714715024734e-02
      1.2697239965157212e-01 -6.4772122256552697e-02
      1.8451210037391276e-03 2.2791961374071748e-01
      -4.4962719975598269e-03 -4.1528318610938300e-03
      1.1398671963717865e-02 4.8522961881030452e-01
      1.4811017195491402e-01 8.3866401489796572e-02
      5.2952001423372169e-02 1.8745526450511268e-01
      -3.1683667897009904e-01 -8.6468036651937100e-02
      -2.3026514222169694e-01 9.6289323503339408e-02
      -9.4622320713997565e-02 7.1101897577674836e-02
      2.8867254290617383e-01 -1.0000542453187922e-01
      1.8945557070248828e-01 -1.2700928401877325e-02
      -1.8266864775931202e-01 -7.9473124188791933e-02
      -5.9100882776243993e-02 -2.3722381893673616e-01
      -4.5828457449009881e-02 1.1414469268347671e-01
      -3.3665945275804979e-02 -7.1582497394247532e-02
      1.2264655908529744e-01 7.0765092917445996e-02
      -1.1971106638474163e-01 -3.6288011321476202e-02
      1.5476813113929633e-01 2.3775776235762863e-02
      -5.2679965506295612e-02 1.6997238256358760e-01
      4.2335312436501391e-02 5.2650292861403089e-02
      -5.0143635625295290e-03 -5.4313161425985468e-02
      3.7352715330363502e-02 1.0038034561767846e-01
      -1.6779226928297392e-01 -1.2832629501771975e-01
      -2.0550755250463310e-01 1.4437608569405647e-01
      1.9177055799472851e-02 1.2265114876751815e-01
      3.7787796964147059e-02 -2.2796328370930992e-02
      1.2336458389602016e-01 -1.5031117571688310e-01
      1.2342678869042938e-01 -4.0873912368680369e-02
      1.5718760849107669e-01 2.9860162616343111e-02
      -5.3766832803609152e-02 -1.4895798800557453e-01
      8.4892874378362376e-02 7.0906068271406969e-02
      -4.1829862400064206e-02 4.6307353652461636e-02
      2.2674578187175918e-02 1.1211777783264380e-01
      -2.7982000860032868e-01 1.0554834712986119e-01
      -2.7438832967279857e-02 -3.3773671227075837e-03
      2.8488941280438721e-02 1.4153168425867127e-01
      -6.1192827494158056e-03 5.4079869716900285e-02
      2.1372993406363127e-02 7.4019599101368738e-01
      -5.8682931203447683e-02 8.3139571119094480e-02
      1.2748199896973078e-01 -8.3683668901260860e-02
      1.3252010664010355e-03 2.5491544332390109e-01
      -6.4105423791224150e-02 -5.5569497919416386e-02
      3.2811097564213781e-01 -1.0346635710513208e-01
      2.2367533420622940e-01 -4.6144147535146625e-02
      -1.1436059076698839e-01 -2.3317277224322537e-02
      -1.9877520558667403e-02 -2.8725703702094263e-02
      1.5309573027182263e-01 1.6051768606101233e-01
      1.3852388496907078e-01 -9.1141364755496584e-02
      9.2215413798520218e-02 -1.6957580339015976e-01
      2.8897574702764179e-02 6.9876436645134460e-02
      -2.7089457443674470e-01 1.4632224377613259e-01
      -8.8719726546234834e-02 -1.2979457090233937e-01
      7.3331920811435539e-02 -2.3053795934645902e-03
      -1.8507428841776449e-01 -3.3301812833887404e-02
      -6.2490391473307504e-02 -4.8682337175398167e-02
      1.2806561005139518e-02 -2.7630255989553631e-01
      1.5598630322903997e-01 -4.3833733317185436e-03
      -2.4192698539618154e-02 -5.6521412983222774e-02
      3.3066567962726579e-01 1.0638464521437771e-01
      1.5788698294673745e-01 2.8037571527407178e-02
      2.6510950368500696e-01 -3.1921561134593546e-01
      7.4612922862531655e-02 -1.2146715398207318e-01
      3.4495859034967678e-02 9.2881731255931771e-02
      6.1984793645833958e-01 2.2760657904574694e-01
      -6.1296244098855188e-02 8.7198709616787169e-03
      -9.0627139169806914e-02 6.4941556828840660e-02
      -1.0158022593902504e-02 -2.3629521407385300e-02
      -1.6726259528420387e-01 -3.7303407460698858e-02
      9.3359240628597864e-02 -2.1628257596161302e-01
      -9.5152101230534955e-02 -1.6207551518540381e-02
      -1.0351396222691464e-01 7.2037100190949194e-02
      2.5622302128869523e-01 -5.5051857064539977e-01
      9.6533357481209781e-02 -7.7757964297772417e-02
      1.0279638100339106e-01 3.0622220393707322e-02
      -9.2136726107205968e-02 1.0993789393385321e-01
      1.2866763353515179e-02 -1.8991522401462409e-02
      -1.1153687196446314e-01 9.0351165229216532e-02
      1.1023759468653348e-01 -4.9473148527477903e-02
      -5.9836370529855154e-01 1.3806221609070171e-01
      -6.4281610093908592e-02 -5.0202156004421537e-02
      -1.0858477927741551e-01 -5.9706628738700696e-02
      -2.9284820844071018e-02 -8.4415889687488477e-02
      -4.3831157340284289e-02 1.1989076920647132e-01
      1.7059074987115883e-01 5.8398994337152720e-03
      -7.4207289831649009e-02 1.5546241515597040e-01
      1.4233534280061000e-01 5.7277065335384535e-02
      3.1676570548681511e-02 1.8092615008060040e-01
      -1.3571740712568786e-01 -2.6415578119666147e-02
      1.1510354638413791e-03 -1.5097927884779824e-01
      1.9498832665821844e-01 -2.6865511091376143e-01
      -1.1436287067008748e-01 -1.4939749384935130e-01
      -1.7172163650640002e-01 -1.2989211280357477e-01
      -8.4820251244024768e-03 -9.8779406545621465e-02
      1.0240205610544857e-01 2.4288670391760806e-02
      -1.0452552571623546e-02 1.6433276929606117e-01
      -6.5161615619537427e-02 2.0692866722693856e-01
      1.9300888805840535e-01 6.8447913028384114e-02
      -1.9313653360338145e-02 3.0070863160475741e-01
      5.0077971379673000e-02 -4.9335409110648182e-02
      4.6410257509679212e-02 4.9154486242969246e-02
      -1.5837297854122556e-01 7.1982492368878395e-03
      -2.9583784946302882e-01 -7.1170715469667245e-02
      3.0912090544470344e-01 7.2975970202353704e-02
      7.9834879628159050e-02 1.6796071224795414e-01
      1.8066980945983890e-01 -9.9981663256082532e-03
      1.6961308176040295e-02 4.3772217310867417e-02
      8.0702109365403854e-02 -1.0887663864857322e-01
      1.0161135845531695e-01 -4.0176331404586235e-02
      -1.6418240631583639e-01 9.5837624369870134e-03
      -3.6352036918208014e-02 -5.2762140449895953e-02
      -4.4930781810714422e-02 2.0287292174944974e-02
      -6.2199643361461232e-01 -3.7307162176585397e-02
      -1.2532038685974553e-01 -5.8469350885624438e-02
      8.5186786441508636e-02 -8.5417480138046217e-02
      1.9501159316788381e-02 3.3526259505108336e-01
      3.0892682547210282e-03 9.0272295464118857e-02
      -1.3158523033392499e-02 -1.7659466241452974e-02
      -2.2681185126951355e-02 -4.2490503969537052e-01
      1.1623170259309225e-01 1.9495334974049955e-02
      -1.3422976725067415e-01 -2.2678452934206489e-01
      -3.4895612137967179e-02 -3.1496529828536741e-02
      -8.7024483516082995e-03 -7.0518882884907305e-02
      -6.6027455455014220e-02 2.0488140354081301e-02
      1.6142852258600268e-01 8.7210767603311062e-02
      1.3262545077372784e-01 -3.2222152689569947e-02
      -3.9828598308647573e-02 2.8789606978155927e-02
      9.1616621631955067e-02 -4.6634815001761649e-02
      -1.8059106212407795e-02 -9.8934592208927224e-02
      -6.0995860392199140e-02 1.6242531233945093e-01
      -7.8483509446419214e-02 -1.0437720466045150e-02
      1.4284322831385868e-01 -1.4408531987946005e-01
      -1.4190355107970493e-01 -2.9163884847050084e-02
      9.7476578163685768e-02 5.6274508618643838e-02
      4.9122319290265753e-02 -8.5281508855104535e-02
      9.6468333696612965e-02 1.0055193570186163e-01
      1.2609734878497436e-01 2.0765538802673794e-01
      3.4228064875058223e-02 6.4452179890536768e-02
      1.2645616553235745e-01 7.6663979748785263e-02
      -3.1281669605135939e-02 5.6824511749280798e-02
      1.1630362294257433e-01 -1.3808066655048198e-01
      7.9767264906009300e-02 -2.1570894109901406e-01
      2.6435760946632317e-02 1.0264653118456928e-01
      1.1912115109969620e-01 8.2918482127570789e-02
      1.4355988366651054e-01 1.4845664649525114e-01
      -2.0848307110173197e-02 -4.0777733813732687e-03
      9.0719290964409782e-02 7.5846955697154383e-02
      1.9797849104824689e-01 7.9449666073550765e-02
      -3.9899748334668680e-02 8.6772669675011613e-02
      -1.2875090199306327e-01 1.2988943881263512e-01
      3.2985264774178236e-02 -1.1131601381279468e-01
      -1.8518924865795563e-02 6.7811898975816731e-01
      -1.2029133506392151e-01 3.9389481385329078e-01
      2.3900146430687826e-02 -1.4369103349416967e-01
      -3.4938118060595247e-01 6.2781354043528748e-02
      3.0941342710375697e-01 -1.7220464498857338e-01
      1.2467666405740568e-02 5.8964108022569205e-02
      -4.1025581388569776e-01 -1.6234767204495637e-01
      2.9685391378434395e-01 1.4800576163011489e-01
      2.5622715303443006e-01 -1.5973786363908313e-01
      3.7889619522231421e-01 2.3082794472863705e-01
      6.2581971511483037e-02 1.2361022616202005e-01
      4.5741229046085220e-02 4.3971146927684147e-02
      2.9088064676958160e-03 -1.7848669352240121e-01
      -8.5406867408754431e-02 -1.5941060677921784e-01
      -7.8198649178564963e-02 -1.4775751962888162e-01
      2.6223088104313935e-01 -1.1986810609144671e-01
      1.2654397581637822e-01 2.0537816920918861e-01
      -3.4435098868096453e-01 -6.1417831250441704e-04
      3.0735984905191825e-02 9.8834230496973631e-03
      -1.3972694677625885e-01 4.6758167826851699e-01
      2.5387755584608063e-01 -1.4197463476003028e-01
      2.0075326965464352e-02 -2.5438895278366630e-01
      -1.7092118491954320e-01 -3.6020043917480322e-02
      4.2605031176073727e-02 -2.6534718343569158e-01
      -4.8544837041263840e-02 5.3245853652483098e-02
      -2.0311258804894636e-01 -8.7349150481378882e-02
      3.5433625028179268e-02 -1.9385607546654723e-01
      1.8532416981568034e-01 -2.4492611469500802e-01
      -1.2758883503871574e-01 1.3756935546354260e-01
      -2.0131476811387458e-01 1.9927347198991452e-01
      3.8625636090239744e-02 1.5542171623515681e-02
      5.5690332558547689e-02 -1.8633462804840395e-01
      8.2400372819760176e-03 -1.1124335841269293e-02
      -1.7747766860624151e-01 -4.7152830445935934e-03
      1.5169544716247788e-01 1.4199841293740492e-01
      -2.0674641300132471e-01 1.9008863557721631e-01
      -7.0548018528113168e-02 2.0317535931467878e-01
      -9.1959305642234063e-02 -1.6968171617159689e-01
      -2.8778579295700796e-01 -1.5178349944418171e-01
      -1.0769959080512548e-01 7.4121031279874725e-02
      2.7223239032984936e-01 -1.1576604294471120e-01
      4.4271810063417771e-01 1.0246687407717502e-01
      1.1514406983161191e-02 -5.2285109195500716e-02
      -3.1491930677480479e-01 -2.8182159156461928e-01
      -2.1911523763574289e-01 4.6389484056612001e-02
      2.1325211356303053e-02 -4.5156619814913389e-02
      -3.5524732385538732e-01 -1.3508433495952266e-01
      2.1356696128196212e-01 4.0170880827940908e-01
      -2.1564451322324388e-01 4.4137370714351781e-02
      3.0011020026663476e-01 -1.7102411577596996e-02
      -3.8019382308727173e-01 2.7236882544761964e-01
      4.5992036496687910e-01 2.8761067857246259e-01
      -2.8751321146630476e-01 -1.2769538488848636e-01
      1.2698098117248452e-01 -1.1973884238186577e-01
      -9.8083973802152960e-02 -1.9371141287051075e-01
      1.8892502867365060e-01 -5.9766960286772496e-02
      1.9647753658119602e-01 -3.6910614009696458e-03
      -1.3193102953983016e-01 2.0834922238296760e-01
      -3.8905211588332305e-03 -4.0180519007183041e-01
      -4.3907932976149527e-01 -2.3079312635425678e-02
      -1.0688298540026119e-01 4.2480390232839622e-02
      -3.4290135117248483e-01 -7.0486293505687414e-02
      -3.1165538206199633e-01 1.2731865290321176e-01
      -8.4721317350271289e-02 1.2974384132828151e-01
      9.3874756371846252e-02 6.8389272842698190e-02
      -4.4007976089097629e-02 -9.9164461768293702e-02
      3.0148312461807175e-01 1.3348966694473532e-01
      -8.3550787786073988e-01 -2.0680894084445445e-02
      -1.5108780441331049e-01 -5.8507000310815474e-02
      2.0911829456313211e-01 -3.3399154230663183e-02
      -1.8011223298898163e-01 6.1977253373198350e-02
      -1.3740633156197149e-01 -8.9399247481470476e-02
      -3.6205436613198433e-01 -4.0328558535261294e-02
      1.8725262447726668e-01 2.8514500555073852e-01
      2.3836855859500397e-01 1.8008891982416539e-01
      2.3627427368849171e-01 1.2916848331048378e-01
      1.0374654412022903e-01 -5.9427030811351367e-02
      8.6587645887206771e-02 -2.9445303850984456e-01
      1.8114353293530259e-02 1.3139576908052331e-01
      -9.8730326535633364e-02 -2.1230689742721567e-01
      7.9347884825140227e-02 -1.3641845191282921e-02
      -1.4680372813204073e-01 2.2468096778701929e-02
      -1.0105360847662127e-01 -1.4228941378285254e-01
      -6.4221080905698572e-02 -1.0628387225612879e-01
      3.7617648693683137e-01 1.1671454053182874e-01
      4.6024538475349636e-01 -1.5966898589554163e-01
      2.4326226520181055e-03 4.1910252357185013e-02
      2.1693754256971312e-01 -4.1476744205024091e-02
      1.0429405800964715e-01 3.9902629368212611e-01
      4.1730702269346512e-02 -1.6759439869634490e-02
      6.9274192474230348e-02 3.4439121176019455e-01
      2.1658429516888406e-01 -1.4215036959508922e-02
      2.5924266135141913e-02 7.8151685266599838e-02
      -3.4597332454700769e-01 6.4616354459145292e-02
      -2.0698436349547317e-01 6.0275001234516075e-02
      -1.5407202939783318e-01 4.7810428803338467e-02
      -4.2524114198296020e-02 -1.1764908603628410e-01
      1.6678443530456805e-01 2.4483527636024760e-01
      -1.4518293242966607e-01 -2.5687823491836370e-01
      4.3880738035647140e-02 -3.9781580399203958e-01
      -8.2259893498566897e-02 2.2646598683664310e-02
      -3.9787423051691723e-02 -1.5531453046349775e-01
      -9.0381871529026901e-03 -9.9729353589442085e-02
      -5.6957201307836335e-03 -2.0213199784042352e-01
      7.5994048601899969e-02 -9.2640312874916350e-02
      -1.8213442323501475e-01 9.0855144248555994e-02
      3.5573367928749343e-02 -3.6324581685644203e-01
      -7.4900810133741988e-02 -9.1059669809103599e-02
      -1.2103932607094410e-01 -4.2963377753438371e-02
      1.8050326412847423e-01 -3.3194019231265214e-02
      -1.3677920160057297e-01 1.0045109058452127e-01
      -2.9150199838557368e-02 8.5000577542084627e-04
      -1.2607380603483490e-01 -8.3344091157532638e-03
      1.7006337318560014e-01 1.3158274033605661e-02
      2.5037714976837551e-02 -8.5451428593024625e-02
      2.6906840748388606e-02 4.6593685847629747e-02
      6.7074232984756108e-02 -6.1573563498923445e-01
      1.6415789172597398e-01 9.1569721089754239e-02
      -1.3502079765296729e-01 1.5451482948098283e-01
      2.6613263678185517e-01 3.3273503467069573e-02
      -5.5656066262059496e-02 2.2126920908692843e-01
      -1.4816001005486294e-02 -1.0066648242669607e-01
      -1.9018283174154785e-01 1.2932736982740470e-01
      2.3718789519839210e-02 -1.2060248195631929e-01
      3.7537727980517278e-03 3.2323869967252705e-01
      -2.3287255282626892e-01 1.7943025180064610e-02
      1.3282436570784983e-01 9.2601059566736602e-02
      -1.4691400905426064e-01 1.8795756974779229e-01
      -1.4661630011745633e-01 -1.9286861050199024e-02
      8.5896954648339588e-02 -4.0848202340829247e-02
      1.3295062402288099e-01 4.3010923620257933e-03
      -3.6509379130131780e-01 -5.6248818808340664e-02
      -1.9911532587374689e-01 1.3679040746547674e-01
      1.3868761066743024e-01 2.5193981091413609e-01
      -3.4251115923397760e-03 4.6868850156199772e-02
      1.2258807474681158e-01 -1.8166953260120289e-01
      1.2350202982234790e-01 2.0396965418719559e-02
      -2.0191082909901345e-01 -1.4369341761764320e-01
      1.3043315092361685e-01 -1.9993476228712337e-02
      2.2441801406349024e-01 2.1049235461906669e-02
      -2.1581501451141427e-01 -1.7958293788896731e-01
      -9.4658224687916348e-02 -1.9071468442459025e-02
      5.6490418566045916e-03 2.5173553261001591e-01
      3.8455148724772914e-01 -2.0385890402825915e-01
      -3.2493742823261985e-02 -1.5829920139987692e-02
      1.3217487381257795e-01 9.0765408779476711e-02
      1.2807880129548554e-01 -3.2060670576876736e-03
      1.4277443498387873e-01 -2.9979086155407658e-01
      2.1344522591091022e-01 -3.2877323493843036e-01
      -1.1763490388464661e-02 1.3048417653824143e-01
      1.6625166896135429e-01 1.0269125626335356e-01
      2.9156481743329882e-01 7.6628745617754943e-02
      -4.2629906309248879e-02 -7.3500311323165092e-03
      8.0682289937587554e-02 -3.9839870512189395e-02
      -2.0489384019983939e-01 -7.4725612646140346e-02
      3.8323184873121384e-02 -1.6073561361119416e-02
      -3.3902281186790822e-01 2.3251660767864661e-02
      1.4572254742035542e-01 3.7960732283508314e-03
      2.0631004039579881e-01 -4.0085585943962743e-01
      1.2916543799776925e-01 1.8480530317468054e-02
      5.1587281785140035e-03 4.7346815400864273e-02
      -1.8350006685705428e-01 -1.1921836525532901e-01
      -2.4877238684968211e-01 3.5553409344398955e-02
      -9.3458108734773782e-02 8.2687548953799941e-02
      -2.6624103618601996e-01 -1.8192811976597131e-01
      -4.9516862247092930e-01 5.0552272776635071e-02
      3.0218587387584987e-02 4.3731893067214221e-02
      -2.4558637205014128e-02 -2.9826238283671180e-01
      5.5744912275829724e-03 1.3073840604196535e-01
      -2.2715440858009950e-01 -1.0819556283850629e-01
      1.6967112986917801e-01 -9.2904239996245572e-02
      -1.0617682010463798e-01 -6.5396628872347928e-02
      2.1310187115949364e-01 1.1039394997912659e-01
      1.6345826159815855e-03 7.3778124782485688e-02
      1.1572983619504052e-03 -9.9789106395316851e-03
      -1.8428822219227253e-01 -8.6847476219163680e-02
      1.5085700413776201e-02 -3.3074089506257703e-02
      -2.7944450868790244e-01 -1.0699309194759214e-01
      -7.4006254840379662e-02 1.6262280347898464e-01
      -4.9952449976143863e-02 4.3852532396316299e-02
      3.6542297101916435e-02 4.8743284333961884e-02
      -8.2538121189660682e-02 4.5205729211739251e-02
      2.9442932662260746e-01 1.9782135048393687e-01
      -8.9796718130976491e-02 2.8160452624415605e-02
      -2.8739385875100342e-02 1.0694932500241629e-01
      -5.7762294395188887e-02 4.4596121130843179e-02
      2.2720960876825968e-02 -3.9303381228121104e-02
      -2.9429410480575274e-01 1.2355849987738830e-01
      -3.3529723337597928e-01 -4.5071193738979463e-02
      2.7728584561287323e-01 -2.0647098492074967e-01
      5.1959835443012747e-02 5.6366732922429996e-01
      1.5185706180475245e-01 -2.2245838791996839e-01
      -2.0898780053063403e-02 7.3241174399749503e-02
      -3.7274240539313950e-03 -6.1203244261290153e-02
      -8.5328544144531837e-02 -1.7359079123912663e-01
      7.9240474531292099e-02 -1.0610462970420495e-02
      3.4709279145948957e-02 2.1692178852069582e-01
      -2.5469775578610004e-02 -7.5377549302207608e-02
      -6.4018320718409660e-01 7.8830298093971796e-02
      -1.2031075884482670e-01 -2.3956665913343192e-01
      6.4745480202293260e-02 -3.1637880218578684e-01
      -9.0864762649279951e-02 1.6131777062654742e-01
      1.2985903716926397e-01 1.8828028083893275e-01
      5.8084765220197815e-02 -2.4758988258951015e-01
      -9.1232665254468687e-02 -2.7574891365665710e-01
      6.9342860160956652e-03 3.2169162762383186e-02
      1.6728877650900986e-01 -2.6011495992311746e-02
      -1.3471345858477679e-01 3.8979406777526565e-02
      3.2271005263811858e-01 -3.3799974201077293e-01
      -3.0159021768661459e-01 7.8697479408862160e-03
      1.2637916268255753e-01 5.5930958638173940e-02
      -1.0284787718579731e-01 -3.0649400612034920e-02
      7.3061579161679754e-02 2.7579763410291606e-02
      -2.4215946262633042e-02 2.6890273108749956e-02
      -5.0344949938347400e-02 -2.7398947751057151e-01
      -4.1685167211108813e-02 -6.7732907650245755e-02
      2.1615190434105580e-01 -1.7225676373507656e-01
      1.8989793398209950e-01 -1.3516115585073209e-02
      -7.7808288762686015e-02 -1.2411689200371280e-01
      2.1273750054171772e-01 1.4253145594557580e-02
      9.2525114300836334e-02 -2.1751218687787072e-01
      -6.0459179463802283e-02 3.2517639655607350e-01
      4.3042725714886640e-02 -8.7912281074624676e-02
      -4.5434555426957762e-02 -3.4833323984916453e-02
      -1.4301180302517788e-01 -5.8073392384602275e-02
      1.7272244885981122e-01 -1.3441099695097179e-02
      2.2247330371585050e-02 -3.4831150349762946e-01
      1.3019123752195041e-01 -1.9207819994933217e-01
      1.5902150617346456e-01 8.8735678343957514e-02
      -8.7606042082287207e-03 1.4076831965476508e-01
      6.9552826389562461e-01 8.4850990086805245e-02
      -2.9600925874974948e-01 -1.0699770183909275e-01
      8.4708187920332093e-02 -9.6931159773105222e-02
      1.0682307944434187e-01 -1.7091560571462167e-01
      -3.1915840977738405e-02 1.3395769219429596e-01
      -3.6412000965743674e-01 1.8595122300039496e-01
      1.3662112726380854e-01 -2.5313360619465047e-01
      -3.3802192300627150e-02 5.8628452864551417e-01
      -3.0348842204193632e-01 5.2779734208548268e-01
      2.0416633481116273e-01 -9.8295073405903877e-02
      -4.3835026238410284e-04 -1.3922517115380940e-03
      4.2190722555570526e-01 -1.8052558294669852e-01
      -1.1670998061229133e-01 -8.8905362117791778e-02
      -3.7809957154792517e-01 -7.3896804185699841e-02
      1.4269182747844220e-01 8.7500687774868885e-02
      2.0056907315918585e-01 -1.6313704547777991e-01
      4.5365049329419815e-02 -6.6662420538746894e-02
      9.0004269116312083e-02 5.1756937648271668e-02
      1.3505639001789008e-01 7.1639647425992756e-02
      -1.2080778832196343e-01 1.0531887572852633e-01
      -1.3285523465263642e-02 -2.1565349057193017e-01
      -4.9924274388329505e-02 -4.1430439417278218e-02
      2.2112763766288174e-01 -8.1892075598060526e-02
      2.6557535973727270e-01 1.6243306396005894e-01
      -1.6040775976157121e-01 4.6120215353754428e-02
      -9.1692107678024062e-02 -1.0634026477180700e-01
      -1.2190381175199927e-01 4.3005120448956868e-01
      2.7745082467749060e-01 9.1149040189880084e-02
      -1.8797077599654415e-02 -2.8333572174198468e-01
      -1.5445127703554234e-01 4.8997022022100101e-02
      -5.8419110243555415e-02 -1.5306032059674649e-01
      -1.1936198635044083e-01 1.3412669827634568e-01
      -2.5800585301549250e-01 -3.3638070969935013e-02
      9.8910738080415939e-03 -3.3842784138980238e-02
      1.6527296505644209e-01 -6.9786945234989892e-02
      -1.1375115638143739e-01 1.1099587684628294e-01
      -8.9002880989313762e-02 1.8168835036867997e-01
      1.2473697156418301e-02 2.0592955270340836e-02
      3.9390226842921615e-02 -4.7634615048785467e-01
      -1.4155228524615595e-02 2.8488426431937861e-02
      -4.2282458645454733e-02 -7.2230753698073719e-02
      1.0581923855510733e-01 3.4095438080890444e-01
      -1.5980690360161479e-01 2.4807759674322005e-01
      -1.6267812530884215e-01 1.3311564253576336e-01
      3.5605969939556788e-02 -5.4156297708254875e-01
      -3.1618368262708857e-01 1.2234860397561655e-01
      -1.1033993398424780e-01 2.2639988467240444e-02
      4.1371438063546295e-01 -3.0818155467545544e-01
      4.7894119204260621e-01 1.0137686110144460e-01
      2.2957661862409020e-02 1.6413865504372521e-01
      -2.8875030650562183e-01 -5.2466161581889548e-02
      -2.2634295588322706e-01 -3.2729179748646725e-01
      7.6246538299284206e-03 -2.1473361551561032e-01
      -2.4698205542542045e-01 -1.2366098223494018e-01
      1.5796742767416791e-01 4.8586124792644964e-01
      6.1570221183464779e-02 -1.6138606987712723e-01
      4.2304389733336979e-02 4.8145720405253306e-02
      -5.4124800549329100e-01 1.9536047884381946e-01
      1.5937258650860980e-01 1.3810874176813770e-01
      -2.4433190909372424e-01 1.6047871507646552e-02
      -4.0753700151356348e-02 -1.2356199623316279e-02
      1.1390915495747932e-01 -3.0634053392423866e-01
      2.2422145954565523e-01 1.0300178689696755e-01
      1.6406187664272717e-01 -3.0768015132630229e-02
      -7.9058851505505429e-02 1.8762304659594695e-02
      2.7637413143050893e-01 -3.0305896695737378e-01
      -3.6271119198601759e-01 7.3949778866442703e-02
      5.6018032176556501e-02 -1.5982501969990193e-01
      -2.7576651429670013e-01 -8.0253427163429841e-02
      -2.7553267426631900e-01 -1.5452864971423730e-01
      -7.5699954389908314e-02 2.0324288607710783e-01
      -9.3893370934767448e-02 -7.3431074607955893e-02
      -1.1727854569550702e-01 -1.7041247024119668e-01
      3.4267486104569950e-01 1.0673649122697566e-01
      -7.8948158735389640e-01 -8.4949979757728541e-02
      -1.3852422782610752e-01 3.1534692741205413e-02
      1.7664213426224590e-01 1.5637836960195928e-01
      -1.6922372450676092e-02 1.1800533986613480e-01
      -6.5759437676295041e-01 -3.2008234507019784e-02
      -6.2716243790065129e-01 -5.6749931195785093e-02
      3.3672212816878905e-02 2.9438769187360825e-01
      5.2110693104117600e-01 -2.2986915321346845e-02
      4.0060068455672761e-02 -6.2379024284254680e-02
      -8.4326163543356911e-02 6.7201354470238131e-02
      -1.0136062230443785e-01 -3.3210088765568807e-01
      3.0089070956899366e-01 2.2989362579313741e-01
      -9.5999129988202467e-02 -3.1703110277251828e-01
      2.6503541689880252e-02 -3.0214355608867360e-01
      -3.6258014903666130e-01 -6.2415062453138097e-02
      -1.0893529411083486e-01 1.1959486996531831e-02
      3.2522126080559255e-01 -6.9841378411216237e-02
      -5.4202662821283942e-02 1.9009185380745347e-01
      5.4608658542302657e-01 6.8014080525636941e-02
      1.8232483412170042e-01 3.1702884677937354e-03
      1.7723591858517165e-01 3.2657270583215570e-01
      3.8139113242347526e-02 1.9439348966967962e-01
      1.5687101765464026e-01 -1.0459520208893014e-01
      -1.7133882820710825e-01 -4.7506525037103522e-02
      1.7004817555228643e-01 7.4283473797758987e-02
      6.5753231564568110e-02 -8.5275418395921274e-02
      -9.9505550550483282e-02 2.8171991003888408e-01
      -3.1023548712826116e-01 1.3740527085082774e-01
      -9.7495924096636294e-02 -4.2338427991654805e-02
      -1.8164244365040796e-01 -1.2988896718144313e-01
      -4.6638757548533548e-02 6.3247255971416005e-01
      1.1889250901072172e-02 -5.9595316015329199e-02
      1.9222141218252844e-01 -2.9163321991875407e-01
      -2.9685107567137126e-01 2.5558615306596638e-01
      3.3382765331060713e-03 -3.5631755808148133e-02
      -3.0263022325437078e-01 -2.2309681139050741e-01
      -9.1487124779079096e-02 -4.0290085358262423e-01
      -6.6385165837755347e-02 -2.6565702278980363e-01
      -3.1081077268504237e-01 -1.8611327685972054e-02
      -1.5703531487967645e-02 -7.7417716098293426e-02
      -1.8284048697366323e-01 -3.8935866585829398e-02
      -1.4045112989525804e-01 -1.6914759606831034e-01
      3.7729120758994034e-01 2.0337760757217108e-01
      3.7729053879140474e-02 -3.2132163304699901e-01
      5.7388467973857604e-02 2.3569526438217969e-02
      -1.9932819230983947e-01 -2.0560933184003322e-01
      1.3254149408181581e-01 1.5902149089464848e-01
      -2.6789242434829080e-01 -3.8998655646618929e-01
      -1.5874288038887091e-01 1.8044135601298356e-01
      -2.0551352231908810e-02 -5.3244018370376500e-01
      -1.0455413945352510e-02 -2.5571327094395879e-01
      -2.9433233330515597e-02 3.1974882970039009e-01
      8.3268212538230824e-01 -7.5963320843765017e-02
      1.4870435180671460e-01 4.3069875920583245e-01
      -1.3905659765698869e-01 -2.2730317222504576e-01
      -2.1969539331812440e-01 3.6672225590728119e-01
      -1.5109843679123205e-01 -2.4820542226057782e-01
      -9.2254555951037112e-02 3.4582480027321860e-01
      -7.8773746222739680e-03 3.2417553803151128e-01
      3.4061547478241097e-02 1.3983500807674215e-01
      -7.1786967427990192e-02 2.7146878520157458e-01
      1.6835621204459875e-01 1.3515820782776380e-01
      2.0584074311110520e-01 3.0507275024608854e-01
      -2.2351518041221763e-01 2.6419439081753374e-02
      -1.8621142804538857e-01 -1.2743708960252675e-01
      -1.3969613424383479e-01 2.3462057659437691e-01
      5.6103647107059916e-02 1.3114281953752746e-01
      -7.6862713636242752e-02 -3.3823337977319158e-02
      9.5891944373049792e-02 -1.9054254861352324e-01
      1.4278865273526262e-01 5.8704206503517188e-02
      -2.2360326833835615e-02 -8.5802330676953503e-02
      7.3974370800229361e-01 3.3999444718739419e-01
      3.8829193967737530e-01 5.2465704091964036e-02
      -2.8603273371757865e-01 -1.6257302332591542e-01
      4.8593025223651727e-02 1.3295878477792225e-01
      -1.1315892159077362e-02 8.6463310004282826e-02
      5.4604948171853331e-02 -1.8623828115277274e-01
      3.2395584671755337e-02 2.2636954304059702e-02
      -3.0917197765414589e-01 1.1533241042494415e-01
      -1.6399539299742874e-01 -1.1179742761369188e-01
      1.8510096831652814e-01 -2.2640656222479286e-01
      1.1268867132691350e-01 -5.2619730237675466e-02
      -1.6951439099178742e-01 1.2294219805751222e-01
      1.4263817143241528e-01 9.7450377493110044e-02
      -3.7819206717495718e-01 -1.5196446010066944e-01
      3.1929406666611287e-01 1.7575403056362571e-02
      5.6175106240083338e-02 5.5957456392306551e-02
      -1.8568601047682771e-02 8.3869986570839619e-02
      1.3720706709039507e-01 -5.4740342580482590e-02
      -5.5542981433658989e-01 -1.9264775165604459e-01
      -6.2539561335433536e-02 -8.5408358182054028e-02
      3.2219989133977983e-01 3.7286919628839998e-01
      2.5078251134764879e-02 3.9745918076171372e-01
      7.1360286160656081e-02 -7.3742620938550233e-04
      8.3557960965793612e-02 -3.8500841737295377e-01
      -1.8297397519911263e-01 -2.6433283427063475e-01
      -3.1033155849696059e-01 -5.3348796343587211e-02
      -1.5490723453683175e-01 -8.1243792817833227e-02
      -4.1718702388876056e-01 8.9931524335208346e-03
      1.3780131114471514e-01 1.1580832959156397e-01
      -1.1696971142392834e-01 -3.7566254419946554e-01
      5.2292393202722942e-02 4.1348900561173418e-01
      -3.3029960971343739e-02 -3.9118174259195904e-01
      2.5802599262021014e-01 -2.1027067701719437e-01
      -1.8900534459173771e-01 -2.3435379859309182e-02
      3.4990563622121112e-01 6.8962125166567426e-02
      -1.1744585082057045e-01 8.4569763540287946e-02
      -1.6244814353409942e-01 1.2707282373926598e-01
      -9.6201526877439200e-02 -1.0268047046500554e-01
      8.6521025533742371e-02 2.4803936998197929e-01
      -9.8443856876542099e-02 1.2603645655747694e-01
      8.5950109250069795e-02 5.2955104919149898e-01
      -6.7584193624481786e-02 -3.2301394873316722e-02
      1.3657027855751170e-02 -5.3989406717619121e-02
      -3.0440619159069850e-02 1.5604129180381990e-01
      3.5181183238480773e-01 -6.0601259009451465e-02
      -5.3261416509686015e-02 6.7939815367965728e-02
      -1.5497836848865746e-02 4.4146943534238892e-01
      -1.9026325225227902e-02 -5.0282017482008645e-01
      -1.8606002060538047e-02 7.2476323851530605e-02
      -2.7752447938967001e-01 1.4136015267716312e-01
      -9.0338876989168107e-03 -2.0348620611649695e-01
      2.6087988794830808e-01 -6.5965319181939361e-02
      1.0284771019035384e-01 -2.9187130033012659e-01
      5.1727965288477042e-02 3.5725241537591192e-02
      1.9234909886004925e-01 -2.4397860040972748e-05
      1.1292678030747942e-01 7.2475454884252860e-02
      1.9052531630388513e-02 -1.0900738279000560e-01
      2.1161450812007362e-02 -8.1959761064327605e-02
      -1.3103139928649107e-01 1.6166483275152868e-01
      7.2551312336630508e-02 3.1588420710882796e-03
      -1.5707087736747172e-01 1.7312128473230060e-01
      -2.7760738397038482e-02 -3.1109257432422616e-01
      -4.7861345434285281e-02 -1.2875352509510549e-01
      -7.5572753087007408e-02 2.3741189705625526e-01
      -6.7804646553146677e-02 2.5620916928922294e-02
      1.4899062459253654e-01 1.4539891921440648e-01
      7.6113730923440107e-02 -2.9566376540392014e-01
      -3.9842208076908942e-02 5.4024110688948988e-02
      3.1299048840703381e-01 -4.6211716731614727e-02
      -1.2131060458771656e-01 1.0892395415461255e-01
      7.0899147042666177e-01 -2.8685566772453647e-01
      -5.1080039235421093e-01 1.9223136548388906e-01
      -4.5056704679230881e-03 -8.9297318578976811e-02
      -6.4732626895612863e-02 6.1136498994197382e-02
      1.6645256802371089e-01 -4.0008349241065277e-02
      -7.4610895682715068e-03 -2.2459912483143205e-01
      1.3798274460537465e-02 -2.6546633501813671e-01
      -1.1614846117309006e-01 -1.5179959009281192e-02
      6.1392464903417676e-01 8.0320097944393154e-02
      3.4465479241828911e-01 1.0110219931320941e-01
      2.4739679535306636e-02 -1.9225848966933165e-01
      1.6097623534939359e-01 3.6749112942569259e-02
      1.0152072601631114e-01 -2.0743096389726232e-01
      1.5547833603139593e-02 2.5049945255680034e-01
      -1.9497787626276381e-01 -5.2640366187111612e-02
      -6.3853435184941160e-02 -1.6871539412602540e-01
      2.6334168855929896e-01 -1.1726922592584800e-01
      -1.6997066490853249e-01 -7.4845347757594688e-02
      1.7990979264033324e-01 -4.1844914888892221e-01
      8.7433794515508565e-03 1.4598967958068271e-01
      4.0785182366162125e-02 1.2850549556649132e-01
      1.8726513769714359e-01 2.3907090579408027e-01
      2.4896434151747190e-01 -3.3718688679070630e-02
      -2.0167237284334280e-01 4.3541827656197546e-02
      -1.4102659452803545e-01 -6.8369776956548500e-02
      -4.7825474945284788e-02 -1.1038829545474728e-01
      6.6225444331903735e-02 7.1189473469901510e-02
      -4.6611276930342949e-01 1.9699660411051648e-01
      4.8759531229305590e-02 -3.2374843424329464e-01
      -2.5334721966066245e-02 4.7005498302836740e-01
      -4.2436619004700860e-01 1.1060981293903163e+00
      4.2984197193281323e-02 -4.5799009467419771e-02
      4.7629638251846662e-01 -2.8651743708333277e-01
      -7.1937767327067276e-02 -1.5791458333421962e-01
      -2.7514531922690454e-02 -3.6946012942194284e-01
      -5.8461190906262761e-01 -3.1897427441238946e-01
      1.0482250979954223e-01 3.7927158986136258e-02
      2.4281072812891116e-01 3.2867275949489606e-02
      -1.5559048762533542e-01 -1.0599609742707801e-03
      4.8609784251156682e-02 -3.4985207534755125e-01
      1.7458513716750357e-01 1.4555897754606134e-01
      -2.4320862694539092e-01 -1.9368365739066895e-01
      2.6543567953967659e-02 -1.6045585663125472e-01
      -1.0045035781913179e-01 -4.8339596554682670e-03
      1.9178272147731293e-01 -1.4671854426803568e-01
      3.6362681636025712e-01 1.7041222541496487e-01
      7.6484627695363336e-02 1.6498973395258842e-01
      -9.7522175002722894e-02 -2.5789871587360752e-01
      -2.5172356012888780e-01 2.7139750903454157e-01
      2.0647419021950419e-01 5.1474018214681762e-02
      -6.2842770387531249e-02 -2.5515058907411503e-01
      -6.3773944569070458e-03 -1.2261758294460440e-01
      -2.7663933248002946e-02 -2.0136050807678199e-03
      2.4711680712903017e-01 2.1311666308290189e-01
      -2.0742164965115256e-01 3.1250874785776810e-02
      7.2327657382515453e-02 1.0921115950780056e-02
      1.4639664896597776e-01 3.4182253055208410e-02
      -3.3594373127550273e-02 -6.1523719812800748e-02
      1.2217661869376364e-01 1.6513490097467676e-01
      -4.8354779626081520e-02 -7.9841663505020657e-02
      5.3821781276055585e-03 -5.3340968806626221e-01
      -1.2071349161080938e-01 -3.7480153394847138e-01
      9.3814001175925602e-02 8.7847531209078733e-02
      1.3635449761584495e-01 4.7968126077496592e-01
      -1.7973702042787687e-01 4.4569182640662403e-01
      -1.4656259972315649e-01 8.9306582346926150e-02
      1.0883203654201275e-01 -3.2582899307449664e-01
      -2.1737766870939829e-01 2.0212940535741095e-01
      -1.0398751553856300e-01 -9.7006557540258054e-02
      -4.5543232651397009e-02 -2.5687207259261036e-01
      5.6469454317560075e-01 -2.5772757722758755e-01
      -8.6797570676747759e-02 1.9536910836804008e-01
      -2.4966698800457054e-01 -3.3311778267953540e-01
      -1.3614188737200980e-01 -2.7314170843118907e-01
      -1.3573312285881067e-01 -1.7202982884390644e-01
      -2.1226594892467340e-01 2.4575509661820448e-02
      1.1014608710482718e-01 4.5044729428329106e-01
      2.6272703172360667e-01 -2.4260502390209174e-01
      2.8095687086177501e-01 1.0233251902648326e-01
      -5.3724934205412633e-01 4.1385914292607698e-02
      5.8219529066846694e-02 1.1584956558590180e-02
      -2.7872174150345069e-01 7.1927455790937442e-02
      -1.2489972955823428e-01 -5.2782059955927985e-03
      2.2590648691966833e-01 -2.4994031044964229e-01
      5.9105336194005306e-02 2.1320230601790885e-01
      1.8369525977246848e-01 6.9346313940059995e-02
      9.6785723741026966e-02 -5.2755386938383754e-02
      2.0338751127950760e-01 -2.6845813946202968e-01
      -1.2411922313257531e-01 1.5913533614640157e-01
      -1.7841200363302975e-01 -2.1626359165650225e-01
      -5.7080722005255193e-02 1.3425361195008055e-02
      -1.9225170979982503e-01 -2.0244353333764201e-01
      -4.7996811340166361e-02 3.8017136493963677e-01
      -1.1312919268528532e-01 -1.1112993575788260e-01
      -1.5721394805451205e-01 -1.7504521600640024e-01
      4.5667398043830930e-02 7.2953171903959890e-02
      -2.4140084874639978e-01 -8.9374224427156243e-02
      -8.7922290002606429e-02 7.5471223791549540e-04
      7.6558033031845843e-02 2.1128174301202610e-01
      6.8129517842172707e-02 4.0724133267686285e-02
      -5.2372327200090318e-01 -2.4945984384199298e-02
      -7.9543553311961335e-01 -4.2407102472655882e-02
      3.0120656937380006e-02 2.1573715257345338e-01
      5.7248770787929082e-01 -6.2558552148566954e-02
      8.8632112995595910e-02 -1.7129018328402604e-01
      -1.1862181628734651e-01 1.8593605009816064e-01
      3.7837466241510055e-02 -2.3778489847995504e-01
      4.0006815057687839e-01 1.8662931363258883e-01
      -2.2956881197483120e-01 -4.6767528817806175e-01
      5.7240833566043869e-02 -1.4801104125037845e-01
      -5.9453775660119179e-01 -1.4229536696791278e-01
      -1.0209957313432078e-01 -1.5470260107309423e-02
      1.5330951214847446e-01 -4.1462528060245115e-03
      -1.3362122517368405e-01 8.4096766368747022e-02
      4.7258720944441973e-01 1.0523240713133962e-01
      2.5180902066577426e-01 2.3489442122395024e-02
      2.3250141947000125e-01 3.8886785408128388e-01
      -6.7323033614988731e-02 3.0538577622740809e-01
      1.5267505833406544e-01 -2.2029296649517538e-01
      -2.6024489350675489e-01 -1.3507453544019149e-01
      2.3246269321840089e-02 -4.6110532095376508e-02
      1.3148385170768509e-01 -1.8094389911809264e-01
      -4.5700126852157096e-02 3.5261232909283807e-01
      -2.8498774361913248e-01 -3.8766377171786958e-03
      1.3312048030841456e-02 3.2172325039329000e-02
      -5.6053649145645361e-02 4.9779070434995777e-02
      -1.3352390961328503e-01 4.5126187569265891e-01
      -2.7159448384816161e-02 1.5176997235169265e-01
      2.2962174625942533e-01 -4.1103278702388624e-01
      -3.5583489468542773e-01 3.7028260018143966e-01
      1.6071411756781857e-02 -2.3218204545600168e-03
      -3.6639579235401759e-01 -1.6500558124591705e-01
      1.6233425220900613e-01 -3.5826438770552738e-01
      -1.1853720926823405e-01 -2.8327935968453699e-01
      -2.5424741236196019e-01 -2.1312419915958528e-01
      6.2550559925670718e-03 3.1854252004890982e-01
      -1.7453304886013746e-01 2.1076629701844558e-02
      -1.4312086820075459e-01 -1.1950130605435899e-01
      3.7693091984819183e-01 2.9263246933094994e-01
      -1.9090251150299366e-02 -3.4065325637438865e-01
      8.9045939703592161e-02 -2.5826629429075348e-01
      -1.6761924269991507e-01 -2.1583870507263972e-01
      7.2827535512178160e-02 2.7246612268117032e-01
      -2.3112951491167044e-01 -3.6203506384245249e-01
      -2.8338799984511148e-01 3.5923333097864973e-01
      -8.6192544823941980e-02 -6.0522474093810108e-01
      -1.1453214087846042e-01 -2.5545605594887866e-01
      -1.0496805994960678e-01 1.2012109514996719e-01
      8.6320332217773876e-01 -2.3217479552589612e-01
      5.6620235853135703e-01 2.8123976391072869e-01
      -1.1064888756448496e-01 3.1447199979355564e-02
      -3.6633423546717342e-01 2.4577067766005728e-01
      -3.3586424887752347e-01 1.4142367805058020e-02
      -1.9846629130892579e-01 -5.5547567121285481e-02
      -2.4167406351534532e-01 1.8160409705120176e-01
      1.3142924930883390e-01 1.3688698118810744e-01
      -2.1866633901556409e-01 8.9597395999396600e-03
      -2.9223012184665820e-02 9.3694356544230167e-02
      4.4182998203525746e-02 3.1226135698692564e-01
      -1.8098069452796806e-01 -9.5652606833006096e-02
      -2.3231019757424964e-01 9.5168314129573273e-02
      1.4867697792062260e-02 5.0098487414350176e-02
      -1.9281327890123327e-02 5.0441159356529187e-02
      -1.0205303330176529e-01 8.2069083160737591e-02
      1.6011317216317705e-01 2.3704529988592370e-02
      1.4202602544603279e-01 1.9299609906470813e-01
      -1.5530270192012724e-01 -1.4526643573523948e-01
      4.8988066924935092e-01 2.8394062680246240e-01
      5.5164582050846500e-01 3.6095186123352357e-02
      -1.2626312937559706e-01 -1.0602966734160255e-01
      -1.0760018242339738e-01 2.0389623527928574e-01
      8.4951542653644810e-02 2.0203041476518130e-01
      -1.9046455114218638e-02 -2.8799181035067581e-02
      9.3230030642886902e-02 6.9668182863258141e-02
      -1.8646430204304446e-01 1.6627458768458830e-01
      -4.5237642454794114e-01 -8.7107684040748534e-02
      1.4420194785446461e-01 -8.2986624120235872e-02
      2.2212937937521982e-01 -7.6263823731210018e-02
      -3.6076655095611998e-01 -1.0556171155681793e-01
      -3.4751545041322177e-02 6.4350020633802976e-02
      -7.1243917750864405e-01 -8.6762603307244876e-02
      2.8459069719716346e-01 1.5307386702706940e-01
      1.0191662389504620e-01 1.7566091677100165e-01
      1.7528865882729430e-01 1.9221566188296527e-01
      2.0318667340519742e-01 -1.1426897123808168e-01
      -6.1023844915388292e-01 -3.6169561486163443e-01
      -5.2139701739454675e-02 -7.7042944001949054e-02
      2.4875331717472271e-01 2.9295234540219139e-01
      7.4431873229948639e-02 4.3914240665499793e-01
      -8.2887140392450209e-02 -6.6295808434141998e-02
      2.3359098510680604e-01 -3.9235223723424806e-01
      -6.4034916449700233e-02 -4.3243003690991183e-01
      -1.1037075529353181e-01 -5.4956894045552596e-02
      -3.3833928921834072e-01 -1.5752021079140174e-01
      -2.4134679786760488e-01 1.1783600664256187e-01
      3.7630721031443853e-02 8.9134020635193448e-02
      -2.8336025996158326e-01 -7.4849950624636152e-01
      1.2716184012480486e-01 4.5968776350847890e-01
      -2.6055498815815710e-02 -3.7385504116906104e-01
      2.3638308252062495e-01 -3.3874631704150576e-01
      -3.4224566258312598e-02 6.3946396677245637e-02
      6.4277334866203337e-02 9.9904964295522966e-02
      -1.7668501453376176e-01 8.0667439969199797e-02
      -2.0163759401822740e-01 1.8621331071597641e-01
      8.0989952844146510e-03 -2.2661220937425991e-01
      1.7474542632989248e-01 1.2198813658815694e-01
      -8.4843264876706560e-03 -1.2212192523532438e-01
      1.8289290610729508e-01 7.4099194975275517e-01
      -8.6609975223494909e-02 5.7477662863759223e-02
      7.2295981202079251e-02 -1.1920997896399543e-01
      -9.7118743010598391e-03 1.5601186088986702e-01
      4.0708933231978406e-01 -1.1782709751804518e-01
      7.5782457021088503e-02 2.2146754131803441e-02
      -1.1029093423996411e-01 4.7959851123821273e-01
      3.1094230272097487e-02 -7.4963577040815799e-01
      -1.2466403502684871e-01 2.1415902689812466e-01
      -2.7649983604603845e-01 1.7826843782774859e-01
      8.2524400113101540e-02 -3.4952994327725839e-01
      7.7995879474126797e-02 -6.6491802601451946e-02
      1.7065571881927577e-01 -5.2727511418458384e-01
      2.9464633997545787e-03 1.9570355313499373e-02
      3.2088747377424831e-01 -1.3502385815709883e-01
      8.2905322305459245e-02 1.2849358403832364e-01
      8.4221946355336530e-02 -5.9242030701744830e-02
      -2.7047421682669170e-02 1.2163399328612825e-02
      -2.5891082930567333e-01 1.4989866095279886e-01
      1.9321147952975889e-01 5.6850981317548017e-02
      -2.7000843602509467e-01 3.6683599140350570e-01
      -2.0423013689165923e-01 -3.8421836681393667e-01
      -1.6176904779921761e-01 -1.5594948811684661e-01
      -1.1055515152074064e-02 3.0181135785696983e-01
      -1.7436862592094246e-01 1.5216970492274737e-01
      2.5553755286482016e-01 1.8020719423211279e-01
      1.3287174435467550e-01 -9.1385769788429883e-02
      4.4893643906304931e-02 -1.5971378519732132e-01
      3.7024467843786496e-01 -5.7512366319671861e-02
      -3.5248625309146020e-01 2.4288241813960817e-01
      9.2149929083297732e-01 -2.3642075745729732e-01
      -4.6375966045575751e-01 2.3875324287795391e-01
      -1.2208056099569327e-01 -7.6354026753950019e-02
      -2.2527972382739295e-02 -1.6805250977440808e-01
      2.8688532981678605e-01 -4.8559622194225251e-02
      1.9458707385469398e-02 -3.7359565346307666e-01
      2.3438446196478303e-03 -1.8042269134100825e-01
      -3.1074775130095372e-01 3.8590271309801645e-02
      4.5963412206567206e-01 1.8543114529122243e-01
      8.5239115575893670e-02 2.6481900761297805e-01
      1.3534414172886364e-01 -2.5361729186627863e-01
      1.1726221555391933e-01 1.4418146629677286e-01
      1.2016652468983488e-01 -1.9235151118036478e-01
      -4.2805821389722984e-02 2.1401358292899722e-01
      -1.9144737376633741e-01 2.4678254733894556e-02
      -1.4878352525791025e-01 -3.1728100645058527e-01
      2.5863149258223661e-01 -6.3429501618536832e-02
      -3.4517863680528232e-01 -2.3273169272616731e-01
      2.8745690221210390e-01 -4.3633178702558345e-01
      -4.2933570937483498e-02 2.0040497588187958e-01
      -7.2113845698796405e-02 3.1922313710619689e-02
      2.0350467988727211e-01 3.1762731841926178e-01
      1.7345055977078694e-01 -1.1573235649008140e-01
      -1.5489063234726769e-01 9.6599147461082613e-02
      -4.0406569835177564e-01 -1.1733069963847757e-01
      -1.4621796615126945e-01 -5.0462230073796410e-02
      1.0413008603093901e-01 -5.3349982353030803e-02
      -2.4891693447528265e-01 1.7359229644395638e-01
      -1.3362210451103626e-01 -2.1732925646096726e-01
      9.2333383512631009e-03 1.5116234213654384e-01
      -4.4205018728880102e-01 5.8348515530633538e-01
      1.2013724648211044e-01 -1.5472259499405192e-01
      6.2403138235412314e-01 -3.2396742956171365e-01
      -2.9442262031599048e-01 -1.2385701570166506e-01
      -1.2960416663256782e-01 -3.0149995446298467e-01
      -9.3467898831477228e-02 -3.0960467219482346e-01
      2.3068768198936879e-01 -2.6466435238021124e-02
      -3.5341317378166988e-02 -1.3295590941288893e-01
      5.0474351839269953e-02 -1.2243759990925222e-01
      2.0142099794552248e-01 -2.0755695125769150e-01
      1.4763255532382644e-01 3.7275717391587576e-01
      -1.1724769745201130e-01 -2.1492783403240664e-01
      4.3918724584700468e-02 3.9588302758910392e-02
      1.3303663762816600e-01 1.3239384313175129e-01
      3.8626971431383078e-02 -1.7898940459092464e-02
      2.1260263956656156e-01 2.4139168547387249e-02
      -7.3073583549857948e-02 1.0981525566203564e-01
      7.9658438184054464e-02 -4.8709726508663220e-01
      1.7108077774440583e-01 2.1692752612726868e-01
      2.4112137633104228e-01 1.9478225185613257e-01
      -2.1377363016386229e-02 -3.6516817299568943e-01
      1.2959306614267377e-01 -2.4710680507406091e-01
      -4.3242926720744174e-02 -2.0477443950334986e-01
      9.8144692731273506e-02 2.3434669387328122e-01
      -1.0748942791543575e-02 -2.2303938814899518e-02
      -2.5961896243826027e-02 -1.2510899655333590e-01
      -1.0317221923406342e-02 1.3623411011347047e-01
      -1.2977904292774889e-01 -4.0813932998494222e-02
      9.7222202619850082e-02 -7.3325543912249307e-03
      -9.6847222429325239e-02 -1.4824461732186869e-01
      3.2766750920920594e-02 -4.9832941658900370e-01
      -5.9201581170928122e-02 -1.4190144546817099e-01
      -8.4950781051220614e-02 1.7044753369770005e-01
      6.4003697742409785e-02 2.4846254548333679e-01
      -3.4993333252344566e-01 3.9662414062914769e-01
      2.7859890849154457e-02 -4.2548893279233835e-02
      6.1731127450718071e-02 1.3827583436552857e-01
      -2.5852404847155810e-02 1.2638694706062073e-01
      -1.1177922528228136e-01 -1.4341959245645508e-01
      -6.5301635579760364e-01 -3.1494157111717092e-01
      -2.0039116741905857e-01 -3.0019190232006870e-01
      -2.7106956287351108e-01 -5.1621825323644767e-02
      -2.2342200682454127e-01 -2.5873898869668938e-01
      1.2527601322278982e-02 -3.7695344062920799e-01
      -1.3418140988754512e-01 3.7144262155596114e-01
      -1.3016288327695072e-01 2.3523097281930364e-01
      6.3575828557119976e-02 3.7809837264897242e-02
      1.8137316414062760e-01 -1.2510797376222114e-03
      2.3925103195619113e-01 2.8593941164537762e-01
      -1.7536226447395517e-01 -8.1935591535049090e-02
      8.4756387128996372e-02 3.9298378360349108e-03
      -1.0494545089509012e-01 9.8808428100022938e-02
      -1.4980189937913339e-02 1.3947358790321485e-01
